{"learner":{"attributes":{"scikit_learn":"{\"_estimator_type\": \"regressor\"}"},"feature_names":["trig_ma60_bias","trig_pos_in_20d","trig_dist_from_high","trig_dist_from_low","trig_vol_change","trig_break_above","trig_break_below","trig_price_trend_10d","trend_dir_ord","trend_phase_ord","trend_short_dir_ord","trend_ma_slope","trend_ret_5d","trend_ma_alignment","tech_rsi14","tech_macd_hist","tech_ma60_bias","tech_volatility_20","tech_momentum_20","tech_vol_ratio"],"feature_types":["float","float","float","float","float","float","float","float","float","float","float","float","float","float","float","float","float","float","float","float"],"gradient_booster":{"model":{"cats":{"enc":[],"feature_segments":[],"sorted_idx":[]},"gbtree_model_param":{"num_parallel_tree":"1","num_trees":"74"},"iteration_indptr":[0,1,2,3,4,5,6,7,8,9,10,11,12,13,14,15,16,17,18,19,20,21,22,23,24,25,26,27,28,29,30,31,32,33,34,35,36,37,38,39,40,41,42,43,44,45,46,47,48,49,50,51,52,53,54,55,56,57,58,59,60,61,62,63,64,65,66,67,68,69,70,71,72,73,74],"tree_info":[0,0,0,0,0,0,0,0,0,0,0,0,0,0,0,0,0,0,0,0,0,0,0,0,0,0,0,0,0,0,0,0,0,0,0,0,0,0,0,0,0,0,0,0,0,0,0,0,0,0,0,0,0,0,0,0,0,0,0,0,0,0,0,0,0,0,0,0,0,0,0,0,0,0],"trees":[{"base_weights":[-0E0,4.866946E-4,-1.7517591E-4,-2.833312E-3,3.4146865E-3,-0E0,-3.975146E-3,8.806631E-3,-0E0,-1.5683961E-4,-0E0,-0E0,3.2949736E-4,1.7025368E-6,-2.1537473E-4],"categories":[],"categories_nodes":[],"categories_segments":[],"categories_sizes":[],"default_left":[0,0,0,0,0,0,0,0,0,0,0,0,0,0,0],"id":0,"left_children":[1,-1,3,5,7,-1,9,11,13,-1,-1,-1,-1,-1,-1],"loss_changes":[2.6446418E-3,0E0,3.8534724E-3,1.6327347E-3,3.97093E-3,0E0,1.4394848E-3,1.8175221E-3,1.0825171E-3,0E0,0E0,0E0,0E0,0E0,0E0],"parents":[2147483647,0,0,2,2,3,3,4,4,6,6,7,7,8,8],"right_children":[2,-1,4,6,8,-1,10,12,14,-1,-1,-1,-1,-1,-1],"split_conditions":[-2.3307566E-2,4.866946E-4,-1.0041333E-3,-5.8524173E-2,2E0,-0E0,-3.7950664E-3,-4.0145986E-2,3.5714287E-2,-1.5683961E-4,-0E0,-0E0,3.2949736E-4,1.7025368E-6,-2.1537473E-4],"split_indices":[11,0,0,7,8,0,18,7,7,0,0,0,0,0,0],"split_type":[0,0,0,0,0,0,0,0,0,0,0,0,0,0,0],"sum_hessian":[4.23E2,9E0,4.14E2,2.7E2,1.44E2,3E1,2.4E2,7.2E1,7.2E1,1.91E2,4.9E1,1.1E1,6.1E1,5.2E1,2E1],"tree_param":{"num_deleted":"0","num_feature":"20","num_nodes":"15","size_leaf_vector":"1"}},{"base_weights":[-0E0,6.496015E-3,-1.2427095E-3,1.1413539E-2,-0E0,-2.7019347E-4,-1.1806319E-2,-0E0,1.7515257E-2,-2.5726142E-3,6.415124E-3,-4.8271808E-4,-0E0,-0E0,6.2809285E-4,-9.912999E-5,-0E0,4.958386E-4,-0E0],"categories":[],"categories_nodes":[],"categories_segments":[],"categories_sizes":[],"default_left":[0,0,0,0,0,0,0,0,0,0,0,0,0,0,0,0,0,0,0],"id":1,"left_children":[1,3,5,7,-1,9,11,-1,13,15,17,-1,-1,-1,-1,-1,-1,-1,-1],"loss_changes":[2.3046162E-3,1.787133E-3,1.4031674E-3,2.0048565E-3,0E0,4.773878E-3,3.7871907E-4,0E0,1.7622719E-4,1.0068695E-3,3.1290432E-3,0E0,0E0,0E0,0E0,0E0,0E0,0E0,0E0],"parents":[2147483647,0,0,1,1,2,2,3,3,5,5,6,6,8,8,9,9,10,10],"right_children":[2,4,6,8,-1,10,12,-1,14,16,18,-1,-1,-1,-1,-1,-1,-1,-1],"split_conditions":[-9.3234636E-2,-4.715447E-2,1.2051095E-1,-6.9364333E-3,-0E0,3.7410073E-2,1.2210373E-2,-0E0,-8.055958E-3,1E0,2E0,-4.8271808E-4,-0E0,-0E0,6.2809285E-4,-9.912999E-5,-0E0,4.958386E-4,-0E0],"split_indices":[16,7,16,4,0,18,4,0,15,6,8,0,0,0,0,0,0,0,0],"split_type":[0,0,0,0,0,0,0,0,0,0,0,0,0,0,0,0,0,0,0],"sum_hessian":[4.11E2,4E1,3.71E2,2.6E1,1.4E1,3.58E2,1.3E1,9E0,1.7E1,2.89E2,6.9E1,8E0,5E0,5E0,1.2E1,2.67E2,2.2E1,2.1E1,4.8E1],"tree_param":{"num_deleted":"0","num_feature":"20","num_nodes":"19","size_leaf_vector":"1"}},{"base_weights":[-0E0,7.1104127E-4,-7.415071E-4,-0E0,-1.087541E-2,-1.5734888E-3,6.952865E-3,-0E0,-5.1168073E-4,-0E0,-1.0165526E-4,-0E0,3.874108E-4],"categories":[],"categories_nodes":[],"categories_segments":[],"categories_sizes":[],"default_left":[0,0,0,0,0,0,0,0,0,0,0,0,0],"id":2,"left_children":[1,-1,3,5,7,9,11,-1,-1,-1,-1,-1,-1],"loss_changes":[7.5271493E-3,0E0,2.141159E-3,3.8093093E-3,8.3449716E-4,1.5876521E-3,2.50597E-3,0E0,0E0,0E0,0E0,0E0,0E0],"parents":[2147483647,0,0,2,2,3,3,4,4,5,5,6,6],"right_children":[2,-1,4,6,8,10,12,-1,-1,-1,-1,-1,-1],"split_conditions":[-2.3004694E-2,7.1104127E-4,1.0912982E-1,3.949447E-2,4.9689442E-2,-3.1901123E-3,2.2823198E-1,-0E0,-5.1168073E-4,-0E0,-1.0165526E-4,-0E0,3.874108E-4],"split_indices":[11,0,0,18,7,15,17,0,0,0,0,0,0],"split_type":[0,0,0,0,0,0,0,0,0,0,0,0,0],"sum_hessian":[4.19E2,1.2E1,4.07E2,3.88E2,1.9E1,3.27E2,6.1E1,9E0,1E1,1.19E2,2.08E2,2.9E1,3.2E1],"tree_param":{"num_deleted":"0","num_feature":"20","num_nodes":"13","size_leaf_vector":"1"}},{"base_weights":[-0E0,8.510914E-3,-1.1673457E-3,-0E0,4.2065652E-4,-3.4314606E-3,1.3529604E-3,-0E0,-5.183203E-3,6.029431E-3,-2.2997742E-3,1.4421095E-4,-1.1205871E-4,-0E0,-1.9623784E-4,-0E0,2.5047202E-4,-0E0,-1.6734414E-4],"categories":[],"categories_nodes":[],"categories_segments":[],"categories_sizes":[],"default_left":[0,0,0,0,0,0,0,0,0,0,0,0,0,0,0,0,0,0,0],"id":3,"left_children":[1,3,5,-1,-1,7,9,11,13,15,17,-1,-1,-1,-1,-1,-1,-1,-1],"loss_changes":[3.3550789E-3,2.2869546E-3,2.6400788E-3,0E0,0E0,1.9005355E-3,3.20251E-3,1.342874E-3,1.1813925E-3,2.0652183E-3,1.2543107E-3,0E0,0E0,0E0,0E0,0E0,0E0,0E0,0E0],"parents":[2147483647,0,0,1,1,2,2,5,5,6,6,7,7,8,8,9,9,10,10],"right_children":[2,4,6,-1,-1,8,10,12,14,16,18,-1,-1,-1,-1,-1,-1,-1,-1],"split_conditions":[-4.0515654E-2,9.7413653E-1,6.249219E-4,-0E0,4.2065652E-4,-1.6770024E-2,5.093593E-2,-2.3431703E-3,-1.0223824E-1,8.3198875E-1,7.7369374E-1,1.4421095E-4,-1.1205871E-4,-0E0,-1.9623784E-4,-0E0,2.5047202E-4,-0E0,-1.6734414E-4],"split_indices":[12,19,11,0,0,11,0,15,4,19,19,0,0,0,0,0,0,0,0],"split_type":[0,0,0,0,0,0,0,0,0,0,0,0,0,0,0,0,0,0,0],"sum_hessian":[4.26E2,3.8E1,3.88E2,1.3E1,2.5E1,2.46E2,1.42E2,6.8E1,1.78E2,8.6E1,5.6E1,3.9E1,2.9E1,3.9E1,1.39E2,1.2E1,7.4E1,7E0,4.9E1],"tree_param":{"num_deleted":"0","num_feature":"20","num_nodes":"19","size_leaf_vector":"1"}},{"base_weights":[-0E0,7.0596824E-4,-4.5670458E-4,-2.9821189E-3,2.949048E-3,-0E0,-4.031432E-3,5.386421E-3,-2.2599744E-3,2.6585474E-5,-0E0,-1.410713E-4,-0E0,-0E0,3.8476236E-4,-2.2218624E-4,-0E0],"categories":[],"categories_nodes":[],"categories_segments":[],"categories_sizes":[],"default_left":[0,0,0,0,0,0,0,0,0,0,0,0,0,0,0,0,0],"id":4,"left_children":[1,-1,3,5,7,9,11,13,15,-1,-1,-1,-1,-1,-1,-1,-1],"loss_changes":[5.628411E-3,0E0,3.7568158E-3,1.4237226E-3,2.5673048E-3,2.277426E-5,1.1364953E-3,4.4528013E-3,8.698624E-4,0E0,0E0,0E0,0E0,0E0,0E0,0E0,0E0],"parents":[2147483647,0,0,2,2,3,3,4,4,5,5,6,6,7,7,8,8],"right_children":[2,-1,4,6,8,10,12,14,16,-1,-1,-1,-1,-1,-1,-1,-1],"split_conditions":[-2.3307566E-2,7.0596824E-4,1.2217968E-3,2.9715935E1,1.042737E-1,-7.1117565E-2,2.701463E-1,2.1965313E-1,2.9147065E-1,2.6585474E-5,-0E0,-1.410713E-4,-0E0,-0E0,3.8476236E-4,-2.2218624E-4,-0E0],"split_indices":[11,0,11,14,16,18,17,17,4,0,0,0,0,0,0,0,0],"split_type":[0,0,0,0,0,0,0,0,0,0,0,0,0,0,0,0,0],"sum_hessian":[4.43E2,9E0,4.34E2,2.83E2,1.51E2,4.1E1,2.42E2,1.29E2,2.2E1,2.8E1,1.3E1,2.29E2,1.3E1,8E1,4.9E1,1.7E1,5E0],"tree_param":{"num_deleted":"0","num_feature":"20","num_nodes":"17","size_leaf_vector":"1"}},{"base_weights":[-1.6177257E-3,-4.7665223E-4,-1.4586523E-2,-2.1460736E-3,5.931762E-3,-0E0,-5.421045E-4,3.490915E-3,-4.12E-3,1.0506157E-2,-0E0,3.2833702E-4,-0E0,-0E0,-1.7268152E-4,-0E0,4.0898018E-4],"categories":[],"categories_nodes":[],"categories_segments":[],"categories_sizes":[],"default_left":[0,0,0,0,0,0,0,0,0,0,0,0,0,0,0,0,0],"id":5,"left_children":[1,3,5,7,9,-1,-1,11,13,15,-1,-1,-1,-1,-1,-1,-1],"loss_changes":[3.2401145E-3,3.577723E-3,6.426214E-4,3.9901417E-3,1.3457972E-3,0E0,0E0,2.2146537E-3,1.5244796E-3,1.2244852E-3,0E0,0E0,0E0,0E0,0E0,0E0,0E0],"parents":[2147483647,0,0,1,1,2,2,3,3,4,4,7,7,8,8,9,9],"right_children":[2,4,6,8,10,-1,-1,12,14,16,-1,-1,-1,-1,-1,-1,-1],"split_conditions":[1.042737E-1,3.6624204E-2,7.843114E-1,-4.715447E-2,6.160791E1,-0E0,-5.421045E-4,-9.3234636E-2,-2.843484E-3,-2.2414094E-1,-0E0,3.2833702E-4,-0E0,-0E0,-1.7268152E-4,-0E0,4.0898018E-4],"split_indices":[0,18,19,7,14,0,0,0,15,4,0,0,0,0,0,0,0],"split_type":[0,0,0,0,0,0,0,0,0,0,0,0,0,0,0,0,0],"sum_hessian":[4.22E2,4.03E2,1.9E1,3.45E2,5.8E1,5E0,1.4E1,6.3E1,2.82E2,3E1,2.8E1,2.4E1,3.9E1,9.2E1,1.9E2,6E0,2.4E1],"tree_param":{"num_deleted":"0","num_feature":"20","num_nodes":"17","size_leaf_vector":"1"}},{"base_weights":[-0E0,1.4738935E-2,-5.41448E-4,6.396856E-4,-0E0,-2.4899428E-3,8.672894E-3,-3.4926762E-3,2.805624E-3,1.2762751E-2,-0E0,-2.7050248E-5,-2.3065577E-4,-0E0,2.966958E-4,4.4475362E-4,-0E0],"categories":[],"categories_nodes":[],"categories_segments":[],"categories_sizes":[],"default_left":[0,0,0,0,0,0,0,0,0,0,0,0,0,0,0,0,0],"id":6,"left_children":[1,3,5,-1,-1,7,9,11,13,15,-1,-1,-1,-1,-1,-1,-1],"loss_changes":[4.680692E-3,1.3486724E-3,6.056415E-3,0E0,0E0,2.0216536E-3,3.5062279E-3,1.8517356E-3,1.3681613E-3,1.5183133E-3,0E0,0E0,0E0,0E0,0E0,0E0,0E0],"parents":[2147483647,0,0,1,1,2,2,5,5,6,6,7,7,8,8,9,9],"right_children":[2,4,6,-1,-1,8,10,12,14,16,-1,-1,-1,-1,-1,-1,-1],"split_conditions":[2.6058428E1,-4.141414E-2,2.607642E-1,6.396856E-4,-0E0,1E0,1.4901553E-2,2.1086551E-1,-7.6378537E-3,1.8250951E-1,-0E0,-2.7050248E-5,-2.3065577E-4,-0E0,2.966958E-4,4.4475362E-4,-0E0],"split_indices":[14,12,17,0,0,5,15,17,11,18,0,0,0,0,0,0,0],"split_type":[0,0,0,0,0,0,0,0,0,0,0,0,0,0,0,0,0],"sum_hessian":[4.24E2,2E1,4.04E2,1.2E1,8E0,3.52E2,5.2E1,3.28E2,2.4E1,4.5E1,7E0,2.33E2,9.5E1,9E0,1.5E1,4E1,5E0],"tree_param":{"num_deleted":"0","num_feature":"20","num_nodes":"17","size_leaf_vector":"1"}},{"base_weights":[-0E0,-1.4435295E-3,5.359687E-3,9.559274E-4,-2.8696714E-3,-0E0,1.5867885E-2,-0E0,3.7211208E-3,-5.83236E-4,-8.996946E-3,1.9076572E-3,-2.211148E-4,-0E0,2.6188428E-2,1.5160105E-4,-0E0,-1.3444E-4,3.158052E-5,-3.0951467E-4,-0E0,-0E0,2.3107183E-4,-0E0,1.0513902E-3],"categories":[],"categories_nodes":[],"categories_segments":[],"categories_sizes":[],"default_left":[0,0,0,0,0,0,0,0,0,0,0,0,0,0,0,0,0,0,0,0,0,0,0,0,0],"id":7,"left_children":[1,3,5,7,9,11,13,-1,15,17,19,21,-1,-1,23,-1,-1,-1,-1,-1,-1,-1,-1,-1,-1],"loss_changes":[3.580662E-3,1.501053E-3,6.1630816E-3,6.283712E-4,1.6791879E-3,1.1054688E-3,5.3380746E-3,0E0,4.0573376E-4,2.0423662E-3,5.342767E-4,1.0639067E-3,0E0,0E0,5.2494295E-3,0E0,0E0,0E0,0E0,0E0,0E0,0E0,0E0,0E0,0E0],"parents":[2147483647,0,0,1,1,2,2,3,3,4,4,5,5,6,6,8,8,9,9,10,10,11,11,14,14],"right_children":[2,4,6,8,10,12,14,-1,16,18,20,22,-1,-1,24,-1,-1,-1,-1,-1,-1,-1,-1,-1,-1],"split_conditions":[2.3021238E-1,-1.567496E-2,3.39581E-2,-2.02197E-2,1.1292651E0,2.3890786E-2,9.34641E-1,-0E0,2.0554216E-1,1.6214958E-1,5.2573723E-3,8.442193E-3,-2.211148E-4,-0E0,-6.394939E-3,1.5160105E-4,-0E0,-1.3444E-4,3.158052E-5,-3.0951467E-4,-0E0,-0E0,2.3107183E-4,-0E0,1.0513902E-3],"split_indices":[17,11,4,11,19,12,19,0,17,17,15,11,0,0,15,0,0,0,0,0,0,0,0,0,0],"split_type":[0,0,0,0,0,0,0,0,0,0,0,0,0,0,0,0,0,0,0,0,0,0,0,0,0],"sum_hessian":[4.25E2,3.25E2,1E2,6.9E1,2.56E2,6.5E1,3.5E1,2E1,4.9E1,2.11E2,4.5E1,4.9E1,1.6E1,1.5E1,2E1,4.2E1,7E0,9.8E1,1.13E2,3.9E1,6E0,2.9E1,2E1,5E0,1.5E1],"tree_param":{"num_deleted":"0","num_feature":"20","num_nodes":"25","size_leaf_vector":"1"}},{"base_weights":[2.9573272E-5,-8.486098E-4,4.4020326E-3,3.997182E-4,-2.481947E-3,-0E0,7.962589E-3,4.643953E-3,-0E0,-5.198466E-3,-0E0,-1.8542525E-5,-0E0,9.612013E-3,-0E0,-0E0,1.8128587E-4,6.421549E-5,-6.4075415E-5,-0E0,-1.9322206E-4,1.15803894E-4,-3.3763823E-5,2.4726927E-5,6.256594E-4],"categories":[],"categories_nodes":[],"categories_segments":[],"categories_sizes":[],"default_left":[0,0,0,0,0,0,0,0,0,0,0,0,0,0,0,0,0,0,0,0,0,0,0,0,0],"id":8,"left_children":[1,3,5,7,9,11,13,15,17,19,21,-1,-1,23,-1,-1,-1,-1,-1,-1,-1,-1,-1,-1,-1],"loss_changes":[2.338664E-3,1.0597041E-3,2.83323E-3,5.4314855E-4,1.5955766E-3,9.5507E-6,1.799108E-3,2.0611618E-4,3.928177E-4,1.2007921E-3,5.518517E-4,0E0,0E0,2.859571E-3,0E0,0E0,0E0,0E0,0E0,0E0,0E0,0E0,0E0,0E0,0E0],"parents":[2147483647,0,0,1,1,2,2,3,3,4,4,5,5,6,6,7,7,8,8,9,9,10,10,13,13],"right_children":[2,4,6,8,10,12,14,16,18,20,22,-1,-1,24,-1,-1,-1,-1,-1,-1,-1,-1,-1,-1,-1],"split_conditions":[2.2899012E-1,-2.843484E-3,8.9651513E-1,8.125E-1,-1.674107E-2,6.709265E-2,2.2389595E-1,-1.983471E-2,-7.599119E-2,-9.814423E-2,4.285714E-3,-1.8542525E-5,-0E0,2.5267111E-2,-0E0,-0E0,1.8128587E-4,6.421549E-5,-6.4075415E-5,-0E0,-1.9322206E-4,1.15803894E-4,-3.3763823E-5,2.4726927E-5,6.256594E-4],"split_indices":[17,15,19,2,18,12,4,12,18,0,18,0,0,4,0,0,0,0,0,0,0,0,0,0,0],"split_type":[0,0,0,0,0,0,0,0,0,0,0,0,0,0,0,0,0,0,0,0,0,0,0,0,0],"sum_hessian":[4.22E2,3.14E2,1.08E2,1.09E2,2.05E2,3.1E1,7.7E1,2.5E1,8.4E1,1.05E2,1E2,2.4E1,7E0,7.2E1,5E0,5E0,2E1,2.4E1,6E1,8E0,9.7E1,3E1,7E1,5.1E1,2.1E1],"tree_param":{"num_deleted":"0","num_feature":"20","num_nodes":"25","size_leaf_vector":"1"}},{"base_weights":[-2.7791192E-4,-2.2264877E-3,2.0957354E-3,5.1585147E-3,-4.2394414E-3,-0E0,1.6600307E-2,1.1159998E-2,-0E0,-0E0,-5.147403E-3,1.5848402E-3,-6.3416488E-3,-0E0,7.4300845E-4,-0E0,5.4457673E-4,-0E0,-1.8072258E-4,-0E0,7.032777E-5,-0E0,-2.7173784E-4],"categories":[],"categories_nodes":[],"categories_segments":[],"categories_sizes":[],"default_left":[0,0,0,0,0,0,0,0,0,0,0,0,0,0,0,0,0,0,0,0,0,0,0],"id":9,"left_children":[1,3,5,7,9,11,13,15,-1,-1,17,19,21,-1,-1,-1,-1,-1,-1,-1,-1,-1,-1],"loss_changes":[2.0289167E-3,4.059904E-3,4.030269E-3,1.800137E-3,1.5052031E-3,1.2037805E-3,2.225209E-4,4.306049E-4,0E0,0E0,8.050236E-4,2.652587E-4,5.5184937E-4,0E0,0E0,0E0,0E0,0E0,0E0,0E0,0E0,0E0,0E0],"parents":[2147483647,0,0,1,1,2,2,3,3,4,4,5,5,6,6,7,7,10,10,11,11,12,12],"right_children":[2,4,6,8,10,12,14,16,-1,-1,18,20,22,-1,-1,-1,-1,-1,-1,-1,-1,-1,-1],"split_conditions":[6.249219E-4,-9.368118E-2,1E0,-2.390091E-3,-1.0820146E-2,5.6229327E-2,3.6624204E-2,2.313394E-1,-0E0,-0E0,-1.8072288E-2,-6.316968E-3,8.469791E-3,-0E0,7.4300845E-4,-0E0,5.4457673E-4,-0E0,-1.8072258E-4,-0E0,7.032777E-5,-0E0,-2.7173784E-4],"split_indices":[11,0,5,15,15,7,18,17,0,0,11,15,11,0,0,0,0,0,0,0,0,0,0],"split_type":[0,0,0,0,0,0,0,0,0,0,0,0,0,0,0,0,0,0,0,0,0,0,0],"sum_hessian":[4.31E2,2.83E2,1.48E2,3.9E1,2.44E2,1.32E2,1.6E1,2.2E1,1.7E1,2.2E1,2.22E2,1.1E2,2.2E1,9E0,7E0,1.3E1,9E0,3.8E1,1.84E2,1.2E1,9.8E1,5E0,1.7E1],"tree_param":{"num_deleted":"0","num_feature":"20","num_nodes":"23","size_leaf_vector":"1"}},{"base_weights":[-0E0,-1.087458E-3,1.2351739E-2,3.6788573E-3,-2.1212492E-3,8.196955E-5,7.582701E-4,-0E0,3.4889282E-4,-0E0,-3.235989E-3,3.0521061E-3,-0E0,-0E0,3.9833194E-5,-1.4740347E-4,-0E0,1.474706E-4,-0E0],"categories":[],"categories_nodes":[],"categories_segments":[],"categories_sizes":[],"default_left":[0,0,0,0,0,0,0,0,0,0,0,0,0,0,0,0,0,0,0],"id":10,"left_children":[1,3,5,7,9,11,-1,-1,-1,13,15,17,-1,-1,-1,-1,-1,-1,-1],"loss_changes":[7.032158E-3,1.6623049E-3,1.7450675E-3,1.392761E-3,1.1625332E-3,2.4199086E-4,0E0,0E0,0E0,1.16356794E-4,1.066793E-3,2.6524434E-4,0E0,0E0,0E0,0E0,0E0,0E0,0E0],"parents":[2147483647,0,0,1,1,2,2,3,3,4,4,5,5,9,9,10,10,11,11],"right_children":[2,4,6,8,10,12,-1,-1,-1,14,16,18,-1,-1,-1,-1,-1,-1,-1],"split_conditions":[1.9024855E-1,-9.368118E-2,2.2899012E-1,-6.9364333E-3,-1.1417546E-1,1.9858155E-2,7.582701E-4,-0E0,3.4889282E-4,-2.1316141E-1,1.3915504E-3,1.0660259E0,-0E0,-0E0,3.9833194E-5,-1.4740347E-4,-0E0,1.474706E-4,-0E0],"split_indices":[4,16,17,4,4,7,0,0,0,4,15,19,0,0,0,0,0,0,0],"split_type":[0,0,0,0,0,0,0,0,0,0,0,0,0,0,0,0,0,0,0],"sum_hessian":[4.4E2,3.98E2,4.2E1,3.6E1,3.62E2,3E1,1.2E1,2.3E1,1.3E1,9.6E1,2.66E2,2.5E1,5E0,3.1E1,6.5E1,1.59E2,1.07E2,2E1,5E0],"tree_param":{"num_deleted":"0","num_feature":"20","num_nodes":"19","size_leaf_vector":"1"}},{"base_weights":[4.818606E-4,6.135537E-4,-0E0,5.0853253E-3,-8.470004E-4,-0E0,1.1413568E-2,8.908714E-5,-1.964477E-3,-0E0,7.351082E-4,-9.747022E-5,-0E0],"categories":[],"categories_nodes":[],"categories_segments":[],"categories_sizes":[],"default_left":[0,0,0,0,0,0,0,0,0,0,0,0,0],"id":11,"left_children":[1,-1,3,5,7,-1,9,-1,11,-1,-1,-1,-1],"loss_changes":[4.0877913E-3,0E0,1.6956961E-3,1.5480092E-3,1.2762152E-3,0E0,1.2067885E-3,0E0,1.0809264E-3,0E0,0E0,0E0,0E0],"parents":[2147483647,0,0,2,2,3,3,4,4,6,6,8,8],"right_children":[2,-1,4,6,8,-1,10,-1,12,-1,-1,-1,-1],"split_conditions":[-2.3307566E-2,6.135537E-4,8.82353E-2,7.348041E-2,-3.828306E-2,-0E0,4.600219E-2,8.908714E-5,1.2217968E-3,-0E0,7.351082E-4,-9.747022E-5,-0E0],"split_indices":[11,0,2,4,12,0,12,0,11,0,0,0,0],"split_type":[0,0,0,0,0,0,0,0,0,0,0,0,0],"sum_hessian":[4.08E2,9E0,3.99E2,5.5E1,3.44E2,3.3E1,2.2E1,3.7E1,3.07E2,1.6E1,6E0,2.14E2,9.3E1],"tree_param":{"num_deleted":"0","num_feature":"20","num_nodes":"13","size_leaf_vector":"1"}},{"base_weights":[-0E0,-1.4975114E-3,9.981875E-3,6.9982945E-3,-2.897699E-3,1.6004331E-2,-0E0,4.345826E-4,-0E0,-3.4899602E-3,-0E0,5.360314E-4,-0E0,-1.2192974E-4,-0E0,-0E0,8.2009174E-5],"categories":[],"categories_nodes":[],"categories_segments":[],"categories_sizes":[],"default_left":[0,0,0,0,0,0,0,0,0,0,0,0,0,0,0,0,0],"id":12,"left_children":[1,3,5,7,9,11,-1,-1,-1,13,15,-1,-1,-1,-1,-1,-1],"loss_changes":[5.820602E-3,3.6491593E-3,4.495237E-3,1.3216417E-3,9.406272E-4,7.390361E-4,0E0,0E0,0E0,9.781488E-4,1.1956454E-4,0E0,0E0,0E0,0E0,0E0,0E0],"parents":[2147483647,0,0,1,1,2,2,3,3,4,4,5,5,9,9,10,10],"right_children":[2,4,6,8,10,12,-1,-1,-1,14,16,-1,-1,-1,-1,-1,-1],"split_conditions":[2.677799E-1,-4.141414E-2,1.5151516E-1,2.7330496E1,1E0,1.4901553E-2,-0E0,4.345826E-4,-0E0,3.3939395E-2,-6.5446773E-4,5.360314E-4,-0E0,-1.2192974E-4,-0E0,-0E0,8.2009174E-5],"split_indices":[17,12,18,14,6,15,0,0,0,12,15,0,0,0,0,0,0],"split_type":[0,0,0,0,0,0,0,0,0,0,0,0,0,0,0,0,0],"sum_hessian":[4.22E2,3.73E2,4.9E1,3.2E1,3.41E2,3.6E1,1.3E1,1.3E1,1.9E1,3.12E2,2.9E1,3.1E1,5E0,2.89E2,2.3E1,1.4E1,1.5E1],"tree_param":{"num_deleted":"0","num_feature":"20","num_nodes":"17","size_leaf_vector":"1"}},{"base_weights":[-0E0,-9.888503E-4,8.932987E-3,7.6280637E-3,-2.4715783E-3,-0E0,3.051468E-2,-0E0,1.033591E-2,-3.5211162E-3,-0E0,1.8979497E-4,-0E0,1.4272772E-3,-0E0,-0E0,3.6355568E-4,-0E0,-1.2764387E-4,6.5857865E-5,-5.2662945E-4,-0E0,8.170773E-5],"categories":[],"categories_nodes":[],"categories_segments":[],"categories_sizes":[],"default_left":[0,0,0,0,0,0,0,0,0,0,0,0,0,0,0,0,0,0,0,0,0,0,0],"id":13,"left_children":[1,3,5,7,9,11,13,-1,15,17,19,21,-1,-1,-1,-1,-1,-1,-1,-1,-1,-1,-1],"loss_changes":[5.1379562E-3,3.5615573E-3,8.248145E-3,6.437622E-4,7.609774E-4,1.1887304E-6,7.3351646E-3,0E0,2.263682E-4,9.406572E-4,4.454185E-3,1.6942408E-4,0E0,0E0,0E0,0E0,0E0,0E0,0E0,0E0,0E0,0E0,0E0],"parents":[2147483647,0,0,1,1,2,2,3,3,4,4,5,5,6,6,8,8,9,9,10,10,11,11],"right_children":[2,4,6,8,10,12,14,-1,16,18,20,22,-1,-1,-1,-1,-1,-1,-1,-1,-1,-1,-1],"split_conditions":[1.5622407E-1,-9.368118E-2,2.2899012E-1,-1.1185693E-1,1.5358361E-2,1.857756E-1,2E0,-0E0,1.8359987E-1,-5.8626465E-2,1.0912982E-1,1.4722526E-1,-0E0,1.4272772E-3,-0E0,-0E0,3.6355568E-4,-0E0,-1.2764387E-4,6.5857865E-5,-5.2662945E-4,-0E0,8.170773E-5],"split_indices":[4,16,17,4,18,17,8,0,17,7,16,17,0,0,0,0,0,0,0,0,0,0,0],"split_type":[0,0,0,0,0,0,0,0,0,0,0,0,0,0,0,0,0,0,0,0,0,0,0],"sum_hessian":[4.16E2,3.57E2,5.9E1,3.2E1,3.25E2,4.6E1,1.3E1,9E0,2.3E1,2.21E2,1.04E2,3.2E1,1.4E1,8E0,5E0,5E0,1.8E1,1.8E1,2.03E2,9.2E1,1.2E1,1E1,2.2E1],"tree_param":{"num_deleted":"0","num_feature":"20","num_nodes":"23","size_leaf_vector":"1"}},{"base_weights":[-0E0,1.8879851E-2,-7.955922E-4,8.066359E-4,-0E0,-3.3343837E-3,6.065875E-4,-0E0,-6.411192E-3,-1.639966E-3,2.6912056E-3,1.0756861E-4,-6.1971965E-5,-2.2120819E-4,-0E0,-2.0866572E-4,-0E0,1.4356495E-4,-0E0],"categories":[],"categories_nodes":[],"categories_segments":[],"categories_sizes":[],"default_left":[0,0,0,0,0,0,0,0,0,0,0,0,0,0,0,0,0,0,0],"id":14,"left_children":[1,3,5,-1,-1,7,9,11,13,15,17,-1,-1,-1,-1,-1,-1,-1,-1],"loss_changes":[5.6030834E-3,1.8828409E-3,1.9893178E-3,0E0,0E0,2.271133E-3,1.2028179E-3,7.233621E-4,1.1609518E-3,8.1697485E-4,1.8243842E-3,0E0,0E0,0E0,0E0,0E0,0E0,0E0,0E0],"parents":[2147483647,0,0,1,1,2,2,5,5,6,6,7,7,8,8,9,9,10,10],"right_children":[2,4,6,-1,-1,8,10,12,14,16,18,-1,-1,-1,-1,-1,-1,-1,-1],"split_conditions":[-2.3004694E-2,-1.37551585E-2,-6.035283E-3,8.066359E-4,-0E0,-2.3431703E-3,1.6162072E-1,-1.710941E-2,2.701463E-1,2.6904864E-4,8.430323E-3,1.0756861E-4,-6.1971965E-5,-2.2120819E-4,-0E0,-2.0866572E-4,-0E0,1.4356495E-4,-0E0],"split_indices":[11,7,11,0,0,15,17,11,17,11,15,0,0,0,0,0,0,0,0],"split_type":[0,0,0,0,0,0,0,0,0,0,0,0,0,0,0,0,0,0,0],"sum_hessian":[4.18E2,1.4E1,4.04E2,9E0,5E0,1.94E2,2.1E2,8.7E1,1.07E2,5.5E1,1.55E2,3.9E1,4.8E1,1.02E2,5E0,1.9E1,3.6E1,1.28E2,2.7E1],"tree_param":{"num_deleted":"0","num_feature":"20","num_nodes":"19","size_leaf_vector":"1"}},{"base_weights":[-7.4193033E-4,3.7285028E-4,-1.454522E-3,-3.4663458E-3,-0E0,-0E0,-6.6564702E-3,1.6976084E-3,-6.761649E-3,3.9247203E-5,-3.9273702E-5,-2.2681548E-4,-0E0,-0E0,1.8094496E-4,-0E0,-4.064486E-4],"categories":[],"categories_nodes":[],"categories_segments":[],"categories_sizes":[],"default_left":[0,0,0,0,0,0,0,0,0,0,0,0,0,0,0,0,0],"id":15,"left_children":[1,-1,3,5,7,9,11,13,15,-1,-1,-1,-1,-1,-1,-1,-1],"loss_changes":[1.7180991E-3,0E0,1.6699876E-3,2.5158979E-3,1.6044874E-3,1.6952789E-4,9.507672E-4,1.4572549E-3,1.4725077E-3,0E0,0E0,0E0,0E0,0E0,0E0,0E0,0E0],"parents":[2147483647,0,0,2,2,3,3,4,4,5,5,6,6,7,7,8,8],"right_children":[2,-1,4,6,8,10,12,14,16,-1,-1,-1,-1,-1,-1,-1,-1],"split_conditions":[-2.3307566E-2,3.7285028E-4,4.5036343E1,-3.2705576E-3,1.042737E-1,-6.0790274E-2,-1.6169155E-2,3.7410073E-2,-4.2765783E-4,3.9247203E-5,-3.9273702E-5,-2.2681548E-4,-0E0,-0E0,1.8094496E-4,-0E0,-4.064486E-4],"split_indices":[11,0,14,15,0,18,18,18,15,0,0,0,0,0,0,0,0],"split_type":[0,0,0,0,0,0,0,0,0,0,0,0,0,0,0,0,0],"sum_hessian":[4.14E2,6E0,4.08E2,2.1E2,1.98E2,9.7E1,1.13E2,1.75E2,2.3E1,5.9E1,3.8E1,1.04E2,9E0,1.22E2,5.3E1,1E1,1.3E1],"tree_param":{"num_deleted":"0","num_feature":"20","num_nodes":"17","size_leaf_vector":"1"}},{"base_weights":[-8.676173E-5,4.2627341E-4,-1.1519324E-3,-2.0761176E-3,1.436581E-3,-0E0,-5.4556117E-3,7.5573684E-3,-7.032421E-5,9.481132E-5,-4.2966745E-5,-3.294433E-4,-0E0,-0E0,3.567503E-4],"categories":[],"categories_nodes":[],"categories_segments":[],"categories_sizes":[],"default_left":[0,0,0,0,0,0,0,0,0,0,0,0,0,0,0],"id":16,"left_children":[1,-1,3,5,7,9,11,13,-1,-1,-1,-1,-1,-1,-1],"loss_changes":[3.5416328E-3,0E0,1.0614812E-3,1.4936391E-3,2.1248467E-3,8.2208065E-4,1.8473149E-3,1.2235625E-3,0E0,0E0,0E0,0E0,0E0,0E0,0E0],"parents":[2147483647,0,0,2,2,3,3,4,4,5,5,6,6,7,7],"right_children":[2,-1,4,6,8,10,12,14,-1,-1,-1,-1,-1,-1,-1],"split_conditions":[2.6058428E1,4.2627341E-4,2.712576E-1,2.1086551E-1,3.989672E-2,-1.6770024E-2,-1.0745384E-2,3.0254495E-1,-7.032421E-5,9.481132E-5,-4.2966745E-5,-3.294433E-4,-0E0,-0E0,3.567503E-4],"split_indices":[14,0,17,17,11,11,11,17,0,0,0,0,0,0,0],"split_type":[0,0,0,0,0,0,0,0,0,0,0,0,0,0,0],"sum_hessian":[4.02E2,1.4E1,3.88E2,3.43E2,4.5E1,2.44E2,9.9E1,3.7E1,8E0,3.9E1,2.05E2,3.9E1,6E1,1.4E1,2.3E1],"tree_param":{"num_deleted":"0","num_feature":"20","num_nodes":"15","size_leaf_vector":"1"}},{"base_weights":[6.3354128E-6,5.6554936E-4,-0E0,-2.1306525E-3,2.4185136E-3,-0E0,-3.740238E-3,6.9479486E-3,-2.7106027E-4,1.8597113E-5,-0E0,-0E0,-1.9453987E-4,6.5787906E-5,9.1105327E-4,-0E0,-1.7890467E-4],"categories":[],"categories_nodes":[],"categories_segments":[],"categories_sizes":[],"default_left":[0,0,0,0,0,0,0,0,0,0,0,0,0,0,0,0,0],"id":17,"left_children":[1,-1,3,5,7,9,11,13,15,-1,-1,-1,-1,-1,-1,-1,-1],"loss_changes":[2.8430603E-3,0E0,1.9772933E-3,1.144238E-3,3.1767804E-3,2.6131087E-5,9.996146E-4,2.7757795E-3,9.552101E-4,0E0,0E0,0E0,0E0,0E0,0E0,0E0,0E0],"parents":[2147483647,0,0,2,2,3,3,4,4,5,5,6,6,7,7,8,8],"right_children":[2,-1,4,6,8,10,12,14,16,-1,-1,-1,-1,-1,-1,-1,-1],"split_conditions":[-2.3307566E-2,5.6554936E-4,1.2217968E-3,3.4022728E1,4.9520183E-2,2.2412181E-1,1.9295152E-1,3.5036497E-2,4.9689442E-2,1.8597113E-5,-0E0,-0E0,-1.9453987E-4,6.5787906E-5,9.1105327E-4,-0E0,-1.7890467E-4],"split_indices":[11,0,11,14,0,17,17,12,7,0,0,0,0,0,0,0,0],"split_type":[0,0,0,0,0,0,0,0,0,0,0,0,0,0,0,0,0],"sum_hessian":[3.97E2,7E0,3.9E2,2.4E2,1.5E2,8.1E1,1.59E2,8.3E1,6.7E1,6.7E1,1.4E1,8.3E1,7.6E1,7.7E1,6E0,4.1E1,2.6E1],"tree_param":{"num_deleted":"0","num_feature":"20","num_nodes":"17","size_leaf_vector":"1"}},{"base_weights":[-0E0,8.5365574E-4,-6.072415E-3,-0E0,7.550257E-3,-0E0,-7.3206997E-3,7.4709263E-3,-1.57042E-3,-0E0,9.244549E-3,-0E0,-1.0177977E-2,3.6314578E-4,-0E0,-1.0162342E-4,-0E0,3.288274E-4,-0E0,-0E0,-3.840417E-4],"categories":[],"categories_nodes":[],"categories_segments":[],"categories_sizes":[],"default_left":[0,0,0,0,0,0,0,0,0,0,0,0,0,0,0,0,0,0,0,0,0],"id":18,"left_children":[1,3,5,7,9,-1,11,13,15,-1,17,-1,19,-1,-1,-1,-1,-1,-1,-1,-1],"loss_changes":[2.7661456E-3,3.1616841E-3,3.8655568E-4,2.5996652E-3,7.6723984E-4,0E0,1.2496461E-3,8.3050877E-4,1.0406461E-3,0E0,8.583255E-4,0E0,1.2642452E-3,0E0,0E0,0E0,0E0,0E0,0E0,0E0,0E0],"parents":[2147483647,0,0,1,1,2,2,3,3,4,4,6,6,7,7,8,8,10,10,12,12],"right_children":[2,4,6,8,10,-1,12,14,16,-1,18,-1,20,-1,-1,-1,-1,-1,-1,-1,-1],"split_conditions":[5.1743057E-2,1.79558E-2,8.264978E-1,-4.0515654E-2,-6.0465503E-3,-0E0,6.506024E-1,-9.3234636E-2,2.3684211E-1,-0E0,2.2389595E-1,-0E0,3.2828283E-2,3.6314578E-4,-0E0,-1.0162342E-4,-0E0,3.288274E-4,-0E0,-0E0,-3.840417E-4],"split_indices":[0,18,19,12,0,0,1,0,1,0,4,0,18,0,0,0,0,0,0,0,0],"split_type":[0,0,0,0,0,0,0,0,0,0,0,0,0,0,0,0,0,0,0,0,0],"sum_hessian":[4.21E2,3.54E2,6.7E1,2.95E2,5.9E1,1.4E1,5.3E1,3.4E1,2.61E2,1.1E1,4.8E1,1.4E1,3.9E1,1.8E1,1.6E1,1.46E2,1.15E2,4.1E1,7E0,7E0,3.2E1],"tree_param":{"num_deleted":"0","num_feature":"20","num_nodes":"21","size_leaf_vector":"1"}},{"base_weights":[-2.2432466E-4,-1.7938829E-3,8.754923E-3,-0E0,-2.855817E-3,-0E0,1.5219068E-2,4.096905E-3,-0E0,-4.598108E-3,-0E0,-0E0,9.235787E-4,-0E0,1.5674884E-4,-6.846406E-5,-0E0,-1.6720456E-4,-0E0,6.35938E-5,-7.706257E-5],"categories":[],"categories_nodes":[],"categories_segments":[],"categories_sizes":[],"default_left":[0,0,0,0,0,0,0,0,0,0,0,0,0,0,0,0,0,0,0,0,0],"id":19,"left_children":[1,3,5,7,9,-1,11,13,15,17,19,-1,-1,-1,-1,-1,-1,-1,-1,-1,-1],"loss_changes":[4.570934E-3,1.2841693E-3,2.1863398E-3,7.553083E-4,1.6824377E-3,0E0,2.9710955E-3,6.369839E-5,1.0937099E-4,1.3120472E-3,5.892947E-4,0E0,0E0,0E0,0E0,0E0,0E0,0E0,0E0,0E0,0E0],"parents":[2147483647,0,0,1,1,2,2,3,3,4,4,6,6,7,7,8,8,9,9,10,10],"right_children":[2,4,6,8,10,-1,12,14,16,18,20,-1,-1,-1,-1,-1,-1,-1,-1,-1,-1],"split_conditions":[1.9024855E-1,-1.6380219E-2,9.4122666E-1,-2.3431703E-3,1.244168E-2,-0E0,-1.4285714E-3,-5.2005943E-2,-7.2292715E-2,1E0,4.411765E-2,-0E0,9.235787E-4,-0E0,1.5674884E-4,-6.846406E-5,-0E0,-1.6720456E-4,-0E0,6.35938E-5,-7.706257E-5],"split_indices":[4,11,19,15,7,0,12,7,0,6,7,0,0,0,0,0,0,0,0,0,0],"split_type":[0,0,0,0,0,0,0,0,0,0,0,0,0,0,0,0,0,0,0,0,0],"sum_hessian":[4.21E2,3.78E2,4.3E1,7.2E1,3.06E2,2E1,2.3E1,4.4E1,2.8E1,1.97E2,1.09E2,1.5E1,8E0,1.5E1,2.9E1,2E1,8E0,1.76E2,2.1E1,6.7E1,4.2E1],"tree_param":{"num_deleted":"0","num_feature":"20","num_nodes":"21","size_leaf_vector":"1"}},{"base_weights":[-0E0,7.769489E-3,-8.409518E-4,-0E0,1.1811791E-2,-2.3647887E-3,6.291406E-3,-0E0,4.2491689E-4,-3.8726788E-3,-0E0,1.18057085E-2,-0E0,-0E0,-1.5621562E-4,3.673919E-5,-3.399123E-5,4.1747367E-4,-0E0],"categories":[],"categories_nodes":[],"categories_segments":[],"categories_sizes":[],"default_left":[0,0,0,0,0,0,0,0,0,0,0,0,0,0,0,0,0,0,0],"id":20,"left_children":[1,3,5,-1,7,9,11,-1,-1,13,15,17,-1,-1,-1,-1,-1,-1,-1],"loss_changes":[2.7514787E-3,1.7105883E-3,3.479157E-3,0E0,8.2984753E-4,1.3795688E-3,2.2211052E-3,0E0,0E0,1.4577261E-3,1.7966927E-4,6.057131E-4,0E0,0E0,0E0,0E0,0E0,0E0,0E0],"parents":[2147483647,0,0,1,1,2,2,4,4,5,5,6,6,9,9,10,10,11,11],"right_children":[2,4,6,-1,8,10,12,-1,-1,14,16,18,-1,-1,-1,-1,-1,-1,-1],"split_conditions":[-4.0515654E-2,9.7413653E-1,2.701463E-1,-0E0,1.5158312E-1,1.3915504E-3,1.2258363E-2,-0E0,4.2491689E-4,-1.8218342E-2,1.726264E-2,1.7580341E-1,-0E0,-0E0,-1.5621562E-4,3.673919E-5,-3.399123E-5,4.1747367E-4,-0E0],"split_indices":[12,19,17,0,17,15,15,0,0,11,12,18,0,0,0,0,0,0,0],"split_type":[0,0,0,0,0,0,0,0,0,0,0,0,0,0,0,0,0,0,0],"sum_hessian":[4.3E2,4E1,3.9E2,1.1E1,2.9E1,3.45E2,4.5E1,5E0,2.4E1,2.2E2,1.25E2,2.8E1,1.7E1,4.5E1,1.75E2,7.6E1,4.9E1,2.3E1,5E0],"tree_param":{"num_deleted":"0","num_feature":"20","num_nodes":"19","size_leaf_vector":"1"}},{"base_weights":[8.119569E-4,-2.7537814E-3,2.7657705E-3,-0E0,-4.568597E-3,6.8985985E-4,1.4528686E-2,-5.442077E-3,-0E0,8.614542E-3,-0E0,-0E0,1.1289901E-3,-2.27365E-4,-0E0,-0E0,3.2753058E-4,3.86938E-5,-1.0660422E-4],"categories":[],"categories_nodes":[],"categories_segments":[],"categories_sizes":[],"default_left":[0,0,0,0,0,0,0,0,0,0,0,0,0,0,0,0,0,0,0],"id":21,"left_children":[1,3,5,-1,7,9,11,13,-1,15,17,-1,-1,-1,-1,-1,-1,-1,-1],"loss_changes":[2.9569655E-3,1.3061983E-3,4.5160837E-3,0E0,7.316917E-4,2.316163E-3,5.991542E-3,8.3112903E-4,0E0,7.6934765E-4,1.3444716E-3,0E0,0E0,0E0,0E0,0E0,0E0,0E0,0E0],"parents":[2147483647,0,0,1,1,2,2,4,4,5,5,6,6,7,7,9,9,10,10],"right_children":[2,4,6,-1,8,10,12,14,-1,16,18,-1,-1,-1,-1,-1,-1,-1,-1],"split_conditions":[8.979303E-1,-1.8734219E-2,1.6840035E-1,-0E0,1E0,-4.0515654E-2,2.2412181E-1,1.7940203E-3,-0E0,9.7413653E-1,1.078836E0,-0E0,1.1289901E-3,-2.27365E-4,-0E0,-0E0,3.2753058E-4,3.86938E-5,-1.0660422E-4],"split_indices":[19,11,4,0,6,12,17,15,0,19,19,0,0,0,0,0,0,0,0],"split_type":[0,0,0,0,0,0,0,0,0,0,0,0,0,0,0,0,0,0,0],"sum_hessian":[4.22E2,1.13E2,3.09E2,1E1,1.03E2,2.78E2,3.1E1,9.7E1,6E0,3.2E1,2.46E2,2.3E1,8E0,6.4E1,3.3E1,6E0,2.6E1,1.62E2,8.4E1],"tree_param":{"num_deleted":"0","num_feature":"20","num_nodes":"19","size_leaf_vector":"1"}},{"base_weights":[-0E0,-7.414278E-4,1.3534473E-2,-2.3426656E-3,7.111538E-4,-0E0,2.015035E-2,-0E0,-5.216365E-3,5.2741994E-3,-0E0,1.044162E-3,-0E0,-0E0,3.6443344E-5,-0E0,-1.7519212E-4,-0E0,2.85807E-4,-0E0,-8.2442624E-5],"categories":[],"categories_nodes":[],"categories_segments":[],"categories_sizes":[],"default_left":[0,0,0,0,0,0,0,0,0,0,0,0,0,0,0,0,0,0,0,0,0],"id":22,"left_children":[1,3,5,7,9,-1,11,13,15,17,19,-1,-1,-1,-1,-1,-1,-1,-1,-1,-1],"loss_changes":[5.886983E-3,1.2094952E-3,2.0360546E-3,2.350555E-3,1.4621756E-3,0E0,7.6521514E-4,8.854116E-5,5.621938E-4,1.4651954E-3,1.7369565E-4,0E0,0E0,0E0,0E0,0E0,0E0,0E0,0E0,0E0,0E0],"parents":[2147483647,0,0,1,1,2,2,3,3,4,4,6,6,7,7,8,8,9,9,10,10],"right_children":[2,4,6,8,10,-1,12,14,16,18,20,-1,-1,-1,-1,-1,-1,-1,-1,-1,-1],"split_conditions":[1.2167431E0,6.249219E-4,-1.0831971E-2,3.6327736E1,2E0,-0E0,1.284838E0,9.7413653E-1,-1.7322692E-1,9.268736E-1,4.411765E-2,1.044162E-3,-0E0,-0E0,3.6443344E-5,-0E0,-1.7519212E-4,-0E0,2.85807E-4,-0E0,-8.2442624E-5],"split_indices":[19,11,4,14,8,0,19,19,4,19,7,0,0,0,0,0,0,0,0,0,0],"split_type":[0,0,0,0,0,0,0,0,0,0,0,0,0,0,0,0,0,0,0,0,0],"sum_hessian":[4.08E2,3.78E2,3E1,2.45E2,1.33E2,1.2E1,1.8E1,1.1E2,1.35E2,5.4E1,7.9E1,6E0,1.2E1,5.1E1,5.9E1,1.1E1,1.24E2,2.2E1,3.2E1,5.7E1,2.2E1],"tree_param":{"num_deleted":"0","num_feature":"20","num_nodes":"21","size_leaf_vector":"1"}},{"base_weights":[-0E0,-1.8667072E-3,1.771918E-3,-0E0,-2.520471E-3,-0E0,5.0369827E-3,-0E0,-4.353261E-3,3.7753017E-4,-3.2708028E-3,6.7581907E-3,-0E0,9.0701156E-5,-1.3143437E-4,-1.5816858E-4,-0E0,4.2298714E-5,-0E0,-0E0,-1.596348E-4,1.9651143E-5,4.9451797E-4],"categories":[],"categories_nodes":[],"categories_segments":[],"categories_sizes":[],"default_left":[0,0,0,0,0,0,0,0,0,0,0,0,0,0,0,0,0,0,0,0,0,0,0],"id":23,"left_children":[1,3,5,-1,7,9,11,13,15,17,19,21,-1,-1,-1,-1,-1,-1,-1,-1,-1,-1,-1],"loss_changes":[1.4213563E-3,5.82215E-4,1.5505906E-3,0E0,9.5229864E-4,3.85125E-4,7.665297E-4,1.3180501E-3,9.3013677E-4,1.1455301E-4,3.9006272E-4,3.603003E-4,0E0,0E0,0E0,0E0,0E0,0E0,0E0,0E0,0E0,0E0,0E0],"parents":[2147483647,0,0,1,1,2,2,4,4,5,5,6,6,7,7,8,8,9,9,10,10,11,11],"right_children":[2,4,6,-1,8,10,12,14,16,18,20,22,-1,-1,-1,-1,-1,-1,-1,-1,-1,-1,-1],"split_conditions":[1.2210373E-2,-4.2813454E-2,1.0183676E0,-0E0,-9.253427E-4,9.395728E-1,1.987225E-2,9.4285715E-1,1E0,9.5555556E-1,3.193921E1,4.7305553E1,-0E0,9.0701156E-5,-1.3143437E-4,-1.5816858E-4,-0E0,4.2298714E-5,-0E0,-0E0,-1.596348E-4,1.9651143E-5,4.9451797E-4],"split_indices":[4,12,19,0,15,19,0,2,6,2,14,14,0,0,0,0,0,0,0,0,0,0,0],"split_type":[0,0,0,0,0,0,0,0,0,0,0,0,0,0,0,0,0,0,0,0,0,0,0],"sum_hessian":[4.25E2,2.33E2,1.92E2,1.4E1,2.19E2,1.08E2,8.4E1,9.6E1,1.23E2,7.4E1,3.4E1,6.3E1,2.1E1,5.5E1,4.1E1,1.17E2,6E0,6.2E1,1.2E1,8E0,2.6E1,5.2E1,1.1E1],"tree_param":{"num_deleted":"0","num_feature":"20","num_nodes":"23","size_leaf_vector":"1"}},{"base_weights":[2.6829133E-4,-1.3751147E-4,4.2930194E-3,1.6675625E-3,-1.9815108E-3,9.095427E-3,-2.4637522E-4,1.069169E-2,-0E0,-4.3737725E-3,-0E0,-0E0,5.709576E-4,3.637546E-4,-0E0,-3.3076867E-5,-0E0,-0E0,-2.196224E-4,2.316494E-5,-4.681001E-5],"categories":[],"categories_nodes":[],"categories_segments":[],"categories_sizes":[],"default_left":[0,0,0,0,0,0,0,0,0,0,0,0,0,0,0,0,0,0,0,0,0],"id":24,"left_children":[1,3,5,7,9,11,-1,13,15,17,19,-1,-1,-1,-1,-1,-1,-1,-1,-1,-1],"loss_changes":[1.5062226E-3,1.1678457E-3,5.2359807E-3,2.5435793E-3,1.0148503E-3,4.547879E-3,0E0,8.2581304E-5,6.564476E-5,1.5552449E-3,1.5238866E-4,0E0,0E0,0E0,0E0,0E0,0E0,0E0,0E0,0E0,0E0],"parents":[2147483647,0,0,1,1,2,2,3,3,4,4,5,5,7,7,8,8,9,9,10,10],"right_children":[2,4,6,8,10,12,-1,14,16,18,20,-1,-1,-1,-1,-1,-1,-1,-1,-1,-1],"split_conditions":[3.7410073E-2,-3.9221756E-3,1.15111075E-1,-7.540603E-2,6.437843E-5,1.0033092E0,-2.4637522E-4,-1.7964073E-2,-3.797468E-2,-7.018544E-2,1.0609733E0,-0E0,5.709576E-4,3.637546E-4,-0E0,-3.3076867E-5,-0E0,-0E0,-2.196224E-4,2.316494E-5,-4.681001E-5],"split_indices":[18,15,0,18,15,19,0,12,7,16,19,0,0,0,0,0,0,0,0,0,0],"split_type":[0,0,0,0,0,0,0,0,0,0,0,0,0,0,0,0,0,0,0,0,0],"sum_hessian":[4.12E2,3.3E2,8.2E1,1.12E2,2.18E2,7.1E1,1.1E1,2.4E1,8.8E1,9.7E1,1.21E2,4.3E1,2.8E1,1.9E1,5E0,5.3E1,3.5E1,3.4E1,6.3E1,7.9E1,4.2E1],"tree_param":{"num_deleted":"0","num_feature":"20","num_nodes":"21","size_leaf_vector":"1"}},{"base_weights":[5.4767047E-4,-0E0,6.4224354E-3,-6.0289854E-4,1.7018201E-3,-0E0,1.0452216E-2,1.0918785E-3,-3.3086466E-3,4.4899136E-3,-1.6091739E-4,-0E0,1.6171847E-2,-0E0,1.8368864E-4,-0E0,-1.2081235E-4,-0E0,1.792593E-4,6.514463E-4,-0E0],"categories":[],"categories_nodes":[],"categories_segments":[],"categories_sizes":[],"default_left":[0,0,0,0,0,0,0,0,0,0,0,0,0,0,0,0,0,0,0,0,0],"id":25,"left_children":[1,3,5,7,9,-1,11,13,15,17,-1,-1,19,-1,-1,-1,-1,-1,-1,-1,-1],"loss_changes":[1.3143934E-3,4.207325E-4,9.598052E-4,1.7722163E-3,1.9965754E-3,0E0,1.2579269E-3,1.0411359E-3,6.8146794E-4,5.749385E-4,0E0,0E0,5.824219E-4,0E0,0E0,0E0,0E0,0E0,0E0,0E0,0E0],"parents":[2147483647,0,0,1,1,2,2,3,3,4,4,6,6,7,7,8,8,9,9,12,12],"right_children":[2,4,6,8,10,-1,12,14,16,18,-1,-1,20,-1,-1,-1,-1,-1,-1,-1,-1],"split_conditions":[2.2452007E-1,1.9035533E-2,8.5750175E-1,-6.666667E-1,1.0912982E-1,-0E0,1.6214958E-1,2.1153846E-1,-5.8626465E-2,8.956847E-1,-1.6091739E-4,-0E0,4.6907585E-2,-0E0,1.8368864E-4,-0E0,-1.2081235E-4,-0E0,1.792593E-4,6.514463E-4,-0E0],"split_indices":[4,18,19,13,0,0,17,1,7,19,0,0,0,0,0,0,0,0,0,0,0],"split_type":[0,0,0,0,0,0,0,0,0,0,0,0,0,0,0,0,0,0,0,0,0],"sum_hessian":[4.3E2,3.96E2,3.4E1,2.88E2,1.08E2,1.3E1,2.1E1,1.32E2,1.56E2,9.8E1,1E1,8E0,1.3E1,1.01E2,3.1E1,9E0,1.47E2,2.7E1,7.1E1,8E0,5E0],"tree_param":{"num_deleted":"0","num_feature":"20","num_nodes":"21","size_leaf_vector":"1"}},{"base_weights":[-0E0,5.098743E-4,-0E0,-9.182019E-4,6.343781E-3,-1.9491818E-3,-0E0,-0E0,1.2841096E-2,-0E0,-1.4172979E-4,-3.5819638E-5,1.418362E-4,-0E0,5.175896E-4],"categories":[],"categories_nodes":[],"categories_segments":[],"categories_sizes":[],"default_left":[0,0,0,0,0,0,0,0,0,0,0,0,0,0,0],"id":26,"left_children":[1,-1,3,5,7,9,11,-1,13,-1,-1,-1,-1,-1,-1],"loss_changes":[2.3108602E-3,0E0,1.4916545E-3,6.7842624E-4,2.2957055E-3,1.3405046E-3,1.2635628E-3,0E0,1.2998809E-3,0E0,0E0,0E0,0E0,0E0,0E0],"parents":[2147483647,0,0,2,2,3,3,4,4,5,5,6,6,8,8],"right_children":[2,-1,4,6,8,10,12,-1,14,-1,-1,-1,-1,-1,-1],"split_conditions":[-2.3307566E-2,5.098743E-4,1E0,2.4855747E-3,-1.6442452E-2,1.9295152E-1,3.4146342E-1,-0E0,1.5779708E-1,-0E0,-1.4172979E-4,-3.5819638E-5,1.418362E-4,-0E0,5.175896E-4],"split_indices":[11,0,5,11,18,17,2,0,17,0,0,0,0,0,0],"split_type":[0,0,0,0,0,0,0,0,0,0,0,0,0,0,0],"sum_hessian":[4.19E2,7E0,4.12E2,3.84E2,2.8E1,2.63E2,1.21E2,8E0,2E1,1.59E2,1.04E2,7E1,5.1E1,5E0,1.5E1],"tree_param":{"num_deleted":"0","num_feature":"20","num_nodes":"15","size_leaf_vector":"1"}},{"base_weights":[4.621043E-4,-1.1167472E-4,9.245237E-3,5.6595363E-5,-5.467928E-3,1.125928E-2,-0E0,-0E0,3.4118808E-4,-0E0,-6.9338097E-3,-0E0,5.562245E-4,5.5487646E-5,-6.801079E-5,-2.828795E-4,-0E0],"categories":[],"categories_nodes":[],"categories_segments":[],"categories_sizes":[],"default_left":[0,0,0,0,0,0,0,0,0,0,0,0,0,0,0,0,0],"id":27,"left_children":[1,3,5,7,9,11,-1,13,-1,-1,15,-1,-1,-1,-1,-1,-1],"loss_changes":[4.014922E-3,1.4313781E-3,1.3483977E-3,2.0684097E-3,5.36071E-4,2.1115919E-3,0E0,1.4348667E-3,0E0,0E0,4.294382E-4,0E0,0E0,0E0,0E0,0E0,0E0],"parents":[2147483647,0,0,1,1,2,2,3,3,4,4,5,5,7,7,10,10],"right_children":[2,4,6,8,10,12,-1,14,-1,-1,16,-1,-1,-1,-1,-1,-1],"split_conditions":[2.677799E-1,4.9520183E-2,1.8250951E-1,4.6307884E-2,-1.2430939E-2,9.535769E-1,-0E0,-2.299579E-3,3.4118808E-4,-0E0,2.6717557E-2,-0E0,5.562245E-4,5.5487646E-5,-6.801079E-5,-2.828795E-4,-0E0],"split_indices":[17,16,18,18,12,19,0,15,0,0,12,0,0,0,0,0,0],"split_type":[0,0,0,0,0,0,0,0,0,0,0,0,0,0,0,0,0],"sum_hessian":[4.33E2,3.86E2,4.7E1,3.39E2,4.7E1,4.2E1,5E0,3.24E2,1.5E1,7E0,4E1,2.1E1,2.1E1,1.39E2,1.85E2,2.6E1,1.4E1],"tree_param":{"num_deleted":"0","num_feature":"20","num_nodes":"17","size_leaf_vector":"1"}},{"base_weights":[7.6964374E-5,-2.2756311E-4,6.292385E-3,-1.1476188E-3,4.7675055E-3,1.1224391E-2,-0E0,-0E0,-3.570215E-3,-0E0,1.0876665E-2,-0E0,3.9369508E-4,-2.6801148E-5,2.9071885E-5,-0E0,-2.380224E-4,-0E0,4.2261984E-4],"categories":[],"categories_nodes":[],"categories_segments":[],"categories_sizes":[],"default_left":[0,0,0,0,0,0,0,0,0,0,0,0,0,0,0,0,0,0,0],"id":28,"left_children":[1,3,5,7,9,11,-1,13,15,-1,17,-1,-1,-1,-1,-1,-1,-1,-1],"loss_changes":[1.996109E-3,9.543435E-4,3.5637196E-3,8.242198E-4,1.1334564E-3,6.564073E-4,0E0,2.0855459E-4,1.6839892E-3,0E0,1.298493E-4,0E0,0E0,0E0,0E0,0E0,0E0,0E0,0E0],"parents":[2147483647,0,0,1,1,2,2,3,3,4,4,5,5,7,7,8,8,10,10],"right_children":[2,4,6,8,10,12,-1,14,16,-1,18,-1,-1,-1,-1,-1,-1,-1,-1],"split_conditions":[2.701463E-1,3.1791907E-2,3.989672E-2,2.0554216E-1,1.8320607E-1,-1.8131102E-2,-0E0,1.6162072E-1,-1.3468013E-2,-0E0,5.5909023E1,-0E0,3.9369508E-4,-2.6801148E-5,2.9071885E-5,-0E0,-2.380224E-4,-0E0,4.2261984E-4],"split_indices":[17,12,11,17,17,12,0,17,12,0,14,0,0,0,0,0,0,0,0],"split_type":[0,0,0,0,0,0,0,0,0,0,0,0,0,0,0,0,0,0,0],"sum_hessian":[4.12E2,3.63E2,4.9E1,3.41E2,2.2E1,4.3E1,6E0,2.42E2,9.9E1,9E0,1.3E1,8E0,3.5E1,1.45E2,9.7E1,5.3E1,4.6E1,5E0,8E0],"tree_param":{"num_deleted":"0","num_feature":"20","num_nodes":"19","size_leaf_vector":"1"}},{"base_weights":[2.1488189E-4,-2.0843447E-4,3.2427467E-3,2.363499E-3,-2.3420996E-3,1.028348E-2,-0E0,4.400035E-3,-0E0,-0E0,-5.475027E-3,-0E0,8.397724E-4,2.1936446E-3,-3.9163996E-3,-0E0,2.355408E-4,-3.4239176E-5,5.1767307E-5,-2.2988941E-4,-0E0,-0E0,2.014021E-4,-0E0,-2.4130598E-4],"categories":[],"categories_nodes":[],"categories_segments":[],"categories_sizes":[],"default_left":[0,0,0,0,0,0,0,0,0,0,0,0,0,0,0,0,0,0,0,0,0,0,0,0,0],"id":29,"left_children":[1,3,5,7,9,11,13,15,-1,17,19,-1,-1,21,23,-1,-1,-1,-1,-1,-1,-1,-1,-1,-1],"loss_changes":[1.161252E-3,1.7682771E-3,2.534039E-3,8.323452E-4,1.1967643E-3,1.783778E-3,6.70073E-4,1.1757396E-3,0E0,2.3391476E-4,1.4775302E-3,0E0,0E0,7.509314E-4,6.704042E-4,0E0,0E0,0E0,0E0,0E0,0E0,0E0,0E0,0E0,0E0],"parents":[2147483647,0,0,1,1,2,2,3,3,4,4,5,5,6,6,7,7,9,9,10,10,13,13,14,14],"right_children":[2,4,6,8,10,12,14,16,-1,18,20,-1,-1,22,24,-1,-1,-1,-1,-1,-1,-1,-1,-1,-1],"split_conditions":[2.2617124E-2,-3.9221756E-3,9.969858E-3,-1.7449664E-2,1.0546421E0,7.058384E-3,6.2654026E1,9.7413653E-1,-0E0,9.8221725E-1,1.2167431E0,-0E0,8.397724E-4,6.9518715E-2,4.1876048E-2,-0E0,2.355408E-4,-3.4239176E-5,5.1767307E-5,-2.2988941E-4,-0E0,-0E0,2.014021E-4,-0E0,-2.4130598E-4],"split_indices":[18,15,11,12,19,15,14,19,0,19,19,0,0,18,7,0,0,0,0,0,0,0,0,0,0],"split_type":[0,0,0,0,0,0,0,0,0,0,0,0,0,0,0,0,0,0,0,0,0,0,0,0,0],"sum_hessian":[4.31E2,3.21E2,1.1E2,1.03E2,2.18E2,3.4E1,7.6E1,7.2E1,3.1E1,1.39E2,7.9E1,2.8E1,6E0,4.9E1,2.7E1,3.1E1,4.1E1,1.1E2,2.9E1,6.5E1,1.4E1,2.8E1,2.1E1,1.1E1,1.6E1],"tree_param":{"num_deleted":"0","num_feature":"20","num_nodes":"25","size_leaf_vector":"1"}},{"base_weights":[7.708384E-4,-9.6265523E-4,6.6665537E-3,-0E0,-1.7023269E-3,-0E0,1.7930446E-2,-0E0,3.0232652E-4,-4.2254576E-3,-0E0,4.0994054E-3,-6.846219E-4,2.092439E-2,-0E0,2.0291713E-5,-0E0,-0E0,-1.7536867E-4,-2.2568349E-5,6.970656E-5,-0E0,2.841118E-4,-0E0,-7.419867E-5,1.4762551E-3,2.2363263E-4],"categories":[],"categories_nodes":[],"categories_segments":[],"categories_sizes":[],"default_left":[0,0,0,0,0,0,0,0,0,0,0,0,0,0,0,0,0,0,0,0,0,0,0,0,0,0,0],"id":30,"left_children":[1,3,5,7,9,11,13,-1,15,17,19,21,23,25,-1,-1,-1,-1,-1,-1,-1,-1,-1,-1,-1,-1,-1],"loss_changes":[5.449895E-3,5.2181364E-4,7.1164975E-3,1.8280264E-6,1.3784228E-3,6.279511E-4,2.3476873E-3,0E0,5.0345334E-6,1.0680251E-3,3.4443144E-4,1.2784709E-3,2.3395405E-4,1.2541246E-3,0E0,0E0,0E0,0E0,0E0,0E0,0E0,0E0,0E0,0E0,0E0,0E0,0E0],"parents":[2147483647,0,0,1,1,2,2,3,3,4,4,5,5,6,6,8,8,9,9,10,10,11,11,12,12,13,13],"right_children":[2,4,6,8,10,12,14,-1,16,18,20,22,24,26,-1,-1,-1,-1,-1,-1,-1,-1,-1,-1,-1,-1,-1],"split_conditions":[2.2899012E-1,-9.3234636E-2,3.39581E-2,-7.1500693E-3,2.3684211E-1,-9.253427E-4,1.1096564E-1,-0E0,-1.6541352E-2,-1.7605325E-2,4.8214287E-1,-6.9994763E-3,-1.7322692E-1,3.7037037E-2,-0E0,2.0291713E-5,-0E0,-0E0,-1.7536867E-4,-2.2568349E-5,6.970656E-5,-0E0,2.841118E-4,-0E0,-7.419867E-5,1.4762551E-3,2.2363263E-4],"split_indices":[17,0,4,15,3,15,0,0,12,11,2,15,4,2,0,0,0,0,0,0,0,0,0,0,0,0,0],"split_type":[0,0,0,0,0,0,0,0,0,0,0,0,0,0,0,0,0,0,0,0,0,0,0,0,0,0,0],"sum_hessian":[4.2E2,2.99E2,1.21E2,2.4E1,2.75E2,8.3E1,3.8E1,5E0,1.9E1,1.21E2,1.54E2,3.5E1,4.8E1,3.3E1,5E0,1.4E1,5E0,2.7E1,9.4E1,1.02E2,5.2E1,1.5E1,2E1,7E0,4.1E1,5E0,2.8E1],"tree_param":{"num_deleted":"0","num_feature":"20","num_nodes":"27","size_leaf_vector":"1"}},{"base_weights":[3.7767622E-4,-3.9408647E-4,8.702835E-3,4.5327595E-3,-1.5662867E-3,5.223559E-4,2.3351144E-2,-0E0,3.5520055E-4,-0E0,-3.1026145E-3,7.893147E-3,-0E0,1.1630263E-3,-0E0,-4.8910082E-5,1.9812607E-4,-0E0,-2.0634542E-4,4.2045742E-4,-0E0],"categories":[],"categories_nodes":[],"categories_segments":[],"categories_sizes":[],"default_left":[0,0,0,0,0,0,0,0,0,0,0,0,0,0,0,0,0,0,0,0,0],"id":31,"left_children":[1,3,5,7,9,11,13,-1,-1,15,17,19,-1,-1,-1,-1,-1,-1,-1,-1,-1],"loss_changes":[4.389399E-3,1.5333219E-3,2.1632533E-3,1.322046E-3,8.076308E-4,1.3578146E-3,2.4742247E-3,0E0,0E0,1.7875087E-3,1.6471418E-3,1.9686234E-3,0E0,0E0,0E0,0E0,0E0,0E0,0E0,0E0,0E0],"parents":[2147483647,0,0,1,1,2,2,3,3,4,4,5,5,6,6,9,9,10,10,11,11],"right_children":[2,4,6,8,10,12,14,-1,-1,16,18,20,-1,-1,-1,-1,-1,-1,-1,-1,-1],"split_conditions":[1.7206503E-1,-9.3234636E-2,4.1036718E-2,-6.9364333E-3,-5.509642E-3,-2.5286523E-3,6.486396E-2,-0E0,3.5520055E-4,2.8101439E-2,6.774177E-4,3.7805885E-3,-0E0,1.1630263E-3,-0E0,-4.8910082E-5,1.9812607E-4,-0E0,-2.0634542E-4,4.2045742E-4,-0E0],"split_indices":[4,0,12,4,12,15,0,0,0,0,4,11,0,0,0,0,0,0,0,0,0],"split_type":[0,0,0,0,0,0,0,0,0,0,0,0,0,0,0,0,0,0,0,0,0],"sum_hessian":[4.23E2,3.66E2,5.7E1,3.7E1,3.29E2,4.6E1,1.1E1,2.3E1,1.4E1,1.62E2,1.67E2,2.1E1,2.5E1,5E0,6E0,1.3E2,3.2E1,9.9E1,6.8E1,1.6E1,5E0],"tree_param":{"num_deleted":"0","num_feature":"20","num_nodes":"21","size_leaf_vector":"1"}},{"base_weights":[-0E0,-1.0407501E-3,7.1733664E-3,-0E0,-2.4577922E-3,-0E0,9.756647E-4,-4.3028533E-5,4.5025693E-3,-8.503473E-3,-5.6301913E-4,1.6387153E-4,-0E0,-0E0,-7.285353E-5,-0E0,2.0696563E-4,-0E0,-2.8625852E-4,-0E0,-1.1335831E-4],"categories":[],"categories_nodes":[],"categories_segments":[],"categories_sizes":[],"default_left":[0,0,0,0,0,0,0,0,0,0,0,0,0,0,0,0,0,0,0,0,0],"id":32,"left_children":[1,3,5,7,9,11,-1,13,15,17,19,-1,-1,-1,-1,-1,-1,-1,-1,-1,-1],"loss_changes":[3.1139192E-3,9.362342E-4,5.7342947E-3,7.7056774E-4,6.906013E-4,3.8788933E-4,0E0,4.5980635E-4,7.0504105E-4,5.072949E-5,7.098272E-4,0E0,0E0,0E0,0E0,0E0,0E0,0E0,0E0,0E0,0E0],"parents":[2147483647,0,0,1,1,2,2,3,3,4,4,5,5,7,7,8,8,9,9,10,10],"right_children":[2,4,6,8,10,12,-1,14,16,18,20,-1,-1,-1,-1,-1,-1,-1,-1,-1,-1],"split_conditions":[1.7206503E-1,-2.3431703E-3,4.1036718E-2,1.9354838E-1,-6.5836295E-2,-4.6341464E-2,9.756647E-4,-4.0515654E-2,-6.6444078E-3,-2.6829269E-2,3.312102E-2,1.6387153E-4,-0E0,-0E0,-7.285353E-5,-0E0,2.0696563E-4,-0E0,-2.8625852E-4,-0E0,-1.1335831E-4],"split_indices":[4,15,12,1,18,7,0,12,15,12,7,0,0,0,0,0,0,0,0,0,0],"split_type":[0,0,0,0,0,0,0,0,0,0,0,0,0,0,0,0,0,0,0,0,0],"sum_hessian":[4.08E2,3.56E2,5.2E1,1.38E2,2.18E2,4.5E1,7E0,1.01E2,3.7E1,2.6E1,1.92E2,1.2E1,3.3E1,2.4E1,7.7E1,7E0,3E1,5E0,2.1E1,1.39E2,5.3E1],"tree_param":{"num_deleted":"0","num_feature":"20","num_nodes":"21","size_leaf_vector":"1"}},{"base_weights":[-0E0,-1.1315895E-3,5.208702E-3,-0E0,-3.2551414E-3,-0E0,1.3144244E-2,-3.4320683E-4,8.564051E-3,-4.92859E-3,-0E0,5.3796807E-4,-0E0,-0E0,-8.013875E-5,-0E0,3.431699E-4,-0E0,-1.8624493E-4,2.7403282E-4,-0E0],"categories":[],"categories_nodes":[],"categories_segments":[],"categories_sizes":[],"default_left":[0,0,0,0,0,0,0,0,0,0,0,0,0,0,0,0,0,0,0,0,0],"id":33,"left_children":[1,3,5,7,9,-1,11,13,15,17,19,-1,-1,-1,-1,-1,-1,-1,-1,-1,-1],"loss_changes":[1.8367143E-3,1.533044E-3,2.2716657E-3,2.145557E-3,1.921912E-3,0E0,1.516866E-3,4.8803084E-4,7.51768E-4,1.0752287E-3,8.3437766E-4,0E0,0E0,0E0,0E0,0E0,0E0,0E0,0E0,0E0,0E0],"parents":[2147483647,0,0,1,1,2,2,3,3,4,4,6,6,7,7,8,8,9,9,10,10],"right_children":[2,4,6,8,10,-1,12,14,16,18,20,-1,-1,-1,-1,-1,-1,-1,-1,-1,-1],"split_conditions":[2.677799E-1,1.7128909E-1,3.39581E-2,1.6214958E-1,4.012841E-2,-0E0,1.4203455E-1,2.2254443E-2,-9.6177846E-2,2.5E-2,7.130882E-2,5.3796807E-4,-0E0,-0E0,-8.013875E-5,-0E0,3.431699E-4,-0E0,-1.8624493E-4,2.7403282E-4,-0E0],"split_indices":[17,17,4,17,18,0,18,4,4,1,0,0,0,0,0,0,0,0,0,0,0],"split_type":[0,0,0,0,0,0,0,0,0,0,0,0,0,0,0,0,0,0,0,0,0],"sum_hessian":[4.23E2,3.74E2,4.9E1,1.85E2,1.89E2,2.9E1,2E1,1.57E2,2.8E1,1.61E2,2.8E1,1.5E1,5E0,8.7E1,7E1,7E0,2.1E1,3.2E1,1.29E2,9E0,1.9E1],"tree_param":{"num_deleted":"0","num_feature":"20","num_nodes":"21","size_leaf_vector":"1"}},{"base_weights":[-0E0,1.3616133E-2,-2.7343835E-4,5.211752E-4,-0E0,-1.6514626E-3,6.298234E-3,-2.7269833E-3,-0E0,-0E0,9.105892E-3,-0E0,-1.1397892E-4,1.19278084E-4,-2.2039506E-4,3.7377782E-4,-0E0],"categories":[],"categories_nodes":[],"categories_segments":[],"categories_sizes":[],"default_left":[0,0,0,0,0,0,0,0,0,0,0,0,0,0,0,0,0],"id":34,"left_children":[1,3,5,-1,-1,7,9,11,13,-1,15,-1,-1,-1,-1,-1,-1],"loss_changes":[2.439497E-3,4.2445026E-6,2.6309693E-3,0E0,0E0,1.0384002E-3,1.3622254E-3,9.2283636E-4,1.938486E-3,0E0,1.8995225E-3,0E0,0E0,0E0,0E0,0E0,0E0],"parents":[2147483647,0,0,1,1,2,2,5,5,6,6,7,7,8,8,10,10],"right_children":[2,4,6,-1,-1,8,10,12,14,-1,16,-1,-1,-1,-1,-1,-1],"split_conditions":[2.5448767E1,-1.0417316E-1,1.9024855E-1,5.211752E-4,-0E0,6.1519532E-3,-6.728538E-2,-1.6770024E-2,5.6896552E-2,-0E0,9.969858E-3,-0E0,-1.1397892E-4,1.19278084E-4,-2.2039506E-4,3.7377782E-4,-0E0],"split_indices":[14,0,4,0,0,11,18,11,7,0,11,0,0,0,0,0,0],"split_type":[0,0,0,0,0,0,0,0,0,0,0,0,0,0,0,0,0],"sum_hessian":[4.03E2,1.2E1,3.91E2,7E0,5E0,3.49E2,4.2E1,2.67E2,8.2E1,6E0,3.6E1,6.6E1,2.01E2,6.7E1,1.5E1,3.1E1,5E0],"tree_param":{"num_deleted":"0","num_feature":"20","num_nodes":"17","size_leaf_vector":"1"}},{"base_weights":[1.3819218E-3,7.138621E-5,9.088414E-3,-8.739501E-4,1.8720877E-3,-0E0,1.2627173E-2,-0E0,-2.2409938E-3,5.06041E-3,-1.4919688E-3,-0E0,7.930913E-4,-0E0,2.907065E-5,-9.4186005E-5,-0E0,2.1835229E-4,-0E0,-0E0,-1.1895576E-4],"categories":[],"categories_nodes":[],"categories_segments":[],"categories_sizes":[],"default_left":[0,0,0,0,0,0,0,0,0,0,0,0,0,0,0,0,0,0,0,0,0],"id":35,"left_children":[1,3,5,7,9,-1,11,13,15,17,19,-1,-1,-1,-1,-1,-1,-1,-1,-1,-1],"loss_changes":[2.4193365E-3,8.532325E-4,6.053203E-4,6.1156775E-4,2.920006E-3,0E0,1.7643648E-3,1.5963053E-5,6.217912E-4,2.3975987E-3,3.0014172E-4,0E0,0E0,0E0,0E0,0E0,0E0,0E0,0E0,0E0,0E0],"parents":[2147483647,0,0,1,1,2,2,3,3,4,4,6,6,7,7,8,8,9,9,10,10],"right_children":[2,4,6,8,10,-1,12,14,16,18,20,-1,-1,-1,-1,-1,-1,-1,-1,-1,-1],"split_conditions":[1.2122939E0,2.3684211E-1,-2.3490723E-2,-5.8524173E-2,2E0,-0E0,2.2788057E-1,9.7413653E-1,0E0,1.0856299E0,7.130882E-2,-0E0,7.930913E-4,-0E0,2.907065E-5,-9.4186005E-5,-0E0,2.1835229E-4,-0E0,-0E0,-1.1895576E-4],"split_indices":[19,1,4,7,8,0,17,19,13,19,0,0,0,0,0,0,0,0,0,0,0],"split_type":[0,0,0,0,0,0,0,0,0,0,0,0,0,0,0,0,0,0,0,0,0],"sum_hessian":[4.2E2,3.82E2,3.8E1,1.78E2,2.04E2,1.5E1,2.3E1,3E1,1.48E2,1.35E2,6.9E1,1.6E1,7E0,1.4E1,1.6E1,1.38E2,1E1,1.1E2,2.5E1,4.1E1,2.8E1],"tree_param":{"num_deleted":"0","num_feature":"20","num_nodes":"21","size_leaf_vector":"1"}},{"base_weights":[-0E0,1.1475511E-3,-4.0823184E-3,-0E0,5.94251E-3,-0E0,-7.1618366E-3,2.3074725E-3,-2.3945558E-3,-0E0,7.931434E-3,-0E0,-3.272499E-4,2.8949295E-4,-0E0,-3.426629E-4,-0E0,6.440921E-5,7.98138E-4],"categories":[],"categories_nodes":[],"categories_segments":[],"categories_sizes":[],"default_left":[0,0,0,0,0,0,0,0,0,0,0,0,0,0,0,0,0,0,0],"id":36,"left_children":[1,3,5,7,9,-1,11,13,15,-1,17,-1,-1,-1,-1,-1,-1,-1,-1],"loss_changes":[1.4481104E-3,2.5014714E-3,9.145463E-4,1.5055691E-3,1.6259302E-3,0E0,1.4339666E-3,3.7482614E-3,3.4280363E-3,0E0,2.0776019E-3,0E0,0E0,0E0,0E0,0E0,0E0,0E0,0E0],"parents":[2147483647,0,0,1,1,2,2,3,3,4,4,6,6,7,7,8,8,10,10],"right_children":[2,4,6,8,10,-1,12,14,16,-1,18,-1,-1,-1,-1,-1,-1,-1,-1],"split_conditions":[5.1743057E-2,1.2217968E-3,-9.253427E-4,-2.5286523E-3,8.3198875E-1,-0E0,4.6307884E-2,-1.710941E-2,-6.5836295E-2,-0E0,4.8154093E-2,-0E0,-3.272499E-4,2.8949295E-4,-0E0,-3.426629E-4,-0E0,6.440921E-5,7.98138E-4],"split_indices":[0,11,15,15,19,0,18,11,18,0,7,0,0,0,0,0,0,0,0],"split_type":[0,0,0,0,0,0,0,0,0,0,0,0,0,0,0,0,0,0,0],"sum_hessian":[4.1E2,3.52E2,5.8E1,2.69E2,8.3E1,2.2E1,3.6E1,1.17E2,1.52E2,1.1E1,7.2E1,9E0,2.7E1,4.6E1,7.1E1,3.2E1,1.2E2,6.4E1,8E0],"tree_param":{"num_deleted":"0","num_feature":"20","num_nodes":"19","size_leaf_vector":"1"}},{"base_weights":[-0E0,6.202405E-4,-7.306265E-3,-2.115485E-4,7.879151E-3,-0E0,-3.5383666E-4,1.8278541E-3,-2.1962426E-3,2.330031E-2,-0E0,-0E0,1.237156E-4,-0E0,-1.595737E-4,-0E0,1.0614382E-3,-0E0,3.0208515E-5],"categories":[],"categories_nodes":[],"categories_segments":[],"categories_sizes":[],"default_left":[0,0,0,0,0,0,0,0,0,0,0,0,0,0,0,0,0,0,0],"id":37,"left_children":[1,3,5,7,9,-1,-1,11,13,15,17,-1,-1,-1,-1,-1,-1,-1,-1],"loss_changes":[8.5207063E-4,4.0167565E-3,4.1893282E-4,1.4741106E-3,5.0699473E-3,0E0,0E0,1.1603002E-3,1.5742653E-3,3.2889713E-3,2.940453E-5,0E0,0E0,0E0,0E0,0E0,0E0,0E0,0E0],"parents":[2147483647,0,0,1,1,2,2,3,3,4,4,7,7,8,8,9,9,10,10],"right_children":[2,4,6,8,10,-1,-1,12,14,16,18,-1,-1,-1,-1,-1,-1,-1,-1],"split_conditions":[1.384892E-1,4.3706294E-2,9.8434E-2,-3.1901123E-3,1.0461279E-2,-0E0,-3.5383666E-4,1.4688179E-1,1.9295152E-1,1.901345E-1,2.2823198E-1,-0E0,1.237156E-4,-0E0,-1.595737E-4,-0E0,1.0614382E-3,-0E0,3.0208515E-5],"split_indices":[0,18,18,15,11,0,0,17,17,17,17,0,0,0,0,0,0,0,0],"split_type":[0,0,0,0,0,0,0,0,0,0,0,0,0,0,0,0,0,0,0],"sum_hessian":[4.22E2,4.1E2,1.2E1,3.44E2,6.6E1,5E0,7E0,1.2E2,2.24E2,1.6E1,5E1,2.9E1,9.1E1,1.31E2,9.3E1,7E0,9E0,2.2E1,2.8E1],"tree_param":{"num_deleted":"0","num_feature":"20","num_nodes":"19","size_leaf_vector":"1"}},{"base_weights":[-0E0,4.4558576E-4,-5.397673E-4,-2.213605E-3,9.980615E-4,-0E0,-4.461968E-3,4.020773E-3,-0E0,-2.4724468E-5,8.837948E-5,-0E0,-1.5042884E-4,-0E0,2.2586952E-4,-3.0388512E-5,-0E0],"categories":[],"categories_nodes":[],"categories_segments":[],"categories_sizes":[],"default_left":[0,0,0,0,0,0,0,0,0,0,0,0,0,0,0,0,0],"id":38,"left_children":[1,-1,3,5,7,9,11,13,15,-1,-1,-1,-1,-1,-1,-1,-1],"loss_changes":[2.1104554E-3,0E0,1.3495965E-3,1.334705E-3,1.0996235E-3,3.330411E-4,5.452621E-4,1.0064279E-3,7.285087E-5,0E0,0E0,0E0,0E0,0E0,0E0,0E0,0E0],"parents":[2147483647,0,0,2,2,3,3,4,4,5,5,6,6,7,7,8,8],"right_children":[2,-1,4,6,8,10,12,14,16,-1,-1,-1,-1,-1,-1,-1,-1],"split_conditions":[-2.3307566E-2,4.4558576E-4,6.249219E-4,-6.666667E-1,2E0,-9.891266E-3,-6.289978E-2,9.926858E-1,2.864434E-1,-2.4724468E-5,8.837948E-5,-0E0,-1.5042884E-4,-0E0,2.2586952E-4,-3.0388512E-5,-0E0],"split_indices":[11,0,11,13,8,11,7,19,17,0,0,0,0,0,0,0,0],"split_type":[0,0,0,0,0,0,0,0,0,0,0,0,0,0,0,0,0],"sum_hessian":[4.36E2,8E0,4.28E2,2.67E2,1.61E2,1.35E2,1.32E2,7.7E1,8.4E1,1.06E2,2.9E1,6E0,1.26E2,3.8E1,3.9E1,7E1,1.4E1],"tree_param":{"num_deleted":"0","num_feature":"20","num_nodes":"17","size_leaf_vector":"1"}},{"base_weights":[3.1383897E-4,3.9962186E-3,-6.923034E-4,2.4962984E-4,-0E0,-3.3980296E-3,-0E0,-0E0,1.584854E-3,-0E0,-9.03054E-3,2.0821271E-3,-3.4615942E-3,9.160549E-5,-0E0,-3.3845875E-4,-0E0,-0E0,8.1784744E-4,-0E0,-1.599096E-4],"categories":[],"categories_nodes":[],"categories_segments":[],"categories_sizes":[],"default_left":[0,0,0,0,0,0,0,0,0,0,0,0,0,0,0,0,0,0,0,0,0],"id":39,"left_children":[1,3,5,-1,7,9,11,-1,13,-1,15,17,19,-1,-1,-1,-1,-1,-1,-1,-1],"loss_changes":[2.134434E-3,7.9466705E-4,1.0021606E-3,0E0,1.6326454E-4,2.4566613E-3,1.0525819E-3,0E0,3.6820132E-4,0E0,8.66662E-4,3.8739035E-3,4.702835E-4,0E0,0E0,0E0,0E0,0E0,0E0,0E0,0E0],"parents":[2147483647,0,0,1,1,2,2,4,4,5,5,6,6,8,8,10,10,11,11,12,12],"right_children":[2,4,6,-1,8,10,12,-1,14,-1,16,18,20,-1,-1,-1,-1,-1,-1,-1,-1],"split_conditions":[-3.2705576E-3,-1.710941E-2,-7.807464E-3,2.4962984E-4,1.4722526E-1,1.901345E-1,6.133855E-2,-0E0,4.9520183E-2,-0E0,2.473702E-1,4.9586777E-2,6.1764705E-1,9.160549E-5,-0E0,-3.3845875E-4,-0E0,-0E0,8.1784744E-4,-0E0,-1.599096E-4],"split_indices":[15,11,11,0,17,17,0,0,0,0,17,12,1,0,0,0,0,0,0,0,0],"split_type":[0,0,0,0,0,0,0,0,0,0,0,0,0,0,0,0,0,0,0,0,0],"sum_hessian":[3.96E2,1.27E2,2.69E2,4E1,8.7E1,9.7E1,1.72E2,2.3E1,6.4E1,5.4E1,4.3E1,1.34E2,3.8E1,5.6E1,8E0,3.4E1,9E0,1.29E2,5E0,6E0,3.2E1],"tree_param":{"num_deleted":"0","num_feature":"20","num_nodes":"21","size_leaf_vector":"1"}},{"base_weights":[-0E0,8.4404333E-4,-1.0249225E-2,-0E0,1.9986482E-2,-4.1356543E-4,-0E0,-4.8306194E-4,3.919826E-3,-0E0,1.1855843E-3,-1.0010828E-4,-0E0,2.0889835E-4,-0E0],"categories":[],"categories_nodes":[],"categories_segments":[],"categories_sizes":[],"default_left":[0,0,0,0,0,0,0,0,0,0,0,0,0,0,0],"id":40,"left_children":[1,3,5,7,9,-1,-1,11,13,-1,-1,-1,-1,-1,-1],"loss_changes":[2.2815617E-3,5.306756E-3,4.746397E-4,9.381472E-4,5.3400923E-3,0E0,0E0,7.6856907E-4,8.8509865E-4,0E0,0E0,0E0,0E0,0E0,0E0],"parents":[2147483647,0,0,1,1,2,2,3,3,4,4,7,7,8,8],"right_children":[2,4,6,8,10,-1,-1,12,14,-1,-1,-1,-1,-1,-1],"split_conditions":[1.0912982E-1,6.456693E-2,1.2210373E-2,2.4831104E-1,1.0369224E-2,-4.1356543E-4,-0E0,-6.5836295E-2,5.5020633E-3,-0E0,1.1855843E-3,-1.0010828E-4,-0E0,2.0889835E-4,-0E0],"split_indices":[0,12,4,17,4,0,0,18,12,0,0,0,0,0,0],"split_type":[0,0,0,0,0,0,0,0,0,0,0,0,0,0,0],"sum_hessian":[4.18E2,4E2,1.8E1,3.87E2,1.3E1,1.2E1,6E0,3.32E2,5.5E1,7E0,6E0,7.5E1,2.57E2,3.5E1,2E1],"tree_param":{"num_deleted":"0","num_feature":"20","num_nodes":"15","size_leaf_vector":"1"}},{"base_weights":[-0E0,2.235087E-3,-9.260854E-4,4.8628636E-3,-0E0,-4.633196E-3,-0E0,-0E0,7.203985E-3,-5.2059888E-5,-0E0,-0E0,-9.503808E-3,2.3990567E-3,-0E0,-0E0,2.724277E-4,-0E0,-8.072455E-6,-0E0,-3.3490412E-4,-0E0,2.8114213E-4,-0E0,-5.916969E-5],"categories":[],"categories_nodes":[],"categories_segments":[],"categories_sizes":[],"default_left":[0,0,0,0,0,0,0,0,0,0,0,0,0,0,0,0,0,0,0,0,0,0,0,0,0],"id":41,"left_children":[1,3,5,7,9,11,13,-1,15,-1,-1,17,19,21,23,-1,-1,-1,-1,-1,-1,-1,-1,-1,-1],"loss_changes":[9.0783456E-4,1.5061526E-3,1.8008957E-3,9.901763E-4,4.5170535E-5,1.1219648E-3,4.37416E-4,0E0,7.92491E-4,0E0,0E0,3.7650616E-6,5.7741E-4,8.799324E-4,3.2287487E-4,0E0,0E0,0E0,0E0,0E0,0E0,0E0,0E0,0E0,0E0],"parents":[2147483647,0,0,1,1,2,2,3,3,4,4,5,5,6,6,8,8,11,11,12,12,13,13,14,14],"right_children":[2,4,6,8,10,12,14,-1,16,-1,-1,18,20,22,24,-1,-1,-1,-1,-1,-1,-1,-1,-1,-1],"split_conditions":[-3.2705576E-3,-2.5245441E-2,3.3333334E-1,1.4722526E-1,8.613728E-4,1.9066377E-1,3.3333334E-1,-0E0,-6.711409E-2,-5.2059888E-5,-0E0,-8.1591696E-2,-4.9253732E-2,-2.7969766E-3,6.585366E-1,-0E0,2.724277E-4,-0E0,-8.072455E-6,-0E0,-3.3490412E-4,-0E0,2.8114213E-4,-0E0,-5.916969E-5],"split_indices":[15,18,1,17,11,17,13,0,7,0,0,0,7,0,1,0,0,0,0,0,0,0,0,0,0],"split_type":[0,0,0,0,0,0,0,0,0,0,0,0,0,0,0,0,0,0,0,0,0,0,0,0,0],"sum_hessian":[4.1E2,1.33E2,2.77E2,9.1E1,4.2E1,9.4E1,1.83E2,3.1E1,6E1,1.4E1,2.8E1,6E1,3.4E1,7.5E1,1.08E2,1.3E1,4.7E1,9E0,5.1E1,5E0,2.9E1,6.1E1,1.4E1,2.6E1,8.2E1],"tree_param":{"num_deleted":"0","num_feature":"20","num_nodes":"25","size_leaf_vector":"1"}},{"base_weights":[-0E0,4.742608E-4,-6.802234E-3,-7.801148E-4,4.59779E-3,-0E0,-4.8057243E-4,-0E0,-2.2632685E-3,-0E0,8.7497765E-3,-0E0,6.226578E-5,-1.9616722E-4,-0E0,-0E0,2.9357022E-4],"categories":[],"categories_nodes":[],"categories_segments":[],"categories_sizes":[],"default_left":[0,0,0,0,0,0,0,0,0,0,0,0,0,0,0,0,0],"id":42,"left_children":[1,3,5,7,9,-1,-1,11,13,-1,15,-1,-1,-1,-1,-1,-1],"loss_changes":[1.3839657E-3,2.7998963E-3,2.5535938E-3,5.6098273E-4,1.7133807E-3,0E0,0E0,1.8092796E-4,1.5438814E-3,0E0,4.4333236E-4,0E0,0E0,0E0,0E0,0E0,0E0],"parents":[2147483647,0,0,1,1,2,2,3,3,4,4,7,7,8,8,10,10],"right_children":[2,4,6,8,10,-1,-1,12,14,-1,16,-1,-1,-1,-1,-1,-1],"split_conditions":[1.042737E-1,6.249219E-4,4.712042E-2,-5.035971E-2,9.7780234E-1,-0E0,-4.8057243E-4,-5.6828465E-2,1.6327222E-1,-0E0,4.285714E-3,-0E0,6.226578E-5,-1.9616722E-4,-0E0,-0E0,2.9357022E-4],"split_indices":[0,11,7,18,19,0,0,0,17,0,18,0,0,0,0,0,0],"split_type":[0,0,0,0,0,0,0,0,0,0,0,0,0,0,0,0,0],"sum_hessian":[4.19E2,3.92E2,2.7E1,2.64E2,1.28E2,1.3E1,1.4E1,1.24E2,1.4E2,7.1E1,5.7E1,8.3E1,4.1E1,5.2E1,8.8E1,7E0,5E1],"tree_param":{"num_deleted":"0","num_feature":"20","num_nodes":"17","size_leaf_vector":"1"}},{"base_weights":[1.2743223E-4,-5.7893666E-4,6.004024E-3,-0E0,-4.4903503E-4,-0E0,2.0118183E-2,-1.1914887E-3,4.5005125E-3,1.2855518E-3,-0E0,-0E0,9.954453E-4,-0E0,-6.6278386E-5,-0E0,2.0935132E-4,-0E0,1.6476036E-4],"categories":[],"categories_nodes":[],"categories_segments":[],"categories_sizes":[],"default_left":[0,0,0,0,0,0,0,0,0,0,0,0,0,0,0,0,0,0,0],"id":43,"left_children":[1,3,5,7,-1,9,11,13,15,17,-1,-1,-1,-1,-1,-1,-1,-1,-1],"loss_changes":[2.8111755E-3,3.0222128E-3,4.5817206E-3,1.804346E-3,0E0,7.106367E-5,4.825796E-3,7.465804E-4,6.559257E-4,3.8136926E-4,0E0,0E0,0E0,0E0,0E0,0E0,0E0,0E0,0E0],"parents":[2147483647,0,0,1,1,2,2,3,3,5,5,6,6,7,7,8,8,9,9],"right_children":[2,4,6,8,-1,10,12,14,16,18,-1,-1,-1,-1,-1,-1,-1,-1,-1],"split_conditions":[1.2694815E-1,1.0912982E-1,2.2899012E-1,6.1519532E-3,-4.4903503E-4,1.857756E-1,9.301756E-1,-9.368118E-2,1.863125E-1,1.6214958E-1,-0E0,-0E0,9.954453E-4,-0E0,-6.6278386E-5,-0E0,2.0935132E-4,-0E0,1.6476036E-4],"split_indices":[4,0,17,11,0,17,19,0,17,17,0,0,0,0,0,0,0,0,0],"split_type":[0,0,0,0,0,0,0,0,0,0,0,0,0,0,0,0,0,0,0],"sum_hessian":[4.14E2,3.4E2,7.4E1,3.27E2,1.3E1,5.7E1,1.7E1,2.57E2,7E1,4.2E1,1.5E1,7E0,1E1,3E1,2.27E2,2.8E1,4.2E1,2.8E1,1.4E1],"tree_param":{"num_deleted":"0","num_feature":"20","num_nodes":"19","size_leaf_vector":"1"}},{"base_weights":[1.7293938E-4,3.7566552E-4,-0E0,-1.1837011E-3,1.4808231E-3,-0E0,-2.5512998E-3,-0E0,1.166047E-2,5.3719406E-5,-0E0,-1.0526148E-4,-0E0,2.3237864E-5,-7.846518E-5,-0E0,5.294924E-4],"categories":[],"categories_nodes":[],"categories_segments":[],"categories_sizes":[],"default_left":[0,0,0,0,0,0,0,0,0,0,0,0,0,0,0,0,0],"id":44,"left_children":[1,-1,3,5,7,9,11,13,15,-1,-1,-1,-1,-1,-1,-1,-1],"loss_changes":[1.5564465E-3,0E0,6.488147E-4,6.5641117E-4,1.7171511E-3,1.09018154E-4,7.406736E-4,1.9273548E-4,1.0756375E-3,0E0,0E0,0E0,0E0,0E0,0E0,0E0,0E0],"parents":[2147483647,0,0,2,2,3,3,4,4,5,5,6,6,7,7,8,8],"right_children":[2,-1,4,6,8,10,12,14,16,-1,-1,-1,-1,-1,-1,-1,-1],"split_conditions":[-2.3331491E-2,3.7566552E-4,6.249219E-4,-3.3058831E-3,1E0,-1.6380219E-2,2.701463E-1,1.042737E-1,9.4620913E-1,5.3719406E-5,-0E0,-1.0526148E-4,-0E0,2.3237864E-5,-7.846518E-5,-0E0,5.294924E-4],"split_indices":[11,0,11,15,5,11,17,0,19,0,0,0,0,0,0,0,0],"split_type":[0,0,0,0,0,0,0,0,0,0,0,0,0,0,0,0,0],"sum_hessian":[3.87E2,9E0,3.78E2,2.32E2,1.46E2,8.2E1,1.5E2,1.32E2,1.4E1,3.3E1,4.9E1,1.39E2,1.1E1,1.15E2,1.7E1,5E0,9E0],"tree_param":{"num_deleted":"0","num_feature":"20","num_nodes":"17","size_leaf_vector":"1"}},{"base_weights":[1.0615072E-3,-0E0,8.877076E-3,-1.3858775E-3,9.670493E-4,-0E0,2.458288E-2,-0E0,-2.9422804E-3,-0E0,4.8743086E-3,-0E0,1.2844622E-3,-1.8428985E-4,-0E0,1.5910002E-5,-5.849034E-5,2.577946E-4,-0E0],"categories":[],"categories_nodes":[],"categories_segments":[],"categories_sizes":[],"default_left":[0,0,0,0,0,0,0,0,0,0,0,0,0,0,0,0,0,0,0],"id":45,"left_children":[1,3,5,7,9,-1,11,-1,13,15,17,-1,-1,-1,-1,-1,-1,-1,-1],"loss_changes":[2.9974347E-3,4.8077645E-4,3.784506E-3,6.9008785E-4,1.4596309E-3,0E0,5.580297E-3,0E0,1.2828327E-3,3.3757737E-4,2.2267597E-3,0E0,0E0,0E0,0E0,0E0,0E0,0E0,0E0],"parents":[2147483647,0,0,1,1,2,2,3,3,4,4,6,6,8,8,9,9,10,10],"right_children":[2,4,6,8,10,-1,12,-1,14,16,18,-1,-1,-1,-1,-1,-1,-1,-1],"split_conditions":[1.9024855E-1,1.6191119E-1,2.2899012E-1,-1.6007079E-2,3.39581E-2,-0E0,9.3377966E-1,-0E0,-3.6520787E-4,7.27273E-4,1.5201424E-2,-0E0,1.2844622E-3,-1.8428985E-4,-0E0,1.5910002E-5,-5.849034E-5,2.577946E-4,-0E0],"split_indices":[4,17,17,11,4,0,19,0,15,15,0,0,0,0,0,0,0,0,0],"split_type":[0,0,0,0,0,0,0,0,0,0,0,0,0,0,0,0,0,0,0],"sum_hessian":[4.16E2,3.73E2,4.3E1,1.31E2,2.42E2,3.2E1,1.1E1,2.3E1,1.08E2,1.72E2,7E1,5E0,6E0,5.8E1,5E1,9.1E1,8.1E1,5.2E1,1.8E1],"tree_param":{"num_deleted":"0","num_feature":"20","num_nodes":"19","size_leaf_vector":"1"}},{"base_weights":[8.3479536E-5,-0E0,6.0171904E-3,-1.2525124E-3,2.6786968E-4,-0E0,6.159303E-4,-0E0,-4.8196027E-3,3.7737011E-3,-6.8909465E-4,1.0390094E-4,-0E0,-1.8137414E-4,-0E0,-0E0,1.6630326E-4,-7.42696E-5,-0E0],"categories":[],"categories_nodes":[],"categories_segments":[],"categories_sizes":[],"default_left":[0,0,0,0,0,0,0,0,0,0,0,0,0,0,0,0,0,0,0],"id":46,"left_children":[1,3,5,7,9,-1,-1,11,13,15,17,-1,-1,-1,-1,-1,-1,-1,-1],"loss_changes":[1.3004194E-3,3.115692E-4,2.9117868E-3,1.6779274E-3,1.3240625E-3,0E0,0E0,5.5176514E-4,8.400569E-4,9.0013817E-4,2.3059935E-4,0E0,0E0,0E0,0E0,0E0,0E0,0E0,0E0],"parents":[2147483647,0,0,1,1,2,2,3,3,4,4,7,7,8,8,9,9,10,10],"right_children":[2,4,6,8,10,-1,-1,12,14,16,18,-1,-1,-1,-1,-1,-1,-1,-1],"split_conditions":[1.2167431E0,4.293532E1,2.2788057E-1,-2.299579E-3,8.8495575E-3,-0E0,6.159303E-4,-1.7285366E-2,3.6201088E-3,-6.9994763E-3,1.2217968E-3,1.0390094E-4,-0E0,-1.8137414E-4,-0E0,-0E0,1.6630326E-4,-7.42696E-5,-0E0],"split_indices":[19,14,17,15,7,0,0,11,15,15,11,0,0,0,0,0,0,0,0],"split_type":[0,0,0,0,0,0,0,0,0,0,0,0,0,0,0,0,0,0,0],"sum_hessian":[4.32E2,3.97E2,3.5E1,1.88E2,2.09E2,2.6E1,9E0,1.04E2,8.4E1,8.9E1,1.2E2,4.5E1,5.9E1,7.6E1,8E0,1.9E1,7E1,4.6E1,7.4E1],"tree_param":{"num_deleted":"0","num_feature":"20","num_nodes":"19","size_leaf_vector":"1"}},{"base_weights":[3.3719154E-4,1.05216885E-2,-0E0,5.250683E-4,-0E0,-5.837974E-4,1.0571422E-3,2.692172E-4,-2.955423E-3,4.770632E-3,-0E0,-0E0,2.448108E-4,-1.21722E-4,-0E0,-0E0,2.2694212E-4,2.5054718E-5,-7.3738396E-5],"categories":[],"categories_nodes":[],"categories_segments":[],"categories_sizes":[],"default_left":[0,0,0,0,0,0,0,0,0,0,0,0,0,0,0,0,0,0,0],"id":47,"left_children":[1,3,5,-1,-1,7,9,11,13,15,17,-1,-1,-1,-1,-1,-1,-1,-1],"loss_changes":[1.389491E-3,1.0114609E-3,2.6791243E-4,0E0,0E0,1.0802093E-3,1.0068916E-3,1.5883386E-3,7.6442E-4,1.0483204E-3,3.5321736E-4,0E0,0E0,0E0,0E0,0E0,0E0,0E0,0E0],"parents":[2147483647,0,0,1,1,2,2,5,5,6,6,7,7,8,8,9,9,10,10],"right_children":[2,4,6,-1,-1,8,10,12,14,16,18,-1,-1,-1,-1,-1,-1,-1,-1],"split_conditions":[-2.3004694E-2,-3.5928145E-2,6.249219E-4,5.250683E-4,-0E0,1.7591675E-1,5.555556E-1,1.6327222E-1,2.701463E-1,-6.5377466E-3,5.1743057E-2,-0E0,2.448108E-4,-1.21722E-4,-0E0,-0E0,2.2694212E-4,2.5054718E-5,-7.3738396E-5],"split_indices":[11,7,11,0,0,17,3,17,17,15,16,0,0,0,0,0,0,0,0],"split_type":[0,0,0,0,0,0,0,0,0,0,0,0,0,0,0,0,0,0,0],"sum_hessian":[4.36E2,1.2E1,4.24E2,7E0,5E0,2.67E2,1.57E2,1.35E2,1.32E2,5.1E1,1.06E2,1.12E2,2.3E1,1.16E2,1.6E1,1.3E1,3.8E1,5.5E1,5.1E1],"tree_param":{"num_deleted":"0","num_feature":"20","num_nodes":"19","size_leaf_vector":"1"}},{"base_weights":[-0E0,-3.6345125E-4,4.293988E-3,9.317136E-5,-3.1000203E-3,1.1540105E-2,-4.4904526E-5,2.2556796E-3,-0E0,-4.2235465E-3,-0E0,-0E0,2.5409497E-2,-0E0,1.0047461E-4,-4.663659E-5,-0E0,-0E0,-2.1650438E-4,1.1801998E-3,-0E0],"categories":[],"categories_nodes":[],"categories_segments":[],"categories_sizes":[],"default_left":[0,0,0,0,0,0,0,0,0,0,0,0,0,0,0,0,0,0,0,0,0],"id":48,"left_children":[1,3,5,7,9,11,-1,13,15,17,-1,-1,19,-1,-1,-1,-1,-1,-1,-1,-1],"loss_changes":[8.5963414E-4,1.0590047E-3,3.8722088E-3,4.3030008E-4,8.213768E-4,2.4409774E-3,0E0,3.9755783E-4,2.1266389E-4,1.4588141E-3,0E0,0E0,2.1837424E-3,0E0,0E0,0E0,0E0,0E0,0E0,0E0,0E0],"parents":[2147483647,0,0,1,1,2,2,3,3,4,4,5,5,7,7,8,8,9,9,12,12],"right_children":[2,4,6,8,10,12,-1,14,16,18,-1,-1,20,-1,-1,-1,-1,-1,-1,-1,-1],"split_conditions":[3.3939395E-2,1.0593354E0,1.6826924E-2,-4.900817E-2,3.066675E-1,4.6548955E-2,-4.4904526E-5,1.1690256E-1,1.2217968E-3,-2.7303753E-2,-0E0,-0E0,2E0,-0E0,1.0047461E-4,-4.663659E-5,-0E0,-0E0,-2.1650438E-4,1.1801998E-3,-0E0],"split_indices":[12,19,11,18,17,18,0,17,11,7,0,0,8,0,0,0,0,0,0,0,0],"split_type":[0,0,0,0,0,0,0,0,0,0,0,0,0,0,0,0,0,0,0,0,0],"sum_hessian":[4.08E2,3.65E2,4.3E1,2.51E2,1.14E2,3.4E1,9E0,8.4E1,1.67E2,1.07E2,7E0,2.4E1,1E1,1.1E1,7.3E1,8.7E1,8E1,4.3E1,6.4E1,5E0,5E0],"tree_param":{"num_deleted":"0","num_feature":"20","num_nodes":"21","size_leaf_vector":"1"}},{"base_weights":[5.5875955E-4,5.8298684E-3,-0E0,-0E0,1.9385619E-4,-9.6647104E-4,4.505135E-3,-2.5960433E-3,-0E0,-0E0,5.756016E-4,-0E0,-1.2120123E-4,1.413977E-4,-1.38284595E-5,2.7207521E-5,-0E0],"categories":[],"categories_nodes":[],"categories_segments":[],"categories_sizes":[],"default_left":[0,0,0,0,0,0,0,0,0,0,0,0,0,0,0,0,0],"id":49,"left_children":[1,3,5,-1,-1,7,9,11,13,15,-1,-1,-1,-1,-1,-1,-1],"loss_changes":[1.2910326E-3,7.5739576E-5,1.7261766E-3,0E0,0E0,6.380821E-4,1.892435E-3,5.7441776E-4,6.1221776E-4,4.4414952E-5,0E0,0E0,0E0,0E0,0E0,0E0,0E0],"parents":[2147483647,0,0,1,1,2,2,5,5,6,6,7,7,8,8,9,9],"right_children":[2,4,6,-1,-1,8,10,12,14,16,-1,-1,-1,-1,-1,-1,-1],"split_conditions":[-4.0515654E-2,8.819666E-1,1.3295437E-1,-0E0,1.9385619E-4,2.3684211E-1,4.8850574E-2,-1.6770024E-2,-6.666667E-1,6.7687347E-3,5.756016E-4,-0E0,-1.2120123E-4,1.413977E-4,-1.38284595E-5,2.7207521E-5,-0E0],"split_indices":[12,19,4,0,0,1,18,11,13,11,0,0,0,0,0,0,0],"split_type":[0,0,0,0,0,0,0,0,0,0,0,0,0,0,0,0,0],"sum_hessian":[4.36E2,4.1E1,3.95E2,6E0,3.5E1,3.26E2,6.9E1,1.39E2,1.87E2,6.1E1,8E0,4.7E1,9.2E1,2.5E1,1.62E2,5.3E1,8E0],"tree_param":{"num_deleted":"0","num_feature":"20","num_nodes":"17","size_leaf_vector":"1"}},{"base_weights":[1.8037045E-4,-2.341744E-4,6.980674E-3,4.40941E-3,-1.2587642E-3,7.7304533E-3,-0E0,-0E0,2.9058382E-4,-2.2973786E-3,-0E0,-0E0,8.613265E-3,-0E0,-3.020703E-4,3.5582514E-5,-1.15241586E-4,3.0003153E-4,-0E0],"categories":[],"categories_nodes":[],"categories_segments":[],"categories_sizes":[],"default_left":[0,0,0,0,0,0,0,0,0,0,0,0,0,0,0,0,0,0,0],"id":50,"left_children":[1,3,5,7,9,11,-1,-1,-1,13,15,-1,17,-1,-1,-1,-1,-1,-1],"loss_changes":[2.5405656E-3,1.1405537E-3,2.7476577E-4,1.4418904E-3,5.643655E-4,3.071949E-4,0E0,0E0,0E0,2.5467672E-3,4.6744227E-4,0E0,1.8478348E-4,0E0,0E0,0E0,0E0,0E0,0E0],"parents":[2147483647,0,0,1,1,2,2,3,3,4,4,5,5,9,9,10,10,12,12],"right_children":[2,4,6,8,10,12,-1,-1,-1,14,16,-1,18,-1,-1,-1,-1,-1,-1],"split_conditions":[2.607642E-1,-4.0515654E-2,3.989672E-2,9.7413653E-1,-3.6952149E-3,0E0,-0E0,-0E0,2.9058382E-4,2.1393213E-1,7.130882E-2,-0E0,1.2258363E-2,-0E0,-3.020703E-4,3.5582514E-5,-1.15241586E-4,3.0003153E-4,-0E0],"split_indices":[17,12,11,19,0,9,0,0,0,17,0,0,15,0,0,0,0,0,0],"split_type":[0,0,0,0,0,0,0,0,0,0,0,0,0,0,0,0,0,0,0],"sum_hessian":[4.21E2,3.7E2,5.1E1,3.1E1,3.39E2,4.6E1,5E0,1E1,2.1E1,2.08E2,1.31E2,5E0,4.1E1,1.73E2,3.5E1,1.11E2,2E1,3.2E1,9E0],"tree_param":{"num_deleted":"0","num_feature":"20","num_nodes":"19","size_leaf_vector":"1"}},{"base_weights":[-0E0,3.20283E-4,-5.2914844E-4,-1.4109531E-3,3.844382E-3,-2.035282E-3,-0E0,-0E0,8.167486E-3,-0E0,-1.00115925E-4,1.05184234E-4,-0E0,-0E0,3.6379017E-4],"categories":[],"categories_nodes":[],"categories_segments":[],"categories_sizes":[],"default_left":[0,0,0,0,0,0,0,0,0,0,0,0,0,0,0],"id":51,"left_children":[1,-1,3,5,7,9,11,-1,13,-1,-1,-1,-1,-1,-1],"loss_changes":[2.6206595E-3,0E0,1.0768047E-3,6.37007E-4,1.024194E-3,7.9927733E-4,3.810838E-4,0E0,4.4405344E-4,0E0,0E0,0E0,0E0,0E0,0E0],"parents":[2147483647,0,0,2,2,3,3,4,4,5,5,6,6,8,8],"right_children":[2,-1,4,6,8,10,12,-1,14,-1,-1,-1,-1,-1,-1],"split_conditions":[2.6058428E1,3.20283E-4,1E0,7.1813285E-2,-1.6442452E-2,9.547892E-1,1.1096564E-1,-0E0,9.805686E-1,-0E0,-1.00115925E-4,1.05184234E-4,-0E0,-0E0,3.6379017E-4],"split_indices":[14,0,5,18,18,19,0,0,19,0,0,0,0,0,0],"split_type":[0,0,0,0,0,0,0,0,0,0,0,0,0,0,0],"sum_hessian":[4.24E2,2.1E1,4.03E2,3.74E2,2.9E1,3.33E2,4.1E1,8E0,2.1E1,1.38E2,1.95E2,3E1,1.1E1,9E0,1.2E1],"tree_param":{"num_deleted":"0","num_feature":"20","num_nodes":"15","size_leaf_vector":"1"}},{"base_weights":[-0E0,4.2707354E-4,-7.28029E-3,-0E0,3.726107E-3,-2.4816775E-4,-0E0,-3.82346E-4,1.776933E-4,1.3057644E-2,-0E0,5.533681E-5,-4.335626E-5,-0E0,4.5625572E-4,-0E0,-1.2993029E-5],"categories":[],"categories_nodes":[],"categories_segments":[],"categories_sizes":[],"default_left":[0,0,0,0,0,0,0,0,0,0,0,0,0,0,0,0,0],"id":52,"left_children":[1,3,5,7,9,-1,-1,11,-1,13,15,-1,-1,-1,-1,-1,-1],"loss_changes":[1.7672167E-3,6.785964E-4,8.310308E-5,5.734674E-4,4.1948305E-3,0E0,0E0,6.8730273E-4,0E0,1.4402252E-4,3.939105E-6,0E0,0E0,0E0,0E0,0E0,0E0],"parents":[2147483647,0,0,1,1,2,2,3,3,4,4,7,7,9,9,10,10],"right_children":[2,4,6,8,10,-1,-1,12,-1,14,16,-1,-1,-1,-1,-1,-1],"split_conditions":[7.945426E-3,4.3117743E-2,2E0,2.701463E-1,6.1554485E1,-2.4816775E-4,-0E0,2.9760576E1,1.776933E-4,4.8850574E-2,6.666667E-1,5.533681E-5,-4.335626E-5,-0E0,4.5625572E-4,-0E0,-1.2993029E-5],"split_indices":[15,18,8,17,14,0,0,14,0,18,13,0,0,0,0,0,0],"split_type":[0,0,0,0,0,0,0,0,0,0,0,0,0,0,0,0,0],"sum_hessian":[4.2E2,3.89E2,3.1E1,3.36E2,5.3E1,2.5E1,6E0,3.22E2,1.4E1,2.8E1,2.5E1,4.3E1,2.79E2,7E0,2.1E1,5E0,2E1],"tree_param":{"num_deleted":"0","num_feature":"20","num_nodes":"17","size_leaf_vector":"1"}},{"base_weights":[4.0460998E-4,-3.9747363E-5,6.904746E-3,1.2516708E-3,-1.4538128E-3,-0E0,1.0027677E-3,-0E0,2.929607E-3,-0E0,-2.2609497E-3,1.8091963E-3,-0E0,1.330657E-4,-0E0,-0E0,-9.873501E-5,-0E0,8.6205524E-5],"categories":[],"categories_nodes":[],"categories_segments":[],"categories_sizes":[],"default_left":[0,0,0,0,0,0,0,0,0,0,0,0,0,0,0,0,0,0,0],"id":53,"left_children":[1,3,5,7,9,11,-1,-1,13,-1,15,17,-1,-1,-1,-1,-1,-1,-1],"loss_changes":[2.600837E-3,7.179235E-4,4.0337937E-3,6.1017997E-4,6.5545284E-4,1.3092766E-4,0E0,0E0,7.56054E-4,0E0,1.1537051E-3,1.4981386E-4,0E0,0E0,0E0,0E0,0E0,0E0,0E0],"parents":[2147483647,0,0,1,1,2,2,3,3,4,4,5,5,8,8,10,10,11,11],"right_children":[2,4,6,8,10,12,-1,-1,14,-1,16,18,-1,-1,-1,-1,-1,-1,-1],"split_conditions":[1.6840035E-1,-9.330337E-2,4.600219E-2,5.7971016E-2,-9.3234636E-2,6.911765E-1,1.0027677E-3,-0E0,5.971039E1,-0E0,-1.0820146E-2,1.9024855E-1,-0E0,1.330657E-4,-0E0,-0E0,-9.873501E-5,-0E0,8.6205524E-5],"split_indices":[4,4,12,1,0,1,0,0,14,0,15,4,0,0,0,0,0,0,0],"split_type":[0,0,0,0,0,0,0,0,0,0,0,0,0,0,0,0,0,0,0],"sum_hessian":[4.24E2,3.69E2,5.5E1,1.19E2,2.5E2,5E1,5E0,2.7E1,9.2E1,1.9E1,2.31E2,3.9E1,1.1E1,7.8E1,1.4E1,1.6E1,2.15E2,6E0,3.3E1],"tree_param":{"num_deleted":"0","num_feature":"20","num_nodes":"19","size_leaf_vector":"1"}},{"base_weights":[1.0732736E-3,7.4016238E-3,-0E0,-0E0,1.2143269E-2,-2.951724E-4,5.0934926E-3,-0E0,4.3415473E-4,-0E0,-2.5344342E-3,2.899436E-4,-0E0,2.5926394E-5,-0E0,-2.2412819E-4,-0E0],"categories":[],"categories_nodes":[],"categories_segments":[],"categories_sizes":[],"default_left":[0,0,0,0,0,0,0,0,0,0,0,0,0,0,0,0,0],"id":54,"left_children":[1,3,5,-1,7,9,11,-1,-1,13,15,-1,-1,-1,-1,-1,-1],"loss_changes":[1.7496693E-3,1.4403295E-3,1.3528371E-3,0E0,2.9276544E-4,5.9335533E-4,2.5066058E-3,0E0,0E0,1.1875143E-4,1.3862725E-3,0E0,0E0,0E0,0E0,0E0,0E0],"parents":[2147483647,0,0,1,1,2,2,4,4,5,5,6,6,9,9,10,10],"right_children":[2,4,6,-1,8,10,12,-1,-1,14,16,-1,-1,-1,-1,-1,-1],"split_conditions":[-4.0515654E-2,9.7413653E-1,2.701463E-1,-0E0,1.6817477E-1,2.1086551E-1,1.4901553E-2,-0E0,4.3415473E-4,5.9900768E-2,-8.553536E-3,2.899436E-4,-0E0,2.5926394E-5,-0E0,-2.2412819E-4,-0E0],"split_indices":[12,19,17,0,17,17,15,0,0,4,11,0,0,0,0,0,0],"split_type":[0,0,0,0,0,0,0,0,0,0,0,0,0,0,0,0,0],"sum_hessian":[4.3E2,4E1,3.9E2,1.6E1,2.4E1,3.4E2,5E1,6E0,1.8E1,2.44E2,9.6E1,4E1,1E1,1.58E2,8.6E1,3.5E1,6.1E1],"tree_param":{"num_deleted":"0","num_feature":"20","num_nodes":"17","size_leaf_vector":"1"}},{"base_weights":[3.687747E-5,1.2163091E-3,-3.1451264E-3,-0E0,1.4321906E-2,-5.70288E-3,-0E0,4.8755356E-3,-7.444967E-4,-0E0,2.5745548E-2,-0E0,-7.802924E-3,2.3685269E-4,-0E0,-0E0,-6.0600294E-5,1.0904805E-3,-0E0,-0E0,-2.5496123E-4],"categories":[],"categories_nodes":[],"categories_segments":[],"categories_sizes":[],"default_left":[0,0,0,0,0,0,0,0,0,0,0,0,0,0,0,0,0,0,0,0,0],"id":55,"left_children":[1,3,5,7,9,11,-1,13,15,-1,17,-1,19,-1,-1,-1,-1,-1,-1,-1,-1],"loss_changes":[1.1943036E-3,5.631278E-3,1.2136814E-3,1.1784522E-3,2.463324E-3,2.4467183E-4,0E0,6.6082925E-4,6.067365E-4,0E0,1.953368E-3,0E0,3.5844045E-5,0E0,0E0,0E0,0E0,0E0,0E0,0E0,0E0],"parents":[2147483647,0,0,1,1,2,2,3,3,4,4,5,5,7,7,8,8,10,10,12,12],"right_children":[2,4,6,8,10,12,-1,14,16,-1,18,-1,20,-1,-1,-1,-1,-1,-1,-1,-1],"split_conditions":[5.1743057E-2,4.6307884E-2,5.8535236E-1,-9.3234636E-2,1.0391603E0,4.6307884E-2,-0E0,-4.715447E-2,-3.1901123E-3,-0E0,1.5891336E-2,-0E0,1.3958234E-1,2.3685269E-4,-0E0,-0E0,-6.0600294E-5,1.0904805E-3,-0E0,-0E0,-2.5496123E-4],"split_indices":[0,18,17,0,19,18,0,7,15,0,11,0,17,0,0,0,0,0,0,0,0],"split_type":[0,0,0,0,0,0,0,0,0,0,0,0,0,0,0,0,0,0,0,0,0],"sum_hessian":[4.19E2,3.52E2,6.7E1,3.23E2,2.9E1,5.7E1,1E1,4.2E1,2.81E2,1.7E1,1.2E1,2.3E1,3.4E1,2.6E1,1.6E1,9.5E1,1.86E2,7E0,5E0,5E0,2.9E1],"tree_param":{"num_deleted":"0","num_feature":"20","num_nodes":"21","size_leaf_vector":"1"}},{"base_weights":[-2.151711E-4,-0E0,-2.6832978E-4,8.0303784E-4,-9.2599913E-4,-4.9016366E-5,5.815361E-3,-0E0,-2.0709136E-3,-6.555375E-5,1.3712676E-4,2.0336814E-4,-0E0,-8.660453E-5,-0E0],"categories":[],"categories_nodes":[],"categories_segments":[],"categories_sizes":[],"default_left":[0,0,0,0,0,0,0,0,0,0,0,0,0,0,0],"id":56,"left_children":[1,3,-1,5,7,9,11,-1,13,-1,-1,-1,-1,-1,-1],"loss_changes":[1.1801525E-3,3.0419603E-4,0E0,2.2084343E-3,4.8552317E-4,1.2894501E-3,5.7376665E-4,0E0,4.779481E-4,0E0,0E0,0E0,0E0,0E0,0E0],"parents":[2147483647,0,0,1,1,3,3,4,4,5,5,6,6,8,8],"right_children":[2,4,-1,6,8,10,12,-1,14,-1,-1,-1,-1,-1,-1],"split_conditions":[1.2051095E-1,8.125E-1,-2.6832978E-4,5.833333E-1,-5.8524173E-2,3.5626534E-2,1.726264E-2,-0E0,1.5201424E-2,-6.555375E-5,1.3712676E-4,2.0336814E-4,-0E0,-8.660453E-5,-0E0],"split_indices":[16,2,0,2,7,12,12,0,0,0,0,0,0,0,0],"split_type":[0,0,0,0,0,0,0,0,0,0,0,0,0,0,0],"sum_hessian":[4.28E2,4.14E2,1.4E1,2.46E2,1.68E2,1.77E2,6.9E1,2.2E1,1.46E2,1.51E2,2.6E1,6.3E1,6E0,1.32E2,1.4E1],"tree_param":{"num_deleted":"0","num_feature":"20","num_nodes":"15","size_leaf_vector":"1"}},{"base_weights":[6.242261E-4,-0E0,2.0338776E-2,5.6612208E-3,-4.1981487E-4,-0E0,1.0943597E-3,8.877797E-3,-0E0,-1.7227194E-3,4.6261473E-4,3.1309653E-4,-0E0,-0E0,-1.888733E-4,1.157173E-4,-4.846227E-5],"categories":[],"categories_nodes":[],"categories_segments":[],"categories_sizes":[],"default_left":[0,0,0,0,0,0,0,0,0,0,0,0,0,0,0,0,0],"id":57,"left_children":[1,3,5,7,9,-1,-1,11,-1,13,15,-1,-1,-1,-1,-1,-1],"loss_changes":[4.796436E-3,1.1258374E-3,3.020166E-3,6.7630515E-4,6.977602E-4,0E0,0E0,8.8097295E-6,0E0,1.5629292E-3,1.4421748E-3,0E0,0E0,0E0,0E0,0E0,0E0],"parents":[2147483647,0,0,1,1,2,2,3,3,4,4,7,7,9,9,10,10],"right_children":[2,4,6,8,10,-1,-1,12,-1,14,16,-1,-1,-1,-1,-1,-1],"split_conditions":[6.456693E-2,-4.2416453E-2,-1.5421516E-2,1.2820513E-2,1.2217968E-3,-0E0,1.0943597E-3,-4.8088778E-2,-0E0,-4.4591376E-3,5.1743057E-2,3.1309653E-4,-0E0,-0E0,-1.888733E-4,1.157173E-4,-4.846227E-5],"split_indices":[12,12,4,1,11,0,0,7,0,11,0,0,0,0,0,0,0],"split_type":[0,0,0,0,0,0,0,0,0,0,0,0,0,0,0,0,0],"sum_hessian":[4.29E2,4.18E2,1.1E1,3.2E1,3.86E2,6E0,5E0,2.1E1,1.1E1,2.47E2,1.39E2,1.5E1,6E0,1.9E2,5.7E1,8.9E1,5E1],"tree_param":{"num_deleted":"0","num_feature":"20","num_nodes":"17","size_leaf_vector":"1"}},{"base_weights":[1.2751689E-4,1.4538813E-3,-4.3241344E-3,1.9632741E-4,2.1095151E-2,-0E0,-6.5381895E-3,1.3847172E-3,-3.9646568E-4,-0E0,9.625077E-4,-0E0,-2.3086593E-4,-0E0,1.2745176E-4,7.0724254E-6,-1.06918786E-4],"categories":[],"categories_nodes":[],"categories_segments":[],"categories_sizes":[],"default_left":[0,0,0,0,0,0,0,0,0,0,0,0,0,0,0,0,0],"id":58,"left_children":[1,3,5,7,9,-1,11,13,15,-1,-1,-1,-1,-1,-1,-1,-1],"loss_changes":[1.7822316E-3,4.1849473E-3,1.0288545E-3,4.320831E-4,1.2810803E-3,0E0,4.5186328E-4,1.2509521E-3,8.8676106E-4,0E0,0E0,0E0,0E0,0E0,0E0,0E0,0E0],"parents":[2147483647,0,0,1,1,2,2,3,3,4,4,6,6,7,7,8,8],"right_children":[2,4,6,8,10,-1,12,14,16,-1,-1,-1,-1,-1,-1,-1,-1],"split_conditions":[5.1743057E-2,5.5679288E-2,7.7369374E-1,1.0609733E0,9.8214287E-1,-0E0,-2.9620852E-2,0E0,-2.7303753E-2,-0E0,9.625077E-4,-0E0,-2.3086593E-4,-0E0,1.2745176E-4,7.0724254E-6,-1.06918786E-4],"split_indices":[0,12,19,19,1,0,12,10,7,0,0,0,0,0,0,0,0],"split_type":[0,0,0,0,0,0,0,0,0,0,0,0,0,0,0,0,0],"sum_hessian":[3.97E2,3.41E2,5.6E1,3.31E2,1E1,8E0,4.8E1,2.22E2,1.09E2,5E0,5E0,6E0,4.2E1,1.3E2,9.2E1,3.9E1,7E1],"tree_param":{"num_deleted":"0","num_feature":"20","num_nodes":"17","size_leaf_vector":"1"}},{"base_weights":[-2.898628E-4,1.2703978E-3,-1.6609901E-3,-0E0,4.6247984E-3,-6.702138E-3,-1.2328447E-4,-0E0,-1.3332245E-3,-0E0,8.996636E-3,-0E0,-2.9568133E-4,1.9657105E-5,-3.8662695E-3,-0E0,-7.477189E-5,-0E0,3.7412517E-4,-0E0,4.215328E-5,-0E0,-2.7379568E-4],"categories":[],"categories_nodes":[],"categories_segments":[],"categories_sizes":[],"default_left":[0,0,0,0,0,0,0,0,0,0,0,0,0,0,0,0,0,0,0,0,0,0,0],"id":59,"left_children":[1,3,5,7,9,11,13,-1,15,-1,17,-1,-1,19,21,-1,-1,-1,-1,-1,-1,-1,-1],"loss_changes":[9.979951E-4,1.1756192E-3,9.3637436E-4,6.932201E-5,2.2520064E-3,1.2595623E-3,9.0797077E-4,0E0,9.219103E-5,0E0,1.0233799E-3,0E0,0E0,2.6645794E-4,1.8368524E-3,0E0,0E0,0E0,0E0,0E0,0E0,0E0,0E0],"parents":[2147483647,0,0,1,1,2,2,3,3,4,4,5,5,6,6,8,8,10,10,13,13,14,14],"right_children":[2,4,6,8,10,12,14,-1,16,-1,18,-1,-1,20,22,-1,-1,-1,-1,-1,-1,-1,-1],"split_conditions":[-3.1901123E-3,-6.316968E-3,-6.5836295E-2,-2.7242044E-2,1.4722526E-1,-2.390091E-3,5.609678E-3,-0E0,-3.6474165E-2,-0E0,-5.39629E-2,-0E0,-2.9568133E-4,2.9213482E-1,-1.7273172E-3,-0E0,-7.477189E-5,-0E0,3.7412517E-4,-0E0,4.215328E-5,-0E0,-2.7379568E-4],"split_indices":[15,15,18,0,17,15,15,0,18,0,7,0,0,1,4,0,0,0,0,0,0,0,0],"split_type":[0,0,0,0,0,0,0,0,0,0,0,0,0,0,0,0,0,0,0,0,0,0,0],"sum_hessian":[4.28E2,1.32E2,2.96E2,6.8E1,6.4E1,3.8E1,2.58E2,3E1,3.8E1,2E1,4.4E1,8E0,3E1,1.98E2,6E1,1.3E1,2.5E1,1.5E1,2.9E1,6.4E1,1.34E2,2.8E1,3.2E1],"tree_param":{"num_deleted":"0","num_feature":"20","num_nodes":"23","size_leaf_vector":"1"}},{"base_weights":[1.5297708E-4,-1.4576952E-4,9.02369E-3,-1.3756568E-3,8.298363E-4,-0E0,2.0699067E-2,-0E0,-2.3499539E-3,4.4791666E-3,-1.3176356E-3,-0E0,8.7258796E-4,1.39031745E-5,-0E0,-0E0,-1.0844772E-4,-0E0,1.9862174E-4,-1.0858984E-4,-0E0],"categories":[],"categories_nodes":[],"categories_segments":[],"categories_sizes":[],"default_left":[0,0,0,0,0,0,0,0,0,0,0,0,0,0,0,0,0,0,0,0,0],"id":60,"left_children":[1,3,5,7,9,-1,11,13,15,17,19,-1,-1,-1,-1,-1,-1,-1,-1,-1,-1],"loss_changes":[2.929691E-3,5.9025973E-4,3.92385E-3,7.4638665E-4,1.6805072E-3,0E0,7.588761E-4,6.013724E-6,1.0855559E-3,1.4707613E-3,4.8967754E-4,0E0,0E0,0E0,0E0,0E0,0E0,0E0,0E0,0E0,0E0],"parents":[2147483647,0,0,1,1,2,2,3,3,4,4,6,6,7,7,8,8,9,9,10,10],"right_children":[2,4,6,8,10,-1,12,14,16,18,20,-1,-1,-1,-1,-1,-1,-1,-1,-1,-1],"split_conditions":[1.2167431E0,1.2217968E-3,2.2788057E-1,-9.0596355E-2,5.1743057E-2,-0E0,-3.502242E-2,-2.299579E-3,-1.710941E-2,8.3198875E-1,4.6666667E-1,-0E0,8.7258796E-4,1.39031745E-5,-0E0,-0E0,-1.0844772E-4,-0E0,1.9862174E-4,-1.0858984E-4,-0E0],"split_indices":[19,11,17,0,0,0,4,15,11,19,2,0,0,0,0,0,0,0,0,0,0],"split_type":[0,0,0,0,0,0,0,0,0,0,0,0,0,0,0,0,0,0,0,0,0],"sum_hessian":[4.34E2,3.99E2,3.5E1,2.67E2,1.32E2,2E1,1.5E1,4.1E1,2.26E2,8.3E1,4.9E1,7E0,8E0,2.7E1,1.4E1,4.8E1,1.78E2,1.2E1,7.1E1,4.3E1,6E0],"tree_param":{"num_deleted":"0","num_feature":"20","num_nodes":"21","size_leaf_vector":"1"}},{"base_weights":[2.857074E-4,5.9799906E-3,-0E0,-0E0,1.1140571E-2,-7.9016824E-4,5.5729914E-3,5.784803E-4,-0E0,2.4154948E-4,-2.1244322E-3,-0E0,1.0759118E-2,8.2507264E-5,-0E0,-8.89879E-5,-0E0,-0E0,3.9386854E-4],"categories":[],"categories_nodes":[],"categories_segments":[],"categories_sizes":[],"default_left":[0,0,0,0,0,0,0,0,0,0,0,0,0,0,0,0,0,0,0],"id":61,"left_children":[1,3,5,-1,7,9,11,-1,-1,13,15,-1,17,-1,-1,-1,-1,-1,-1],"loss_changes":[1.3245252E-3,9.992432E-4,1.1838308E-3,0E0,9.882611E-4,8.644004E-4,1.5838845E-3,0E0,0E0,5.605192E-4,8.482615E-4,0E0,2.1122047E-4,0E0,0E0,0E0,0E0,0E0,0E0],"parents":[2147483647,0,0,1,1,2,2,4,4,5,5,6,6,9,9,10,10,12,12],"right_children":[2,4,6,-1,8,10,12,-1,-1,14,16,-1,18,-1,-1,-1,-1,-1,-1],"split_conditions":[-9.3999356E-2,-6.9364333E-3,1E0,-0E0,-2.1414034E-2,-3.1901123E-3,-1.6442452E-2,5.784803E-4,-0E0,-2.3529412E-2,1E0,-0E0,-3.176416E-2,8.2507264E-5,-0E0,-8.89879E-5,-0E0,-0E0,3.9386854E-4],"split_indices":[16,4,5,0,11,15,18,0,0,18,6,0,16,0,0,0,0,0,0],"split_type":[0,0,0,0,0,0,0,0,0,0,0,0,0,0,0,0,0,0,0],"sum_hessian":[4.2E2,3.7E1,3.83E2,1.9E1,1.8E1,3.53E2,3E1,8E0,1E1,1.15E2,2.38E2,9E0,2.1E1,7.4E1,4.1E1,2.18E2,2E1,6E0,1.5E1],"tree_param":{"num_deleted":"0","num_feature":"20","num_nodes":"19","size_leaf_vector":"1"}},{"base_weights":[1.0086619E-3,4.2853467E-3,-0E0,-0E0,5.2590654E-3,-7.4635576E-3,6.023708E-4,-0E0,7.442549E-3,-0E0,-3.4519073E-4,-0E0,4.9641E-3,-0E0,2.5721238E-4,4.2130173E-6,-1.8950108E-4,-0E0,4.936116E-4],"categories":[],"categories_nodes":[],"categories_segments":[],"categories_sizes":[],"default_left":[0,0,0,0,0,0,0,0,0,0,0,0,0,0,0,0,0,0,0],"id":62,"left_children":[1,3,5,-1,7,9,11,-1,13,-1,-1,15,17,-1,-1,-1,-1,-1,-1],"loss_changes":[1.9529162E-3,1.01456E-3,2.2114825E-3,0E0,1.5833324E-3,1.5903173E-3,9.1562985E-4,0E0,1.0425108E-3,0E0,0E0,4.8295036E-4,2.50909E-3,0E0,0E0,0E0,0E0,0E0,0E0],"parents":[2147483647,0,0,1,1,2,2,4,4,5,5,6,6,8,8,11,11,12,12],"right_children":[2,4,6,-1,8,10,12,-1,14,-1,-1,16,18,-1,-1,-1,-1,-1,-1],"split_conditions":[-3.1901123E-3,-2.0025459E-1,-6.5836295E-2,-0E0,1.4722526E-1,-2.3431703E-3,1.4847656E-1,-0E0,-1.289674E-2,-0E0,-3.4519073E-4,1.0912982E-1,1.0503935E0,-0E0,2.5721238E-4,4.2130173E-6,-1.8950108E-4,-0E0,4.936116E-4],"split_indices":[15,4,18,0,17,15,4,0,15,0,0,16,19,0,0,0,0,0,0],"split_type":[0,0,0,0,0,0,0,0,0,0,0,0,0,0,0,0,0,0,0],"sum_hessian":[4.26E2,1.29E2,2.97E2,7E0,1.22E2,3.7E1,2.6E2,3.3E1,8.9E1,1E1,2.7E1,2.2E2,4E1,8E0,8.1E1,2.09E2,1.1E1,2.8E1,1.2E1],"tree_param":{"num_deleted":"0","num_feature":"20","num_nodes":"19","size_leaf_vector":"1"}},{"base_weights":[-0E0,7.475696E-3,-4.890953E-4,5.165964E-4,-0E0,-0E0,-6.824146E-3,-1.1512992E-3,5.5292067E-3,-0E0,-2.732439E-4,-0E0,-5.7680983E-5,2.7358037E-4,-0E0],"categories":[],"categories_nodes":[],"categories_segments":[],"categories_sizes":[],"default_left":[0,0,0,0,0,0,0,0,0,0,0,0,0,0,0],"id":63,"left_children":[1,3,5,-1,-1,7,9,11,13,-1,-1,-1,-1,-1,-1],"loss_changes":[2.1560532E-3,1.490508E-3,1.1225231E-3,0E0,0E0,2.1828457E-3,4.4836733E-4,5.746775E-4,2.1048805E-3,0E0,0E0,0E0,0E0,0E0,0E0],"parents":[2147483647,0,0,1,1,2,2,5,5,6,6,7,7,8,8],"right_children":[2,4,6,-1,-1,8,10,12,14,-1,-1,-1,-1,-1,-1],"split_conditions":[-9.368118E-2,-2.1414034E-2,5.4499365E-2,5.165964E-4,-0E0,3.7410073E-2,1.8359987E-1,-7.476635E-2,1.042737E-1,-0E0,-2.732439E-4,-0E0,-5.7680983E-5,2.7358037E-4,-0E0],"split_indices":[0,11,7,0,0,18,17,18,0,0,0,0,0,0,0],"split_type":[0,0,0,0,0,0,0,0,0,0,0,0,0,0,0],"sum_hessian":[4.04E2,3.6E1,3.68E2,1.1E1,2.5E1,3.43E2,2.5E1,2.85E2,5.8E1,6E0,1.9E1,2.8E1,2.57E2,4.6E1,1.2E1],"tree_param":{"num_deleted":"0","num_feature":"20","num_nodes":"15","size_leaf_vector":"1"}},{"base_weights":[1.7357977E-4,-9.3012495E-5,6.174882E-3,-0E0,-7.642631E-3,-0E0,1.279388E-2,-8.842832E-4,1.1590985E-3,-0E0,-4.1303193E-4,5.707688E-4,-0E0,6.2184095E-6,-8.288838E-5,2.1973705E-4,-0E0],"categories":[],"categories_nodes":[],"categories_segments":[],"categories_sizes":[],"default_left":[0,0,0,0,0,0,0,0,0,0,0,0,0,0,0,0,0],"id":64,"left_children":[1,3,5,7,9,-1,11,13,15,-1,-1,-1,-1,-1,-1,-1,-1],"loss_changes":[1.8969061E-3,1.0481236E-3,2.5129928E-3,3.9718422E-4,8.4412785E-4,0E0,2.8200373E-3,8.2751055E-4,1.6546122E-3,0E0,0E0,0E0,0E0,0E0,0E0,0E0,0E0],"parents":[2147483647,0,0,1,1,2,2,3,3,4,4,6,6,7,7,8,8],"right_children":[2,4,6,8,10,-1,12,14,16,-1,-1,-1,-1,-1,-1,-1,-1],"split_conditions":[1.9024855E-1,1.042737E-1,9.301756E-1,1.875E-1,-1.1669252E-1,-0E0,1.284838E0,-5.8524173E-2,-1.9877676E-2,-0E0,-4.1303193E-4,5.707688E-4,-0E0,6.2184095E-6,-8.288838E-5,2.1973705E-4,-0E0],"split_indices":[4,0,19,1,4,0,19,7,7,0,0,0,0,0,0,0,0],"split_type":[0,0,0,0,0,0,0,0,0,0,0,0,0,0,0,0,0],"sum_hessian":[4.24E2,3.75E2,4.9E1,3.58E2,1.7E1,2.3E1,2.6E1,1.53E2,2.05E2,8E0,9E0,1.9E1,7E0,3E1,1.23E2,3.5E1,1.7E2],"tree_param":{"num_deleted":"0","num_feature":"20","num_nodes":"17","size_leaf_vector":"1"}},{"base_weights":[8.197227E-4,-0E0,4.6367594E-3,6.209726E-4,-2.6922736E-3,-0E0,2.314834E-2,-3.2009816E-4,3.6200446E-3,-0E0,-9.124575E-3,-0E0,-1.0929591E-4,-0E0,1.0196236E-3,-0E0,-1.0222694E-4,2.4770424E-4,-0E0,-9.081097E-5,3.3527343E-5,-0E0,-4.1022818E-4,-0E0,9.128116E-5],"categories":[],"categories_nodes":[],"categories_segments":[],"categories_sizes":[],"default_left":[0,0,0,0,0,0,0,0,0,0,0,0,0,0,0,0,0,0,0,0,0,0,0,0,0],"id":65,"left_children":[1,3,5,7,9,11,13,15,17,19,21,23,-1,-1,-1,-1,-1,-1,-1,-1,-1,-1,-1,-1,-1],"loss_changes":[1.4935094E-3,6.504385E-4,8.932452E-3,1.4429359E-3,9.550166E-4,2.521848E-4,4.3E-3,7.3825085E-4,2.0118407E-3,2.715385E-4,9.321729E-4,1.2961279E-4,0E0,0E0,0E0,0E0,0E0,0E0,0E0,0E0,0E0,0E0,0E0,0E0,0E0],"parents":[2147483647,0,0,1,1,2,2,3,3,4,4,5,5,6,6,7,7,8,8,9,9,10,10,11,11],"right_children":[2,4,6,8,10,12,14,16,18,20,22,24,-1,-1,-1,-1,-1,-1,-1,-1,-1,-1,-1,-1,-1],"split_conditions":[1.2694815E-1,1.726264E-2,2.2899012E-1,2.3684211E-1,1.6826924E-2,1.857756E-1,9.3377966E-1,3.6327736E1,5.257143E-1,5.4026367E1,4.3560605E-2,1.6327222E-1,-1.0929591E-4,-0E0,1.0196236E-3,-0E0,-1.0222694E-4,2.4770424E-4,-0E0,-9.081097E-5,3.3527343E-5,-0E0,-4.1022818E-4,-0E0,9.128116E-5],"split_indices":[4,12,17,1,11,17,19,14,1,14,7,17,0,0,0,0,0,0,0,0,0,0,0,0,0],"split_type":[0,0,0,0,0,0,0,0,0,0,0,0,0,0,0,0,0,0,0,0,0,0,0,0,0],"sum_hessian":[4.32E2,3.5E2,8.2E1,2.76E2,7.4E1,6.3E1,1.9E1,1.6E2,1.16E2,5.7E1,1.7E1,4.5E1,1.8E1,7E0,1.2E1,9.6E1,6.4E1,5.1E1,6.5E1,2.4E1,3.3E1,5E0,1.2E1,3.2E1,1.3E1],"tree_param":{"num_deleted":"0","num_feature":"20","num_nodes":"25","size_leaf_vector":"1"}},{"base_weights":[-0E0,-2.9235025E-4,7.864942E-3,-1.0914295E-3,1.6603351E-3,1.165522E-2,-0E0,-0E0,-3.3888386E-3,4.1505494E-3,-0E0,1.6690914E-2,-0E0,2.3291403E-5,-5.0403716E-5,-1.3398465E-4,-0E0,1.6544724E-4,-0E0,-0E0,8.852529E-4],"categories":[],"categories_nodes":[],"categories_segments":[],"categories_sizes":[],"default_left":[0,0,0,0,0,0,0,0,0,0,0,0,0,0,0,0,0,0,0,0,0],"id":66,"left_children":[1,3,5,7,9,11,-1,13,15,17,-1,19,-1,-1,-1,-1,-1,-1,-1,-1,-1],"loss_changes":[2.198937E-3,5.0749007E-4,1.366942E-3,9.896774E-4,5.360897E-4,2.3183709E-3,0E0,2.786904E-4,9.2118524E-4,1.969696E-4,0E0,1.9864077E-3,0E0,0E0,0E0,0E0,0E0,0E0,0E0,0E0,0E0],"parents":[2147483647,0,0,1,1,2,2,3,3,4,4,5,5,7,7,8,8,9,9,11,11],"right_children":[2,4,6,8,10,12,-1,14,16,18,-1,20,-1,-1,-1,-1,-1,-1,-1,-1,-1],"split_conditions":[1.2167431E0,2.552333E-1,2E0,5.9900768E-2,6.2654026E1,1.8196977E0,-0E0,1.0609733E0,4.3062203E-2,1.0395159E0,-0E0,2.2254443E-2,-0E0,2.3291403E-5,-5.0403716E-5,-1.3398465E-4,-0E0,1.6544724E-4,-0E0,-0E0,8.852529E-4],"split_indices":[19,17,8,4,14,19,0,19,12,19,0,4,0,0,0,0,0,0,0,0,0],"split_type":[0,0,0,0,0,0,0,0,0,0,0,0,0,0,0,0,0,0,0,0,0],"sum_hessian":[4.3E2,3.96E2,3.4E1,3.54E2,4.2E1,2.5E1,9E0,2.32E2,1.22E2,3.7E1,5E0,2E1,5E0,1.71E2,6.1E1,1.16E2,6E0,2.7E1,1E1,1.2E1,8E0],"tree_param":{"num_deleted":"0","num_feature":"20","num_nodes":"21","size_leaf_vector":"1"}},{"base_weights":[-0E0,4.3869478E-4,-6.4728374E-4,-0E0,-2.2731086E-3,-0E0,1.8717116E-4,-3.9661527E-3,3.7607818E-4,-0E0,-9.395689E-5,8.728119E-5,-0E0,-1.5903648E-4,-0E0,1.4788215E-4,-0E0],"categories":[],"categories_nodes":[],"categories_segments":[],"categories_sizes":[],"default_left":[0,0,0,0,0,0,0,0,0,0,0,0,0,0,0,0,0],"id":67,"left_children":[1,-1,3,5,7,9,11,13,15,-1,-1,-1,-1,-1,-1,-1,-1],"loss_changes":[2.5256611E-3,0E0,5.7059503E-4,6.2008485E-6,1.365374E-3,4.1196853E-4,4.4241507E-4,1.1239634E-3,1.4423841E-4,0E0,0E0,0E0,0E0,0E0,0E0,0E0,0E0],"parents":[2147483647,0,0,2,2,3,3,4,4,5,5,6,6,7,7,8,8],"right_children":[2,-1,4,6,8,10,12,14,16,-1,-1,-1,-1,-1,-1,-1,-1],"split_conditions":[-2.3307566E-2,4.3869478E-4,5.9900768E-2,-9.934051E-3,4.418985E-2,-1.6007079E-2,-1.3138686E-2,3.837283E-1,1.1096564E-1,-0E0,-9.395689E-5,8.728119E-5,-0E0,-1.5903648E-4,-0E0,1.4788215E-4,-0E0],"split_indices":[11,0,4,11,12,11,18,4,0,0,0,0,0,0,0,0,0],"split_type":[0,0,0,0,0,0,0,0,0,0,0,0,0,0,0,0,0],"sum_hessian":[4.23E2,1E1,4.13E2,2.7E2,1.43E2,9.4E1,1.76E2,1.33E2,1E1,5.3E1,4.1E1,5.2E1,1.24E2,1.14E2,1.9E1,5E0,5E0],"tree_param":{"num_deleted":"0","num_feature":"20","num_nodes":"17","size_leaf_vector":"1"}},{"base_weights":[-0E0,9.135497E-3,-4.243124E-4,3.8754285E-4,-0E0,-0E0,-4.843472E-3,-1.0627633E-3,1.1663027E-3,-0E0,-6.1167222E-3,-6.319429E-5,-0E0,-0E0,8.315288E-5,-0E0,-2.825629E-4],"categories":[],"categories_nodes":[],"categories_segments":[],"categories_sizes":[],"default_left":[0,0,0,0,0,0,0,0,0,0,0,0,0,0,0,0,0],"id":68,"left_children":[1,3,5,-1,-1,7,9,11,13,-1,15,-1,-1,-1,-1,-1,-1],"loss_changes":[1.7426029E-3,5.002571E-4,6.0686073E-4,0E0,0E0,4.6886943E-4,1.8021121E-4,5.569981E-4,5.7951635E-4,0E0,3.8145483E-4,0E0,0E0,0E0,0E0,0E0,0E0],"parents":[2147483647,0,0,1,1,2,2,5,5,6,6,7,7,8,8,10,10],"right_children":[2,4,6,-1,-1,8,10,12,14,-1,16,-1,-1,-1,-1,-1,-1],"split_conditions":[2.6058428E1,-4.141414E-2,5.6229327E-2,3.8754285E-4,-0E0,2.3019667E-4,8.215607E-3,2.4586825E-1,-1.618929E-2,-0E0,1.7363293E-2,-6.319429E-5,-0E0,-0E0,8.315288E-5,-0E0,-2.825629E-4],"split_indices":[14,12,7,0,0,15,0,17,18,0,11,0,0,0,0,0,0],"split_type":[0,0,0,0,0,0,0,0,0,0,0,0,0,0,0,0,0],"sum_hessian":[4.26E2,1.9E1,4.07E2,1.2E1,7E0,3.79E2,2.8E1,2.13E2,1.66E2,6E0,2.2E1,1.79E2,3.4E1,6.2E1,1.04E2,9E0,1.3E1],"tree_param":{"num_deleted":"0","num_feature":"20","num_nodes":"17","size_leaf_vector":"1"}},{"base_weights":[-0E0,4.5001847E-3,-6.1106996E-4,-0E0,2.852914E-4,-1.5003094E-3,2.9096033E-3,-0E0,-3.2307673E-3,-0E0,7.625899E-3,-1.273872E-5,5.33454E-5,-1.2446959E-4,-0E0,-0E0,3.9003536E-4],"categories":[],"categories_nodes":[],"categories_segments":[],"categories_sizes":[],"default_left":[0,0,0,0,0,0,0,0,0,0,0,0,0,0,0,0,0],"id":69,"left_children":[1,3,5,-1,-1,7,9,11,13,-1,15,-1,-1,-1,-1,-1,-1],"loss_changes":[1.050232E-3,1.0782375E-3,8.871349E-4,0E0,0E0,1.023243E-3,1.0254215E-3,1.8623703E-4,3.7366338E-4,0E0,9.1800326E-4,0E0,0E0,0E0,0E0,0E0,0E0],"parents":[2147483647,0,0,1,1,2,2,5,5,6,6,7,7,8,8,10,10],"right_children":[2,4,6,-1,-1,8,10,12,14,-1,16,-1,-1,-1,-1,-1,-1],"split_conditions":[-9.3234636E-2,-6.9364333E-3,1E0,-0E0,2.852914E-4,-1.3468013E-2,-1.6442452E-2,4.267359E1,6.666667E-1,-0E0,9.805686E-1,-1.273872E-5,5.33454E-5,-1.2446959E-4,-0E0,-0E0,3.9003536E-4],"split_indices":[0,4,5,0,0,7,18,14,13,0,19,0,0,0,0,0,0],"split_type":[0,0,0,0,0,0,0,0,0,0,0,0,0,0,0,0,0],"sum_hessian":[4.15E2,4.4E1,3.71E2,2.3E1,2.1E1,3.42E2,2.9E1,1.71E2,1.71E2,8E0,2.1E1,1.2E2,5.1E1,1.25E2,4.6E1,9E0,1.2E1],"tree_param":{"num_deleted":"0","num_feature":"20","num_nodes":"17","size_leaf_vector":"1"}},{"base_weights":[8.9235685E-4,1.7736066E-3,-1.1050809E-3,-0E0,2.319966E-3,-0E0,-3.58691E-3,-0E0,-5.3077605E-5,-0E0,4.305715E-3,-0E0,-5.9079435E-3,1.2157024E-4,-2.7938557E-5,-0E0,1.7609585E-4,-0E0,-2.6241303E-4],"categories":[],"categories_nodes":[],"categories_segments":[],"categories_sizes":[],"default_left":[0,0,0,0,0,0,0,0,0,0,0,0,0,0,0,0,0,0,0],"id":70,"left_children":[1,3,5,7,9,-1,11,-1,-1,13,15,-1,17,-1,-1,-1,-1,-1,-1],"loss_changes":[8.9960994E-4,6.5215037E-4,4.10748E-4,7.825645E-5,1.0543759E-3,0E0,5.5820885E-4,0E0,0E0,1.0625916E-3,1.9157107E-3,0E0,6.3614536E-4,0E0,0E0,0E0,0E0,0E0,0E0],"parents":[2147483647,0,0,1,1,2,2,3,3,4,4,6,6,9,9,10,10,12,12],"right_children":[2,4,6,8,10,-1,12,-1,-1,14,16,-1,18,-1,-1,-1,-1,-1,-1],"split_conditions":[5.1743057E-2,7.9369384E-1,-9.253427E-4,-7.825549E-2,0E0,-0E0,8.2079303E-1,-0E0,-5.3077605E-5,-5.7662553E-3,-6.5836295E-2,-0E0,4.6307884E-2,1.2157024E-4,-2.7938557E-5,-0E0,1.7609585E-4,-0E0,-2.6241303E-4],"split_indices":[0,19,15,0,10,0,19,0,0,15,18,0,18,0,0,0,0,0,0],"split_type":[0,0,0,0,0,0,0,0,0,0,0,0,0,0,0,0,0,0,0],"sum_hessian":[4.33E2,3.7E2,6.3E1,3.3E1,3.37E2,2.6E1,3.7E1,9E0,2.4E1,1.83E2,1.54E2,8E0,2.9E1,5.7E1,1.26E2,1.6E1,1.38E2,8E0,2.1E1],"tree_param":{"num_deleted":"0","num_feature":"20","num_nodes":"19","size_leaf_vector":"1"}},{"base_weights":[7.4227504E-4,7.186003E-3,-0E0,1.3493676E-2,-0E0,-1.6602459E-3,3.0334187E-3,-0E0,4.865545E-4,-0E0,-2.46492E-3,-0E0,4.5103333E-3,2.2259774E-5,-0E0,-0E0,-9.9980825E-5,-0E0,2.4210897E-4],"categories":[],"categories_nodes":[],"categories_segments":[],"categories_sizes":[],"default_left":[0,0,0,0,0,0,0,0,0,0,0,0,0,0,0,0,0,0,0],"id":71,"left_children":[1,3,5,7,-1,9,11,-1,-1,13,15,-1,17,-1,-1,-1,-1,-1,-1],"loss_changes":[1.7341657E-3,2.0434763E-3,1.9507005E-3,4.659216E-4,0E0,6.5910874E-4,1.2658014E-3,0E0,0E0,9.359399E-6,5.4246455E-4,0E0,1.0840341E-3,0E0,0E0,0E0,0E0,0E0,0E0],"parents":[2147483647,0,0,1,1,2,2,3,3,5,5,6,6,9,9,10,10,12,12],"right_children":[2,4,6,8,-1,10,12,-1,-1,14,16,-1,18,-1,-1,-1,-1,-1,-1],"split_conditions":[-9.3234636E-2,-4.715447E-2,6.249219E-4,-1.09321974E-1,-0E0,-1.0820146E-2,8.0526775E-1,-0E0,4.865545E-4,9.756097E-2,1.3398577E-1,-0E0,-2.5278682E-2,2.2259774E-5,-0E0,-0E0,-9.9980825E-5,-0E0,2.4210897E-4],"split_indices":[0,7,11,4,0,15,19,0,0,3,17,0,4,0,0,0,0,0,0],"split_type":[0,0,0,0,0,0,0,0,0,0,0,0,0,0,0,0,0,0,0],"sum_hessian":[4.13E2,3.7E1,3.76E2,2.1E1,1.6E1,2.36E2,1.4E2,5E0,1.6E1,2.1E1,2.15E2,1.5E1,1.25E2,1.6E1,5E0,4.9E1,1.66E2,7E1,5.5E1],"tree_param":{"num_deleted":"0","num_feature":"20","num_nodes":"19","size_leaf_vector":"1"}},{"base_weights":[2.3730723E-4,6.9089425E-3,-0E0,-0E0,2.8510348E-4,-1.4425871E-3,1.8629922E-4,-0E0,-3.233753E-3,1.0456197E-2,-3.07419E-5,-1.8328936E-4,-0E0,-0E0,4.2229667E-4,-1.6745512E-4,-0E0],"categories":[],"categories_nodes":[],"categories_segments":[],"categories_sizes":[],"default_left":[0,0,0,0,0,0,0,0,0,0,0,0,0,0,0,0,0],"id":72,"left_children":[1,3,5,-1,-1,7,9,-1,11,13,15,-1,-1,-1,-1,-1,-1],"loss_changes":[1.7428809E-3,4.917497E-4,2.9960845E-4,0E0,0E0,7.648249E-4,2.6159124E-3,0E0,1.0715098E-3,1.1408697E-3,1.1214456E-3,0E0,0E0,0E0,0E0,0E0,0E0],"parents":[2147483647,0,0,1,1,2,2,5,5,6,6,8,8,9,9,10,10],"right_children":[2,4,6,-1,-1,8,10,-1,12,14,16,-1,-1,-1,-1,-1,-1],"split_conditions":[-4.0515654E-2,9.7413653E-1,1.6214958E-1,-0E0,2.8510348E-4,-1.4509644E-2,1.6737357E-1,-0E0,2.6904864E-4,-3.214883E-2,-6.227758E-2,-1.8328936E-4,-0E0,-0E0,4.2229667E-4,-1.6745512E-4,-0E0],"split_indices":[12,19,17,0,0,11,17,0,11,4,18,0,0,0,0,0,0],"split_type":[0,0,0,0,0,0,0,0,0,0,0,0,0,0,0,0,0],"sum_hessian":[4.12E2,3.6E1,3.76E2,1.2E1,2.4E1,1.39E2,2.37E2,3.9E1,1E2,2.3E1,2.14E2,5.6E1,4.4E1,5E0,1.8E1,3.5E1,1.79E2],"tree_param":{"num_deleted":"0","num_feature":"20","num_nodes":"17","size_leaf_vector":"1"}},{"base_weights":[6.173782E-4,-0E0,4.2816205E-3,-0E0,-1.3002442E-3,7.2329016E-3,-0E0,-1.3589821E-4,1.7824239E-3,-0E0,-5.0961925E-3,4.3049883E-4,1.745253E-2,-0E0,-1.07926375E-4,-0E0,1.7180866E-4,3.5784706E-5,-1.21045254E-4,-0E0,-2.758608E-4,1.167272E-4,-0E0,8.784564E-4,-0E0],"categories":[],"categories_nodes":[],"categories_segments":[],"categories_sizes":[],"default_left":[0,0,0,0,0,0,0,0,0,0,0,0,0,0,0,0,0,0,0,0,0,0,0,0,0],"id":73,"left_children":[1,3,5,7,9,11,-1,13,15,17,19,21,23,-1,-1,-1,-1,-1,-1,-1,-1,-1,-1,-1,-1],"loss_changes":[1.4352037E-3,1.3186954E-4,1.9101879E-3,3.711401E-4,3.3561166E-4,1.0735891E-3,0E0,7.3510915E-4,1.1729706E-3,3.259293E-4,6.3172926E-4,3.3837807E-4,3.1479946E-3,0E0,0E0,0E0,0E0,0E0,0E0,0E0,0E0,0E0,0E0,0E0,0E0],"parents":[2147483647,0,0,1,1,2,2,3,3,4,4,5,5,7,7,8,8,9,9,10,10,11,11,12,12],"right_children":[2,4,6,8,10,12,-1,14,16,18,20,22,24,-1,-1,-1,-1,-1,-1,-1,-1,-1,-1,-1,-1],"split_conditions":[1.2694815E-1,1.726264E-2,2E0,2.3684211E-1,1.6826924E-2,6.329114E-3,-0E0,3.6147076E1,4.7428572E-1,4.074074E-1,2.3450587E-2,-6.838395E-2,3.837283E-1,-0E0,-1.07926375E-4,-0E0,1.7180866E-4,3.5784706E-5,-1.21045254E-4,-0E0,-2.758608E-4,1.167272E-4,-0E0,8.784564E-4,-0E0],"split_indices":[4,12,8,1,11,18,0,14,2,2,12,0,4,0,0,0,0,0,0,0,0,0,0,0,0],"split_type":[0,0,0,0,0,0,0,0,0,0,0,0,0,0,0,0,0,0,0,0,0,0,0,0,0],"sum_hessian":[4.18E2,3.32E2,8.6E1,2.55E2,7.7E1,6.6E1,2E1,1.4E2,1.15E2,6E1,1.7E1,5.2E1,1.4E1,8.4E1,5.6E1,6.9E1,4.6E1,4.5E1,1.5E1,5E0,1.2E1,2.2E1,3E1,8E0,6E0],"tree_param":{"num_deleted":"0","num_feature":"20","num_nodes":"25","size_leaf_vector":"1"}}]},"name":"gbtree"},"learner_model_param":{"base_score":"[-2.2692438E-3]","boost_from_average":"1","num_class":"0","num_feature":"20","num_target":"1"},"objective":{"name":"reg:squarederror","reg_loss_param":{"scale_pos_weight":"1"}}},"version":[3,2,0]}