{"learner":{"attributes":{"scikit_learn":"{\"_estimator_type\": \"regressor\"}"},"feature_names":["macd_trend","macd_hist_direction","macd_momentum_decay","momentum_20","vol_ratio","price_momentum_5d","price_momentum_20d","macd_bottom_divergence","macd_top_divergence","rsi_bottom_divergence","rsi_top_divergence","volume_breakout","volume_pullback","volume_dry_up","volume_climax","rsi_extreme","boll_position","ma_bias","volatility_20","pe_rank","pb_rank","roe_level","revenue_growth","debt_level","main_inflow_5d","elg_ratio","margin_delta_5d","northbound_net_5d","turnover_extreme","holder_count_trend","insider_net_30d","trig_ma60_bias","trig_pos_in_20d","trig_dist_from_high","trig_dist_from_low","trig_vol_change","trig_break_above","trig_break_below","trig_price_trend_10d","trend_dir_ord","trend_phase_ord","trend_short_dir_ord","trend_ma_slope","trend_ret_5d","trend_ma_alignment","comp_lag1","comp_lag3","comp_lag5","comp_delta_3d","comp_delta_5d","comp_std_5d","comp_sign_changes_10d","comp_roll_max_10d","tech_rsi14","tech_macd_hist","tech_ma60_bias","tech_volatility_20","tech_momentum_20","tech_turnover_rate","tech_vol_ratio"],"feature_types":["float","float","float","float","float","float","float","float","float","float","float","float","float","float","float","float","float","float","float","float","float","float","float","float","float","float","float","float","float","float","float","float","float","float","float","float","float","float","float","float","float","float","float","float","float","float","float","float","float","float","float","float","float","float","float","float","float","float","float","float"],"gradient_booster":{"model":{"cats":{"enc":[],"feature_segments":[],"sorted_idx":[]},"gbtree_model_param":{"num_parallel_tree":"1","num_trees":"50"},"iteration_indptr":[0,1,2,3,4,5,6,7,8,9,10,11,12,13,14,15,16,17,18,19,20,21,22,23,24,25,26,27,28,29,30,31,32,33,34,35,36,37,38,39,40,41,42,43,44,45,46,47,48,49,50],"tree_info":[0,0,0,0,0,0,0,0,0,0,0,0,0,0,0,0,0,0,0,0,0,0,0,0,0,0,0,0,0,0,0,0,0,0,0,0,0,0,0,0,0,0,0,0,0,0,0,0,0,0],"trees":[{"base_weights":[-1.3809217E-3,-1.8840823E-2,8.491177E-3,-3.7977418E-3,-5.230515E-3,-6.649291E-4,2.3701167E-2,8.002032E-4,-1.1938732E-3,2.226418E-3,2.906335E-4],"categories":[],"categories_nodes":[],"categories_segments":[],"categories_sizes":[],"default_left":[0,0,0,0,0,0,0,0,0,0,0],"id":0,"left_children":[1,3,5,7,-1,-1,9,-1,-1,-1,-1],"loss_changes":[1.2770218E-1,2.9981664E-1,1.5033166E-1,1.0052614E-1,0E0,0E0,7.527754E-2,0E0,0E0,0E0,0E0],"parents":[2147483647,0,0,1,1,2,2,3,3,6,6],"right_children":[2,4,6,8,-1,-1,10,-1,-1,-1,-1],"split_conditions":[1.90826E-1,1.82304E-1,-3.1377652E-3,-4.2822855E-3,-5.230515E-3,-6.649291E-4,5.2305E-2,8.002032E-4,-1.1938732E-3,2.226418E-3,2.906335E-4],"split_indices":[52,52,42,42,0,0,55,0,0,0,0],"split_type":[0,0,0,0,0,0,0,0,0,0,0],"sum_hessian":[7.07E2,2.73E2,4.34E2,2.39E2,3.4E1,1.65E2,2.69E2,1.08E2,1.31E2,1.1E2,1.59E2],"tree_param":{"num_deleted":"0","num_feature":"60","num_nodes":"11","size_leaf_vector":"1"}},{"base_weights":[3.3425627E-4,-4.47417E-3,3.5125703E-2,-2.1550048E-2,3.2804155E-4,2.3810135E-3,-0E0,-2.5881096E-3,-0E0],"categories":[],"categories_nodes":[],"categories_segments":[],"categories_sizes":[],"default_left":[0,0,0,0,0,0,0,0,0],"id":1,"left_children":[1,3,5,7,-1,-1,-1,-1,-1],"loss_changes":[1.3157351E-1,1.2045991E-1,5.039671E-2,1.3972077E-1,0E0,0E0,0E0,0E0,0E0],"parents":[2147483647,0,0,1,1,2,2,3,3],"right_children":[2,4,6,8,-1,-1,-1,-1,-1],"split_conditions":[-6.06695E-1,3.14683E-1,1E0,1.87492E-1,3.2804155E-4,2.3810135E-3,-0E0,-2.5881096E-3,-0E0],"split_indices":[20,56,51,52,0,0,0,0,0],"split_type":[0,0,0,0,0,0,0,0,0],"sum_hessian":[6.91E2,5.96E2,9.5E1,2.51E2,3.45E2,7.3E1,2.2E1,9.4E1,1.57E2],"tree_param":{"num_deleted":"0","num_feature":"60","num_nodes":"9","size_leaf_vector":"1"}},{"base_weights":[1.1729685E-3,-6.153689E-3,1.6964803E-3,-1.5172622E-2,1.6960546E-2,-0E0,-1.6905349E-3,-0E0,3.1246566E-3],"categories":[],"categories_nodes":[],"categories_segments":[],"categories_sizes":[],"default_left":[0,0,0,0,0,0,0,0,0],"id":2,"left_children":[1,3,-1,5,7,-1,-1,-1,-1],"loss_changes":[1.8134323E-1,1.159446E-1,0E0,1.1411487E-1,1.1146253E-1,0E0,0E0,0E0,0E0],"parents":[2147483647,0,0,1,1,3,3,4,4],"right_children":[2,4,-1,6,8,-1,-1,-1,-1],"split_conditions":[6.73469E-1,1.4482701E-2,1.6964803E-3,-8.172222E-3,-1.70053E-1,-0E0,-1.6905349E-3,-0E0,3.1246566E-3],"split_indices":[19,42,0,38,17,0,0,0,0],"split_type":[0,0,0,0,0,0,0,0,0],"sum_hessian":[6.94E2,5.56E2,1.38E2,4.16E2,1.4E2,2.34E2,1.82E2,1.03E2,3.7E1],"tree_param":{"num_deleted":"0","num_feature":"60","num_nodes":"9","size_leaf_vector":"1"}},{"base_weights":[-0E0,1.103116E-2,-1.1995948E-2,1.280736E-4,1.738178E-3,-1.2745692E-4,-6.9246404E-2,-0E0,-6.295168E-3],"categories":[],"categories_nodes":[],"categories_segments":[],"categories_sizes":[],"default_left":[0,0,0,0,0,0,0,0,0],"id":3,"left_children":[1,3,5,-1,-1,-1,7,-1,-1],"loss_changes":[9.41731E-2,5.3521566E-2,1.5304114E-1,0E0,0E0,0E0,1.4734371E-1,0E0,0E0],"parents":[2147483647,0,0,1,1,2,2,6,6],"right_children":[2,4,6,-1,-1,-1,8,-1,-1],"split_conditions":[1.9193E-2,-6.37097E-1,2.4617969E-3,1.280736E-4,1.738178E-3,-1.2745692E-4,4.60908E1,-0E0,-6.295168E-3],"split_indices":[17,20,42,0,0,0,53,0,0],"split_type":[0,0,0,0,0,0,0,0,0],"sum_hessian":[7.06E2,3.58E2,3.48E2,2.81E2,7.7E1,3.08E2,4E1,2E1,2E1],"tree_param":{"num_deleted":"0","num_feature":"60","num_nodes":"9","size_leaf_vector":"1"}},{"base_weights":[-3.1528205E-3,-1.3110311E-2,9.375445E-3,-1.4087553E-3,-0E0,-0E0,1.9239968E-3],"categories":[],"categories_nodes":[],"categories_segments":[],"categories_sizes":[],"default_left":[0,0,0,0,0,0,0],"id":4,"left_children":[1,3,5,-1,-1,-1,-1],"loss_changes":[9.1434315E-2,7.353247E-2,7.763129E-2,0E0,0E0,0E0,0E0],"parents":[2147483647,0,0,1,1,2,2],"right_children":[2,4,6,-1,-1,-1,-1],"split_conditions":[7.0716E-2,-8.22581E-1,-6.1753E-1,-1.4087553E-3,-0E0,-0E0,1.9239968E-3],"split_indices":[47,20,20,0,0,0,0],"split_type":[0,0,0,0,0,0,0],"sum_hessian":[7.14E2,4.2E2,2.94E2,1.82E2,2.38E2,2.26E2,6.8E1],"tree_param":{"num_deleted":"0","num_feature":"60","num_nodes":"7","size_leaf_vector":"1"}},{"base_weights":[-0E0,-2.4412602E-2,1.0960833E-2,-1.0345652E-1,-8.661701E-5,-0E0,1.1295074E-3,-0E0,-8.775647E-3],"categories":[],"categories_nodes":[],"categories_segments":[],"categories_sizes":[],"default_left":[0,0,0,0,0,0,0,0,0],"id":5,"left_children":[1,3,5,7,-1,-1,-1,-1,-1],"loss_changes":[1.976106E-1,3.647548E-1,6.5258116E-2,2.6706696E-1,0E0,0E0,0E0,0E0,0E0],"parents":[2147483647,0,0,1,1,2,2,3,3],"right_children":[2,4,6,8,-1,-1,-1,-1,-1],"split_conditions":[4E-1,2.96967E-1,3.22766E-1,-2.7457E-2,-8.661701E-5,-0E0,1.1295074E-3,-0E0,-8.775647E-3],"split_indices":[19,56,56,3,0,0,0,0,0],"split_type":[0,0,0,0,0,0,0,0,0],"sum_hessian":[7.18E2,2.31E2,4.87E2,4.5E1,1.86E2,2.46E2,2.41E2,2.2E1,2.3E1],"tree_param":{"num_deleted":"0","num_feature":"60","num_nodes":"9","size_leaf_vector":"1"}},{"base_weights":[-3.0613045E-4,9.85363E-3,-1.2935299E-2,2.2526277E-2,-5.53095E-4,-2.9863073E-2,-0E0,-0E0,1.775007E-3,-2.2610642E-3,1.7936998E-4,-0E0,-3.4318746E-3],"categories":[],"categories_nodes":[],"categories_segments":[],"categories_sizes":[],"default_left":[0,0,0,0,0,0,0,0,0,0,0,0,0],"id":6,"left_children":[1,3,5,7,9,11,-1,-1,-1,-1,-1,-1,-1],"loss_changes":[9.2510454E-2,5.9939276E-2,8.167465E-2,5.784683E-2,5.51719E-2,1.5385906E-1,0E0,0E0,0E0,0E0,0E0,0E0,0E0],"parents":[2147483647,0,0,1,1,2,2,3,3,4,4,5,5],"right_children":[2,4,6,8,10,12,-1,-1,-1,-1,-1,-1,-1],"split_conditions":[8.2488E-3,1E0,2.10322E-1,2.937E-3,-6.6832E0,1.73173E-1,-0E0,-0E0,1.775007E-3,-2.2610642E-3,1.7936998E-4,-0E0,-3.4318746E-3],"split_indices":[49,51,52,46,54,52,0,0,0,0,0,0,0],"split_type":[0,0,0,0,0,0,0,0,0,0,0,0,0],"sum_hessian":[7.05E2,3.69E2,3.36E2,1.87E2,1.82E2,1.53E2,1.83E2,6.7E1,1.2E2,2.4E1,1.58E2,9.3E1,6E1],"tree_param":{"num_deleted":"0","num_feature":"60","num_nodes":"13","size_leaf_vector":"1"}},{"base_weights":[3.5665035E-3,-6.729567E-4,1.8144379E-3,-8.5232605E-4,3.0870797E-4],"categories":[],"categories_nodes":[],"categories_segments":[],"categories_sizes":[],"default_left":[0,0,0,0,0],"id":7,"left_children":[1,3,-1,-1,-1],"loss_changes":[1.1635128E-1,7.4819595E-2,0E0,0E0,0E0],"parents":[2147483647,0,0,1,1],"right_children":[2,4,-1,-1,-1],"split_conditions":[-6.06695E-1,4E-1,1.8144379E-3,-8.5232605E-4,3.0870797E-4],"split_indices":[20,19,0,0,0],"split_type":[0,0,0,0,0],"sum_hessian":[7.08E2,6.15E2,9.3E1,2.02E2,4.13E2],"tree_param":{"num_deleted":"0","num_feature":"60","num_nodes":"5","size_leaf_vector":"1"}},{"base_weights":[-0E0,-2.5643883E-3,3.3856784E-3,-7.8654855E-5,1.321142E-3],"categories":[],"categories_nodes":[],"categories_segments":[],"categories_sizes":[],"default_left":[0,0,0,0,0],"id":8,"left_children":[1,-1,3,-1,-1],"loss_changes":[1.05029106E-1,0E0,8.927467E-2,0E0,0E0],"parents":[2147483647,0,0,2,2],"right_children":[2,-1,4,-1,-1],"split_conditions":[-1E0,-2.5643883E-3,6.65272E-1,-7.8654855E-5,1.321142E-3],"split_indices":[40,0,19,0,0],"split_type":[0,0,0,0,0],"sum_hessian":[7.05E2,3.5E1,6.7E2,5.35E2,1.35E2],"tree_param":{"num_deleted":"0","num_feature":"60","num_nodes":"5","size_leaf_vector":"1"}},{"base_weights":[2.237524E-4,9.130984E-3,-2.129031E-2,-1.29415E-4,2.3263905E-2,-5.4495446E-2,-0E0,4.0113544E-5,1.8774146E-3,-2.0730589E-4,-4.2831986E-3],"categories":[],"categories_nodes":[],"categories_segments":[],"categories_sizes":[],"default_left":[0,0,0,0,0,0,0,0,0,0,0],"id":9,"left_children":[1,3,5,-1,7,9,-1,-1,-1,-1,-1],"loss_changes":[1.2902555E-1,9.5756516E-2,1.2176008E-1,0E0,6.193967E-2,6.423661E-2,0E0,0E0,0E0,0E0,0E0],"parents":[2147483647,0,0,1,1,2,2,4,4,5,5],"right_children":[2,4,6,-1,8,10,-1,-1,-1,-1,-1],"split_conditions":[8.33838E-2,4.162E-3,2.10322E-1,-1.29415E-4,-2.0219E-1,1.68301E-1,-0E0,4.0113544E-5,1.8774146E-3,-2.0730589E-4,-4.2831986E-3],"split_indices":[49,46,52,0,17,52,0,0,0,0,0],"split_type":[0,0,0,0,0,0,0,0,0,0,0],"sum_hessian":[7.01E2,5.13E2,1.88E2,2.62E2,2.51E2,6.8E1,1.2E2,1.12E2,1.39E2,3.3E1,3.5E1],"tree_param":{"num_deleted":"0","num_feature":"60","num_nodes":"11","size_leaf_vector":"1"}},{"base_weights":[7.977391E-4,-7.072248E-3,9.286563E-4,-1.6600234E-2,3.735445E-4,-3.9761426E-4,-3.7040624E-3],"categories":[],"categories_nodes":[],"categories_segments":[],"categories_sizes":[],"default_left":[0,0,0,0,0,0,0],"id":10,"left_children":[1,3,-1,5,-1,-1,-1],"loss_changes":[1.0673544E-1,7.146336E-2,0E0,1.12897985E-1,0E0,0E0,0E0],"parents":[2147483647,0,0,1,1,3,3],"right_children":[2,4,-1,6,-1,-1,-1],"split_conditions":[1.05446E-1,-2.994E-3,9.286563E-4,3.2156E-2,3.735445E-4,-3.9761426E-4,-3.7040624E-3],"split_indices":[47,55,0,6,0,0,0],"split_type":[0,0,0,0,0,0,0],"sum_hessian":[7.18E2,4.79E2,2.39E2,3.1E2,1.69E2,2.79E2,3.1E1],"tree_param":{"num_deleted":"0","num_feature":"60","num_nodes":"7","size_leaf_vector":"1"}},{"base_weights":[-1.3784784E-3,-9.995178E-3,2.9561777E-2,8.915508E-5,-2.1495452E-2,1.8921556E-3,-0E0,-2.802628E-3,-3.842795E-4],"categories":[],"categories_nodes":[],"categories_segments":[],"categories_sizes":[],"default_left":[0,0,0,0,0,0,0,0,0],"id":11,"left_children":[1,3,5,-1,7,-1,-1,-1,-1],"loss_changes":[1.7822948E-1,8.632858E-2,5.0064534E-2,0E0,1.13778606E-1,0E0,0E0,0E0,0E0],"parents":[2147483647,0,0,1,1,2,2,4,4],"right_children":[2,4,6,-1,8,-1,-1,-1,-1],"split_conditions":[6.65272E-1,0E0,1.32068E-1,8.915508E-5,4E-1,1.8921556E-3,-0E0,-2.802628E-3,-3.842795E-4],"split_indices":[19,18,49,0,19,0,0,0,0],"split_type":[0,0,0,0,0,0,0,0,0],"sum_hessian":[7.01E2,5.62E2,1.39E2,2.57E2,3.05E2,1.19E2,2E1,7.5E1,2.3E2],"tree_param":{"num_deleted":"0","num_feature":"60","num_nodes":"9","size_leaf_vector":"1"}},{"base_weights":[1.8381862E-3,-2.981396E-3,1.8317545E-2,-1.0012056E-3,3.255354E-4,3.6539712E-3,2.705559E-3,2.0686034E-3,-7.1703555E-4],"categories":[],"categories_nodes":[],"categories_segments":[],"categories_sizes":[],"default_left":[0,0,0,0,0,0,0,0,0],"id":12,"left_children":[1,3,5,-1,-1,7,-1,-1,-1],"loss_changes":[6.472404E-2,9.324152E-2,6.834641E-2,0E0,0E0,1.12438716E-1,0E0,0E0,0E0],"parents":[2147483647,0,0,1,1,2,2,5,5],"right_children":[2,4,6,-1,-1,8,-1,-1,-1],"split_conditions":[8.0248E-1,-8.15498E-1,-6.1753E-1,-1.0012056E-3,3.255354E-4,-8.4127E-1,2.705559E-3,2.0686034E-3,-7.1703555E-4],"split_indices":[0,20,20,0,0,20,0,0,0],"split_type":[0,0,0,0,0,0,0,0,0],"sum_hessian":[7.15E2,5.31E2,1.84E2,2.08E2,3.23E2,1.42E2,4.2E1,5.4E1,8.8E1],"tree_param":{"num_deleted":"0","num_feature":"60","num_nodes":"9","size_leaf_vector":"1"}},{"base_weights":[-0E0,-2.0023454E-2,4.918106E-4,-8.334355E-2,-0E0,-0E0,-8.424877E-3],"categories":[],"categories_nodes":[],"categories_segments":[],"categories_sizes":[],"default_left":[0,0,0,0,0,0,0],"id":13,"left_children":[1,3,-1,5,-1,-1,-1],"loss_changes":[1.345642E-1,2.7953836E-1,0E0,4.2681402E-1,0E0,0E0,0E0],"parents":[2147483647,0,0,1,1,3,3],"right_children":[2,4,-1,6,-1,-1,-1],"split_conditions":[4.01515E-1,1.87492E-1,4.918106E-4,-1.013244E-3,-0E0,-0E0,-8.424877E-3],"split_indices":[19,52,0,42,0,0,0],"split_type":[0,0,0,0,0,0,0],"sum_hessian":[6.92E2,2.19E2,4.73E2,5.1E1,1.68E2,2.5E1,2.6E1],"tree_param":{"num_deleted":"0","num_feature":"60","num_nodes":"7","size_leaf_vector":"1"}},{"base_weights":[-0E0],"categories":[],"categories_nodes":[],"categories_segments":[],"categories_sizes":[],"default_left":[0],"id":14,"left_children":[-1],"loss_changes":[0E0],"parents":[2147483647],"right_children":[-1],"split_conditions":[-0E0],"split_indices":[0],"split_type":[0],"sum_hessian":[6.95E2],"tree_param":{"num_deleted":"0","num_feature":"60","num_nodes":"1","size_leaf_vector":"1"}},{"base_weights":[-0E0,1.0185749E-2,-8.9755505E-3,-9.040587E-4,8.447461E-4,-9.246867E-4,9.248151E-4],"categories":[],"categories_nodes":[],"categories_segments":[],"categories_sizes":[],"default_left":[0,0,0,0,0,0,0],"id":15,"left_children":[1,3,5,-1,-1,-1,-1],"loss_changes":[6.412888E-2,6.6584155E-2,9.063269E-2,0E0,0E0,0E0,0E0],"parents":[2147483647,0,0,1,1,2,2],"right_children":[2,4,6,-1,-1,-1,-1],"split_conditions":[7.9684E-3,-5.6452E-2,6.65272E-1,-9.040587E-4,8.447461E-4,-9.246867E-4,9.248151E-4],"split_indices":[49,19,19,0,0,0,0],"split_type":[0,0,0,0,0,0,0],"sum_hessian":[6.91E2,3.49E2,3.42E2,5.2E1,2.97E2,2.68E2,7.4E1],"tree_param":{"num_deleted":"0","num_feature":"60","num_nodes":"7","size_leaf_vector":"1"}},{"base_weights":[1.9502274E-3,-7.3246155E-3,6.483612E-4,2.020144E-3,-3.7516873E-2,-1.4791881E-3,4.7062265E-4,-0E0,-3.1276874E-3],"categories":[],"categories_nodes":[],"categories_segments":[],"categories_sizes":[],"default_left":[0,0,0,0,0,0,0,0,0],"id":16,"left_children":[1,3,-1,5,7,-1,-1,-1,-1],"loss_changes":[7.290301E-2,1.1608444E-1,0E0,5.0045844E-2,7.758647E-2,0E0,0E0,0E0,0E0],"parents":[2147483647,0,0,1,1,3,3,4,4],"right_children":[2,4,-1,6,8,-1,-1,-1,-1],"split_conditions":[2.8591016E-3,4.60697E1,6.483612E-4,-8.53282E-1,2.31394E-2,-1.4791881E-3,4.7062265E-4,-0E0,-3.1276874E-3],"split_indices":[31,53,0,20,49,0,0,0,0],"split_type":[0,0,0,0,0,0,0,0,0],"sum_hessian":[6.82E2,3.46E2,3.36E2,2.53E2,9.3E1,3.4E1,2.19E2,4.1E1,5.2E1],"tree_param":{"num_deleted":"0","num_feature":"60","num_nodes":"9","size_leaf_vector":"1"}},{"base_weights":[-0E0,-1.768007E-2,8.67634E-3,-1.18615215E-4,-4.2589888E-2,-7.774162E-6,1.0830978E-3,-0E0,-3.7918107E-3],"categories":[],"categories_nodes":[],"categories_segments":[],"categories_sizes":[],"default_left":[0,0,0,0,0,0,0,0,0],"id":17,"left_children":[1,3,5,-1,7,-1,-1,-1,-1],"loss_changes":[1.00861855E-1,5.7011396E-2,6.489207E-2,0E0,1.0276288E-1,0E0,0E0,0E0,0E0],"parents":[2147483647,0,0,1,1,2,2,4,4],"right_children":[2,4,6,-1,8,-1,-1,-1,-1],"split_conditions":[4E-1,0E0,8.0923E-2,-1.18615215E-4,-7.085E-2,-7.774162E-6,1.0830978E-3,-0E0,-3.7918107E-3],"split_indices":[19,18,47,0,47,0,0,0,0],"split_type":[0,0,0,0,0,0,0,0,0],"sum_hessian":[6.77E2,2.07E2,4.7E2,1.42E2,6.5E1,2.58E2,2.12E2,2.8E1,3.7E1],"tree_param":{"num_deleted":"0","num_feature":"60","num_nodes":"9","size_leaf_vector":"1"}},{"base_weights":[-2.2058407E-4,-2.3266125E-2,9.325911E-3,-9.420875E-2,-1.5004442E-4,-1.5731053E-3,1.3539882E-2,-0E0,-8.670885E-3,-0E0,1.068809E-3],"categories":[],"categories_nodes":[],"categories_segments":[],"categories_sizes":[],"default_left":[0,0,0,0,0,0,0,0,0,0,0],"id":18,"left_children":[1,3,5,7,-1,-1,9,-1,-1,-1,-1],"loss_changes":[1.6294698E-1,2.7142996E-1,7.542432E-2,3.0118242E-1,0E0,0E0,5.677619E-2,0E0,0E0,0E0,0E0],"parents":[2147483647,0,0,1,1,2,2,3,3,6,6],"right_children":[2,4,6,8,-1,-1,10,-1,-1,-1,-1],"split_conditions":[4E-1,2.91283E-1,-8.66667E-1,5.154E-3,-1.5004442E-4,-1.5731053E-3,1.1857E-2,-0E0,-8.670885E-3,-0E0,1.068809E-3],"split_indices":[19,56,20,5,0,0,47,0,0,0,0],"split_type":[0,0,0,0,0,0,0,0,0,0,0],"sum_hessian":[7.05E2,2.21E2,4.84E2,4.2E1,1.79E2,3.3E1,4.51E2,2.1E1,2.1E1,1.47E2,3.04E2],"tree_param":{"num_deleted":"0","num_feature":"60","num_nodes":"11","size_leaf_vector":"1"}},{"base_weights":[2.749594E-3,9.647189E-3,-1.4206052E-2,-0E0,2.1184314E-2,-2.280317E-3,-0E0,2.8262627E-3,5.218029E-4],"categories":[],"categories_nodes":[],"categories_segments":[],"categories_sizes":[],"default_left":[0,0,0,0,0,0,0,0,0],"id":19,"left_children":[1,3,5,-1,7,-1,-1,-1,-1],"loss_changes":[8.0563605E-2,6.342603E-2,8.9742824E-2,0E0,6.0302913E-2,0E0,0E0,0E0,0E0],"parents":[2147483647,0,0,1,1,2,2,4,4],"right_children":[2,4,6,-1,8,-1,-1,-1,-1],"split_conditions":[7.79796E-2,1.6495E-2,2.10322E-1,-0E0,-8.4127E-1,-2.280317E-3,-0E0,2.8262627E-3,5.218029E-4],"split_indices":[49,45,52,0,20,0,0,0,0],"split_type":[0,0,0,0,0,0,0,0,0],"sum_hessian":[7.04E2,5.22E2,1.82E2,2.74E2,2.48E2,5.9E1,1.23E2,4.5E1,2.03E2],"tree_param":{"num_deleted":"0","num_feature":"60","num_nodes":"9","size_leaf_vector":"1"}},{"base_weights":[-0E0,-2.3272935E-4,8.8012667E-4],"categories":[],"categories_nodes":[],"categories_segments":[],"categories_sizes":[],"default_left":[0,0,0],"id":20,"left_children":[1,-1,-1],"loss_changes":[5.707576E-2,0E0,0E0],"parents":[2147483647,0,0],"right_children":[2,-1,-1],"split_conditions":[6.65272E-1,-2.3272935E-4,8.8012667E-4],"split_indices":[19,0,0],"split_type":[0,0,0],"sum_hessian":[7.15E2,5.73E2,1.42E2],"tree_param":{"num_deleted":"0","num_feature":"60","num_nodes":"3","size_leaf_vector":"1"}},{"base_weights":[-2.208246E-4,5.692465E-4,-1.4354039E-2,-0E0,-5.2372012E-2,-5.9547913E-3,-1.986913E-5],"categories":[],"categories_nodes":[],"categories_segments":[],"categories_sizes":[],"default_left":[0,0,0,0,0,0,0],"id":21,"left_children":[1,-1,3,-1,5,-1,-1],"loss_changes":[1.1810626E-1,0E0,1.6308726E-1,0E0,2.349341E-1,0E0,0E0],"parents":[2147483647,0,0,2,2,4,4],"right_children":[2,-1,4,-1,6,-1,-1],"split_conditions":[1.9193E-2,5.692465E-4,-3.4237E-2,-0E0,2.91283E-1,-5.9547913E-3,-1.986913E-5],"split_indices":[17,0,3,0,56,0,0],"split_type":[0,0,0,0,0,0,0],"sum_hessian":[7.07E2,3.69E2,3.38E2,2.55E2,8.3E1,3.1E1,5.2E1],"tree_param":{"num_deleted":"0","num_feature":"60","num_nodes":"7","size_leaf_vector":"1"}},{"base_weights":[-0E0,-1.3601908E-2,1.0360107E-2,-4.469993E-3,-5.001315E-3,-1.19598545E-2,8.9876674E-4,-1.0805965E-3,3.9625546E-4,-1.8586781E-3,8.6433126E-4],"categories":[],"categories_nodes":[],"categories_segments":[],"categories_sizes":[],"default_left":[0,0,0,0,0,0,0,0,0,0,0],"id":22,"left_children":[1,3,5,-1,7,9,-1,-1,-1,-1,-1],"loss_changes":[9.5553786E-2,1.3769877E-1,7.125636E-2,0E0,6.3870944E-2,7.464613E-2,0E0,0E0,0E0,0E0,0E0],"parents":[2147483647,0,0,1,1,2,2,4,4,5,5],"right_children":[2,4,6,-1,8,10,-1,-1,-1,-1,-1],"split_conditions":[3.17007E-1,1.93798E-1,-9.1633E-2,-4.469993E-3,1.90826E-1,3.30874E-1,8.9876674E-4,-1.0805965E-3,3.9625546E-4,-1.8586781E-3,8.6433126E-4],"split_indices":[56,19,19,0,52,52,0,0,0,0,0],"split_type":[0,0,0,0,0,0,0,0,0,0,0],"sum_hessian":[6.8E2,2.83E2,3.97E2,2.1E1,2.62E2,8.4E1,3.13E2,1.31E2,1.31E2,5.4E1,3E1],"tree_param":{"num_deleted":"0","num_feature":"60","num_nodes":"11","size_leaf_vector":"1"}},{"base_weights":[-0E0,6.1243474E-3,-8.7472843E-4,-6.306947E-7,1.1084945E-3],"categories":[],"categories_nodes":[],"categories_segments":[],"categories_sizes":[],"default_left":[0,0,0,0,0],"id":23,"left_children":[1,3,-1,-1,-1],"loss_changes":[7.906113E-2,6.3564174E-2,0E0,0E0,0E0],"parents":[2147483647,0,0,1,1],"right_children":[2,4,-1,-1,-1],"split_conditions":[8.33838E-2,7.677E-2,-8.7472843E-4,-6.306947E-7,1.1084945E-3],"split_indices":[49,45,0,0,0],"split_type":[0,0,0,0,0],"sum_hessian":[7.22E2,5.31E2,1.91E2,3.63E2,1.68E2],"tree_param":{"num_deleted":"0","num_feature":"60","num_nodes":"5","size_leaf_vector":"1"}},{"base_weights":[-2.0438686E-3,-1.6305292E-2,7.809128E-3,-6.830844E-2,-5.4264652E-5,-0E0,1.2072565E-3,-5.0248386E-4,-7.2648167E-3],"categories":[],"categories_nodes":[],"categories_segments":[],"categories_sizes":[],"default_left":[0,0,0,0,0,0,0,0,0],"id":24,"left_children":[1,3,5,7,-1,-1,-1,-1,-1],"loss_changes":[9.9633254E-2,2.0101824E-1,5.1388033E-2,1.885198E-1,0E0,0E0,0E0,0E0,0E0],"parents":[2147483647,0,0,1,1,2,2,3,3],"right_children":[2,4,6,8,-1,-1,-1,-1,-1],"split_conditions":[3.22766E-1,4E-1,5.67797E-1,2.6036E-2,-5.4264652E-5,-0E0,1.2072565E-3,-5.0248386E-4,-7.2648167E-3],"split_indices":[56,19,19,48,0,0,0,0,0],"split_type":[0,0,0,0,0,0,0,0,0],"sum_hessian":[6.75E2,2.96E2,3.79E2,5.8E1,2.38E2,2.53E2,1.26E2,3.8E1,2E1],"tree_param":{"num_deleted":"0","num_feature":"60","num_nodes":"9","size_leaf_vector":"1"}},{"base_weights":[-0E0,-1.32562695E-2,4.176056E-4,-0E0,-3.0178085E-2,-0E0,-3.073802E-3],"categories":[],"categories_nodes":[],"categories_segments":[],"categories_sizes":[],"default_left":[0,0,0,0,0,0,0],"id":25,"left_children":[1,3,-1,-1,5,-1,-1],"loss_changes":[8.159299E-2,8.003825E-2,0E0,0E0,1.3627663E-1,0E0,0E0],"parents":[2147483647,0,0,1,1,4,4],"right_children":[2,4,-1,-1,6,-1,-1],"split_conditions":[3.17007E-1,1E0,4.176056E-4,-0E0,-2.4355727E-3,-0E0,-3.073802E-3],"split_indices":[56,51,0,0,42,0,0],"split_type":[0,0,0,0,0,0,0],"sum_hessian":[7.16E2,2.94E2,4.22E2,1.51E2,1.43E2,7.4E1,6.9E1],"tree_param":{"num_deleted":"0","num_feature":"60","num_nodes":"7","size_leaf_vector":"1"}},{"base_weights":[-0E0,-1.4424979E-2,5.1068555E-4,-4.6311975E-3,-2.7877244E-4],"categories":[],"categories_nodes":[],"categories_segments":[],"categories_sizes":[],"default_left":[0,0,0,0,0],"id":26,"left_children":[1,3,-1,-1,-1],"loss_changes":[1.0207452E-1,1.4640231E-1,0E0,0E0,0E0],"parents":[2147483647,0,0,1,1],"right_children":[2,4,-1,-1,-1],"split_conditions":[3.16275E-1,1.93798E-1,5.1068555E-4,-4.6311975E-3,-2.7877244E-4],"split_indices":[56,19,0,0,0],"split_type":[0,0,0,0,0],"sum_hessian":[6.92E2,2.82E2,4.1E2,2.1E1,2.61E2],"tree_param":{"num_deleted":"0","num_feature":"60","num_nodes":"5","size_leaf_vector":"1"}},{"base_weights":[-1.1306498E-3,2.330374E-4,-1.7881759E-2,-2.8663969E-2,5.308915E-4,-5.718518E-4,-3.2717194E-3],"categories":[],"categories_nodes":[],"categories_segments":[],"categories_sizes":[],"default_left":[0,0,0,0,0,0,0],"id":27,"left_children":[1,-1,3,5,-1,-1,-1],"loss_changes":[7.565594E-2,0E0,7.262592E-2,6.268507E-2,0E0,0E0,0E0],"parents":[2147483647,0,0,2,2,3,3],"right_children":[2,-1,4,6,-1,-1,-1],"split_conditions":[7.23294E-2,2.330374E-4,2.0798841E-2,5.047691E-3,5.308915E-4,-5.718518E-4,-3.2717194E-3],"split_indices":[49,0,42,42,0,0,0],"split_type":[0,0,0,0,0,0,0],"sum_hessian":[7.08E2,5.05E2,2.03E2,1.6E2,4.3E1,1.2E2,4E1],"tree_param":{"num_deleted":"0","num_feature":"60","num_nodes":"7","size_leaf_vector":"1"}},{"base_weights":[9.0487103E-4,-3.069876E-3,1.0584224E-3,2.7111522E-4,-1.4556734E-2,-1.5538501E-3,-0E0],"categories":[],"categories_nodes":[],"categories_segments":[],"categories_sizes":[],"default_left":[0,0,0,0,0,0,0],"id":28,"left_children":[1,3,-1,-1,5,-1,-1],"loss_changes":[6.572016E-2,6.0132604E-2,0E0,0E0,5.7385158E-2,0E0,0E0],"parents":[2147483647,0,0,1,1,4,4],"right_children":[2,4,-1,-1,6,-1,-1],"split_conditions":[6.65272E-1,7.9684E-3,1.0584224E-3,2.7111522E-4,2.10322E-1,-1.5538501E-3,-0E0],"split_indices":[19,49,0,0,52,0,0],"split_type":[0,0,0,0,0,0,0],"sum_hessian":[7E2,5.66E2,1.34E2,3.01E2,2.65E2,1.16E2,1.49E2],"tree_param":{"num_deleted":"0","num_feature":"60","num_nodes":"7","size_leaf_vector":"1"}},{"base_weights":[-3.470211E-3,-7.226195E-3,1.5319877E-3,-2.603106E-2,2.352068E-5,-3.4149997E-3,-1.1184814E-4],"categories":[],"categories_nodes":[],"categories_segments":[],"categories_sizes":[],"default_left":[0,0,0,0,0,0,0],"id":29,"left_children":[1,3,-1,5,-1,-1,-1],"loss_changes":[8.0211215E-2,1.0803957E-1,0E0,1.7563371E-1,0E0,0E0,0E0],"parents":[2147483647,0,0,1,1,3,3],"right_children":[2,4,-1,6,-1,-1,-1],"split_conditions":[4.09538E-1,4E-1,1.5319877E-3,1.87492E-1,2.352068E-5,-3.4149997E-3,-1.1184814E-4],"split_indices":[52,19,0,52,0,0,0],"split_type":[0,0,0,0,0,0,0],"sum_hessian":[7.12E2,6.56E2,5.6E1,2.08E2,4.48E2,6.6E1,1.42E2],"tree_param":{"num_deleted":"0","num_feature":"60","num_nodes":"7","size_leaf_vector":"1"}},{"base_weights":[-3.4491299E-3,-8.860197E-3,8.418473E-4,-1.6622918E-2,6.5686563E-3,-1.9891611E-4,-1.5853314E-3,-1.4721193E-4,2.028904E-3],"categories":[],"categories_nodes":[],"categories_segments":[],"categories_sizes":[],"default_left":[0,0,0,0,0,0,0,0,0],"id":30,"left_children":[1,3,-1,5,7,-1,-1,-1,-1],"loss_changes":[7.281919E-2,7.363411E-2,0E0,5.857767E-2,7.437916E-2,0E0,0E0,0E0,0E0],"parents":[2147483647,0,0,1,1,3,3,4,4],"right_children":[2,4,-1,6,8,-1,-1,-1,-1],"split_conditions":[-6.32E-1,1.1515181E-2,8.418473E-4,-5.4573E-2,-1.70053E-1,-1.9891611E-4,-1.5853314E-3,-1.4721193E-4,2.028904E-3],"split_indices":[20,42,0,3,17,0,0,0,0],"split_type":[0,0,0,0,0,0,0,0,0],"sum_hessian":[6.95E2,5.69E2,1.26E2,4E2,1.69E2,2.37E2,1.63E2,1.22E2,4.7E1],"tree_param":{"num_deleted":"0","num_feature":"60","num_nodes":"9","size_leaf_vector":"1"}},{"base_weights":[4.04363E-4],"categories":[],"categories_nodes":[],"categories_segments":[],"categories_sizes":[],"default_left":[0],"id":31,"left_children":[-1],"loss_changes":[0E0],"parents":[2147483647],"right_children":[-1],"split_conditions":[2.021815E-5],"split_indices":[0],"split_type":[0],"sum_hessian":[7.06E2],"tree_param":{"num_deleted":"0","num_feature":"60","num_nodes":"1","size_leaf_vector":"1"}},{"base_weights":[-2.3401252E-3,-1.706919E-2,3.4888356E-4,-3.8711454E-3,-4.625051E-4],"categories":[],"categories_nodes":[],"categories_segments":[],"categories_sizes":[],"default_left":[0,0,0,0,0],"id":32,"left_children":[1,3,-1,-1,-1],"loss_changes":[1.01490915E-1,9.350111E-2,0E0,0E0,0E0],"parents":[2147483647,0,0,1,1],"right_children":[2,4,-1,-1,-1],"split_conditions":[3.17007E-1,1.93798E-1,3.4888356E-4,-3.8711454E-3,-4.625051E-4],"split_indices":[56,19,0,0,0],"split_type":[0,0,0,0,0],"sum_hessian":[6.99E2,2.91E2,4.08E2,2.4E1,2.67E2],"tree_param":{"num_deleted":"0","num_feature":"60","num_nodes":"5","size_leaf_vector":"1"}},{"base_weights":[-1.6486822E-3,-1.3670207E-2,2.9165772E-4,-2.5353832E-2,8.944187E-5,-3.3893299E-3,-0E0],"categories":[],"categories_nodes":[],"categories_segments":[],"categories_sizes":[],"default_left":[0,0,0,0,0,0,0],"id":33,"left_children":[1,3,-1,5,-1,-1,-1],"loss_changes":[6.6858284E-2,6.497481E-2,0E0,1.974926E-1,0E0,0E0,0E0],"parents":[2147483647,0,0,1,1,3,3],"right_children":[2,4,-1,6,-1,-1,-1],"split_conditions":[3.17007E-1,-1.103943E-3,2.9165772E-4,2.9983E-2,8.944187E-5,-3.3893299E-3,-0E0],"split_indices":[56,31,0,15,0,0,0],"split_type":[0,0,0,0,0,0,0],"sum_hessian":[6.96E2,2.92E2,4.04E2,1.84E2,1.08E2,6.7E1,1.17E2],"tree_param":{"num_deleted":"0","num_feature":"60","num_nodes":"7","size_leaf_vector":"1"}},{"base_weights":[-0E0,-5.8489456E-3,9.990622E-4,-2.8272426E-2,-0E0,-0E0,-2.8378486E-3],"categories":[],"categories_nodes":[],"categories_segments":[],"categories_sizes":[],"default_left":[0,0,0,0,0,0,0],"id":34,"left_children":[1,3,-1,5,-1,-1,-1],"loss_changes":[8.0745235E-2,8.265262E-2,0E0,9.900834E-2,0E0,0E0,0E0],"parents":[2147483647,0,0,1,1,3,3],"right_children":[2,4,-1,6,-1,-1,-1],"split_conditions":[4.71286E-1,3.76923E-1,9.990622E-4,-2.8445E-2,-0E0,-0E0,-2.8378486E-3],"split_indices":[56,19,0,45,0,0,0],"split_type":[0,0,0,0,0,0,0],"sum_hessian":[6.81E2,5.26E2,1.55E2,1.24E2,4.02E2,6.4E1,6E1],"tree_param":{"num_deleted":"0","num_feature":"60","num_nodes":"7","size_leaf_vector":"1"}},{"base_weights":[-0E0,-5.765094E-3,1.8441156E-2,-1.3045827E-2,6.926797E-4,1.993753E-5,3.264358E-3,-1.1822822E-4,-1.4433818E-3],"categories":[],"categories_nodes":[],"categories_segments":[],"categories_sizes":[],"default_left":[0,0,0,0,0,0,0,0,0],"id":35,"left_children":[1,3,5,7,-1,-1,-1,-1,-1],"loss_changes":[8.113531E-2,7.680466E-2,1.2431489E-1,5.3874083E-2,0E0,0E0,0E0,0E0,0E0],"parents":[2147483647,0,0,1,1,2,2,3,3],"right_children":[2,4,6,8,-1,-1,-1,-1,-1],"split_conditions":[1.5776765E-2,3E-1,-1.70053E-1,-1.013244E-3,6.926797E-4,1.993753E-5,3.264358E-3,-1.1822822E-4,-1.4433818E-3],"split_indices":[42,27,17,42,0,0,0,0,0],"split_type":[0,0,0,0,0,0,0,0,0],"sum_hessian":[7.2E2,5.36E2,1.84E2,4.1E2,1.26E2,1.42E2,4.2E1,2.65E2,1.45E2],"tree_param":{"num_deleted":"0","num_feature":"60","num_nodes":"9","size_leaf_vector":"1"}},{"base_weights":[-1.5301605E-4],"categories":[],"categories_nodes":[],"categories_segments":[],"categories_sizes":[],"default_left":[0],"id":36,"left_children":[-1],"loss_changes":[0E0],"parents":[2147483647],"right_children":[-1],"split_conditions":[-7.650803E-6],"split_indices":[0],"split_type":[0],"sum_hessian":[6.86E2],"tree_param":{"num_deleted":"0","num_feature":"60","num_nodes":"1","size_leaf_vector":"1"}},{"base_weights":[-0E0,6.4146575E-3,-1.1158442E-2,-0E0,3.4343176E-2,-5.2734833E-2,1.7489828E-4,3.6744475E-3,2.646092E-4,-4.8590624E-3,-3.342957E-4],"categories":[],"categories_nodes":[],"categories_segments":[],"categories_sizes":[],"default_left":[0,0,0,0,0,0,0,0,0,0,0],"id":37,"left_children":[1,3,5,-1,7,9,-1,-1,-1,-1,-1],"loss_changes":[5.1050726E-2,8.474048E-2,1.8159302E-1,0E0,5.990728E-2,1.0231683E-1,0E0,0E0,0E0,0E0,0E0],"parents":[2147483647,0,0,1,1,2,2,4,4,5,5],"right_children":[2,4,6,-1,8,10,-1,-1,-1,-1,-1],"split_conditions":[1.7356E0,3.583E-1,2.96967E-1,-0E0,2.666E-1,1.01427E-1,1.7489828E-4,3.6744475E-3,2.646092E-4,-4.8590624E-3,-3.342957E-4],"split_indices":[54,54,56,0,56,47,0,0,0,0,0],"split_type":[0,0,0,0,0,0,0,0,0,0,0],"sum_hessian":[7.16E2,4.61E2,2.55E2,3.75E2,8.6E1,7.4E1,1.81E2,2.8E1,5.8E1,3.1E1,4.3E1],"tree_param":{"num_deleted":"0","num_feature":"60","num_nodes":"11","size_leaf_vector":"1"}},{"base_weights":[-5.1749795E-4,-1.4056119E-2,7.3350607E-3,-4.8514055E-3,-1.7650255E-4,-1.54599035E-2,7.128819E-4,-2.5717355E-3,1.9985616E-4],"categories":[],"categories_nodes":[],"categories_segments":[],"categories_sizes":[],"default_left":[0,0,0,0,0,0,0,0,0],"id":38,"left_children":[1,3,5,-1,-1,7,-1,-1,-1],"loss_changes":[8.0005646E-2,2.0056608E-1,6.816706E-2,0E0,0E0,8.362682E-2,0E0,0E0,0E0],"parents":[2147483647,0,0,1,1,2,2,5,5],"right_children":[2,4,6,-1,-1,8,-1,-1,-1],"split_conditions":[3.14683E-1,1.93798E-1,-1.08434E-1,-4.8514055E-3,-1.7650255E-4,4.71286E-1,7.128819E-4,-2.5717355E-3,1.9985616E-4],"split_indices":[56,19,19,0,0,56,0,0,0],"split_type":[0,0,0,0,0,0,0,0,0],"sum_hessian":[7.17E2,2.86E2,4.31E2,2.5E1,2.61E2,8.3E1,3.48E2,3.7E1,4.6E1],"tree_param":{"num_deleted":"0","num_feature":"60","num_nodes":"9","size_leaf_vector":"1"}},{"base_weights":[-0E0,-1.4150413E-2,3.4030588E-4,-2.6821982E-2,3.297166E-4,-2.1931408E-4,-5.3675775E-3],"categories":[],"categories_nodes":[],"categories_segments":[],"categories_sizes":[],"default_left":[0,0,0,0,0,0,0],"id":39,"left_children":[1,3,-1,5,-1,-1,-1],"loss_changes":[6.1878525E-2,6.409274E-2,0E0,1.9974601E-1,0E0,0E0,0E0],"parents":[2147483647,0,0,1,1,3,3],"right_children":[2,4,-1,6,-1,-1,-1],"split_conditions":[3.95349E-1,3.7733335E-2,3.4030588E-4,4.2846E-2,3.297166E-4,-2.1931408E-4,-5.3675775E-3],"split_indices":[19,38,0,46,0,0,0],"split_type":[0,0,0,0,0,0,0],"sum_hessian":[6.54E2,2.02E2,4.52E2,1.4E2,6.2E1,1.16E2,2.4E1],"tree_param":{"num_deleted":"0","num_feature":"60","num_nodes":"7","size_leaf_vector":"1"}},{"base_weights":[-4.4143543E-4],"categories":[],"categories_nodes":[],"categories_segments":[],"categories_sizes":[],"default_left":[0],"id":40,"left_children":[-1],"loss_changes":[0E0],"parents":[2147483647],"right_children":[-1],"split_conditions":[-2.2071772E-5],"split_indices":[0],"split_type":[0],"sum_hessian":[7.03E2],"tree_param":{"num_deleted":"0","num_feature":"60","num_nodes":"1","size_leaf_vector":"1"}},{"base_weights":[-0E0],"categories":[],"categories_nodes":[],"categories_segments":[],"categories_sizes":[],"default_left":[0],"id":41,"left_children":[-1],"loss_changes":[0E0],"parents":[2147483647],"right_children":[-1],"split_conditions":[-0E0],"split_indices":[0],"split_type":[0],"sum_hessian":[6.88E2],"tree_param":{"num_deleted":"0","num_feature":"60","num_nodes":"1","size_leaf_vector":"1"}},{"base_weights":[-6.457097E-4],"categories":[],"categories_nodes":[],"categories_segments":[],"categories_sizes":[],"default_left":[0],"id":42,"left_children":[-1],"loss_changes":[0E0],"parents":[2147483647],"right_children":[-1],"split_conditions":[-3.2285487E-5],"split_indices":[0],"split_type":[0],"sum_hessian":[6.96E2],"tree_param":{"num_deleted":"0","num_feature":"60","num_nodes":"1","size_leaf_vector":"1"}},{"base_weights":[2.3645277E-3,8.966795E-3,-5.891337E-4,-2.4097588E-5,2.056721E-2,1.6778002E-3,-0E0],"categories":[],"categories_nodes":[],"categories_segments":[],"categories_sizes":[],"default_left":[0,0,0,0,0,0,0],"id":43,"left_children":[1,3,-1,-1,5,-1,-1],"loss_changes":[6.315846E-2,6.4319104E-2,0E0,0E0,5.3580232E-2,0E0,0E0],"parents":[2147483647,0,0,1,1,4,4],"right_children":[2,4,-1,-1,6,-1,-1],"split_conditions":[8.33838E-2,4.162E-3,-5.891337E-4,-2.4097588E-5,5.230539E-2,1.6778002E-3,-0E0],"split_indices":[49,46,0,0,31,0,0],"split_type":[0,0,0,0,0,0,0],"sum_hessian":[6.87E2,4.93E2,1.94E2,2.49E2,2.44E2,1.38E2,1.06E2],"tree_param":{"num_deleted":"0","num_feature":"60","num_nodes":"7","size_leaf_vector":"1"}},{"base_weights":[1.5100533E-3],"categories":[],"categories_nodes":[],"categories_segments":[],"categories_sizes":[],"default_left":[0],"id":44,"left_children":[-1],"loss_changes":[0E0],"parents":[2147483647],"right_children":[-1],"split_conditions":[7.550266E-5],"split_indices":[0],"split_type":[0],"sum_hessian":[6.66E2],"tree_param":{"num_deleted":"0","num_feature":"60","num_nodes":"1","size_leaf_vector":"1"}},{"base_weights":[-0E0],"categories":[],"categories_nodes":[],"categories_segments":[],"categories_sizes":[],"default_left":[0],"id":45,"left_children":[-1],"loss_changes":[0E0],"parents":[2147483647],"right_children":[-1],"split_conditions":[-0E0],"split_indices":[0],"split_type":[0],"sum_hessian":[6.96E2],"tree_param":{"num_deleted":"0","num_feature":"60","num_nodes":"1","size_leaf_vector":"1"}},{"base_weights":[-0E0],"categories":[],"categories_nodes":[],"categories_segments":[],"categories_sizes":[],"default_left":[0],"id":46,"left_children":[-1],"loss_changes":[0E0],"parents":[2147483647],"right_children":[-1],"split_conditions":[-0E0],"split_indices":[0],"split_type":[0],"sum_hessian":[7.15E2],"tree_param":{"num_deleted":"0","num_feature":"60","num_nodes":"1","size_leaf_vector":"1"}},{"base_weights":[-0E0,2.3465922E-4,-7.9955644E-4],"categories":[],"categories_nodes":[],"categories_segments":[],"categories_sizes":[],"default_left":[0,0,0],"id":47,"left_children":[1,-1,-1],"loss_changes":[5.3205084E-2,0E0,0E0],"parents":[2147483647,0,0],"right_children":[2,-1,-1],"split_conditions":[9.89064E-2,2.3465922E-4,-7.9955644E-4],"split_indices":[49,0,0],"split_type":[0,0,0],"sum_hessian":[7.14E2,5.56E2,1.58E2],"tree_param":{"num_deleted":"0","num_feature":"60","num_nodes":"3","size_leaf_vector":"1"}},{"base_weights":[-3.2428102E-4,-1.7941258E-3,5.4027798E-5],"categories":[],"categories_nodes":[],"categories_segments":[],"categories_sizes":[],"default_left":[0,0,0],"id":48,"left_children":[1,-1,-1],"loss_changes":[5.219622E-2,0E0,0E0],"parents":[2147483647,0,0],"right_children":[2,-1,-1],"split_conditions":[1.07054E-1,-1.7941258E-3,5.4027798E-5],"split_indices":[52,0,0],"split_type":[0,0,0],"sum_hessian":[6.93E2,3.8E1,6.55E2],"tree_param":{"num_deleted":"0","num_feature":"60","num_nodes":"3","size_leaf_vector":"1"}},{"base_weights":[1.6801818E-3],"categories":[],"categories_nodes":[],"categories_segments":[],"categories_sizes":[],"default_left":[0],"id":49,"left_children":[-1],"loss_changes":[0E0],"parents":[2147483647],"right_children":[-1],"split_conditions":[8.4009094E-5],"split_indices":[0],"split_type":[0],"sum_hessian":[7.2E2],"tree_param":{"num_deleted":"0","num_feature":"60","num_nodes":"1","size_leaf_vector":"1"}}]},"name":"gbtree"},"learner_model_param":{"base_score":"[-1.8057631E-3]","boost_from_average":"1","num_class":"0","num_feature":"60","num_target":"1"},"objective":{"name":"reg:squarederror","reg_loss_param":{"scale_pos_weight":"1"}}},"version":[3,2,0]}