{"learner":{"attributes":{"scikit_learn":"{\"_estimator_type\": \"regressor\"}"},"feature_names":["trig_ma60_bias","trig_pos_in_20d","trig_dist_from_high","trig_dist_from_low","trig_vol_change","trig_break_above","trig_break_below","trig_price_trend_10d","trend_dir_ord","trend_phase_ord","trend_short_dir_ord","trend_ma_slope","trend_ret_5d","trend_ma_alignment","tech_rsi14","tech_macd_hist","tech_ma60_bias","tech_volatility_20","tech_momentum_20","tech_vol_ratio"],"feature_types":["float","float","float","float","float","float","float","float","float","float","float","float","float","float","float","float","float","float","float","float"],"gradient_booster":{"model":{"cats":{"enc":[],"feature_segments":[],"sorted_idx":[]},"gbtree_model_param":{"num_parallel_tree":"1","num_trees":"50"},"iteration_indptr":[0,1,2,3,4,5,6,7,8,9,10,11,12,13,14,15,16,17,18,19,20,21,22,23,24,25,26,27,28,29,30,31,32,33,34,35,36,37,38,39,40,41,42,43,44,45,46,47,48,49,50],"tree_info":[0,0,0,0,0,0,0,0,0,0,0,0,0,0,0,0,0,0,0,0,0,0,0,0,0,0,0,0,0,0,0,0,0,0,0,0,0,0,0,0,0,0,0,0,0,0,0,0,0,0],"trees":[{"base_weights":[-0E0,3.3476636E-2,-1.8065103E-3,1.9210137E-3,6.352573E-3,-1.3994844E-2,4.239208E-3,-0E0,5.87952E-4,1.7479772E-4,-1.5499545E-2,5.998754E-3,-6.982539E-4,-1.9068172E-4,-7.930762E-4,-0E0,5.0789583E-4],"categories":[],"categories_nodes":[],"categories_segments":[],"categories_sizes":[],"default_left":[0,0,0,0,0,0,0,0,0,0,0,0,0,0,0,0,0],"id":0,"left_children":[1,3,5,-1,7,9,11,-1,-1,-1,13,15,-1,-1,-1,-1,-1],"loss_changes":[3.6953885E-2,1.1209808E-2,5.1970392E-2,0E0,2.9935143E-3,9.06368E-3,1.8131196E-2,0E0,0E0,0E0,1.617271E-2,2.9455086E-2,0E0,0E0,0E0,0E0,0E0],"parents":[2147483647,0,0,1,1,2,2,4,4,5,5,6,6,10,10,11,11],"right_children":[2,4,6,-1,8,10,12,-1,-1,-1,14,16,-1,-1,-1,-1,-1],"split_conditions":[-9.3561366E-2,-1.10205226E-1,2.8985506E-1,1.9210137E-3,-6.666667E-1,-6.692161E-2,1.509376E-1,-0E0,5.87952E-4,1.7479772E-4,-7.937807E-3,4.72879E-2,-6.982539E-4,-1.9068172E-4,-7.930762E-4,-0E0,5.0789583E-4],"split_indices":[18,0,1,0,13,12,16,0,0,0,11,18,0,0,0,0,0],"split_type":[0,0,0,0,0,0,0,0,0,0,0,0,0,0,0,0,0],"sum_hessian":[7.07E2,3E1,6.77E2,1E1,2E1,2.35E2,4.42E2,1.1E1,9E0,7E0,2.28E2,4.23E2,1.9E1,1.35E2,9.3E1,2.68E2,1.55E2],"tree_param":{"num_deleted":"0","num_feature":"20","num_nodes":"17","size_leaf_vector":"1"}},{"base_weights":[1.0283048E-3,1.8021748E-3,-0E0,-9.636133E-3,5.860047E-3,-1.305567E-2,1.5133222E-2,-6.1084866E-3,1.0656128E-2,-2.655466E-4,-9.279408E-4,-0E0,6.1532034E-4,4.3310242E-4,-4.989359E-4,4.0374594E-4,-2.0360868E-4],"categories":[],"categories_nodes":[],"categories_segments":[],"categories_sizes":[],"default_left":[0,0,0,0,0,0,0,0,0,0,0,0,0,0,0,0,0],"id":1,"left_children":[1,-1,3,5,7,9,11,13,15,-1,-1,-1,-1,-1,-1,-1,-1],"loss_changes":[5.3398844E-2,0E0,3.9057475E-2,2.2566289E-2,2.450946E-2,1.010659E-2,2.4593854E-3,2.359529E-2,1.6333003E-2,0E0,0E0,0E0,0E0,0E0,0E0,0E0,0E0],"parents":[2147483647,0,0,2,2,3,3,4,4,5,5,6,6,7,7,8,8],"right_children":[2,-1,4,6,8,10,12,14,16,-1,-1,-1,-1,-1,-1,-1,-1],"split_conditions":[-1.10205226E-1,1.8021748E-3,3.2258064E-1,2.7841288E-1,1.6214958E-1,3.560467E-5,4.347826E-2,1.1690256E-1,6.1555076E-2,-2.655466E-4,-9.279408E-4,-0E0,6.1532034E-4,4.3310242E-4,-4.989359E-4,4.0374594E-4,-2.0360868E-4],"split_indices":[16,0,1,17,17,15,1,17,12,0,0,0,0,0,0,0,0],"split_type":[0,0,0,0,0,0,0,0,0,0,0,0,0,0,0,0,0],"sum_hessian":[6.91E2,1.4E1,6.77E2,2.68E2,4.09E2,2.43E2,2.5E1,1.05E2,3.04E2,2.07E2,3.6E1,6E0,1.9E1,2.9E1,7.6E1,2.72E2,3.2E1],"tree_param":{"num_deleted":"0","num_feature":"20","num_nodes":"17","size_leaf_vector":"1"}},{"base_weights":[-0E0,4.3377418E-2,-1.7973114E-3,1.8272407E-3,2.6435957E-3,-6.4924513E-3,9.405029E-3,-0E0,2.4271653E-4,-9.163672E-3,1.0610919E-2,1.470924E-2,-1.1138906E-2,2.5744006E-4,-3.288793E-4,6.480611E-4,-6.6325266E-4,2.215526E-4,1.0982864E-3,-0E0,-5.898362E-4],"categories":[],"categories_nodes":[],"categories_segments":[],"categories_sizes":[],"default_left":[0,0,0,0,0,0,0,0,0,0,0,0,0,0,0,0,0,0,0,0,0],"id":2,"left_children":[1,3,5,-1,7,9,11,-1,-1,13,15,17,19,-1,-1,-1,-1,-1,-1,-1,-1],"loss_changes":[4.9207557E-2,4.980877E-3,3.4770835E-2,0E0,3.743359E-4,2.2011613E-2,2.1146217E-2,0E0,0E0,1.4329046E-2,2.0515148E-2,1.5953287E-2,2.3386772E-3,0E0,0E0,0E0,0E0,0E0,0E0,0E0,0E0],"parents":[2147483647,0,0,1,1,2,2,4,4,5,5,6,6,9,9,10,10,11,11,12,12],"right_children":[2,4,6,-1,8,10,12,-1,-1,14,16,18,20,-1,-1,-1,-1,-1,-1,-1,-1],"split_conditions":[-9.836066E-2,-9.717868E-2,4.180602E-2,1.8272407E-3,-6.606988E-2,2.9664886E-1,1.3486111E-1,-0E0,2.4271653E-4,1.1251738E-1,2E0,1.3107511E-1,5.724508E-2,2.5744006E-4,-3.288793E-4,6.480611E-4,-6.6325266E-4,2.215526E-4,1.0982864E-3,-0E0,-5.898362E-4],"split_indices":[18,0,18,0,0,17,0,0,0,17,8,18,12,0,0,0,0,0,0,0,0],"split_type":[0,0,0,0,0,0,0,0,0,0,0,0,0,0,0,0,0,0,0,0,0],"sum_hessian":[6.94E2,2.4E1,6.7E2,1.3E1,1.1E1,4.85E2,1.85E2,5E0,6E0,4.3E2,5.5E1,1.55E2,3E1,2.9E1,4.01E2,4.6E1,9E0,1.24E2,3.1E1,1.5E1,1.5E1],"tree_param":{"num_deleted":"0","num_feature":"20","num_nodes":"21","size_leaf_vector":"1"}},{"base_weights":[-0E0,-1.0330314E-2,5.8756787E-3,1.0959689E-2,-1.8989952E-2,2.977751E-2,3.339329E-3,3.4925528E-2,-0E0,-7.633667E-3,-3.1675663E-2,4.407986E-3,4.238162E-2,-9.256603E-3,6.0886526E-3,-0E0,1.413857E-3,1.2520156E-4,-1.9268776E-4,9.348934E-5,-3.9172234E-4,-2.6099653E-5,-1.3349891E-3,4.3176624E-4,-0E0,1.5720044E-3,-0E0,1.3535665E-4,-5.932874E-4,2.5465208E-4,-4.4263448E-4],"categories":[],"categories_nodes":[],"categories_segments":[],"categories_sizes":[],"default_left":[0,0,0,0,0,0,0,0,0,0,0,0,0,0,0,0,0,0,0,0,0,0,0,0,0,0,0,0,0,0,0],"id":3,"left_children":[1,3,5,7,9,11,13,15,17,19,21,23,25,27,29,-1,-1,-1,-1,-1,-1,-1,-1,-1,-1,-1,-1,-1,-1,-1,-1],"loss_changes":[4.3429147E-2,5.0301835E-2,2.0254608E-2,1.5987813E-2,1.9844465E-2,1.6468689E-3,1.3655821E-2,3.6269426E-5,1.2394072E-3,8.559087E-3,2.3676611E-2,2.3430176E-3,3.3634566E-3,1.1977319E-2,1.6428458E-2,0E0,0E0,0E0,0E0,0E0,0E0,0E0,0E0,0E0,0E0,0E0,0E0,0E0,0E0,0E0,0E0],"parents":[2147483647,0,0,1,1,2,2,3,3,4,4,5,5,6,6,7,7,8,8,9,9,10,10,11,11,12,12,13,13,14,14],"right_children":[2,4,6,8,10,12,14,16,18,20,22,24,26,28,30,-1,-1,-1,-1,-1,-1,-1,-1,-1,-1,-1,-1,-1,-1,-1,-1],"split_conditions":[2.837838E-1,-4.8496604E-2,-2.177294E-2,-8.7030716E-2,-8.877928E-3,-8.372907E-3,4.758248E1,9.7559446E-1,-2.2292994E-2,-2.5356578E-2,-5.656564E-3,-4.4759825E-2,5.416667E-1,8.909887E-1,1.3663898E-1,-0E0,1.413857E-3,1.2520156E-4,-1.9268776E-4,9.348934E-5,-3.9172234E-4,-2.6099653E-5,-1.3349891E-3,4.3176624E-4,-0E0,1.5720044E-3,-0E0,1.3535665E-4,-5.932874E-4,2.5465208E-4,-4.4263448E-4],"split_indices":[1,7,7,18,11,11,14,19,12,12,15,18,1,19,0,0,0,0,0,0,0,0,0,0,0,0,0,0,0,0,0],"split_type":[0,0,0,0,0,0,0,0,0,0,0,0,0,0,0,0,0,0,0,0,0,0,0,0,0,0,0,0,0,0,0],"sum_hessian":[7.06E2,2.62E2,4.44E2,6.9E1,1.93E2,3.4E1,4.1E2,1.9E1,5E1,1.11E2,8.2E1,1.7E1,1.7E1,6E1,3.5E2,9E0,1E1,3.7E1,1.3E1,2.5E1,8.6E1,2.9E1,5.3E1,1.2E1,5E0,1.2E1,5E0,1.8E1,4.2E1,3.23E2,2.7E1],"tree_param":{"num_deleted":"0","num_feature":"20","num_nodes":"31","size_leaf_vector":"1"}},{"base_weights":[-2.498905E-3,-6.6230623E-3,1.7760972E-2,1.580581E-3,-7.6423935E-3,2.312696E-2,-9.910256E-3,-1.5449066E-2,-0E0,7.1996036E-3,3.178668E-2,-0E0,-8.998872E-4,-3.5781332E-4,-1.6581197E-3,1.2015999E-4,-2.8052073E-4,4.0692335E-4,-0E0,-0E0,1.0769385E-3],"categories":[],"categories_nodes":[],"categories_segments":[],"categories_sizes":[],"default_left":[0,0,0,0,0,0,0,0,0,0,0,0,0,0,0,0,0,0,0,0,0],"id":4,"left_children":[1,3,5,-1,7,9,11,13,15,17,19,-1,-1,-1,-1,-1,-1,-1,-1,-1,-1],"loss_changes":[5.763182E-2,2.7848648E-2,1.9651175E-2,0E0,3.5301555E-2,5.904462E-3,5.0216503E-3,2.7134687E-2,1.1532545E-2,4.2909216E-3,9.418055E-3,0E0,0E0,0E0,0E0,0E0,0E0,0E0,0E0,0E0,0E0],"parents":[2147483647,0,0,1,1,2,2,4,4,5,5,6,6,7,7,8,8,9,9,10,10],"right_children":[2,4,6,-1,8,10,12,14,16,18,20,-1,-1,-1,-1,-1,-1,-1,-1,-1,-1],"split_conditions":[2.9664886E-1,-1.1111111E-1,1.1547201E-1,1.580581E-3,4.7625225E1,3.3877793E-1,-6.182126E-2,2.5376907E-1,2.2824177E-1,3.1656224E-2,7.1200895E-1,-0E0,-8.998872E-4,-3.5781332E-4,-1.6581197E-3,1.2015999E-4,-2.8052073E-4,4.0692335E-4,-0E0,-0E0,1.0769385E-3],"split_indices":[17,18,0,0,14,17,4,17,17,0,19,0,0,0,0,0,0,0,0,0,0],"split_type":[0,0,0,0,0,0,0,0,0,0,0,0,0,0,0,0,0,0,0,0,0],"sum_hessian":[7.14E2,6.02E2,1.12E2,6E0,5.96E2,1E2,1.2E1,2.93E2,3.03E2,4.4E1,5.6E1,6E0,6E0,2.75E2,1.8E1,2.11E2,9.2E1,3.5E1,9E0,5E0,5.1E1],"tree_param":{"num_deleted":"0","num_feature":"20","num_nodes":"21","size_leaf_vector":"1"}},{"base_weights":[6.5648195E-4,-2.1249E-3,2.440448E-2,-4.825999E-3,1.1576434E-2,3.17902E-2,-0E0,-6.489722E-3,1.1797935E-2,2.0078622E-2,-3.412999E-3,-0E0,3.6096655E-2,1.8100065E-4,-2.2610405E-4,2.375617E-4,-2.677971E-4,-0E0,8.439319E-4,7.340881E-4,-0E0,-6.0277607E-4,-0E0,-0E0,8.469613E-5,1.144465E-3,-0E0],"categories":[],"categories_nodes":[],"categories_segments":[],"categories_sizes":[],"default_left":[0,0,0,0,0,0,0,0,0,0,0,0,0,0,0,0,0,0,0,0,0,0,0,0,0,0,0],"id":5,"left_children":[1,3,5,7,9,11,13,15,17,19,21,23,25,-1,-1,-1,-1,-1,-1,-1,-1,-1,-1,-1,-1,-1,-1],"loss_changes":[5.1999338E-2,2.2280298E-2,1.5246458E-2,1.4088326E-2,1.5253851E-2,3.0748844E-3,9.68449E-4,1.8073626E-2,8.815961E-3,8.51142E-3,4.945367E-3,6.376385E-5,6.463006E-4,0E0,0E0,0E0,0E0,0E0,0E0,0E0,0E0,0E0,0E0,0E0,0E0,0E0,0E0],"parents":[2147483647,0,0,1,1,2,2,3,3,4,4,5,5,6,6,7,7,8,8,9,9,10,10,11,11,12,12],"right_children":[2,4,6,8,10,12,14,16,18,20,22,24,26,-1,-1,-1,-1,-1,-1,-1,-1,-1,-1,-1,-1,-1,-1],"split_conditions":[3.2530656E-1,2.2940558E-1,1.04851596E-1,8.080812E-3,7.544814E-3,3.3877793E-1,-5.7441507E-2,-4.9295776E-2,8.427877E-2,1.4093801E-1,6.63667E-2,9.9020225E-1,5.942087E1,1.8100065E-4,-2.2610405E-4,2.375617E-4,-2.677971E-4,-0E0,8.439319E-4,7.340881E-4,-0E0,-6.0277607E-4,-0E0,-0E0,8.469613E-5,1.144465E-3,-0E0],"split_indices":[17,4,0,15,15,17,4,7,18,0,7,19,14,0,0,0,0,0,0,0,0,0,0,0,0,0,0],"split_type":[0,0,0,0,0,0,0,0,0,0,0,0,0,0,0,0,0,0,0,0,0,0,0,0,0,0,0],"sum_hessian":[7.18E2,6.36E2,8.2E1,5.44E2,9.2E1,6.3E1,1.9E1,5.06E2,3.8E1,6.7E1,2.5E1,1.2E1,5.1E1,1E1,9E0,6.1E1,4.45E2,2.1E1,1.7E1,5.9E1,8E0,1.2E1,1.3E1,5E0,7E0,4.6E1,5E0],"tree_param":{"num_deleted":"0","num_feature":"20","num_nodes":"27","size_leaf_vector":"1"}},{"base_weights":[-5.37974E-4,4.5680847E-2,-1.7595115E-3,1.7984489E-3,-0E0,-6.8503725E-3,1.0518466E-2,-9.886292E-3,1.0635519E-2,1.5365744E-2,-1.3328224E-2,1.12525435E-4,-3.6506355E-4,4.708841E-4,-1.4898532E-4,3.086963E-4,1.2647662E-3,-0E0,-6.2908535E-4],"categories":[],"categories_nodes":[],"categories_segments":[],"categories_sizes":[],"default_left":[0,0,0,0,0,0,0,0,0,0,0,0,0,0,0,0,0,0,0],"id":6,"left_children":[1,3,5,-1,-1,7,9,11,13,15,17,-1,-1,-1,-1,-1,-1,-1,-1],"loss_changes":[3.1155474E-2,3.1298287E-3,4.265473E-2,0E0,0E0,2.6604349E-2,2.2805883E-2,1.5362721E-2,7.3559647E-3,1.1788163E-2,2.4168454E-3,0E0,0E0,0E0,0E0,0E0,0E0,0E0,0E0],"parents":[2147483647,0,0,1,1,2,2,5,5,6,6,7,7,8,8,9,9,10,10],"right_children":[2,4,6,-1,-1,8,10,12,14,16,18,-1,-1,-1,-1,-1,-1,-1,-1],"split_conditions":[-1.10205226E-1,-9.836066E-2,4.006678E-2,1.7984489E-3,-0E0,2.9664886E-1,1.3663898E-1,1.178893E-1,9.963584E-2,3.4759197E-2,2.2642799E-1,1.12525435E-4,-3.6506355E-4,4.708841E-4,-1.4898532E-4,3.086963E-4,1.2647662E-3,-0E0,-6.2908535E-4],"split_indices":[0,18,18,0,0,17,0,17,0,11,17,0,0,0,0,0,0,0,0],"split_type":[0,0,0,0,0,0,0,0,0,0,0,0,0,0,0,0,0,0,0],"sum_hessian":[7.05E2,1.3E1,6.92E2,8E0,5E0,5.01E2,1.91E2,4.37E2,6.4E1,1.66E2,2.5E1,5E1,3.87E2,5.8E1,6E0,1.47E2,1.9E1,1E1,1.5E1],"tree_param":{"num_deleted":"0","num_feature":"20","num_nodes":"19","size_leaf_vector":"1"}},{"base_weights":[1.8235794E-3,-1.3037353E-3,2.0485183E-2,-6.9864173E-3,4.950062E-3,2.4668759E-2,-1.6081247E-3,2.631466E-4,-1.530493E-2,7.905216E-3,-6.798241E-3,7.8411616E-4,-0E0,-0E0,-3.976052E-4,-7.446275E-5,1.8918765E-3,6.285686E-4,-5.555649E-4,-1.424064E-4,3.3729622E-4,-0E0,-6.245348E-4],"categories":[],"categories_nodes":[],"categories_segments":[],"categories_sizes":[],"default_left":[0,0,0,0,0,0,0,0,0,0,0,0,0,0,0,0,0,0,0,0,0,0,0],"id":7,"left_children":[1,3,5,7,9,11,13,15,17,19,21,-1,-1,-1,-1,-1,-1,-1,-1,-1,-1,-1,-1],"loss_changes":[4.5240737E-2,2.172932E-2,1.4911421E-2,2.2973534E-2,9.614291E-3,2.0699687E-3,1.025486E-3,4.0718507E-2,1.9361336E-2,1.1023897E-2,6.3393977E-3,0E0,0E0,0E0,0E0,0E0,0E0,0E0,0E0,0E0,0E0,0E0,0E0],"parents":[2147483647,0,0,1,1,2,2,3,3,4,4,5,5,6,6,7,7,8,8,9,9,10,10],"right_children":[2,4,6,8,10,12,14,16,18,20,22,-1,-1,-1,-1,-1,-1,-1,-1,-1,-1,-1,-1],"split_conditions":[2.9664886E-1,6.315789E-1,1.1547201E-1,-2.5503356E-2,4.600219E-2,1.2295893E0,1.999021E-3,-2.723108E-4,-2.5955045E-1,-1.4312578E-2,2.2642799E-1,7.8411616E-4,-0E0,-0E0,-3.976052E-4,-7.446275E-5,1.8918765E-3,6.285686E-4,-5.555649E-4,-1.424064E-4,3.3729622E-4,-0E0,-6.245348E-4],"split_indices":[17,1,0,7,12,19,15,15,4,0,17,0,0,0,0,0,0,0,0,0,0,0,0],"split_type":[0,0,0,0,0,0,0,0,0,0,0,0,0,0,0,0,0,0,0,0,0,0,0],"sum_hessian":[7.08E2,5.98E2,1.1E2,3.3E2,2.68E2,1E2,1E1,1.64E2,1.66E2,2.28E2,4E1,9.2E1,8E0,5E0,5E0,1.55E2,9E0,8E0,1.58E2,3.5E1,1.93E2,2.2E1,1.8E1],"tree_param":{"num_deleted":"0","num_feature":"20","num_nodes":"23","size_leaf_vector":"1"}},{"base_weights":[-0E0,3.8392086E-2,-1.4972672E-3,1.4022727E-3,-0E0,-9.343751E-3,5.1083635E-3,-1.2355706E-2,1.2370571E-2,7.2593787E-3,-1.7654564E-2,-4.817194E-4,-1.0274711E-5,-0E0,5.2629004E-4,6.9673813E-4,1.3176083E-4,-0E0,-8.915974E-4],"categories":[],"categories_nodes":[],"categories_segments":[],"categories_sizes":[],"default_left":[0,0,0,0,0,0,0,0,0,0,0,0,0,0,0,0,0,0,0],"id":8,"left_children":[1,3,5,-1,-1,7,9,11,13,15,17,-1,-1,-1,-1,-1,-1,-1,-1],"loss_changes":[4.1321136E-2,6.085228E-3,3.6139872E-2,0E0,0E0,2.1405702E-2,1.5480093E-2,9.788193E-3,3.1046872E-3,9.664489E-3,8.730197E-3,0E0,0E0,0E0,0E0,0E0,0E0,0E0,0E0],"parents":[2147483647,0,0,1,1,2,2,5,5,6,6,7,7,8,8,9,9,10,10],"right_children":[2,4,6,-1,-1,8,10,12,14,16,18,-1,-1,-1,-1,-1,-1,-1,-1],"split_conditions":[-9.836066E-2,-1.654414E-3,0E0,1.4022727E-3,-0E0,2.9238468E-1,6.385696E-2,-2.6389116E-2,8.2630414E-1,-1.1409827E-3,9.828135E-2,-4.817194E-4,-1.0274711E-5,-0E0,5.2629004E-4,6.9673813E-4,1.3176083E-4,-0E0,-8.915974E-4],"split_indices":[18,15,13,0,0,17,12,0,19,11,0,0,0,0,0,0,0,0,0],"split_type":[0,0,0,0,0,0,0,0,0,0,0,0,0,0,0,0,0,0,0],"sum_hessian":[7.05E2,2.6E1,6.79E2,2E1,6E0,3.24E2,3.55E2,2.93E2,3.1E1,3.33E2,2.2E1,2.11E2,8.2E1,6E0,2.5E1,3.9E1,2.94E2,5E0,1.7E1],"tree_param":{"num_deleted":"0","num_feature":"20","num_nodes":"19","size_leaf_vector":"1"}},{"base_weights":[-0E0,5.4974463E-2,-1.733439E-3,1.9909653E-3,-0E0,-4.316549E-3,1.5112422E-2,3.1883002E-3,-9.807924E-3,2.0395119E-2,-0E0,2.8511227E-4,-3.591742E-4,5.907579E-4,-3.6188416E-4,-0E0,6.8019034E-4,-0E0,-7.5020274E-5],"categories":[],"categories_nodes":[],"categories_segments":[],"categories_sizes":[],"default_left":[0,0,0,0,0,0,0,0,0,0,0,0,0,0,0,0,0,0,0],"id":9,"left_children":[1,3,5,-1,-1,7,9,11,13,15,17,-1,-1,-1,-1,-1,-1,-1,-1],"loss_changes":[5.6457743E-2,2.8575025E-3,2.7713634E-2,0E0,0E0,2.6288418E-2,8.538246E-3,2.2695066E-2,2.2991031E-2,3.806468E-3,6.878717E-5,0E0,0E0,0E0,0E0,0E0,0E0,0E0,0E0],"parents":[2147483647,0,0,1,1,2,2,5,5,6,6,7,7,8,8,9,9,10,10],"right_children":[2,4,6,-1,-1,8,10,12,14,16,18,-1,-1,-1,-1,-1,-1,-1,-1],"split_conditions":[-1.10205226E-1,-2.3291314E-2,3.0590183E-1,1.9909653E-3,-0E0,2.962963E-1,5.942087E1,2.2824177E-1,0E0,4.347826E-2,1.1547201E-1,2.8511227E-4,-3.591742E-4,5.907579E-4,-3.6188416E-4,-0E0,6.8019034E-4,-0E0,-7.5020274E-5],"split_indices":[0,11,17,0,0,2,14,17,9,1,0,0,0,0,0,0,0,0,0],"split_type":[0,0,0,0,0,0,0,0,0,0,0,0,0,0,0,0,0,0,0],"sum_hessian":[7.01E2,1.7E1,6.84E2,1.2E1,5E0,6.04E2,8E1,2.4E2,3.64E2,6.4E1,1.6E1,1.79E2,6.1E1,1.9E1,3.45E2,5E0,5.9E1,6E0,1E1],"tree_param":{"num_deleted":"0","num_feature":"20","num_nodes":"19","size_leaf_vector":"1"}},{"base_weights":[2.1168523E-4,1.5913114E-3,-7.0525246E-4,-4.636165E-3,9.117839E-3,-1.9141704E-4,-1.3666982E-2,1.2760939E-2,-1.8115353E-2,3.5106193E-4,-7.089793E-5,-6.7407184E-4,2.9218503E-5,-0E0,5.653517E-4,-0E0,-8.170485E-4],"categories":[],"categories_nodes":[],"categories_segments":[],"categories_sizes":[],"default_left":[0,0,0,0,0,0,0,0,0,0,0,0,0,0,0,0,0],"id":10,"left_children":[1,-1,3,5,7,9,11,13,15,-1,-1,-1,-1,-1,-1,-1,-1],"loss_changes":[4.5336105E-2,0E0,2.6329992E-2,1.8018074E-2,1.7713165E-2,7.5364844E-3,2.4424726E-2,1.7093541E-2,6.8328343E-4,0E0,0E0,0E0,0E0,0E0,0E0,0E0,0E0],"parents":[2147483647,0,0,2,2,3,3,4,4,5,5,6,6,7,7,8,8],"right_children":[2,-1,4,6,8,10,12,14,16,-1,-1,-1,-1,-1,-1,-1,-1],"split_conditions":[-1.10205226E-1,1.5913114E-3,4.180602E-2,7.2412945E-2,1.5794644E-1,-4.9295776E-2,2.2940558E-1,1.8623365E-1,2.2339277E-1,3.5106193E-4,-7.089793E-5,-6.7407184E-4,2.9218503E-5,-0E0,5.653517E-4,-0E0,-8.170485E-4],"split_indices":[16,0,18,4,16,7,4,17,17,0,0,0,0,0,0,0,0],"split_type":[0,0,0,0,0,0,0,0,0,0,0,0,0,0,0,0,0],"sum_hessian":[7.18E2,1.5E1,7.03E2,5.17E2,1.86E2,3.62E2,1.55E2,1.71E2,1.5E1,4.1E1,3.21E2,1.05E2,5E1,4.5E1,1.26E2,8E0,7E0],"tree_param":{"num_deleted":"0","num_feature":"20","num_nodes":"17","size_leaf_vector":"1"}},{"base_weights":[-8.589771E-5,4.7017418E-2,-1.544601E-3,1.8730875E-3,-0E0,-4.810319E-3,1.6273111E-2,7.7826264E-3,-9.077462E-3,1.9684227E-2,-0E0,-0E0,3.702252E-4,-4.1299363E-4,-0E0,6.419109E-4,-0E0],"categories":[],"categories_nodes":[],"categories_segments":[],"categories_sizes":[],"default_left":[0,0,0,0,0,0,0,0,0,0,0,0,0,0,0,0,0],"id":11,"left_children":[1,3,5,-1,-1,7,9,11,13,15,-1,-1,-1,-1,-1,-1,-1],"loss_changes":[3.9212316E-2,9.198587E-3,3.7702426E-2,0E0,0E0,3.20338E-2,5.697999E-3,7.023368E-3,2.1043353E-2,3.410332E-3,0E0,0E0,0E0,0E0,0E0,0E0,0E0],"parents":[2147483647,0,0,1,1,2,2,5,5,6,6,7,7,8,8,9,9],"right_children":[2,4,6,-1,-1,8,10,12,14,16,-1,-1,-1,-1,-1,-1,-1],"split_conditions":[-1.10205226E-1,-2.3291314E-2,1.8899584E-2,1.8730875E-3,-0E0,-1.11660436E-1,1.3486111E-1,4.1260788E1,7.076923E-1,7.492611E1,-0E0,-0E0,3.702252E-4,-4.1299363E-4,-0E0,6.419109E-4,-0E0],"split_indices":[0,11,11,0,0,4,16,14,1,14,0,0,0,0,0,0,0],"split_type":[0,0,0,0,0,0,0,0,0,0,0,0,0,0,0,0,0],"sum_hessian":[7.01E2,1.6E1,6.85E2,1.1E1,5E0,5.89E2,9.6E1,1.37E2,4.52E2,8E1,1.6E1,3.7E1,1E2,3.07E2,1.45E2,7.5E1,5E0],"tree_param":{"num_deleted":"0","num_feature":"20","num_nodes":"17","size_leaf_vector":"1"}},{"base_weights":[8.15571E-4,-1.5153913E-3,2.5205813E-2,4.9495716E-3,-6.102772E-3,2.796331E-2,-0E0,-8.803734E-4,1.1092263E-2,8.013051E-3,-9.87001E-3,-0E0,9.248444E-4,9.672246E-5,-3.686456E-4,-3.8649963E-4,4.5766454E-4,4.567224E-4,-0E0,-3.3619124E-4,-0E0],"categories":[],"categories_nodes":[],"categories_segments":[],"categories_sizes":[],"default_left":[0,0,0,0,0,0,0,0,0,0,0,0,0,0,0,0,0,0,0,0,0],"id":12,"left_children":[1,3,5,7,9,11,-1,13,15,17,19,-1,-1,-1,-1,-1,-1,-1,-1,-1,-1],"loss_changes":[4.5482837E-2,1.9449085E-2,4.789334E-3,1.1040844E-2,2.1562014E-2,3.9583407E-3,0E0,7.143422E-3,1.4545353E-2,6.4378306E-3,5.7631247E-3,0E0,0E0,0E0,0E0,0E0,0E0,0E0,0E0,0E0,0E0],"parents":[2147483647,0,0,1,1,2,2,3,3,4,4,5,5,7,7,8,8,9,9,10,10],"right_children":[2,4,6,8,10,12,-1,14,16,18,20,-1,-1,-1,-1,-1,-1,-1,-1,-1,-1],"split_conditions":[3.3877793E-1,3.0882353E-1,6.1855232E1,-6.3837986E-3,-4.9295776E-2,7.1200895E-1,-0E0,1.8771332E-2,-2.2862121E-2,-8.553536E-3,1.2279599E0,-0E0,9.248444E-4,9.672246E-5,-3.686456E-4,-3.8649963E-4,4.5766454E-4,4.567224E-4,-0E0,-3.3619124E-4,-0E0],"split_indices":[17,2,14,4,7,19,0,12,0,11,19,0,0,0,0,0,0,0,0,0,0],"split_type":[0,0,0,0,0,0,0,0,0,0,0,0,0,0,0,0,0,0,0,0,0],"sum_hessian":[7.15E2,6.46E2,6.9E1,2.5E2,3.96E2,6.2E1,7E0,1.12E2,1.38E2,7.2E1,3.24E2,7E0,5.5E1,7E1,4.2E1,1.3E1,1.25E2,4.7E1,2.5E1,2.97E2,2.7E1],"tree_param":{"num_deleted":"0","num_feature":"20","num_nodes":"21","size_leaf_vector":"1"}},{"base_weights":[-0E0,-2.4016586E-3,1.881502E-2,-5.9388075E-3,6.004671E-3,2.090541E-2,-0E0,1.266297E-2,-9.420387E-3,1.43003175E-2,-4.7816504E-3,7.1699955E-3,1.0664648E-3,6.668261E-5,1.0204053E-3,2.600011E-4,-3.4744586E-4,-0E0,8.881203E-4,4.3656887E-4,-6.791603E-4,4.8627096E-4,-0E0],"categories":[],"categories_nodes":[],"categories_segments":[],"categories_sizes":[],"default_left":[0,0,0,0,0,0,0,0,0,0,0,0,0,0,0,0,0,0,0,0,0,0,0],"id":13,"left_children":[1,3,5,7,9,11,-1,13,15,17,19,21,-1,-1,-1,-1,-1,-1,-1,-1,-1,-1,-1],"loss_changes":[3.25584E-2,1.8219965E-2,3.7493054E-3,2.8484851E-2,1.6736232E-2,6.2863566E-3,0E0,6.497211E-3,1.5810695E-2,2.6057562E-2,2.3352023E-2,5.7284986E-3,0E0,0E0,0E0,0E0,0E0,0E0,0E0,0E0,0E0,0E0,0E0],"parents":[2147483647,0,0,1,1,2,2,3,3,4,4,5,5,7,7,8,8,9,9,10,10,11,11],"right_children":[2,4,6,8,10,12,-1,14,16,18,20,22,-1,-1,-1,-1,-1,-1,-1,-1,-1,-1,-1],"split_conditions":[3.2187864E-1,4.180602E-2,1.3663898E-1,-4.7314577E-2,2.2642799E-1,4.1294724E-1,-0E0,-5.284553E-2,1.1251738E-1,1.901345E-1,7.779172E-2,3.9980122E-1,1.0664648E-3,6.668261E-5,1.0204053E-3,2.600011E-4,-3.4744586E-4,-0E0,8.881203E-4,4.3656887E-4,-6.791603E-4,4.8627096E-4,-0E0],"split_indices":[17,18,16,7,17,17,0,7,17,17,18,17,0,0,0,0,0,0,0,0,0,0,0],"split_type":[0,0,0,0,0,0,0,0,0,0,0,0,0,0,0,0,0,0,0,0,0,0,0],"sum_hessian":[6.92E2,6.11E2,8.1E1,4.47E2,1.64E2,7.4E1,7E0,6.1E1,3.86E2,1.03E2,6.1E1,4.6E1,2.8E1,4.8E1,1.3E1,3.1E1,3.55E2,5E1,5.3E1,2.4E1,3.7E1,3E1,1.6E1],"tree_param":{"num_deleted":"0","num_feature":"20","num_nodes":"23","size_leaf_vector":"1"}},{"base_weights":[-1.1722051E-3,-4.4541257E-3,2.0710584E-2,-1.346209E-3,-1.0882045E-2,2.7776752E-2,-4.0900717E-3,-5.575364E-3,1.6715E-2,-2.3663235E-3,-3.110432E-2,9.0768305E-4,-0E0,-0E0,-4.307245E-4,-2.971044E-4,-0E0,7.3905225E-4,-0E0,-3.7582841E-4,1.9230408E-4,-1.1142122E-3,-0E0],"categories":[],"categories_nodes":[],"categories_segments":[],"categories_sizes":[],"default_left":[0,0,0,0,0,0,0,0,0,0,0,0,0,0,0,0,0,0,0,0,0,0,0],"id":14,"left_children":[1,3,5,7,9,11,13,15,17,19,21,-1,-1,-1,-1,-1,-1,-1,-1,-1,-1,-1,-1],"loss_changes":[4.682599E-2,9.805847E-3,1.9396331E-2,3.116854E-2,2.4057372E-2,3.8077272E-3,1.4316259E-3,8.233961E-3,1.4524486E-2,1.325394E-2,3.775321E-3,0E0,0E0,0E0,0E0,0E0,0E0,0E0,0E0,0E0,0E0,0E0,0E0],"parents":[2147483647,0,0,1,1,2,2,3,3,4,4,5,5,6,6,7,7,8,8,9,9,10,10],"right_children":[2,4,6,8,10,12,14,16,18,20,22,-1,-1,-1,-1,-1,-1,-1,-1,-1,-1,-1,-1],"split_conditions":[3.2187864E-1,2.2642799E-1,1.1756612E-1,5.269923E-2,8.867964E-2,1.2100406E0,3.9980122E-1,-1.2921431E-4,7.445235E1,4.923011E1,2.4301937E-2,9.0768305E-4,-0E0,-0E0,-4.307245E-4,-2.971044E-4,-0E0,7.3905225E-4,-0E0,-3.7582841E-4,1.9230408E-4,-1.1142122E-3,-0E0],"split_indices":[17,17,0,18,0,19,17,15,14,14,11,0,0,0,0,0,0,0,0,0,0,0,0],"split_type":[0,0,0,0,0,0,0,0,0,0,0,0,0,0,0,0,0,0,0,0,0,0,0],"sum_hessian":[6.95E2,6.13E2,8.2E1,4.35E2,1.78E2,7E1,1.2E1,3.62E2,7.3E1,1.33E2,4.5E1,6.3E1,7E0,5E0,7E0,1.98E2,1.64E2,5.7E1,1.6E1,7.2E1,6.1E1,3.4E1,1.1E1],"tree_param":{"num_deleted":"0","num_feature":"20","num_nodes":"23","size_leaf_vector":"1"}},{"base_weights":[-3.7821845E-4,1.8199584E-2,-2.9216418E-3,3.8891375E-2,8.889951E-3,1.3445381E-3,-1.3156023E-2,1.4158813E-3,-0E0,-0E0,1.8623257E-2,4.6491725E-3,-1.0809984E-2,-2.0940064E-3,-2.0131264E-2,-1.1007932E-5,1.408677E-4,-0E0,7.155627E-4,-8.678392E-5,2.64248E-4,1.6133781E-4,-6.542372E-4,-0E0,-2.5780775E-4,-0E0,-6.861295E-4],"categories":[],"categories_nodes":[],"categories_segments":[],"categories_sizes":[],"default_left":[0,0,0,0,0,0,0,0,0,0,0,0,0,0,0,0,0,0,0,0,0,0,0,0,0,0,0],"id":15,"left_children":[1,3,5,7,9,11,13,-1,-1,15,17,19,21,23,25,-1,-1,-1,-1,-1,-1,-1,-1,-1,-1,-1,-1],"loss_changes":[2.9695425E-2,4.3528304E-3,2.9406583E-2,3.0150823E-4,3.6609746E-3,1.5848588E-2,1.0636203E-2,0E0,0E0,3.9943232E-4,2.4857055E-3,1.2093186E-2,1.728988E-2,2.494275E-3,9.703241E-3,0E0,0E0,0E0,0E0,0E0,0E0,0E0,0E0,0E0,0E0,0E0,0E0],"parents":[2147483647,0,0,1,1,2,2,3,3,4,4,5,5,6,6,9,9,10,10,11,11,12,12,13,13,14,14],"right_children":[2,4,6,8,10,12,14,-1,-1,16,18,20,22,24,26,-1,-1,-1,-1,-1,-1,-1,-1,-1,-1,-1,-1],"split_conditions":[-4.8496604E-2,-9.576838E-2,6.956522E-1,-9.717868E-2,-5.9811123E-2,9.998009E-2,-4.858749E-2,1.4158813E-3,-0E0,-6.666667E-1,-1.123291E-2,1.6214958E-1,2.2642799E-1,-2.8498904E-3,-9.717868E-2,-1.1007932E-5,1.408677E-4,-0E0,7.155627E-4,-8.678392E-5,2.64248E-4,1.6133781E-4,-6.542372E-4,-0E0,-2.5780775E-4,-0E0,-6.861295E-4],"split_indices":[7,18,2,0,7,0,4,0,0,13,15,17,17,15,16,0,0,0,0,0,0,0,0,0,0,0,0],"split_type":[0,0,0,0,0,0,0,0,0,0,0,0,0,0,0,0,0,0,0,0,0,0,0,0,0,0,0],"sum_hessian":[6.91E2,7.3E1,6.18E2,1.5E1,5.8E1,4.23E2,1.95E2,1E1,5E0,3.5E1,2.3E1,3.46E2,7.7E1,8.7E1,1.08E2,1.8E1,1.7E1,5E0,1.8E1,1.06E2,2.4E2,2.4E1,5.3E1,4.9E1,3.8E1,6E0,1.02E2],"tree_param":{"num_deleted":"0","num_feature":"20","num_nodes":"27","size_leaf_vector":"1"}},{"base_weights":[4.8795555E-4,-2.4671135E-3,1.635305E-2,-7.7660014E-3,4.1277977E-3,1.8199252E-2,-0E0,-1.2678193E-3,-1.8074978E-2,8.30423E-3,-3.9102663E-3,3.1569216E-3,2.6095051E-2,1.6280508E-4,-1.5051551E-4,6.646865E-4,-1.00784215E-4,-6.607578E-4,1.0358213E-4,-2.635147E-4,4.3602506E-4,4.512778E-4,-5.352984E-4,-0E0,2.2456865E-4,8.2223857E-4,-0E0],"categories":[],"categories_nodes":[],"categories_segments":[],"categories_sizes":[],"default_left":[0,0,0,0,0,0,0,0,0,0,0,0,0,0,0,0,0,0,0,0,0,0,0,0,0,0,0],"id":16,"left_children":[1,3,5,7,9,11,13,15,17,19,21,23,25,-1,-1,-1,-1,-1,-1,-1,-1,-1,-1,-1,-1,-1,-1],"loss_changes":[3.4838244E-2,2.053896E-2,3.2215193E-3,1.8282084E-2,8.833885E-3,6.5381974E-3,4.1608777E-4,6.898003E-3,1.36552565E-2,1.958843E-2,1.7993126E-2,1.7269035E-3,4.5867264E-4,0E0,0E0,0E0,0E0,0E0,0E0,0E0,0E0,0E0,0E0,0E0,0E0,0E0,0E0],"parents":[2147483647,0,0,1,1,2,2,3,3,4,4,5,5,6,6,7,7,8,8,9,9,10,10,11,11,12,12],"right_children":[2,4,6,8,10,12,14,16,18,20,22,24,26,-1,-1,-1,-1,-1,-1,-1,-1,-1,-1,-1,-1,-1,-1],"split_conditions":[2.9664886E-1,6.315789E-1,1.4272964E-1,4.004072E-2,2.2454064E-1,3.430355E-1,2.4855747E-3,-1E0,1.2167431E0,4.231024E-3,4.6753895E-2,-6.666667E-1,1E0,1.6280508E-4,-1.5051551E-4,6.646865E-4,-1.00784215E-4,-6.607578E-4,1.0358213E-4,-2.635147E-4,4.3602506E-4,4.512778E-4,-5.352984E-4,-0E0,2.2456865E-4,8.2223857E-4,-0E0],"split_indices":[17,1,4,4,17,17,11,9,19,16,16,13,1,0,0,0,0,0,0,0,0,0,0,0,0,0,0],"split_type":[0,0,0,0,0,0,0,0,0,0,0,0,0,0,0,0,0,0,0,0,0,0,0,0,0,0,0],"sum_hessian":[6.82E2,5.65E2,1.17E2,3.3E2,2.35E2,1.04E2,1.3E1,2.15E2,1.15E2,1.71E2,6.4E1,4.5E1,5.9E1,8E0,5E0,9E0,2.06E2,1.05E2,1E1,3.7E1,1.34E2,2.1E1,4.3E1,7E0,3.8E1,5.4E1,5E0],"tree_param":{"num_deleted":"0","num_feature":"20","num_nodes":"27","size_leaf_vector":"1"}},{"base_weights":[3.6160642E-4,3.5081074E-2,-9.3569036E-4,1.2751408E-3,-0E0,-5.8732163E-3,5.93199E-3,-2.6146503E-4,-1.46641815E-2,9.778697E-3,-1.4181571E-2,2.714117E-4,-1.4002141E-4,-0E0,-6.047926E-4,9.759877E-5,6.499128E-4,-0E0,-6.249989E-4],"categories":[],"categories_nodes":[],"categories_segments":[],"categories_sizes":[],"default_left":[0,0,0,0,0,0,0,0,0,0,0,0,0,0,0,0,0,0,0],"id":17,"left_children":[1,3,5,-1,-1,7,9,11,13,15,17,-1,-1,-1,-1,-1,-1,-1,-1],"loss_changes":[3.7400007E-2,8.24577E-3,2.2030257E-2,0E0,0E0,1.6497457E-2,1.8987698E-2,9.665506E-3,9.723388E-3,1.2240842E-2,3.7797699E-3,0E0,0E0,0E0,0E0,0E0,0E0,0E0,0E0],"parents":[2147483647,0,0,1,1,2,2,5,5,6,6,7,7,8,8,9,9,10,10],"right_children":[2,4,6,-1,-1,8,10,12,14,16,18,-1,-1,-1,-1,-1,-1,-1,-1],"split_conditions":[-9.3561366E-2,-3.497615E-2,2.2146508E-2,1.2751408E-3,-0E0,1.0476592E0,1.3486111E-1,-1.0667657E-1,-1.4953624E-2,1.9879831E-2,6.7264404E1,2.714117E-4,-1.4002141E-4,-0E0,-6.047926E-4,9.759877E-5,6.499128E-4,-0E0,-6.249989E-4],"split_indices":[18,7,18,0,0,19,0,4,11,11,14,0,0,0,0,0,0,0,0],"split_type":[0,0,0,0,0,0,0,0,0,0,0,0,0,0,0,0,0,0,0],"sum_hessian":[6.77E2,2.9E1,6.48E2,2.4E1,5E0,3.94E2,2.54E2,2.55E2,1.39E2,2.22E2,3.2E1,6.7E1,1.88E2,4.2E1,9.7E1,1.55E2,6.7E1,9E0,2.3E1],"tree_param":{"num_deleted":"0","num_feature":"20","num_nodes":"19","size_leaf_vector":"1"}},{"base_weights":[1.1469258E-3,1.3334136E-3,4.5989942E-5,-2.1285105E-3,1.0007885E-2,-4.0747505E-4,-2.937079E-2,1.8304924E-2,-0E0,-1.0665003E-4,3.7224006E-4,-1.050537E-3,-0E0,7.301979E-4,-0E0,-5.4008054E-4,5.4132787E-4],"categories":[],"categories_nodes":[],"categories_segments":[],"categories_sizes":[],"default_left":[0,0,0,0,0,0,0,0,0,0,0,0,0,0,0,0,0],"id":18,"left_children":[1,-1,3,5,7,9,11,13,15,-1,-1,-1,-1,-1,-1,-1,-1],"loss_changes":[2.4754876E-2,0E0,1.6630707E-2,2.0006629E-2,1.2013231E-2,1.961181E-2,2.09634E-3,1.1187751E-2,2.1114245E-2,0E0,0E0,0E0,0E0,0E0,0E0,0E0,0E0],"parents":[2147483647,0,0,2,2,3,3,4,4,5,5,6,6,7,7,8,8],"right_children":[2,-1,4,6,8,10,12,14,16,-1,-1,-1,-1,-1,-1,-1,-1],"split_conditions":[-1.10205226E-1,1.3334136E-3,1.4227778E-2,8.622325E-2,2.3130795E-1,2.5624287E-1,1.3142589E0,7.492611E1,3.0828574E-1,-1.0665003E-4,3.7224006E-4,-1.050537E-3,-0E0,7.301979E-4,-0E0,-5.4008054E-4,5.4132787E-4],"split_indices":[0,0,11,0,17,17,19,14,17,0,0,0,0,0,0,0,0],"split_type":[0,0,0,0,0,0,0,0,0,0,0,0,0,0,0,0,0],"sum_hessian":[7.05E2,1.2E1,6.93E2,5.53E2,1.4E2,5.28E2,2.5E1,7.7E1,6.3E1,4.37E2,9.1E1,1.9E1,6E0,6.2E1,1.5E1,3.2E1,3.1E1],"tree_param":{"num_deleted":"0","num_feature":"20","num_nodes":"17","size_leaf_vector":"1"}},{"base_weights":[1.5329674E-3,1.6041012E-3,1.1388054E-4,2.3567677E-3,-1.0280539E-2,1.0310115E-2,-0E0,2.771773E-3,-1.9754553E-2,-0E0,6.533912E-4,-2.456356E-4,8.6615815E-5,-0E0,3.5687216E-4,-0E0,-7.870728E-4],"categories":[],"categories_nodes":[],"categories_segments":[],"categories_sizes":[],"default_left":[0,0,0,0,0,0,0,0,0,0,0,0,0,0,0,0,0],"id":19,"left_children":[1,-1,3,5,7,9,11,13,15,-1,-1,-1,-1,-1,-1,-1,-1],"loss_changes":[4.12379E-2,0E0,1.454911E-2,1.0463205E-2,1.6682694E-2,1.4274479E-2,1.0568918E-2,2.121385E-3,6.7085475E-3,0E0,0E0,0E0,0E0,0E0,0E0,0E0,0E0],"parents":[2147483647,0,0,2,2,3,3,4,4,5,5,6,6,7,7,8,8],"right_children":[2,-1,4,6,8,10,12,14,16,-1,-1,-1,-1,-1,-1,-1,-1],"split_conditions":[-1.10205226E-1,1.6041012E-3,9.705882E-1,-1.944107E-2,-4.8496604E-2,-3.3236995E-2,-2.253797E-2,-8.190938E-2,-6.575342E-2,-0E0,6.533912E-4,-2.456356E-4,8.6615815E-5,-0E0,3.5687216E-4,-0E0,-7.870728E-4],"split_indices":[0,0,2,7,7,18,0,0,18,0,0,0,0,0,0,0,0],"split_type":[0,0,0,0,0,0,0,0,0,0,0,0,0,0,0,0,0],"sum_hessian":[7.04E2,1.4E1,6.9E2,5.84E2,1.06E2,1.28E2,4.56E2,3.6E1,7E1,7E1,5.8E1,1.14E2,3.42E2,2E1,1.6E1,2.1E1,4.9E1],"tree_param":{"num_deleted":"0","num_feature":"20","num_nodes":"17","size_leaf_vector":"1"}},{"base_weights":[-4.1020004E-4,3.2115743E-2,-2.1210706E-3,1.4632884E-3,-0E0,-1.0986375E-2,2.3955987E-3,-0E0,2.7932937E-4,-0E0,-1.7214023E-2,2.4955751E-2,1.9518235E-5,-1.11728E-4,2.4145334E-4,-3.2444976E-5,-7.749161E-4,-0E0,1.1599401E-3,-1.1963755E-4,1.7227071E-4],"categories":[],"categories_nodes":[],"categories_segments":[],"categories_sizes":[],"default_left":[0,0,0,0,0,0,0,0,0,0,0,0,0,0,0,0,0,0,0,0,0],"id":20,"left_children":[1,3,5,-1,7,9,11,-1,-1,13,15,17,19,-1,-1,-1,-1,-1,-1,-1,-1],"loss_changes":[3.391292E-2,7.12339E-3,2.9253084E-2,0E0,8.6694333E-4,1.4339058E-2,1.8644145E-2,0E0,0E0,2.354255E-3,1.5301567E-2,1.0219252E-2,9.730825E-3,0E0,0E0,0E0,0E0,0E0,0E0,0E0,0E0],"parents":[2147483647,0,0,1,1,2,2,4,4,5,5,6,6,9,9,10,10,11,11,12,12],"right_children":[2,4,6,-1,8,10,12,-1,-1,14,16,18,20,-1,-1,-1,-1,-1,-1,-1,-1],"split_conditions":[-9.576838E-2,-9.717868E-2,2.837838E-1,1.4632884E-3,-8.8889346E-2,-5.3816135E-3,-2.177294E-2,-0E0,2.7932937E-4,-6.162654E-3,-1.5153155E-2,-8.372907E-3,4.006678E-2,-1.11728E-4,2.4145334E-4,-3.2444976E-5,-7.749161E-4,-0E0,1.1599401E-3,-1.1963755E-4,1.7227071E-4],"split_indices":[18,0,1,0,0,15,7,0,0,15,11,11,18,0,0,0,0,0,0,0,0],"split_type":[0,0,0,0,0,0,0,0,0,0,0,0,0,0,0,0,0,0,0,0,0],"sum_hessian":[7.15E2,2.9E1,6.86E2,1.5E1,1.4E1,2.46E2,4.4E2,5E0,9E0,9.8E1,1.48E2,3.3E1,4.07E2,8E1,1.8E1,6E1,8.8E1,1.3E1,2E1,2.19E2,1.88E2],"tree_param":{"num_deleted":"0","num_feature":"20","num_nodes":"21","size_leaf_vector":"1"}},{"base_weights":[1.0926776E-3,-7.054348E-4,2.034841E-2,2.5009723E-2,-1.8131362E-3,2.5113784E-2,-4.0036353E-5,-0E0,9.789286E-4,-7.8092767E-3,3.43726E-3,2.7521322E-2,-0E0,-5.5941902E-5,-5.3042406E-4,6.433772E-4,1.8253688E-5,-0E0,8.929658E-4],"categories":[],"categories_nodes":[],"categories_segments":[],"categories_sizes":[],"default_left":[0,0,0,0,0,0,0,0,0,0,0,0,0,0,0,0,0,0,0],"id":21,"left_children":[1,3,5,7,9,11,-1,-1,-1,13,15,17,-1,-1,-1,-1,-1,-1,-1],"loss_changes":[2.845672E-2,1.3607763E-2,1.2022281E-2,1.9578887E-3,2.0451637E-2,3.6923327E-3,0E0,0E0,0E0,1.4131902E-2,1.1572159E-2,4.9735606E-4,0E0,0E0,0E0,0E0,0E0,0E0,0E0],"parents":[2147483647,0,0,1,1,2,2,3,3,4,4,5,5,9,9,10,10,11,11],"right_children":[2,4,6,8,10,12,-1,-1,-1,14,16,18,-1,-1,-1,-1,-1,-1,-1],"split_conditions":[3.430355E-1,-1.0417316E-1,1.434742E-1,2.2944579E-1,0E0,1.2167431E0,-4.0036353E-5,-0E0,9.789286E-4,1.0507452E0,-1.6442452E-2,-3.0607912E-1,-0E0,-5.5941902E-5,-5.3042406E-4,6.433772E-4,1.8253688E-5,-0E0,8.929658E-4],"split_indices":[17,16,16,17,13,19,0,0,0,19,18,4,0,0,0,0,0,0,0],"split_type":[0,0,0,0,0,0,0,0,0,0,0,0,0,0,0,0,0,0,0],"sum_hessian":[7.07E2,6.38E2,6.9E1,1.8E1,6.2E2,6.4E1,5E0,6E0,1.2E1,3.07E2,3.13E2,5.8E1,6E0,2.05E2,1.02E2,3.2E1,2.81E2,8E0,5E1],"tree_param":{"num_deleted":"0","num_feature":"20","num_nodes":"19","size_leaf_vector":"1"}},{"base_weights":[-0E0,2.7571414E-2,-1.7273366E-3,3.5491142E-2,-0E0,-4.8520477E-3,1.3288366E-2,-0E0,4.491167E-2,-0E0,-1.3155313E-2,2.037407E-2,-0E0,1.5883568E-3,-0E0,9.422227E-5,-2.1883975E-4,-5.386016E-4,-0E0,6.460687E-4,-0E0,-2.7451382E-4,-0E0],"categories":[],"categories_nodes":[],"categories_segments":[],"categories_sizes":[],"default_left":[0,0,0,0,0,0,0,0,0,0,0,0,0,0,0,0,0,0,0,0,0,0,0],"id":22,"left_children":[1,3,5,7,-1,9,11,-1,13,15,17,19,21,-1,-1,-1,-1,-1,-1,-1,-1,-1,-1],"loss_changes":[3.1565648E-2,9.401126E-3,2.8546602E-2,5.3270236E-3,0E0,2.0247843E-2,1.2229333E-2,0E0,4.758723E-4,8.660199E-3,1.46490745E-2,1.1860691E-3,1.1722328E-3,0E0,0E0,0E0,0E0,0E0,0E0,0E0,0E0,0E0,0E0],"parents":[2147483647,0,0,1,1,2,2,3,3,5,5,6,6,8,8,9,9,10,10,11,11,12,12],"right_children":[2,4,6,8,-1,10,12,-1,14,16,18,20,22,-1,-1,-1,-1,-1,-1,-1,-1,-1,-1],"split_conditions":[-8.8972434E-2,-3.497615E-2,1.8899584E-2,9.4912547E-1,-0E0,6.0102165E-2,1.2336496E-1,-0E0,-1.9882848E-2,1.0507452E0,4.006678E-2,5.724508E-2,1.3586956E-1,1.5883568E-3,-0E0,9.422227E-5,-2.1883975E-4,-5.386016E-4,-0E0,6.460687E-4,-0E0,-2.7451382E-4,-0E0],"split_indices":[18,7,11,19,0,4,0,0,11,19,18,12,18,0,0,0,0,0,0,0,0,0,0],"split_type":[0,0,0,0,0,0,0,0,0,0,0,0,0,0,0,0,0,0,0,0,0,0,0],"sum_hessian":[6.8E2,3.8E1,6.42E2,3E1,8E0,5.43E2,9.9E1,9E0,2.1E1,3.53E2,1.9E2,7.1E1,2.8E1,1.5E1,6E0,2.35E2,1.18E2,1.47E2,4.3E1,6.6E1,5E0,1.3E1,1.5E1],"tree_param":{"num_deleted":"0","num_feature":"20","num_nodes":"23","size_leaf_vector":"1"}},{"base_weights":[-0E0,1.6020881E-2,-1.3382237E-3,1.8308239E-2,-0E0,-5.453151E-3,1.994158E-3,7.40473E-4,-0E0,-0E0,-9.369306E-3,6.075035E-3,-8.559675E-3,3.894005E-4,-1.4637003E-5,-1.358243E-4,2.557007E-3,-1.1209264E-5,-4.8405578E-4,5.989643E-4,9.847753E-5,-5.040266E-4,1.4908016E-5],"categories":[],"categories_nodes":[],"categories_segments":[],"categories_sizes":[],"default_left":[0,0,0,0,0,0,0,0,0,0,0,0,0,0,0,0,0,0,0,0,0,0,0],"id":23,"left_children":[1,3,5,7,-1,9,11,-1,13,15,17,19,21,-1,-1,-1,-1,-1,-1,-1,-1,-1,-1],"loss_changes":[1.7863626E-2,2.7576517E-3,9.739216E-3,3.709346E-3,0E0,8.683781E-3,1.4112359E-2,0E0,1.687665E-3,6.0331866E-2,9.351844E-3,5.292249E-3,9.31477E-3,0E0,0E0,0E0,0E0,0E0,0E0,0E0,0E0,0E0,0E0],"parents":[2147483647,0,0,1,1,2,2,3,3,5,5,6,6,8,8,9,9,10,10,11,11,12,12],"right_children":[2,4,6,8,-1,10,12,-1,14,16,18,20,22,-1,-1,-1,-1,-1,-1,-1,-1,-1,-1],"split_conditions":[-9.982463E-3,1.1574074E-3,0E0,1E0,-0E0,-6.513571E-2,9.963584E-2,7.40473E-4,-7.1611255E-2,-3.3236995E-2,6.759259E-1,-1.6442452E-2,1.3107511E-1,3.894005E-4,-1.4637003E-5,-1.358243E-4,2.557007E-3,-1.1209264E-5,-4.8405578E-4,5.989643E-4,9.847753E-5,-5.040266E-4,1.4908016E-5],"split_indices":[15,12,13,2,0,0,0,0,18,18,2,18,18,0,0,0,0,0,0,0,0,0,0],"split_type":[0,0,0,0,0,0,0,0,0,0,0,0,0,0,0,0,0,0,0,0,0,0,0],"sum_hessian":[7.22E2,6.4E1,6.58E2,5.7E1,7E0,3.21E2,3.37E2,3.7E1,2E1,1.14E2,2.07E2,2.57E2,8E1,9E0,1.1E1,1.07E2,7E0,1.02E2,1.05E2,3E1,2.27E2,5.3E1,2.7E1],"tree_param":{"num_deleted":"0","num_feature":"20","num_nodes":"23","size_leaf_vector":"1"}},{"base_weights":[-2.4533478E-4,2.0177808E-2,-1.9107311E-3,9.6554E-4,-0E0,3.1177709E-2,-3.1394754E-3,-0E0,1.4743718E-3,1.1396435E-3,-0E0,-1.1321055E-2,9.603522E-4,1.4675617E-4,-0E0,-0E0,-6.8664324E-4,1.25296E-4,-3.8946618E-4],"categories":[],"categories_nodes":[],"categories_segments":[],"categories_sizes":[],"default_left":[0,0,0,0,0,0,0,0,0,0,0,0,0,0,0,0,0,0,0],"id":24,"left_children":[1,3,5,-1,7,9,11,-1,13,-1,-1,15,17,-1,-1,-1,-1,-1,-1],"loss_changes":[1.9377675E-2,7.760426E-3,2.0307578E-2,0E0,3.043281E-5,7.923227E-4,2.284617E-2,0E0,1.6101052E-4,0E0,0E0,2.7472533E-2,1.609528E-2,0E0,0E0,0E0,0E0,0E0,0E0],"parents":[2147483647,0,0,1,1,2,2,4,4,5,5,6,6,8,8,11,11,12,12],"right_children":[2,4,6,-1,8,10,12,-1,14,-1,-1,16,18,-1,-1,-1,-1,-1,-1],"split_conditions":[7.070223E-1,1.2516434E-3,-1.10205226E-1,9.6554E-4,0E0,-9.836066E-2,4.327616E1,-0E0,4.4067796E-2,1.1396435E-3,-0E0,-3.1390134E-2,1.0360228E-1,1.4675617E-4,-0E0,-0E0,-6.8664324E-4,1.25296E-4,-3.8946618E-4],"split_indices":[19,15,0,0,10,18,14,0,12,0,0,7,16,0,0,0,0,0,0],"split_type":[0,0,0,0,0,0,0,0,0,0,0,0,0,0,0,0,0,0,0],"sum_hessian":[6.75E2,4.1E1,6.34E2,2.3E1,1.8E1,1.6E1,6.18E2,5E0,1.3E1,1.1E1,5E0,2.22E2,3.96E2,7E0,6E0,1.16E2,1.06E2,3.34E2,6.2E1],"tree_param":{"num_deleted":"0","num_feature":"20","num_nodes":"19","size_leaf_vector":"1"}},{"base_weights":[-0E0,-1.9668376E-3,1.2098156E-2,-4.5447024E-3,4.881562E-3,1.5965259E-2,-3.7398764E-5,-3.363125E-4,-1.2108543E-2,1.1513246E-2,-1.11439675E-2,1.9360084E-2,-0E0,-1.8377096E-4,4.978986E-4,9.971375E-5,-5.18239E-4,-0E0,6.664097E-4,2.5517974E-4,-6.4107485E-4,2.4140469E-5,7.720504E-4],"categories":[],"categories_nodes":[],"categories_segments":[],"categories_sizes":[],"default_left":[0,0,0,0,0,0,0,0,0,0,0,0,0,0,0,0,0,0,0,0,0,0,0],"id":25,"left_children":[1,3,5,7,9,11,-1,13,15,17,19,21,-1,-1,-1,-1,-1,-1,-1,-1,-1,-1,-1],"loss_changes":[1.7169736E-2,1.0847484E-2,8.1758E-3,1.2467803E-2,1.5931044E-2,6.2953476E-3,0E0,2.9377496E-2,1.48860365E-2,1.4988986E-2,9.786762E-3,3.8979277E-3,0E0,0E0,0E0,0E0,0E0,0E0,0E0,0E0,0E0,0E0,0E0],"parents":[2147483647,0,0,1,1,2,2,3,3,4,4,5,5,7,7,8,8,9,9,10,10,11,11],"right_children":[2,4,6,8,10,12,-1,14,16,18,20,22,-1,-1,-1,-1,-1,-1,-1,-1,-1,-1,-1],"split_conditions":[3.0590183E-1,5.971039E1,1.1756612E-1,1.0507452E0,2.447259E-1,1.1649703E0,-3.7398764E-5,9.9615955E-1,-6.912442E-2,1.901345E-1,7.4172187E-1,3.4605876E-1,-0E0,-1.8377096E-4,4.978986E-4,9.971375E-5,-5.18239E-4,-0E0,6.664097E-4,2.5517974E-4,-6.4107485E-4,2.4140469E-5,7.720504E-4],"split_indices":[17,14,0,19,17,19,0,19,18,17,1,17,0,0,0,0,0,0,0,0,0,0,0],"split_type":[0,0,0,0,0,0,0,0,0,0,0,0,0,0,0,0,0,0,0,0,0,0,0],"sum_hessian":[7.16E2,6.16E2,1E2,4.69E2,1.47E2,8.9E1,1.1E1,3.19E2,1.5E2,1.13E2,3.4E1,7.7E1,1.2E1,2.47E2,7.2E1,2.8E1,1.22E2,5.3E1,6E1,5E0,2.9E1,2.8E1,4.9E1],"tree_param":{"num_deleted":"0","num_feature":"20","num_nodes":"23","size_leaf_vector":"1"}},{"base_weights":[3.7352022E-4,1.3061487E-3,-3.5068308E-4,-2.6962277E-3,1.0827806E-2,-9.7972695E-3,4.121477E-4,1.6628703E-2,-0E0,-0E0,-8.3567464E-4,-2.5883998E-4,1.6862666E-4,5.431785E-4,-0E0,-8.829865E-4,7.842644E-5],"categories":[],"categories_nodes":[],"categories_segments":[],"categories_sizes":[],"default_left":[0,0,0,0,0,0,0,0,0,0,0,0,0,0,0,0,0],"id":26,"left_children":[1,-1,3,5,7,9,11,13,15,-1,-1,-1,-1,-1,-1,-1,-1],"loss_changes":[3.0316018E-2,0E0,1.6179798E-2,1.459494E-2,8.939185E-3,3.0943232E-2,1.743461E-2,2.260562E-3,6.214414E-3,0E0,0E0,0E0,0E0,0E0,0E0,0E0,0E0],"parents":[2147483647,0,0,2,2,3,3,4,4,5,5,6,6,7,7,8,8],"right_children":[2,-1,4,6,8,10,12,14,16,-1,-1,-1,-1,-1,-1,-1,-1],"split_conditions":[-1.10205226E-1,1.3061487E-3,2.9664886E-1,-1E0,6.853971E-2,1.9146626E-1,1.6214958E-1,9.512195E-1,9.745014E-3,-0E0,-8.3567464E-4,-2.5883998E-4,1.6862666E-4,5.431785E-4,-0E0,-8.829865E-4,7.842644E-5],"split_indices":[0,0,17,8,0,17,17,2,11,0,0,0,0,0,0,0,0],"split_type":[0,0,0,0,0,0,0,0,0,0,0,0,0,0,0,0,0],"sum_hessian":[6.92E2,1.5E1,6.77E2,5.75E2,1.02E2,1.94E2,3.81E2,7.5E1,2.7E1,1.31E2,6.3E1,1.25E2,2.56E2,7E1,5E0,6E0,2.1E1],"tree_param":{"num_deleted":"0","num_feature":"20","num_nodes":"17","size_leaf_vector":"1"}},{"base_weights":[1.3023458E-4,3.423968E-2,-3.681536E-4,1.3072914E-3,-0E0,-2.4343461E-3,1.08599765E-2,1.8196002E-2,-3.5555738E-3,1.7348008E-2,-7.4011073E-3,9.0260943E-4,-0E0,-5.8003316E-5,-7.114069E-4,-0E0,7.344184E-4,-2.8016153E-4,-0E0],"categories":[],"categories_nodes":[],"categories_segments":[],"categories_sizes":[],"default_left":[0,0,0,0,0,0,0,0,0,0,0,0,0,0,0,0,0,0,0],"id":27,"left_children":[1,3,5,-1,-1,7,9,11,13,15,17,-1,-1,-1,-1,-1,-1,-1,-1],"loss_changes":[1.8839732E-2,2.130216E-3,1.4441749E-2,0E0,0E0,1.1061664E-2,1.3136273E-2,4.4838656E-3,1.3822798E-2,6.7916084E-3,1.153411E-4,0E0,0E0,0E0,0E0,0E0,0E0,0E0,0E0],"parents":[2147483647,0,0,1,1,2,2,5,5,6,6,7,7,8,8,9,9,10,10],"right_children":[2,4,6,-1,-1,8,10,12,14,16,18,-1,-1,-1,-1,-1,-1,-1,-1],"split_conditions":[-1.10205226E-1,-2.4659729E-2,1.9879831E-2,1.3072914E-3,-0E0,6.4718527E-1,1.3486111E-1,6.452091E-4,8.867964E-2,3.0303031E-2,8.627451E-2,9.0260943E-4,-0E0,-5.8003316E-5,-7.114069E-4,-0E0,7.344184E-4,-2.8016153E-4,-0E0],"split_indices":[16,11,11,0,0,19,16,15,16,7,7,0,0,0,0,0,0,0,0],"split_type":[0,0,0,0,0,0,0,0,0,0,0,0,0,0,0,0,0,0,0],"sum_hessian":[7.08E2,1.5E1,6.93E2,1E1,5E0,6.01E2,9.2E1,2.1E1,5.8E2,7.6E1,1.6E1,1.2E1,9E0,5.47E2,3.3E1,2.7E1,4.9E1,1.1E1,5E0],"tree_param":{"num_deleted":"0","num_feature":"20","num_nodes":"19","size_leaf_vector":"1"}},{"base_weights":[2.2998637E-4,3.7503816E-2,-7.9479517E-4,1.4916927E-3,-0E0,-7.675369E-3,1.861314E-3,1.870472E-3,-1.8945538E-2,-7.6845153E-3,5.7002804E-3,9.6171675E-4,-1.7815654E-4,-0E0,-7.805263E-4,1.7290334E-4,-3.8983437E-4,3.1851983E-4,-1.9774442E-4],"categories":[],"categories_nodes":[],"categories_segments":[],"categories_sizes":[],"default_left":[0,0,0,0,0,0,0,0,0,0,0,0,0,0,0,0,0,0,0],"id":28,"left_children":[1,3,5,-1,-1,7,9,11,13,15,17,-1,-1,-1,-1,-1,-1,-1,-1],"loss_changes":[3.4148082E-2,8.273691E-3,1.3567924E-2,0E0,0E0,2.604293E-2,1.6833987E-2,3.016566E-2,1.8813722E-2,1.0090084E-2,2.2028863E-2,0E0,0E0,0E0,0E0,0E0,0E0,0E0,0E0],"parents":[2147483647,0,0,1,1,2,2,5,5,6,6,7,7,8,8,9,9,10,10],"right_children":[2,4,6,-1,-1,8,10,12,14,16,18,-1,-1,-1,-1,-1,-1,-1,-1],"split_conditions":[-1.0550647E-1,-2.2844184E-2,-1E0,1.4916927E-3,-0E0,1.6652727E-1,1.6214958E-1,-6.513571E-2,-1.2918772E-1,1.10787675E-1,9.452357E-2,9.6171675E-4,-1.7815654E-4,-0E0,-7.805263E-4,1.7290334E-4,-3.8983437E-4,3.1851983E-4,-1.9774442E-4],"split_indices":[0,11,8,0,0,17,17,0,4,17,0,0,0,0,0,0,0,0,0],"split_type":[0,0,0,0,0,0,0,0,0,0,0,0,0,0,0,0,0,0,0],"sum_hessian":[7E2,2.3E1,6.77E2,1.6E1,7E0,2.09E2,4.68E2,1.04E2,1.05E2,1.19E2,3.49E2,2.6E1,7.8E1,2.2E1,8.3E1,2.3E1,9.6E1,2.61E2,8.8E1],"tree_param":{"num_deleted":"0","num_feature":"20","num_nodes":"19","size_leaf_vector":"1"}},{"base_weights":[-6.8442494E-4,2.6205376E-2,-2.2801356E-3,1.0437423E-3,-0E0,-5.2820765E-3,4.880581E-3,-7.730781E-3,2.5900512E-3,2.2467466E-2,-0E0,-1.377198E-4,-1.0682474E-3,4.5313445E-4,-1.5057171E-4,7.706718E-4,-0E0,-3.184093E-5,3.5485436E-4],"categories":[],"categories_nodes":[],"categories_segments":[],"categories_sizes":[],"default_left":[0,0,0,0,0,0,0,0,0,0,0,0,0,0,0,0,0,0,0],"id":29,"left_children":[1,3,5,-1,-1,7,9,11,13,15,17,-1,-1,-1,-1,-1,-1,-1,-1],"loss_changes":[2.5868354E-2,3.967911E-3,1.4744886E-2,0E0,0E0,1.0686429E-2,1.2827506E-2,2.689974E-2,1.1615261E-2,6.552953E-4,3.2222758E-3,0E0,0E0,0E0,0E0,0E0,0E0,0E0,0E0],"parents":[2147483647,0,0,1,1,2,2,5,5,6,6,7,7,8,8,9,9,10,10],"right_children":[2,4,6,-1,-1,8,10,12,14,16,18,-1,-1,-1,-1,-1,-1,-1,-1],"split_conditions":[-9.501558E-2,-3.5231481E-3,4.5033112E-2,1.0437423E-3,-0E0,7.5E-1,7.25E-1,2E0,4.091794E-3,4.2662118E-2,1.4168564E-2,-1.377198E-4,-1.0682474E-3,4.5313445E-4,-1.5057171E-4,7.706718E-4,-0E0,-3.184093E-5,3.5485436E-4],"split_indices":[18,15,18,0,0,1,1,8,15,7,15,0,0,0,0,0,0,0,0],"split_type":[0,0,0,0,0,0,0,0,0,0,0,0,0,0,0,0,0,0,0],"sum_hessian":[7.12E2,3.2E1,6.8E2,2.1E1,1.1E1,4.99E2,1.81E2,4E2,9.9E1,3.3E1,1.48E2,3.67E2,3.3E1,4.7E1,5.2E1,2.6E1,7E0,1.27E2,2.1E1],"tree_param":{"num_deleted":"0","num_feature":"20","num_nodes":"19","size_leaf_vector":"1"}},{"base_weights":[-1.3152933E-3,-2.4118002E-3,1.5832735E-2,-5.374349E-3,2.636606E-3,5.9721014E-4,-0E0,9.2514843E-4,-1.2792667E-2,-1.9021118E-2,5.501008E-3,8.180423E-4,-0E0,5.458537E-4,-4.5957995E-4,-9.774658E-4,-0E0,5.808773E-4,-0E0],"categories":[],"categories_nodes":[],"categories_segments":[],"categories_sizes":[],"default_left":[0,0,0,0,0,0,0,0,0,0,0,0,0,0,0,0,0,0,0],"id":30,"left_children":[1,3,5,7,9,-1,-1,11,13,15,17,-1,-1,-1,-1,-1,-1,-1,-1],"loss_changes":[1.0440839E-2,1.0522516E-2,2.5325697E-3,2.3180936E-2,1.1172701E-2,0E0,0E0,8.728289E-3,1.6850352E-2,4.1035404E-3,1.2541944E-2,0E0,0E0,0E0,0E0,0E0,0E0,0E0,0E0],"parents":[2147483647,0,0,1,1,2,2,3,3,4,4,7,7,8,8,9,9,10,10],"right_children":[2,4,6,8,10,-1,-1,12,14,16,18,-1,-1,-1,-1,-1,-1,-1,-1],"split_conditions":[4.0900347E-1,8.0833334E-1,1.09004736E-1,-2.0602219E-2,-2.2130165E-2,5.9721014E-4,-0E0,5.5497384E-1,0E0,0E0,6.0854447E-3,8.180423E-4,-0E0,5.458537E-4,-4.5957995E-4,-9.774658E-4,-0E0,5.808773E-4,-0E0],"split_indices":[17,3,7,7,0,0,0,2,9,13,11,0,0,0,0,0,0,0,0],"split_type":[0,0,0,0,0,0,0,0,0,0,0,0,0,0,0,0,0,0,0],"sum_hessian":[6.95E2,6.65E2,3E1,4.44E2,2.21E2,2.5E1,5E0,2.26E2,2.18E2,1.7E1,2.04E2,1.1E1,2.15E2,1E1,2.08E2,9E0,8E0,4.9E1,1.55E2],"tree_param":{"num_deleted":"0","num_feature":"20","num_nodes":"19","size_leaf_vector":"1"}},{"base_weights":[-0E0,2.1081915E-2,-1.3608539E-3,1.19767E-3,-0E0,1.8906308E-2,-2.7632595E-3,-0E0,2.3357102E-3,-0E0,2.4691172E-2,-7.951583E-3,-0E0,2.5828092E-4,-0E0,-0E0,1.1692513E-3,-2.1383574E-5,-5.2457914E-4,4.3416923E-5,-4.7394185E-4],"categories":[],"categories_nodes":[],"categories_segments":[],"categories_sizes":[],"default_left":[0,0,0,0,0,0,0,0,0,0,0,0,0,0,0,0,0,0,0,0,0],"id":31,"left_children":[1,3,5,-1,7,9,11,-1,13,-1,15,17,19,-1,-1,-1,-1,-1,-1,-1,-1],"loss_changes":[1.9900162E-2,1.161528E-2,1.5753206E-2,0E0,9.274422E-5,2.4784459E-3,9.519344E-3,0E0,7.225886E-4,0E0,9.673168E-3,1.2014762E-2,8.52656E-3,0E0,0E0,0E0,0E0,0E0,0E0,0E0,0E0],"parents":[2147483647,0,0,1,1,2,2,4,4,5,5,6,6,8,8,10,10,11,11,12,12],"right_children":[2,4,6,-1,8,10,12,-1,14,-1,16,18,20,-1,-1,-1,-1,-1,-1,-1,-1],"split_conditions":[-9.717868E-2,-2.1085234E-2,0E0,1.19767E-3,-6.7095985E-3,1.9642857E-1,4.4540592E1,-0E0,-1.5935639E-2,-0E0,2.2091317E-1,1.9146626E-1,1.3663898E-1,2.5828092E-4,-0E0,-0E0,1.1692513E-3,-2.1383574E-5,-5.2457914E-4,4.3416923E-5,-4.7394185E-4],"split_indices":[0,11,9,0,15,3,14,0,11,0,17,17,0,0,0,0,0,0,0,0,0],"split_type":[0,0,0,0,0,0,0,0,0,0,0,0,0,0,0,0,0,0,0,0,0],"sum_hessian":[7.06E2,4.1E1,6.65E2,1.8E1,2.3E1,3.3E1,6.32E2,7E0,1.6E1,1E1,2.3E1,2.26E2,4.06E2,1E1,6E0,8E0,1.5E1,1.41E2,8.5E1,3.76E2,3E1],"tree_param":{"num_deleted":"0","num_feature":"20","num_nodes":"21","size_leaf_vector":"1"}},{"base_weights":[-2.7705808E-4,-2.7918494E-3,9.325559E-3,1.8672E-2,-4.598007E-3,1.4410569E-2,-6.0405983E-3,7.734432E-4,-0E0,4.9372385E-3,-8.476777E-3,2.6515754E-2,-0E0,-4.3191202E-4,-0E0,-0E0,4.5253994E-4,-3.095712E-4,3.154643E-4,-0E0,1.1138507E-3,-3.8911338E-4,4.9069297E-4],"categories":[],"categories_nodes":[],"categories_segments":[],"categories_sizes":[],"default_left":[0,0,0,0,0,0,0,0,0,0,0,0,0,0,0,0,0,0,0,0,0,0,0],"id":32,"left_children":[1,3,5,7,9,11,13,-1,-1,15,17,19,21,-1,-1,-1,-1,-1,-1,-1,-1,-1,-1],"loss_changes":[1.56232985E-2,1.9445837E-2,1.1840724E-2,6.0599493E-3,2.0610716E-2,1.996501E-2,1.6480638E-3,0E0,0E0,6.5750126E-3,1.3959747E-2,1.7091028E-2,1.0229399E-2,0E0,0E0,0E0,0E0,0E0,0E0,0E0,0E0,0E0,0E0],"parents":[2147483647,0,0,1,1,2,2,3,3,4,4,5,5,6,6,9,9,10,10,11,11,12,12],"right_children":[2,4,6,8,10,12,14,-1,-1,16,18,20,22,-1,-1,-1,-1,-1,-1,-1,-1,-1,-1],"split_conditions":[6.504065E-2,-8.8972434E-2,1.3486111E-1,-3.5881434E-2,-1.11660436E-1,2.2874333E-1,1.3586956E-1,7.734432E-4,-0E0,2.3865902E-1,3.3877793E-1,1.8279794E-1,3.0828574E-1,-4.3191202E-4,-0E0,-0E0,4.5253994E-4,-3.095712E-4,3.154643E-4,-0E0,1.1138507E-3,-3.8911338E-4,4.9069297E-4],"split_indices":[18,18,0,7,4,17,18,0,0,17,17,17,17,0,0,0,0,0,0,0,0,0,0],"split_type":[0,0,0,0,0,0,0,0,0,0,0,0,0,0,0,0,0,0,0,0,0,0,0],"sum_hessian":[6.99E2,5.71E2,1.28E2,3.5E1,5.36E2,1.06E2,2.2E1,2.7E1,8E0,1.4E2,3.96E2,5.9E1,4.7E1,1.1E1,1.1E1,9.7E1,4.3E1,3.71E2,2.5E1,1.7E1,4.2E1,2.8E1,1.9E1],"tree_param":{"num_deleted":"0","num_feature":"20","num_nodes":"23","size_leaf_vector":"1"}},{"base_weights":[-0E0,-2.7001111E-3,1.157943E-2,-1.4583223E-3,-3.8336582E-2,1.9839931E-2,-0E0,-4.033786E-3,6.2033744E-3,-0E0,-1.5820364E-3,2.4104238E-2,-0E0,7.4621276E-3,-2.3738261E-2,-2.3279518E-4,2.9193106E-5,4.0621002E-4,-1.0520881E-4,-0E0,7.8352384E-4,2.3025929E-4,-0E0,-0E0,2.6026246E-4,-0E0,-1.0589609E-3],"categories":[],"categories_nodes":[],"categories_segments":[],"categories_sizes":[],"default_left":[0,0,0,0,0,0,0,0,0,0,0,0,0,0,0,0,0,0,0,0,0,0,0,0,0,0,0],"id":33,"left_children":[1,3,5,7,9,11,13,15,17,-1,-1,19,21,23,25,-1,-1,-1,-1,-1,-1,-1,-1,-1,-1,-1,-1],"loss_changes":[2.030395E-2,1.7563328E-2,1.303811E-2,1.0739923E-2,4.452683E-3,2.2466779E-3,9.782305E-3,9.629477E-3,1.0817213E-2,0E0,0E0,1.3670772E-3,8.836557E-4,2.1412503E-4,3.324912E-3,0E0,0E0,0E0,0E0,0E0,0E0,0E0,0E0,0E0,0E0,0E0,0E0],"parents":[2147483647,0,0,1,1,2,2,3,3,4,4,5,5,6,6,7,7,8,8,11,11,12,12,13,13,14,14],"right_children":[2,4,6,8,10,12,14,16,18,-1,-1,20,22,24,26,-1,-1,-1,-1,-1,-1,-1,-1,-1,-1,-1,-1],"split_conditions":[2.885537E-1,2.7611363E-1,6.666667E-1,4.9009386E-2,1.15384616E-1,2.6579524E-4,4.1028094E-2,1E0,2.2824177E-1,-0E0,-1.5820364E-3,4.347826E-2,3.8868733E-2,-4.3881368E-2,-6.182126E-2,-2.3279518E-4,2.9193106E-5,4.0621002E-4,-1.0520881E-4,-0E0,7.8352384E-4,2.3025929E-4,-0E0,-0E0,2.6026246E-4,-0E0,-1.0589609E-3],"split_indices":[17,17,1,18,2,15,0,9,17,0,0,1,4,0,4,0,0,0,0,0,0,0,0,0,0,0,0],"split_type":[0,0,0,0,0,0,0,0,0,0,0,0,0,0,0,0,0,0,0,0,0,0,0,0,0,0,0],"sum_hessian":[6.96E2,5.77E2,1.19E2,5.64E2,1.3E1,7.3E1,4.6E1,4.42E2,1.22E2,5E0,8E0,5.3E1,2E1,3.3E1,1.3E1,2.76E2,1.66E2,8.1E1,4.1E1,6E0,4.7E1,1.4E1,6E0,6E0,2.7E1,5E0,8E0],"tree_param":{"num_deleted":"0","num_feature":"20","num_nodes":"27","size_leaf_vector":"1"}},{"base_weights":[4.384879E-4,-1.2346489E-3,1.7941264E-2,-3.2568339E-3,9.460925E-3,7.172896E-4,-0E0,-1.5847222E-3,-1.5625104E-2,1.5234118E-2,-0E0,-0E0,-4.5388453E-5,-7.447804E-5,4.7257444E-4,-7.798358E-4,-0E0,-0E0,7.144765E-4,1.2610888E-4,-6.8793114E-4],"categories":[],"categories_nodes":[],"categories_segments":[],"categories_sizes":[],"default_left":[0,0,0,0,0,0,0,0,0,0,0,0,0,0,0,0,0,0,0,0,0],"id":34,"left_children":[1,3,5,7,9,-1,11,13,15,17,19,-1,-1,-1,-1,-1,-1,-1,-1,-1,-1],"loss_changes":[2.3335531E-2,1.2048222E-2,1.119639E-2,7.5356336E-3,6.1207986E-3,0E0,1.602309E-5,4.91942E-3,9.659844E-3,6.9585247E-3,4.524729E-3,0E0,0E0,0E0,0E0,0E0,0E0,0E0,0E0,0E0,0E0],"parents":[2147483647,0,0,1,1,2,2,3,3,4,4,6,6,7,7,8,8,9,9,10,10],"right_children":[2,4,6,8,10,-1,12,14,16,18,20,-1,-1,-1,-1,-1,-1,-1,-1,-1,-1],"split_conditions":[3.3877793E-1,2.3558566E-1,1.1756612E-1,1.4943834E-1,8.8566825E-2,7.172896E-4,-6.182126E-2,1.3586956E-1,3.7397158E-3,1.7351435E-1,2.253203E-1,-0E0,-4.5388453E-5,-7.447804E-5,4.7257444E-4,-7.798358E-4,-0E0,-0E0,7.144765E-4,1.2610888E-4,-6.8793114E-4],"split_indices":[17,4,0,4,18,0,4,18,11,17,17,0,0,0,0,0,0,0,0,0,0],"split_type":[0,0,0,0,0,0,0,0,0,0,0,0,0,0,0,0,0,0,0,0,0],"sum_hessian":[6.81E2,6.12E2,6.9E1,5.31E2,8.1E1,5.8E1,1.1E1,4.83E2,4.8E1,5.7E1,2.4E1,5E0,6E0,4.71E2,1.2E1,3.1E1,1.7E1,2.2E1,3.5E1,1.7E1,7E0],"tree_param":{"num_deleted":"0","num_feature":"20","num_nodes":"21","size_leaf_vector":"1"}},{"base_weights":[7.0530985E-4,1.0225111E-2,-1.5436292E-4,3.4321146E-4,3.258359E-2,-7.7393465E-3,2.4010944E-3,3.960184E-4,-6.807223E-5,-0E0,1.2148975E-3,-7.0553774E-4,-1.7571907E-2,-4.648213E-3,5.1575326E-3,-3.259164E-4,4.3048844E-5,7.157173E-4,-3.1042236E-4,-0E0,-1.0814536E-3,-7.526054E-4,-0E0,3.0650673E-4,-1.0629591E-4],"categories":[],"categories_nodes":[],"categories_segments":[],"categories_sizes":[],"default_left":[0,0,0,0,0,0,0,0,0,0,0,0,0,0,0,0,0,0,0,0,0,0,0,0,0],"id":35,"left_children":[1,3,5,7,9,11,13,-1,15,-1,-1,17,19,21,23,-1,-1,-1,-1,-1,-1,-1,-1,-1,-1],"loss_changes":[7.916329E-3,1.0858053E-2,1.3549569E-2,2.9552653E-3,2.2092275E-3,8.919296E-3,9.102951E-3,0E0,2.6477906E-3,0E0,0E0,2.5727812E-2,2.5720794E-2,1.021035E-2,1.6910035E-2,0E0,0E0,0E0,0E0,0E0,0E0,0E0,0E0,0E0,0E0],"parents":[2147483647,0,0,1,1,2,2,3,3,4,4,5,5,6,6,8,8,11,11,12,12,13,13,14,14],"right_children":[2,4,6,8,10,12,14,-1,16,-1,-1,18,20,22,24,-1,-1,-1,-1,-1,-1,-1,-1,-1,-1],"split_conditions":[-4.9295776E-2,-5.4545455E-2,4.293532E1,-9.3561366E-2,1.4722526E-1,1.8724637E-1,1.6214958E-1,3.960184E-4,-6.669885E-2,-0E0,1.2148975E-3,-6.513571E-2,-2.9908972E-2,-3.9089986E-4,8.867964E-2,-3.259164E-4,4.3048844E-5,7.157173E-4,-3.1042236E-4,-0E0,-1.0814536E-3,-7.526054E-4,-0E0,3.0650673E-4,-1.0629591E-4],"split_indices":[7,7,14,18,17,17,17,0,0,0,0,0,7,11,0,0,0,0,0,0,0,0,0,0,0],"split_type":[0,0,0,0,0,0,0,0,0,0,0,0,0,0,0,0,0,0,0,0,0,0,0,0,0],"sum_hessian":[7.2E2,7.8E1,6.42E2,6.1E1,1.7E1,1.81E2,4.61E2,1.6E1,4.5E1,5E0,1.2E1,1.18E2,6.3E1,1.09E2,3.52E2,2.1E1,2.4E1,2.7E1,9.1E1,2.9E1,3.4E1,1.9E1,9E1,2.37E2,1.15E2],"tree_param":{"num_deleted":"0","num_feature":"20","num_nodes":"25","size_leaf_vector":"1"}},{"base_weights":[2.0057348E-6,-1.4149825E-3,1.44618545E-2,1.0444574E-3,-6.9515267E-3,1.794498E-2,-0E0,-1.8329171E-3,1.5773058E-2,-1.9228015E-2,-0E0,1.9810442E-2,-0E0,1.3503176E-4,-0E0,-0E0,-2.1371497E-4,-0E0,7.922938E-4,-0E0,-1.095813E-3,1.8381196E-4,-8.417526E-5,7.1298704E-4,-0E0],"categories":[],"categories_nodes":[],"categories_segments":[],"categories_sizes":[],"default_left":[0,0,0,0,0,0,0,0,0,0,0,0,0,0,0,0,0,0,0,0,0,0,0,0,0],"id":36,"left_children":[1,3,5,7,9,11,13,15,17,19,21,23,-1,-1,-1,-1,-1,-1,-1,-1,-1,-1,-1,-1,-1],"loss_changes":[1.6706081E-2,9.549389E-3,1.5904373E-3,1.98112E-2,1.55388815E-2,5.9322827E-4,2.633739E-4,3.120301E-3,1.2927169E-2,2.0817865E-2,2.0394668E-3,1.5439391E-3,0E0,0E0,0E0,0E0,0E0,0E0,0E0,0E0,0E0,0E0,0E0,0E0,0E0],"parents":[2147483647,0,0,1,1,2,2,3,3,4,4,5,5,6,6,7,7,8,8,9,9,10,10,11,11],"right_children":[2,4,6,8,10,12,14,16,18,20,22,24,-1,-1,-1,-1,-1,-1,-1,-1,-1,-1,-1,-1,-1],"split_conditions":[3.2530656E-1,1.054801E0,6.8421054E-1,1.0017778E0,-3.6762014E-2,1.1358315E0,2.0354355E-2,6.666667E-1,-6.254132E-4,-1.5153155E-2,-4.345978E-3,2.225734E-3,-0E0,1.3503176E-4,-0E0,-0E0,-2.1371497E-4,-0E0,7.922938E-4,-0E0,-1.095813E-3,1.8381196E-4,-8.417526E-5,7.1298704E-4,-0E0],"split_indices":[17,19,1,19,0,19,0,13,15,11,15,15,0,0,0,0,0,0,0,0,0,0,0,0,0],"split_type":[0,0,0,0,0,0,0,0,0,0,0,0,0,0,0,0,0,0,0,0,0,0,0,0,0],"sum_hessian":[6.86E2,6.13E2,7.3E1,4E2,2.13E2,5.2E1,2.1E1,3.24E2,7.6E1,6.9E1,1.44E2,4.4E1,8E0,1.2E1,9E0,2.42E2,8.2E1,3.1E1,4.5E1,3.5E1,3.4E1,2.9E1,1.15E2,3.3E1,1.1E1],"tree_param":{"num_deleted":"0","num_feature":"20","num_nodes":"25","size_leaf_vector":"1"}},{"base_weights":[7.7319046E-4,6.9289515E-4,-1.1304487E-4,-2.8512995E-3,5.9864833E-3,1.0600784E-2,-4.5003835E-3,1.3949773E-2,-1.3875705E-3,-0E0,5.956645E-4,-4.5460658E-4,-3.4798348E-5,2.0118948E-4,1.165801E-3,3.0943376E-4,-7.6411536E-4],"categories":[],"categories_nodes":[],"categories_segments":[],"categories_sizes":[],"default_left":[0,0,0,0,0,0,0,0,0,0,0,0,0,0,0,0,0],"id":37,"left_children":[1,-1,3,5,7,9,11,13,15,-1,-1,-1,-1,-1,-1,-1,-1],"loss_changes":[1.8784223E-2,0E0,1.0780838E-2,9.786332E-3,1.3630202E-2,7.614008E-3,1.2875884E-2,9.391507E-3,2.7530387E-2,0E0,0E0,0E0,0E0,0E0,0E0,0E0,0E0],"parents":[2147483647,0,0,2,2,3,3,4,4,5,5,6,6,7,7,8,8],"right_children":[2,-1,4,6,8,10,12,14,16,-1,-1,-1,-1,-1,-1,-1,-1],"split_conditions":[-9.3561366E-2,6.9289515E-4,4.180602E-2,1.1251738E-1,6.370718E1,-4.432381E-2,1.4722526E-1,3.6871508E-2,2.2642799E-1,-0E0,5.956645E-4,-4.5460658E-4,-3.4798348E-5,2.0118948E-4,1.165801E-3,3.0943376E-4,-7.6411536E-4],"split_indices":[18,0,18,17,14,0,17,12,17,0,0,0,0,0,0,0,0],"split_type":[0,0,0,0,0,0,0,0,0,0,0,0,0,0,0,0,0],"sum_hessian":[7.16E2,3.5E1,6.81E2,4.93E2,1.88E2,4E1,4.53E2,1.03E2,8.5E1,1E1,3E1,9.3E1,3.6E2,8.7E1,1.6E1,5.2E1,3.3E1],"tree_param":{"num_deleted":"0","num_feature":"20","num_nodes":"17","size_leaf_vector":"1"}},{"base_weights":[4.1064044E-4,2.4785934E-2,-6.9384056E-4,1.0772458E-3,-0E0,-7.6781292E-3,5.122417E-3,-1.5370343E-2,-1.9280673E-3,2.1793358E-2,2.8498247E-3,-0E0,-7.086462E-4,-4.495923E-4,1.7932351E-4,-0E0,9.533847E-4,7.7170046E-4,2.075745E-5],"categories":[],"categories_nodes":[],"categories_segments":[],"categories_sizes":[],"default_left":[0,0,0,0,0,0,0,0,0,0,0,0,0,0,0,0,0,0,0],"id":38,"left_children":[1,3,5,-1,-1,7,9,11,13,15,17,-1,-1,-1,-1,-1,-1,-1,-1],"loss_changes":[2.4165647E-2,1.0854391E-2,2.817372E-2,0E0,0E0,1.08856615E-2,8.496763E-3,1.4785513E-2,2.274443E-2,5.0003063E-3,1.0740822E-2,0E0,0E0,0E0,0E0,0E0,0E0,0E0,0E0],"parents":[2147483647,0,0,1,1,2,2,5,5,6,6,7,7,8,8,9,9,10,10],"right_children":[2,4,6,-1,-1,8,10,12,14,16,18,-1,-1,-1,-1,-1,-1,-1,-1],"split_conditions":[-9.717868E-2,-1.9122679E-2,0E0,1.0772458E-3,-0E0,-5.3343352E-2,-3.3441375E-3,1.6652727E-1,1.623746E-1,2.682927E-1,1.10787675E-1,-0E0,-7.086462E-4,-4.495923E-4,1.7932351E-4,-0E0,9.533847E-4,7.7170046E-4,2.075745E-5],"split_indices":[0,11,13,0,0,0,11,17,17,1,17,0,0,0,0,0,0,0,0],"split_type":[0,0,0,0,0,0,0,0,0,0,0,0,0,0,0,0,0,0,0],"sum_hessian":[7.17E2,3.8E1,6.79E2,2.6E1,1.2E1,3.24E2,3.55E2,1.23E2,2.01E2,3.1E1,3.24E2,4.5E1,7.8E1,8.5E1,1.16E2,1.2E1,1.9E1,1.9E1,3.05E2],"tree_param":{"num_deleted":"0","num_feature":"20","num_nodes":"19","size_leaf_vector":"1"}},{"base_weights":[7.756913E-4,1.0856058E-3,-0E0,-1.3149575E-3,1.1551305E-2,1.1569776E-2,-2.5802238E-3,6.1833824E-4,-2.1518196E-3,-0E0,6.3189026E-4,-1.7225945E-4,-0E0,-0E0,-5.0006853E-4],"categories":[],"categories_nodes":[],"categories_segments":[],"categories_sizes":[],"default_left":[0,0,0,0,0,0,0,0,0,0,0,0,0,0,0],"id":39,"left_children":[1,-1,3,5,7,9,11,-1,13,-1,-1,-1,-1,-1,-1],"loss_changes":[2.0557715E-2,0E0,9.010573E-3,7.7037644E-3,1.1185236E-2,3.786338E-3,5.1813745E-3,0E0,2.4266003E-3,0E0,0E0,0E0,0E0,0E0,0E0],"parents":[2147483647,0,0,2,2,3,3,4,4,5,5,6,6,8,8],"right_children":[2,-1,4,6,8,10,12,-1,14,-1,-1,-1,-1,-1,-1],"split_conditions":[-1.10205226E-1,1.0856058E-3,3.4605876E-1,7.0093685E-1,1.1756612E-1,5.5142475E1,-6.2256088E-3,6.1833824E-4,-6.182126E-2,-0E0,6.3189026E-4,-1.7225945E-4,-0E0,-0E0,-5.0006853E-4],"split_indices":[16,0,17,19,0,14,0,0,4,0,0,0,0,0,0],"split_type":[0,0,0,0,0,0,0,0,0,0,0,0,0,0,0],"sum_hessian":[6.54E2,1.5E1,6.39E2,5.8E2,5.9E1,3.7E1,5.43E2,4.4E1,1.5E1,1.8E1,1.9E1,2.66E2,2.77E2,7E0,8E0],"tree_param":{"num_deleted":"0","num_feature":"20","num_nodes":"15","size_leaf_vector":"1"}},{"base_weights":[-0E0,2.3887392E-2,-1.4001213E-3,3.1564403E-2,-0E0,-7.6816804E-3,1.1480154E-3,1.1986858E-3,-0E0,-0E0,-1.7345808E-2,-5.8400636E-3,4.4611245E-3,-1.8315915E-4,2.9080472E-4,-7.569354E-4,-1.3507621E-5,-1.0232497E-3,-0E0,2.7623252E-4,-0E0],"categories":[],"categories_nodes":[],"categories_segments":[],"categories_sizes":[],"default_left":[0,0,0,0,0,0,0,0,0,0,0,0,0,0,0,0,0,0,0,0,0],"id":40,"left_children":[1,3,5,7,-1,9,11,-1,-1,13,15,17,19,-1,-1,-1,-1,-1,-1,-1,-1],"loss_changes":[1.957875E-2,5.6520347E-3,1.2087772E-2,3.5991892E-5,0E0,1.5477665E-2,1.0330851E-2,0E0,0E0,7.2670383E-3,7.37576E-3,1.8901946E-2,6.5737767E-3,0E0,0E0,0E0,0E0,0E0,0E0,0E0,0E0],"parents":[2147483647,0,0,1,1,2,2,3,3,5,5,6,6,9,9,10,10,11,11,12,12],"right_children":[2,4,6,8,-1,10,12,-1,-1,14,16,18,20,-1,-1,-1,-1,-1,-1,-1,-1],"split_conditions":[-9.3561366E-2,-3.5231481E-3,4.293532E1,-2.2844184E-2,-0E0,-3.0478954E-2,1.6214958E-1,1.1986858E-3,-0E0,5.263158E-2,1E0,-2.2087411E-3,1.6532592E-3,-1.8315915E-4,2.9080472E-4,-7.569354E-4,-1.3507621E-5,-1.0232497E-3,-0E0,2.7623252E-4,-0E0],"split_indices":[18,15,14,11,0,7,17,0,0,1,9,15,15,0,0,0,0,0,0,0,0],"split_type":[0,0,0,0,0,0,0,0,0,0,0,0,0,0,0,0,0,0,0,0,0],"sum_hessian":[7.03E2,3.1E1,6.72E2,2.3E1,8E0,2.16E2,4.56E2,1.4E1,9E0,1.23E2,9.3E1,1.27E2,3.29E2,7.8E1,4.5E1,5.5E1,3.8E1,1.9E1,1.08E2,1.54E2,1.75E2],"tree_param":{"num_deleted":"0","num_feature":"20","num_nodes":"21","size_leaf_vector":"1"}},{"base_weights":[-0E0,1.9827854E-2,-7.711529E-4,1.0764995E-3,2.6406287E-3,-1.4671218E-2,5.753013E-4,4.84445E-3,-0E0,1.7980575E-4,-2.2854583E-2,-9.068205E-3,2.2920268E-3,-0E0,2.0403467E-4,-0E0,-8.239828E-4,-0E0,-6.618551E-4,2.9613724E-4,-0E0],"categories":[],"categories_nodes":[],"categories_segments":[],"categories_sizes":[],"default_left":[0,0,0,0,0,0,0,0,0,0,0,0,0,0,0,0,0,0,0,0,0],"id":41,"left_children":[1,3,5,-1,7,9,11,13,-1,-1,15,17,19,-1,-1,-1,-1,-1,-1,-1,-1],"loss_changes":[1.4149546E-2,1.8586647E-3,1.5086472E-2,0E0,2.785551E-4,1.5515798E-2,8.350371E-3,1.5541917E-4,0E0,0E0,8.932836E-3,1.26570435E-2,8.890034E-3,0E0,0E0,0E0,0E0,0E0,0E0,0E0,0E0],"parents":[2147483647,0,0,1,1,2,2,4,4,5,5,6,6,7,7,10,10,11,11,12,12],"right_children":[2,4,6,-1,8,10,12,14,-1,-1,16,18,20,-1,-1,-1,-1,-1,-1,-1,-1],"split_conditions":[-9.871508E-2,-2.2844184E-2,-7.145677E-2,1.0764995E-3,2.4269015E-1,1.6652727E-1,3.5714287E-2,-1.947482E-2,-0E0,1.7980575E-4,6.759259E-1,-5.045045E-2,-1.3274336E-2,-0E0,2.0403467E-4,-0E0,-8.239828E-4,-0E0,-6.618551E-4,2.9613724E-4,-0E0],"split_indices":[16,11,0,0,17,17,1,11,0,0,2,18,7,0,0,0,0,0,0,0,0],"split_type":[0,0,0,0,0,0,0,0,0,0,0,0,0,0,0,0,0,0,0,0,0],"sum_hessian":[6.88E2,3.4E1,6.54E2,1.1E1,2.3E1,7E1,5.84E2,1.8E1,5E0,1.3E1,5.7E1,7E1,5.14E2,6E0,1.2E1,6E0,5.1E1,3.3E1,3.7E1,1.18E2,3.96E2],"tree_param":{"num_deleted":"0","num_feature":"20","num_nodes":"21","size_leaf_vector":"1"}},{"base_weights":[6.2469573E-4,1.8366674E-2,-9.4728355E-5,2.5455823E-2,-0E0,-1.7574129E-3,1.1273446E-2,-0E0,9.5397077E-4,-1.5209925E-2,-1.471311E-4,2.0632116E-2,-0E0,-0E0,-5.7772733E-4,1.795791E-5,-5.010669E-4,6.7769655E-4,-0E0,-0E0,-1.1978525E-4],"categories":[],"categories_nodes":[],"categories_segments":[],"categories_sizes":[],"default_left":[0,0,0,0,0,0,0,0,0,0,0,0,0,0,0,0,0,0,0,0,0],"id":42,"left_children":[1,3,5,7,-1,9,11,-1,-1,13,15,17,19,-1,-1,-1,-1,-1,-1,-1,-1],"loss_changes":[1.2552641E-2,7.917247E-3,1.0591718E-2,2.5211293E-3,0E0,9.750453E-3,9.535174E-3,0E0,0E0,4.379648E-3,9.934387E-3,1.08709E-3,1.4348504E-4,0E0,0E0,0E0,0E0,0E0,0E0,0E0,0E0],"parents":[2147483647,0,0,1,1,2,2,3,3,5,5,6,6,9,9,10,10,11,11,12,12],"right_children":[2,4,6,8,-1,10,12,-1,-1,14,16,18,20,-1,-1,-1,-1,-1,-1,-1,-1],"split_conditions":[-1.0043801E-1,-1.5153155E-2,2.3666266E-2,9.313212E-1,-0E0,-8.045977E-2,5.7894737E-2,-0E0,9.5397077E-4,1.6652727E-1,1.0360228E-1,1.3486111E-1,1.5384616E-1,-0E0,-5.7772733E-4,1.795791E-5,-5.010669E-4,6.7769655E-4,-0E0,-0E0,-1.1978525E-4],"split_indices":[0,11,11,19,0,16,7,0,0,17,0,0,18,0,0,0,0,0,0,0,0],"split_type":[0,0,0,0,0,0,0,0,0,0,0,0,0,0,0,0,0,0,0,0,0],"sum_hessian":[6.96E2,3.7E1,6.59E2,3.1E1,6E0,5.91E2,6.8E1,9E0,2.2E1,4.9E1,5.42E2,4.2E1,2.6E1,7E0,4.2E1,5.08E2,3.4E1,3.7E1,5E0,1.8E1,8E0],"tree_param":{"num_deleted":"0","num_feature":"20","num_nodes":"21","size_leaf_vector":"1"}},{"base_weights":[4.2203843E-4,-1.4937225E-3,1.1719645E-2,-1.7448096E-4,-3.996521E-2,1.5067831E-2,-0E0,4.593517E-3,-3.5867114E-3,-1.8867052E-3,-0E0,1.6565239E-2,-0E0,-1.8033288E-4,2.1634862E-4,2.346644E-5,-3.1744418E-4,-0E0,5.170865E-4],"categories":[],"categories_nodes":[],"categories_segments":[],"categories_sizes":[],"default_left":[0,0,0,0,0,0,0,0,0,0,0,0,0,0,0,0,0,0,0],"id":43,"left_children":[1,3,5,7,9,11,-1,13,15,-1,-1,17,-1,-1,-1,-1,-1,-1,-1],"loss_changes":[1.6953431E-2,2.1097418E-2,5.5464543E-3,8.94231E-3,9.280337E-3,2.8061122E-3,0E0,6.11389E-3,1.2725106E-2,0E0,0E0,5.104039E-4,0E0,0E0,0E0,0E0,0E0,0E0,0E0],"parents":[2147483647,0,0,1,1,2,2,3,3,4,4,5,5,7,7,8,8,11,11],"right_children":[2,4,6,8,10,12,-1,14,16,-1,-1,18,-1,-1,-1,-1,-1,-1,-1],"split_conditions":[2.885537E-1,2.7611363E-1,5.942087E1,3.0714285E-1,8.714597E-3,1.2295893E0,-0E0,-1.2019231E-2,-1.9877676E-2,-1.8867052E-3,-0E0,1.7857144E-2,-0E0,-1.8033288E-4,2.1634862E-4,2.346644E-5,-3.1744418E-4,-0E0,5.170865E-4],"split_indices":[17,17,14,2,7,19,0,0,7,0,0,2,0,0,0,0,0,0,0],"split_type":[0,0,0,0,0,0,0,0,0,0,0,0,0,0,0,0,0,0,0],"sum_hessian":[6.87E2,5.73E2,1.14E2,5.6E2,1.3E1,9.3E1,2.1E1,2.09E2,3.51E2,7E0,6E0,8.7E1,6E0,2.6E1,1.83E2,1.99E2,1.52E2,5E0,8.2E1],"tree_param":{"num_deleted":"0","num_feature":"20","num_nodes":"19","size_leaf_vector":"1"}},{"base_weights":[1.3361749E-3,4.8017257E-4,-0E0,-8.345149E-3,1.7157332E-3,-0E0,-2.1985024E-2,-1.4432558E-5,6.7467256E-3,1.9702029E-4,-4.032946E-5,-0E0,-7.2157185E-4,6.641703E-5,-3.5071498E-4,8.6881634E-4,5.3919444E-5],"categories":[],"categories_nodes":[],"categories_segments":[],"categories_sizes":[],"default_left":[0,0,0,0,0,0,0,0,0,0,0,0,0,0,0,0,0],"id":44,"left_children":[1,-1,3,5,7,9,11,13,15,-1,-1,-1,-1,-1,-1,-1,-1],"loss_changes":[1.0081263E-2,0E0,7.7092415E-3,1.1755176E-2,6.020846E-3,8.809141E-4,6.289389E-4,1.1573942E-2,1.2157245E-2,0E0,0E0,0E0,0E0,0E0,0E0,0E0,0E0],"parents":[2147483647,0,0,2,2,3,3,4,4,5,5,6,6,7,7,8,8],"right_children":[2,-1,4,6,8,10,12,14,16,-1,-1,-1,-1,-1,-1,-1,-1],"split_conditions":[-4.416404E-2,4.8017257E-4,3.7037037E-2,-4.718417E-2,4.3897215E-2,-3.0395137E-2,-7.572466E-3,6.3116765E-3,9.095261E-3,1.9702029E-4,-4.032946E-5,-0E0,-7.2157185E-4,6.641703E-5,-3.5071498E-4,8.6881634E-4,5.3919444E-5],"split_indices":[12,0,1,18,18,12,11,11,11,0,0,0,0,0,0,0,0],"split_type":[0,0,0,0,0,0,0,0,0,0,0,0,0,0,0,0,0],"sum_hessian":[6.66E2,4.3E1,6.23E2,8.7E1,5.36E2,5.1E1,3.6E1,3.7E2,1.66E2,1.8E1,3.3E1,5E0,3.1E1,2.97E2,7.3E1,2.2E1,1.44E2],"tree_param":{"num_deleted":"0","num_feature":"20","num_nodes":"17","size_leaf_vector":"1"}},{"base_weights":[-2.1432881E-4,1.7040128E-2,-1.4824084E-3,2.1598367E-2,-0E0,-6.2288735E-3,5.225997E-4,-0E0,7.1437313E-4,-0E0,-1.7357362E-2,1.4204264E-2,-8.855791E-4,-1.2803859E-4,2.3500107E-3,-0E0,-8.958089E-4,6.2507E-4,-0E0,-6.67576E-4,-0E0],"categories":[],"categories_nodes":[],"categories_segments":[],"categories_sizes":[],"default_left":[0,0,0,0,0,0,0,0,0,0,0,0,0,0,0,0,0,0,0,0,0],"id":45,"left_children":[1,3,5,7,-1,9,11,-1,-1,13,15,17,19,-1,-1,-1,-1,-1,-1,-1,-1],"loss_changes":[1.2164093E-2,3.717633E-3,7.4350494E-3,2.8166268E-4,0E0,1.8346477E-2,1.1076392E-2,0E0,0E0,5.7575293E-2,1.4791936E-2,6.035775E-3,1.0098312E-2,0E0,0E0,0E0,0E0,0E0,0E0,0E0,0E0],"parents":[2147483647,0,0,1,1,2,2,3,3,5,5,6,6,9,9,10,10,11,11,12,12],"right_children":[2,4,6,8,-1,10,12,-1,-1,14,16,18,20,-1,-1,-1,-1,-1,-1,-1,-1],"split_conditions":[-8.8972434E-2,-3.497615E-2,2.8125E-1,8.688651E-1,-0E0,-7.2224354E-3,-1.2032085E-2,-0E0,7.1437313E-4,-3.785104E-2,-5.656564E-3,1.5625E-2,-2.0667726E-2,-1.2803859E-4,2.3500107E-3,-0E0,-8.958089E-4,6.2507E-4,-0E0,-6.67576E-4,-0E0],"split_indices":[18,7,1,19,0,11,7,0,0,18,15,12,12,0,0,0,0,0,0,0,0],"split_type":[0,0,0,0,0,0,0,0,0,0,0,0,0,0,0,0,0,0,0,0,0],"sum_hessian":[6.96E2,3.6E1,6.6E2,3E1,6E0,2.25E2,4.35E2,5E0,2.5E1,1.36E2,8.9E1,5.3E1,3.82E2,1.28E2,8E0,4.3E1,4.6E1,3.8E1,1.5E1,2E1,3.62E2],"tree_param":{"num_deleted":"0","num_feature":"20","num_nodes":"21","size_leaf_vector":"1"}},{"base_weights":[-0E0,-9.980351E-4,1.18406955E-2,1.3693984E-2,-2.0299102E-3,1.721388E-2,-0E0,-0E0,2.3036364E-2,-6.7685214E-3,5.5069866E-4,6.1444833E-4,-0E0,-0E0,-3.2762077E-4,8.14139E-4,-0E0,3.8666756E-5,-3.951238E-4,-4.2597743E-4,1.3003184E-4],"categories":[],"categories_nodes":[],"categories_segments":[],"categories_sizes":[],"default_left":[0,0,0,0,0,0,0,0,0,0,0,0,0,0,0,0,0,0,0,0,0],"id":46,"left_children":[1,3,5,7,9,11,13,-1,15,17,19,-1,-1,-1,-1,-1,-1,-1,-1,-1,-1],"loss_changes":[1.0180193E-2,7.534036E-3,7.3563643E-3,5.5184006E-3,8.828964E-3,2.4067294E-3,7.1556907E-4,0E0,6.3935295E-4,1.5083453E-2,1.9017067E-2,0E0,0E0,0E0,0E0,0E0,0E0,0E0,0E0,0E0,0E0],"parents":[2147483647,0,0,1,1,2,2,3,3,4,4,5,5,6,6,8,8,9,9,10,10],"right_children":[2,4,6,8,10,12,14,-1,16,18,20,-1,-1,-1,-1,-1,-1,-1,-1,-1,-1],"split_conditions":[3.4605876E-1,-9.717868E-2,1.1756612E-1,-7.0468043E-3,-1.0163614E-3,1.1403008E0,4.526276E-3,-0E0,-1.7716851E-2,-1.1330643E-2,-9.908754E-3,6.1444833E-4,-0E0,-0E0,-3.2762077E-4,8.14139E-4,-0E0,3.8666756E-5,-3.951238E-4,-4.2597743E-4,1.3003184E-4],"split_indices":[17,0,0,15,15,19,15,0,11,11,11,0,0,0,0,0,0,0,0,0,0],"split_type":[0,0,0,0,0,0,0,0,0,0,0,0,0,0,0,0,0,0,0,0,0],"sum_hessian":[7.15E2,6.48E2,6.7E1,2.9E1,6.19E2,5.6E1,1.1E1,9E0,2E1,2.45E2,3.74E2,4.5E1,1.1E1,6E0,5E0,1.5E1,5E0,9.5E1,1.5E2,6.5E1,3.09E2],"tree_param":{"num_deleted":"0","num_feature":"20","num_nodes":"21","size_leaf_vector":"1"}},{"base_weights":[-1.3302891E-3,1.6544756E-2,-2.4016027E-3,7.329079E-4,-0E0,-4.1333637E-3,5.9903245E-3,-2.2997074E-3,-2.5397705E-2,9.883585E-3,-3.7894968E-3,-1.1750144E-4,2.5562616E-4,-0E0,-1.0081435E-3,-0E0,5.689723E-4,-0E0,-2.903676E-4],"categories":[],"categories_nodes":[],"categories_segments":[],"categories_sizes":[],"default_left":[0,0,0,0,0,0,0,0,0,0,0,0,0,0,0,0,0,0,0],"id":47,"left_children":[1,3,5,-1,-1,7,9,11,13,15,17,-1,-1,-1,-1,-1,-1,-1,-1],"loss_changes":[1.0903195E-2,3.128049E-3,9.622877E-3,0E0,0E0,1.73681E-2,4.98766E-3,8.770864E-3,1.2754643E-2,5.72503E-3,5.4840796E-4,0E0,0E0,0E0,0E0,0E0,0E0,0E0,0E0],"parents":[2147483647,0,0,1,1,2,2,5,5,6,6,7,7,8,8,9,9,10,10],"right_children":[2,4,6,-1,-1,8,10,12,14,16,18,-1,-1,-1,-1,-1,-1,-1,-1],"split_conditions":[-2.2844184E-2,-2.3675496E-3,1.9879831E-2,7.329079E-4,-0E0,8.867964E-2,7.492611E1,4.9009386E-2,2.0218895E-1,1.650383E-2,3.188406E-2,-1.1750144E-4,2.5562616E-4,-0E0,-1.0081435E-3,-0E0,5.689723E-4,-0E0,-2.903676E-4],"split_indices":[11,15,11,0,0,0,14,18,17,4,11,0,0,0,0,0,0,0,0],"split_type":[0,0,0,0,0,0,0,0,0,0,0,0,0,0,0,0,0,0,0],"sum_hessian":[7.14E2,2.9E1,6.85E2,1.8E1,1.1E1,5.88E2,9.7E1,5.51E2,3.7E1,8.4E1,1.3E1,4.96E2,5.5E1,5E0,3.2E1,4.6E1,3.8E1,6E0,7E0],"tree_param":{"num_deleted":"0","num_feature":"20","num_nodes":"19","size_leaf_vector":"1"}},{"base_weights":[1.6253854E-3,1.2184152E-2,-0E0,1.5910735E-2,-0E0,-1.0136722E-2,1.5166155E-3,1.372182E-5,2.6894113E-2,-0E0,3.5087138E-5,-0E0,-2.3967957E-2,-0E0,9.551324E-3,-0E0,7.9396836E-5,-0E0,8.9355774E-4,-7.8016566E-4,-0E0,1.6089174E-4,-7.2300776E-5,4.2306702E-4,-0E0],"categories":[],"categories_nodes":[],"categories_segments":[],"categories_sizes":[],"default_left":[0,0,0,0,0,0,0,0,0,0,0,0,0,0,0,0,0,0,0,0,0,0,0,0,0],"id":48,"left_children":[1,3,5,7,9,11,13,15,17,-1,-1,-1,19,21,23,-1,-1,-1,-1,-1,-1,-1,-1,-1,-1],"loss_changes":[1.1824265E-2,2.7971193E-3,9.2246095E-3,5.967252E-3,2.0518457E-5,1.1516997E-2,5.4497644E-3,1.1906629E-4,6.44112E-4,0E0,0E0,0E0,8.0589205E-5,6.1776834E-3,5.869372E-3,0E0,0E0,0E0,0E0,0E0,0E0,0E0,0E0,0E0,0E0],"parents":[2147483647,0,0,1,1,2,2,3,3,4,4,5,5,6,6,7,7,8,8,12,12,13,13,14,14],"right_children":[2,4,6,8,10,12,14,16,18,-1,-1,-1,20,22,24,-1,-1,-1,-1,-1,-1,-1,-1,-1,-1],"split_conditions":[-4.9295776E-2,-8.553536E-3,4.5454547E-2,9.7559446E-1,-2.763067E-3,-4.718417E-2,2.3666266E-2,-8.305648E-2,1.4463869E-1,-0E0,3.5087138E-5,-0E0,4.8399516E-3,-1.6260162E-2,1.434742E-1,-0E0,7.9396836E-5,-0E0,8.9355774E-4,-7.8016566E-4,-0E0,1.6089174E-4,-7.2300776E-5,4.2306702E-4,-0E0],"split_indices":[7,11,1,19,11,18,11,0,17,0,0,0,0,18,0,0,0,0,0,0,0,0,0,0,0],"split_type":[0,0,0,0,0,0,0,0,0,0,0,0,0,0,0,0,0,0,0,0,0,0,0,0,0],"sum_hessian":[6.93E2,9.1E1,6.02E2,6.4E1,2.7E1,7.7E1,5.25E2,3.4E1,3E1,1.3E1,1.4E1,4.4E1,3.3E1,4.53E2,7.2E1,1.8E1,1.6E1,5E0,2.5E1,2.8E1,5E0,1.53E2,3E2,6.2E1,1E1],"tree_param":{"num_deleted":"0","num_feature":"20","num_nodes":"25","size_leaf_vector":"1"}},{"base_weights":[8.4587705E-4,1.9643273E-2,-0E0,-0E0,2.5022147E-2,-1.13350935E-2,9.770583E-4,9.1235363E-4,-0E0,2.3988464E-3,-3.286705E-2,2.1460775E-2,9.1436035E-5,-1.4460573E-5,7.604267E-4,-0E0,-1.1903387E-3,-0E0,1.2523123E-3,-1.0570648E-5,3.9998424E-4],"categories":[],"categories_nodes":[],"categories_segments":[],"categories_sizes":[],"default_left":[0,0,0,0,0,0,0,0,0,0,0,0,0,0,0,0,0,0,0,0,0],"id":49,"left_children":[1,3,5,-1,7,9,11,-1,-1,13,15,17,19,-1,-1,-1,-1,-1,-1,-1,-1],"loss_changes":[1.5304306E-2,6.0935896E-3,9.578146E-3,0E0,5.8325324E-3,2.6872788E-2,6.7897877E-3,0E0,0E0,7.4975877E-3,6.8591684E-3,1.0056363E-2,6.109E-3,0E0,0E0,0E0,0E0,0E0,0E0,0E0,0E0],"parents":[2147483647,0,0,1,1,2,2,4,4,5,5,6,6,9,9,10,10,11,11,12,12],"right_children":[2,4,6,-1,8,10,12,-1,-1,14,16,18,20,-1,-1,-1,-1,-1,-1,-1,-1],"split_conditions":[-9.717868E-2,-1.0276216E-1,-7.322096E-2,-0E0,-1.5833333E-2,3.5430496E1,-6.7468956E-2,9.1235363E-4,-0E0,-8.045977E-2,-1.2688684E-1,-7.5463556E-2,5.396453E-1,-1.4460573E-5,7.604267E-4,-0E0,-1.1903387E-3,-0E0,1.2523123E-3,-1.0570648E-5,3.9998424E-4],"split_indices":[0,4,0,0,11,14,0,0,0,0,4,4,4,0,0,0,0,0,0,0,0],"split_type":[0,0,0,0,0,0,0,0,0,0,0,0,0,0,0,0,0,0,0,0,0],"sum_hessian":[7.2E2,4E1,6.8E2,6E0,3.4E1,6.9E1,6.11E2,2.9E1,5E0,3.7E1,3.2E1,1.5E1,5.96E2,2.6E1,1.1E1,6E0,2.6E1,6E0,9E0,5.63E2,3.3E1],"tree_param":{"num_deleted":"0","num_feature":"20","num_nodes":"21","size_leaf_vector":"1"}}]},"name":"gbtree"},"learner_model_param":{"base_score":"[3.036047E-4]","boost_from_average":"1","num_class":"0","num_feature":"20","num_target":"1"},"objective":{"name":"reg:squarederror","reg_loss_param":{"scale_pos_weight":"1"}}},"version":[3,2,0]}