{"learner":{"attributes":{"scikit_learn":"{\"_estimator_type\": \"regressor\"}"},"feature_names":["macd_trend","macd_hist_direction","macd_momentum_decay","momentum_20","vol_ratio","price_momentum_5d","price_momentum_20d","macd_bottom_divergence","macd_top_divergence","rsi_bottom_divergence","rsi_top_divergence","volume_breakout","volume_pullback","volume_dry_up","volume_climax","rsi_extreme","boll_position","ma_bias","volatility_20","pe_rank","pb_rank","roe_level","revenue_growth","debt_level","main_inflow_5d","elg_ratio","margin_delta_5d","northbound_net_5d","turnover_extreme","holder_count_trend","insider_net_30d","trig_ma60_bias","trig_pos_in_20d","trig_dist_from_high","trig_dist_from_low","trig_vol_change","trig_break_above","trig_break_below","trig_price_trend_10d","trend_dir_ord","trend_phase_ord","trend_short_dir_ord","trend_ma_slope","trend_ret_5d","trend_ma_alignment","comp_lag1","comp_lag3","comp_lag5","comp_delta_3d","comp_delta_5d","comp_std_5d","comp_sign_changes_10d","comp_roll_max_10d","tech_rsi14","tech_macd_hist","tech_ma60_bias","tech_volatility_20","tech_momentum_20","tech_turnover_rate","tech_vol_ratio"],"feature_types":["float","float","float","float","float","float","float","float","float","float","float","float","float","float","float","float","float","float","float","float","float","float","float","float","float","float","float","float","float","float","float","float","float","float","float","float","float","float","float","float","float","float","float","float","float","float","float","float","float","float","float","float","float","float","float","float","float","float","float","float"],"gradient_booster":{"model":{"cats":{"enc":[],"feature_segments":[],"sorted_idx":[]},"gbtree_model_param":{"num_parallel_tree":"1","num_trees":"50"},"iteration_indptr":[0,1,2,3,4,5,6,7,8,9,10,11,12,13,14,15,16,17,18,19,20,21,22,23,24,25,26,27,28,29,30,31,32,33,34,35,36,37,38,39,40,41,42,43,44,45,46,47,48,49,50],"tree_info":[0,0,0,0,0,0,0,0,0,0,0,0,0,0,0,0,0,0,0,0,0,0,0,0,0,0,0,0,0,0,0,0,0,0,0,0,0,0,0,0,0,0,0,0,0,0,0,0,0,0],"trees":[{"base_weights":[-4.4803653E-4,-6.7857797E-3,5.5534043E-3,-4.374891E-3,-9.296716E-4,-4.65293E-4,1.9702052E-3],"categories":[],"categories_nodes":[],"categories_segments":[],"categories_sizes":[],"default_left":[0,0,0,0,0,0,0],"id":0,"left_children":[1,3,-1,-1,5,-1,-1],"loss_changes":[4.5045942E-1,2.756133E-1,0E0,0E0,2.015661E-1,0E0,0E0],"parents":[2147483647,0,0,1,1,4,4],"right_children":[2,4,-1,-1,6,-1,-1],"split_conditions":[2.2022301E-1,-7.64513E-1,5.5534043E-3,-4.374891E-3,6E-1,-4.65293E-4,1.9702052E-3],"split_indices":[38,17,0,0,27,0,0],"split_type":[0,0,0,0,0,0,0],"sum_hessian":[7.07E2,6.75E2,3.2E1,3.8E1,6.37E2,5.39E2,9.8E1],"tree_param":{"num_deleted":"0","num_feature":"60","num_nodes":"7","size_leaf_vector":"1"}},{"base_weights":[-5.368136E-4,-6.3211815E-3,7.022685E-2,4.2361084E-2,-1.4094201E-2,6.302523E-3,-0E0,3.5890255E-3,-0E0,-4.7757063E-4,-3.5221097E-3],"categories":[],"categories_nodes":[],"categories_segments":[],"categories_sizes":[],"default_left":[0,0,0,0,0,0,0,0,0,0,0],"id":1,"left_children":[1,3,5,7,9,-1,-1,-1,-1,-1,-1],"loss_changes":[2.5259587E-1,2.326476E-1,1.7035472E-1,9.681335E-2,1.0456444E-1,0E0,0E0,0E0,0E0,0E0,0E0],"parents":[2147483647,0,0,1,1,2,2,3,3,4,4],"right_children":[2,4,6,8,10,-1,-1,-1,-1,-1,-1],"split_conditions":[1.9343843E-1,2.14221E-1,4.4401057E-2,3E-1,2.3920879E-1,6.302523E-3,-0E0,3.5890255E-3,-0E0,-4.7757063E-4,-3.5221097E-3],"split_indices":[38,56,50,1,31,0,0,0,0,0,0],"split_type":[0,0,0,0,0,0,0,0,0,0,0],"sum_hessian":[6.91E2,6.47E2,4.4E1,7.9E1,5.68E2,2.3E1,2.1E1,4.5E1,3.4E1,5.36E2,3.2E1],"tree_param":{"num_deleted":"0","num_feature":"60","num_nodes":"11","size_leaf_vector":"1"}},{"base_weights":[-1.5627225E-3,-7.119483E-3,6.333352E-2,-3.7169456E-3,-2.3562708E-3,6.0926913E-3,-0E0,1.0987588E-3,-4.9264706E-4],"categories":[],"categories_nodes":[],"categories_segments":[],"categories_sizes":[],"default_left":[0,0,0,0,0,0,0,0,0],"id":2,"left_children":[1,3,5,-1,7,-1,-1,-1,-1],"loss_changes":[2.2378133E-1,1.6941935E-1,2.2321947E-1,0E0,1.067333E-1,0E0,0E0,0E0,0E0],"parents":[2147483647,0,0,1,1,2,2,4,4],"right_children":[2,4,6,-1,8,-1,-1,-1,-1],"split_conditions":[1.9343843E-1,-7.4626E-1,4.7620893E-2,-3.7169456E-3,-9.09091E-1,6.0926913E-3,-0E0,1.0987588E-3,-4.9264706E-4],"split_indices":[38,17,50,0,19,0,0,0,0],"split_type":[0,0,0,0,0,0,0,0,0],"sum_hessian":[6.94E2,6.48E2,4.6E1,3.4E1,6.14E2,2.6E1,2E1,1.28E2,4.86E2],"tree_param":{"num_deleted":"0","num_feature":"60","num_nodes":"9","size_leaf_vector":"1"}},{"base_weights":[-3.3908312E-3,-6.141551E-4,1.8841464E-2,-2.8778268E-2,4.2906933E-2,-3.8857802E-3,1.8898536E-4,-0E0,3.4102097E-3],"categories":[],"categories_nodes":[],"categories_segments":[],"categories_sizes":[],"default_left":[0,0,0,0,0,0,0,0,0],"id":3,"left_children":[1,-1,3,5,7,-1,-1,-1,-1],"loss_changes":[1.3715215E-1,0E0,2.2383425E-1,1.2837355E-1,1.523914E-1,0E0,0E0,0E0,0E0],"parents":[2147483647,0,0,2,2,3,3,4,4],"right_children":[2,-1,4,6,8,-1,-1,-1,-1],"split_conditions":[3E-1,-6.141551E-4,-9.09091E-1,3E-1,6E-1,-3.8857802E-3,1.8898536E-4,-0E0,3.4102097E-3],"split_indices":[27,0,20,1,27,0,0,0,0],"split_type":[0,0,0,0,0,0,0,0,0],"sum_hessian":[7.06E2,5.21E2,1.85E2,5.5E1,1.3E2,2.7E1,2.8E1,4.7E1,8.3E1],"tree_param":{"num_deleted":"0","num_feature":"60","num_nodes":"9","size_leaf_vector":"1"}},{"base_weights":[-0E0,4.837743E-2,-3.6325487E-3,7.228023E-3,-1.9318473E-3,1.6940004E-4,-1.2335009E-3,2.4307938E-3,-7.313382E-5],"categories":[],"categories_nodes":[],"categories_segments":[],"categories_sizes":[],"default_left":[0,0,0,0,0,0,0,0,0],"id":4,"left_children":[1,3,5,-1,-1,7,-1,-1,-1],"loss_changes":[1.1652459E-1,4.491206E-1,6.60075E-2,0E0,0E0,6.7285486E-2,0E0,0E0,0E0],"parents":[2147483647,0,0,1,1,2,2,5,5],"right_children":[2,4,6,-1,-1,8,-1,-1,-1],"split_conditions":[-7.8868E-2,4.8705358E-2,3.61905E-1,7.228023E-3,-1.9318473E-3,-3.4809742E-2,-1.2335009E-3,2.4307938E-3,-7.313382E-5],"split_indices":[15,50,6,0,0,42,0,0,0],"split_type":[0,0,0,0,0,0,0,0,0],"sum_hessian":[7.14E2,4.4E1,6.7E2,2.3E1,2.1E1,5.49E2,1.21E2,2.6E1,5.23E2],"tree_param":{"num_deleted":"0","num_feature":"60","num_nodes":"9","size_leaf_vector":"1"}},{"base_weights":[7.2154356E-4,3.2248348E-2,-9.997944E-3,5.4600313E-2,-0E0,-1.1364612E-3,4.4657406E-3,5.387207E-4,5.4077576E-3,2.604015E-3,-2.0614245E-3,3.3393533E-3,-5.0811475E-5],"categories":[],"categories_nodes":[],"categories_segments":[],"categories_sizes":[],"default_left":[0,0,0,0,0,0,0,0,0,0,0,0,0],"id":5,"left_children":[1,3,5,7,9,-1,11,-1,-1,-1,-1,-1,-1],"loss_changes":[2.5509492E-1,1.6389547E-1,1.0637716E-1,2.2689655E-1,1.5854844E-1,0E0,1.115992E-1,0E0,0E0,0E0,0E0,0E0,0E0],"parents":[2147483647,0,0,1,1,2,2,3,3,4,4,6,6],"right_children":[2,4,6,8,10,-1,12,-1,-1,-1,-1,-1,-1],"split_conditions":[-9.09091E-1,5.57504E-1,-4.4186E-1,6E-1,3.4871254E-2,-1.1364612E-3,2.13013E-1,5.387207E-4,5.4077576E-3,2.604015E-3,-2.0614245E-3,3.3393533E-3,-5.0811475E-5],"split_indices":[19,56,19,27,50,0,56,0,0,0,0,0,0],"split_type":[0,0,0,0,0,0,0,0,0,0,0,0,0],"sum_hessian":[7.18E2,1.93E2,5.25E2,1.21E2,7.2E1,2.97E2,2.28E2,7.3E1,4.8E1,2.7E1,4.5E1,2.4E1,2.04E2],"tree_param":{"num_deleted":"0","num_feature":"60","num_nodes":"13","size_leaf_vector":"1"}},{"base_weights":[-1.8585447E-3,-6.76591E-3,5.4112438E-2,-3.239935E-3,-1.5986372E-3,5.5608023E-3,-0E0,7.555909E-4,-5.8399624E-4],"categories":[],"categories_nodes":[],"categories_segments":[],"categories_sizes":[],"default_left":[0,0,0,0,0,0,0,0,0],"id":6,"left_children":[1,3,5,-1,7,-1,-1,-1,-1],"loss_changes":[1.7125072E-1,1.6450918E-1,1.2863857E-1,0E0,1.02410205E-1,0E0,0E0,0E0,0E0],"parents":[2147483647,0,0,1,1,2,2,4,4],"right_children":[2,4,6,-1,8,-1,-1,-1,-1],"split_conditions":[1.9343843E-1,-6.4096E-1,4.1138086E-2,-3.239935E-3,1.96536E-1,5.5608023E-3,-0E0,7.555909E-4,-5.8399624E-4],"split_indices":[38,17,50,0,52,0,0,0,0],"split_type":[0,0,0,0,0,0,0,0,0],"sum_hessian":[7.05E2,6.58E2,4.7E1,4.4E1,6.14E2,2E1,2.7E1,2.12E2,4.02E2],"tree_param":{"num_deleted":"0","num_feature":"60","num_nodes":"9","size_leaf_vector":"1"}},{"base_weights":[1.2474951E-3,-3.2424196E-3,7.706898E-2,2.001793E-3,-3.7964698E-2,6.326397E-3,-0E0,1.4603413E-3,-2.4932527E-4,-2.8637792E-3,-0E0],"categories":[],"categories_nodes":[],"categories_segments":[],"categories_sizes":[],"default_left":[0,0,0,0,0,0,0,0,0,0,0],"id":7,"left_children":[1,3,5,7,9,-1,-1,-1,-1,-1,-1],"loss_changes":[2.791198E-1,1.3940606E-1,1.4301944E-1,1.2038782E-1,7.566117E-2,0E0,0E0,0E0,0E0,0E0,0E0],"parents":[2147483647,0,0,1,1,2,2,3,3,4,4],"right_children":[2,4,6,8,10,-1,-1,-1,-1,-1,-1],"split_conditions":[1.9343843E-1,2.4676224E-2,4.530883E-2,-9.09091E-1,-4.09091E-1,6.326397E-3,-0E0,1.4603413E-3,-2.4932527E-4,-2.8637792E-3,-0E0],"split_indices":[38,42,50,19,19,0,0,0,0,0,0],"split_type":[0,0,0,0,0,0,0,0,0,0,0],"sum_hessian":[7.08E2,6.64E2,4.4E1,5.66E2,9.8E1,2.4E1,2E1,1.29E2,4.37E2,6.5E1,3.3E1],"tree_param":{"num_deleted":"0","num_feature":"60","num_nodes":"11","size_leaf_vector":"1"}},{"base_weights":[8.753286E-4,5.633071E-2,-2.665667E-3,6.9667E-3,-1.9729203E-4,-1.74493E-2,5.61363E-4,1.5575298E-3,-1.1660178E-3],"categories":[],"categories_nodes":[],"categories_segments":[],"categories_sizes":[],"default_left":[0,0,0,0,0,0,0,0,0],"id":8,"left_children":[1,3,5,-1,-1,7,-1,-1,-1],"loss_changes":[1.659645E-1,3.239544E-1,1.3864811E-1,0E0,0E0,9.36949E-2,0E0,0E0,0E0],"parents":[2147483647,0,0,1,1,2,2,5,5],"right_children":[2,4,6,-1,-1,8,-1,-1,-1],"split_conditions":[-7.8868E-2,4.7620893E-2,-5.34884E-1,6.9667E-3,-1.9729203E-4,-9.640276E-2,5.61363E-4,1.5575298E-3,-1.1660178E-3],"split_indices":[15,50,20,0,0,31,0,0,0],"split_type":[0,0,0,0,0,0,0,0,0],"sum_hessian":[7.05E2,4.9E1,6.56E2,2.3E1,2.6E1,3.35E2,3.21E2,2.6E1,3.09E2],"tree_param":{"num_deleted":"0","num_feature":"60","num_nodes":"9","size_leaf_vector":"1"}},{"base_weights":[-0E0,-4.0175896E-3,3.8499068E-3,3.9291818E-2,-1.1175848E-2,3.677047E-3,-0E0,-8.504513E-4,1.976776E-4],"categories":[],"categories_nodes":[],"categories_segments":[],"categories_sizes":[],"default_left":[0,0,0,0,0,0,0,0,0],"id":9,"left_children":[1,3,-1,5,7,-1,-1,-1,-1],"loss_changes":[2.4196972E-1,1.9329351E-1,0E0,8.510381E-2,5.8113426E-2,0E0,0E0,0E0,0E0],"parents":[2147483647,0,0,1,1,3,3,4,4],"right_children":[2,4,-1,6,8,-1,-1,-1,-1],"split_conditions":[1.0518E0,2.13013E-1,3.8499068E-3,0E0,3.54857E-1,3.677047E-3,-0E0,-8.504513E-4,1.976776E-4],"split_indices":[54,56,0,1,52,0,0,0,0],"split_type":[0,0,0,0,0,0,0,0,0],"sum_hessian":[7.01E2,6.64E2,3.7E1,8.3E1,5.81E2,3.8E1,4.5E1,4.43E2,1.38E2],"tree_param":{"num_deleted":"0","num_feature":"60","num_nodes":"9","size_leaf_vector":"1"}},{"base_weights":[-4.4068412E-4,-3.7377572E-3,2.4261235E-3,-0E0,-3.8848564E-3,-2.5951638E-4,1.2429625E-3],"categories":[],"categories_nodes":[],"categories_segments":[],"categories_sizes":[],"default_left":[0,0,0,0,0,0,0],"id":10,"left_children":[1,3,-1,5,-1,-1,-1],"loss_changes":[9.4203636E-2,1.5341078E-1,0E0,7.637413E-2,0E0,0E0,0E0],"parents":[2147483647,0,0,1,1,3,3],"right_children":[2,4,-1,6,-1,-1,-1],"split_conditions":[2.2022301E-1,2.52174E-1,2.4261235E-3,6E-1,-3.8848564E-3,-2.5951638E-4,1.2429625E-3],"split_indices":[38,57,0,27,0,0,0],"split_type":[0,0,0,0,0,0,0],"sum_hessian":[7.18E2,6.84E2,3.4E1,6.59E2,2.5E1,5.62E2,9.7E1],"tree_param":{"num_deleted":"0","num_feature":"60","num_nodes":"7","size_leaf_vector":"1"}},{"base_weights":[2.8905363E-3,3.3506516E-2,-8.255953E-3,1.3331235E-2,9.306745E-2,-9.415634E-4,2.0355312E-4,-7.6599716E-4,1.9241764E-3,7.42991E-3,6.5025466E-5],"categories":[],"categories_nodes":[],"categories_segments":[],"categories_sizes":[],"default_left":[0,0,0,0,0,0,0,0,0,0,0],"id":11,"left_children":[1,3,5,7,9,-1,-1,-1,-1,-1,-1],"loss_changes":[2.530848E-1,1.8465097E-1,7.336627E-2,1.2662247E-1,1.4888313E-1,0E0,0E0,0E0,0E0,0E0,0E0],"parents":[2147483647,0,0,1,1,2,2,3,3,4,4],"right_children":[2,4,6,8,10,-1,-1,-1,-1,-1,-1],"split_conditions":[-9.09091E-1,1.32446E-1,-4.4186E-1,-1.5E-1,3.8895074E-2,-9.415634E-4,2.0355312E-4,-7.6599716E-4,1.9241764E-3,7.42991E-3,6.5025466E-5],"split_indices":[19,45,19,18,50,0,0,0,0,0,0],"split_type":[0,0,0,0,0,0,0,0,0,0,0],"sum_hessian":[7.01E2,1.98E2,5.03E2,1.56E2,4.2E1,2.92E2,2.11E2,6.4E1,9.2E1,2.2E1,2E1],"tree_param":{"num_deleted":"0","num_feature":"60","num_nodes":"11","size_leaf_vector":"1"}},{"base_weights":[6.690264E-4,3.4696165E-2,-3.046907E-3,2.8935352E-3,-0E0,-1.2015464E-2,1.9808099E-2,-7.693759E-4,1.1715841E-3,-1.8355454E-3,2.6793808E-3],"categories":[],"categories_nodes":[],"categories_segments":[],"categories_sizes":[],"default_left":[0,0,0,0,0,0,0,0,0,0,0],"id":12,"left_children":[1,3,5,-1,-1,7,9,-1,-1,-1,-1],"loss_changes":[1.066954E-1,8.977283E-2,1.2673971E-1,0E0,0E0,5.3236574E-2,3.2547912E-1,0E0,0E0,0E0,0E0],"parents":[2147483647,0,0,1,1,2,2,5,5,6,6],"right_children":[2,4,6,-1,-1,8,10,-1,-1,-1,-1],"split_conditions":[2.13013E-1,3.93782E-2,3E-1,2.8935352E-3,-0E0,4.69794E-1,-9.09091E-1,-7.693759E-4,1.1715841E-3,-1.8355454E-3,2.6793808E-3],"split_indices":[56,49,27,0,0,52,20,0,0,0,0],"split_type":[0,0,0,0,0,0,0,0,0,0,0],"sum_hessian":[7.15E2,8.2E1,6.33E2,5.5E1,2.7E1,4.71E2,1.62E2,4.44E2,2.7E1,5.5E1,1.07E2],"tree_param":{"num_deleted":"0","num_feature":"60","num_nodes":"11","size_leaf_vector":"1"}},{"base_weights":[-1.1409863E-3,-5.486404E-3,3.807726E-2,-5.2464813E-2,-1.06671425E-4,5.5306028E-3,-0E0,-0E0,-4.1063647E-3,1.6706536E-3,-4.4514012E-4],"categories":[],"categories_nodes":[],"categories_segments":[],"categories_sizes":[],"default_left":[0,0,0,0,0,0,0,0,0,0,0],"id":13,"left_children":[1,3,5,7,9,-1,-1,-1,-1,-1,-1],"loss_changes":[1.0239363E-1,1.3494562E-1,1.9731271E-1,8.1928015E-2,1.6052872E-1,0E0,0E0,0E0,0E0,0E0,0E0],"parents":[2147483647,0,0,1,1,2,2,3,3,4,4],"right_children":[2,4,6,8,10,-1,-1,-1,-1,-1,-1],"split_conditions":[3.28077E-1,-9.09091E-1,-9.44444E-1,-8.478E-3,-9.09091E-1,5.5306028E-3,-0E0,-0E0,-4.1063647E-3,1.6706536E-3,-4.4514012E-4],"split_indices":[11,20,19,45,19,0,0,0,0,0,0],"split_type":[0,0,0,0,0,0,0,0,0,0,0],"sum_hessian":[6.92E2,6.36E2,5.6E1,5.4E1,5.82E2,2.1E1,3.5E1,2.1E1,3.3E1,1.08E2,4.74E2],"tree_param":{"num_deleted":"0","num_feature":"60","num_nodes":"11","size_leaf_vector":"1"}},{"base_weights":[-0E0,-3.4418083E-3,2.7575523E-3,-3.4750719E-3,-0E0,7.185405E-4,-4.1319124E-4],"categories":[],"categories_nodes":[],"categories_segments":[],"categories_sizes":[],"default_left":[0,0,0,0,0,0,0],"id":14,"left_children":[1,3,-1,-1,5,-1,-1],"loss_changes":[1.112933E-1,1.4186634E-1,0E0,0E0,7.49476E-2,0E0,0E0],"parents":[2147483647,0,0,1,1,4,4],"right_children":[2,4,-1,-1,6,-1,-1],"split_conditions":[2.1548334E-1,-7.9832E-1,2.7575523E-3,-3.4750719E-3,1.96536E-1,7.185405E-4,-4.1319124E-4],"split_indices":[38,17,0,0,52,0,0],"split_type":[0,0,0,0,0,0,0],"sum_hessian":[6.95E2,6.63E2,3.2E1,2.9E1,6.34E2,2.25E2,4.09E2],"tree_param":{"num_deleted":"0","num_feature":"60","num_nodes":"7","size_leaf_vector":"1"}},{"base_weights":[-3.0037304E-4,2.7905062E-2,-5.049326E-3,2.877631E-3,-0E0,-9.106439E-3,2.0359927E-3,-7.8062195E-4,3.6467984E-4],"categories":[],"categories_nodes":[],"categories_segments":[],"categories_sizes":[],"default_left":[0,0,0,0,0,0,0,0,0],"id":15,"left_children":[1,3,5,-1,-1,7,-1,-1,-1],"loss_changes":[8.167871E-2,9.611403E-2,9.820626E-2,0E0,0E0,6.541878E-2,0E0,0E0,0E0],"parents":[2147483647,0,0,1,1,2,2,5,5],"right_children":[2,4,6,-1,-1,8,-1,-1,-1],"split_conditions":[2.14221E-1,3E-1,1.8002628E-1,2.877631E-3,-0E0,3.54857E-1,2.0359927E-3,-7.8062195E-4,3.6467984E-4],"split_indices":[56,1,38,0,0,52,0,0,0],"split_type":[0,0,0,0,0,0,0,0,0],"sum_hessian":[6.91E2,8.3E1,6.08E2,4.7E1,3.6E1,5.7E2,3.8E1,4.3E2,1.4E2],"tree_param":{"num_deleted":"0","num_feature":"60","num_nodes":"9","size_leaf_vector":"1"}},{"base_weights":[3.0532994E-3,-1.4416412E-3,7.805664E-2,-2.4140507E-3,1.4179794E-3,6.2700897E-3,-0E0,1.9623155E-3,-1.5280664E-4],"categories":[],"categories_nodes":[],"categories_segments":[],"categories_sizes":[],"default_left":[0,0,0,0,0,0,0,0,0],"id":16,"left_children":[1,3,5,-1,7,-1,-1,-1,-1],"loss_changes":[2.6913327E-1,1.094258E-1,1.18962556E-1,0E0,1.1920689E-1,0E0,0E0,0E0,0E0],"parents":[2147483647,0,0,1,1,2,2,4,4],"right_children":[2,4,6,-1,8,-1,-1,-1,-1],"split_conditions":[1.9343843E-1,-6.4096E-1,-8.29787E-1,-2.4140507E-3,2.13013E-1,6.2700897E-3,-0E0,1.9623155E-3,-1.5280664E-4],"split_indices":[38,17,20,0,56,0,0,0,0],"split_type":[0,0,0,0,0,0,0,0,0],"sum_hessian":[6.82E2,6.39E2,4.3E1,4.5E1,5.94E2,2.3E1,2E1,7.3E1,5.21E2],"tree_param":{"num_deleted":"0","num_feature":"60","num_nodes":"9","size_leaf_vector":"1"}},{"base_weights":[-6.7465333E-4],"categories":[],"categories_nodes":[],"categories_segments":[],"categories_sizes":[],"default_left":[0],"id":17,"left_children":[-1],"loss_changes":[0E0],"parents":[2147483647],"right_children":[-1],"split_conditions":[-3.3732667E-5],"split_indices":[0],"split_type":[0],"sum_hessian":[6.77E2],"tree_param":{"num_deleted":"0","num_feature":"60","num_nodes":"1","size_leaf_vector":"1"}},{"base_weights":[-0E0,3.3649176E-2,-4.3429513E-3,3.0952052E-3,-0E0,-3.791598E-2,-4.7591314E-4,-0E0,-3.407032E-3,2.4155853E-3,-4.148051E-4],"categories":[],"categories_nodes":[],"categories_segments":[],"categories_sizes":[],"default_left":[0,0,0,0,0,0,0,0,0,0,0],"id":18,"left_children":[1,3,5,-1,-1,7,9,-1,-1,-1,-1],"loss_changes":[9.799145E-2,8.2560904E-2,6.294921E-2,0E0,0E0,6.4538084E-2,2.0322485E-1,0E0,0E0,0E0,0E0],"parents":[2147483647,0,0,1,1,2,2,5,5,6,6],"right_children":[2,4,6,-1,-1,8,10,-1,-1,-1,-1],"split_conditions":[2.10727E-1,8.2795E-2,-9.5E-1,3.0952052E-3,-0E0,3.3333334E-1,-9.48718E-1,-0E0,-3.407032E-3,2.4155853E-3,-4.148051E-4],"split_indices":[56,5,20,0,0,44,19,0,0,0,0],"split_type":[0,0,0,0,0,0,0,0,0,0,0],"sum_hessian":[7.05E2,7.4E1,6.31E2,4.2E1,3.2E1,5E1,5.81E2,2.2E1,2.8E1,7E1,5.11E2],"tree_param":{"num_deleted":"0","num_feature":"60","num_nodes":"11","size_leaf_vector":"1"}},{"base_weights":[1.240511E-3,-6.845738E-3,1.4835737E-2,-2.611782E-5,-4.937706E-3,5.0424947E-5,5.3025465E-3],"categories":[],"categories_nodes":[],"categories_segments":[],"categories_sizes":[],"default_left":[0,0,0,0,0,0,0],"id":19,"left_children":[1,3,5,-1,-1,-1,-1],"loss_changes":[8.181179E-2,1.9493192E-1,3.0823633E-1,0E0,0E0,0E0,0E0],"parents":[2147483647,0,0,1,1,2,2],"right_children":[2,4,6,-1,-1,-1,-1],"split_conditions":[9.870747E-2,7.2264284E-2,6.9717E1,-2.611782E-5,-4.937706E-3,5.0424947E-5,5.3025465E-3],"split_indices":[35,43,53,0,0,0,0],"split_type":[0,0,0,0,0,0,0],"sum_hessian":[7.04E2,4.19E2,2.85E2,3.99E2,2E1,2.54E2,3.1E1],"tree_param":{"num_deleted":"0","num_feature":"60","num_nodes":"7","size_leaf_vector":"1"}},{"base_weights":[-0E0,3.126212E-2,-6.7808963E-3,-0E0,9.666306E-2,-7.353413E-4,2.3290724E-4,8.034243E-3,5.632202E-5],"categories":[],"categories_nodes":[],"categories_segments":[],"categories_sizes":[],"default_left":[0,0,0,0,0,0,0,0,0],"id":20,"left_children":[1,3,5,-1,7,-1,-1,-1,-1],"loss_changes":[1.5134014E-1,2.6831776E-1,5.883505E-2,0E0,1.7562222E-1,0E0,0E0,0E0,0E0],"parents":[2147483647,0,0,1,1,2,2,4,4],"right_children":[2,4,6,-1,8,-1,-1,-1,-1],"split_conditions":[-9.45946E-1,1.198814E-1,-4.4186E-1,-0E0,5.6341475E-1,-7.353413E-4,2.3290724E-4,8.034243E-3,5.632202E-5],"split_indices":[19,35,19,0,35,0,0,0,0],"split_type":[0,0,0,0,0,0,0,0,0],"sum_hessian":[7.15E2,1.25E2,5.9E2,8.5E1,4E1,3.74E2,2.16E2,2E1,2E1],"tree_param":{"num_deleted":"0","num_feature":"60","num_nodes":"9","size_leaf_vector":"1"}},{"base_weights":[1.996395E-3,-1.1077763E-3,3.5974127E-3,1.6968438E-2,-1.16741415E-2,2.400934E-3,2.5816108E-4,-3.5539593E-3,-3.6787463E-4],"categories":[],"categories_nodes":[],"categories_segments":[],"categories_sizes":[],"default_left":[0,0,0,0,0,0,0,0,0],"id":21,"left_children":[1,3,-1,5,7,-1,-1,-1,-1],"loss_changes":[1.8953371E-1,1.2648295E-1,0E0,5.795391E-2,7.359098E-2,0E0,0E0,0E0,0E0],"parents":[2147483647,0,0,1,1,3,3,4,4],"right_children":[2,4,-1,6,8,-1,-1,-1,-1],"split_conditions":[2.2022301E-1,1.96536E-1,3.5974127E-3,-9.48718E-1,-9.55556E-1,2.400934E-3,2.5816108E-4,-3.5539593E-3,-3.6787463E-4],"split_indices":[38,52,0,19,19,0,0,0,0],"split_type":[0,0,0,0,0,0,0,0,0],"sum_hessian":[7.07E2,6.72E2,3.5E1,2.3E2,4.42E2,5E1,1.8E2,2E1,4.22E2],"tree_param":{"num_deleted":"0","num_feature":"60","num_nodes":"9","size_leaf_vector":"1"}},{"base_weights":[-2.3289262E-3,-4.3492615E-2,8.353035E-4,-0E0,-4.6389867E-3,3.188166E-3,-5.567534E-3,1.0888069E-3,-5.3525774E-4],"categories":[],"categories_nodes":[],"categories_segments":[],"categories_sizes":[],"default_left":[0,0,0,0,0,0,0,0,0],"id":22,"left_children":[1,3,5,-1,-1,-1,7,-1,-1],"loss_changes":[1.1023274E-1,1.2752974E-1,2.8122866E-1,0E0,0E0,0E0,7.374082E-2,0E0,0E0],"parents":[2147483647,0,0,1,1,2,2,6,6],"right_children":[2,4,6,-1,-1,-1,8,-1,-1],"split_conditions":[-9.09091E-1,2E0,-9.48718E-1,-0E0,-4.6389867E-3,3.188166E-3,2.14221E-1,1.0888069E-3,-5.3525774E-4],"split_indices":[20,39,19,0,0,0,56,0,0],"split_type":[0,0,0,0,0,0,0,0,0],"sum_hessian":[6.8E2,5.8E1,6.22E2,3.2E1,2.6E1,6.3E1,5.59E2,7.2E1,4.87E2],"tree_param":{"num_deleted":"0","num_feature":"60","num_nodes":"9","size_leaf_vector":"1"}},{"base_weights":[-3.8771582E-4],"categories":[],"categories_nodes":[],"categories_segments":[],"categories_sizes":[],"default_left":[0],"id":23,"left_children":[-1],"loss_changes":[0E0],"parents":[2147483647],"right_children":[-1],"split_conditions":[-1.938579E-5],"split_indices":[0],"split_type":[0],"sum_hessian":[7.22E2],"tree_param":{"num_deleted":"0","num_feature":"60","num_nodes":"1","size_leaf_vector":"1"}},{"base_weights":[1.1487036E-3,2.5291548E-3,-5.4302214E-5],"categories":[],"categories_nodes":[],"categories_segments":[],"categories_sizes":[],"default_left":[0,0,0],"id":24,"left_children":[1,-1,-1],"loss_changes":[9.9648885E-2,0E0,0E0],"parents":[2147483647,0,0],"right_children":[2,-1,-1],"split_conditions":[-7.8868E-2,2.5291548E-3,-5.4302214E-5],"split_indices":[15,0,0],"split_type":[0,0,0],"sum_hessian":[6.75E2,3.7E1,6.38E2],"tree_param":{"num_deleted":"0","num_feature":"60","num_nodes":"3","size_leaf_vector":"1"}},{"base_weights":[1.8684746E-3,1.78168E-3,-1.2883028E-3,-4.267958E-3,1.7732878E-3,-2.6102678E-3,-4.2040934E-5],"categories":[],"categories_nodes":[],"categories_segments":[],"categories_sizes":[],"default_left":[0,0,0,0,0,0,0],"id":25,"left_children":[1,-1,3,5,-1,-1,-1],"loss_changes":[9.379535E-2,0E0,5.5340637E-2,7.376918E-2,0E0,0E0,0E0],"parents":[2147483647,0,0,2,2,3,3],"right_children":[2,-1,4,6,-1,-1,-1],"split_conditions":[2.13013E-1,1.78168E-3,2.0753656E-1,-7.9832E-1,1.7732878E-3,-2.6102678E-3,-4.2040934E-5],"split_indices":[56,0,38,17,0,0,0],"split_type":[0,0,0,0,0,0,0],"sum_hessian":[7.16E2,7.3E1,6.43E2,6.09E2,3.4E1,2.9E1,5.8E2],"tree_param":{"num_deleted":"0","num_feature":"60","num_nodes":"7","size_leaf_vector":"1"}},{"base_weights":[-7.6165795E-4,-3.6473556E-3,1.9747308E-3,-3.7395836E-5,-3.2533805E-3],"categories":[],"categories_nodes":[],"categories_segments":[],"categories_sizes":[],"default_left":[0,0,0,0,0],"id":26,"left_children":[1,3,-1,-1,-1],"loss_changes":[6.298467E-2,8.4708616E-2,0E0,0E0,0E0],"parents":[2147483647,0,0,1,1],"right_children":[2,4,-1,-1,-1],"split_conditions":[1.9343843E-1,6.611518E-2,1.9747308E-3,-3.7395836E-5,-3.2533805E-3],"split_indices":[38,42,0,0,0],"split_type":[0,0,0,0,0],"sum_hessian":[6.92E2,6.59E2,3.3E1,6.39E2,2E1],"tree_param":{"num_deleted":"0","num_feature":"60","num_nodes":"5","size_leaf_vector":"1"}},{"base_weights":[-3.489814E-4,1.2150564E-3,-1.9061947E-3,-1.6272749E-3,5.396952E-3,-6.0507277E-4,4.2797189E-4],"categories":[],"categories_nodes":[],"categories_segments":[],"categories_sizes":[],"default_left":[0,0,0,0,0,0,0],"id":27,"left_children":[1,3,-1,5,-1,-1,-1],"loss_changes":[6.0494855E-2,2.570516E-1,0E0,7.1438216E-2,0E0,0E0,0E0],"parents":[2147483647,0,0,1,1,3,3],"right_children":[2,4,-1,6,-1,-1,-1],"split_conditions":[2.46759E-1,1.1957E0,-1.9061947E-3,-5.31915E-1,5.396952E-3,-6.0507277E-4,4.2797189E-4],"split_indices":[45,54,0,20,0,0,0],"split_type":[0,0,0,0,0,0,0],"sum_hessian":[7.08E2,6.69E2,3.9E1,6.49E2,2E1,3.44E2,3.05E2],"tree_param":{"num_deleted":"0","num_feature":"60","num_nodes":"7","size_leaf_vector":"1"}},{"base_weights":[-0E0,2.5398554E-2,-2.8225908E-3,3.197937E-3,-0E0,-1.1929186E-2,8.649367E-3,-1.9193708E-4,-2.862212E-3,3.5143078E-3,-2.3807642E-4],"categories":[],"categories_nodes":[],"categories_segments":[],"categories_sizes":[],"default_left":[0,0,0,0,0,0,0,0,0,0,0],"id":28,"left_children":[1,3,5,-1,-1,7,9,-1,-1,-1,-1],"loss_changes":[5.6578342E-2,8.338685E-2,6.703585E-2,0E0,0E0,1.05767876E-1,2.4256258E-1,0E0,0E0,0E0,0E0],"parents":[2147483647,0,0,1,1,2,2,5,5,6,6],"right_children":[2,4,6,-1,-1,8,10,-1,-1,-1,-1],"split_conditions":[2.13013E-1,0E0,1.1026234E-1,3.197937E-3,-0E0,6.05026E1,-7.3913E-1,-1.9193708E-4,-2.862212E-3,3.5143078E-3,-2.3807642E-4],"split_indices":[56,1,35,0,0,53,20,0,0,0,0],"split_type":[0,0,0,0,0,0,0,0,0,0,0],"sum_hessian":[7E2,7.8E1,6.22E2,3.1E1,4.7E1,3.71E2,2.51E2,3.26E2,4.5E1,5E1,2.01E2],"tree_param":{"num_deleted":"0","num_feature":"60","num_nodes":"11","size_leaf_vector":"1"}},{"base_weights":[-0E0,-1.963202E-3,3.1512722E-2,-1.1251292E-2,6.2557673E-3,2.9769863E-3,-0E0,1.0195837E-3,-8.689221E-4,-0E0,3.3020345E-3],"categories":[],"categories_nodes":[],"categories_segments":[],"categories_sizes":[],"default_left":[0,0,0,0,0,0,0,0,0,0,0],"id":29,"left_children":[1,3,5,7,9,-1,-1,-1,-1,-1,-1],"loss_changes":[5.419785E-2,5.3327315E-2,5.4710675E-2,6.531562E-2,1.0067693E-1,0E0,0E0,0E0,0E0,0E0,0E0],"parents":[2147483647,0,0,1,1,2,2,3,3,4,4],"right_children":[2,4,6,8,10,-1,-1,-1,-1,-1,-1],"split_conditions":[3.69887E-1,-6.924399E-4,-5.13514E-1,2.10727E-1,1.2399E0,2.9769863E-3,-0E0,1.0195837E-3,-8.689221E-4,-0E0,3.3020345E-3],"split_indices":[17,35,20,56,54,0,0,0,0,0,0],"split_type":[0,0,0,0,0,0,0,0,0,0,0],"sum_hessian":[7.12E2,6.62E2,5E1,3.39E2,3.23E2,2.8E1,2.2E1,4.1E1,2.98E2,2.99E2,2.4E1],"tree_param":{"num_deleted":"0","num_feature":"60","num_nodes":"11","size_leaf_vector":"1"}},{"base_weights":[-0E0,-3.6323378E-3,4.4969685E-2,9.5598196E-4,-3.8813156E-4,4.6120817E-3,-0E0],"categories":[],"categories_nodes":[],"categories_segments":[],"categories_sizes":[],"default_left":[0,0,0,0,0,0,0],"id":30,"left_children":[1,3,5,-1,-1,-1,-1],"loss_changes":[1.0565829E-1,5.579432E-2,1.3266093E-1,0E0,0E0,0E0,0E0],"parents":[2147483647,0,0,1,1,2,2],"right_children":[2,4,6,-1,-1,-1,-1],"split_conditions":[1.7134306E-1,2.14221E-1,2.39219E-1,9.5598196E-4,-3.8813156E-4,4.6120817E-3,-0E0],"split_indices":[38,56,45,0,0,0,0],"split_type":[0,0,0,0,0,0,0],"sum_hessian":[6.95E2,6.49E2,4.6E1,8E1,5.69E2,2.5E1,2.1E1],"tree_param":{"num_deleted":"0","num_feature":"60","num_nodes":"7","size_leaf_vector":"1"}},{"base_weights":[8.710676E-4,2.1072438E-3,-2.794924E-4,-8.272493E-3,1.1824225E-2,-0E0,-1.3523449E-3,-3.104018E-4,1.9388493E-3],"categories":[],"categories_nodes":[],"categories_segments":[],"categories_sizes":[],"default_left":[0,0,0,0,0,0,0,0,0],"id":31,"left_children":[1,-1,3,5,7,-1,-1,-1,-1],"loss_changes":[5.4577753E-2,0E0,6.410964E-2,6.386758E-2,1.3632664E-1,0E0,0E0,0E0,0E0],"parents":[2147483647,0,0,2,2,3,3,4,4],"right_children":[2,-1,4,6,8,-1,-1,-1,-1],"split_conditions":[-3.6701772E-2,2.1072438E-3,-2.926E-3,2.6531E-2,1.757784E-2,-0E0,-1.3523449E-3,-3.104018E-4,1.9388493E-3],"split_indices":[42,0,47,55,35,0,0,0,0],"split_type":[0,0,0,0,0,0,0,0,0],"sum_hessian":[7.06E2,2.9E1,6.77E2,4.33E2,2.44E2,3.07E2,1.26E2,1.36E2,1.08E2],"tree_param":{"num_deleted":"0","num_feature":"60","num_nodes":"9","size_leaf_vector":"1"}},{"base_weights":[-4.1583096E-4,-4.6136514E-3,4.4424336E-2,2.630296E-3,-7.4725477E-3,4.192864E-3,-0E0,-2.698702E-3,-1.7795486E-4],"categories":[],"categories_nodes":[],"categories_segments":[],"categories_sizes":[],"default_left":[0,0,0,0,0,0,0,0,0],"id":32,"left_children":[1,3,5,-1,7,-1,-1,-1,-1],"loss_changes":[1.1245448E-1,8.5040405E-2,8.415703E-2,0E0,8.5861415E-2,0E0,0E0,0E0,0E0],"parents":[2147483647,0,0,1,1,2,2,4,4],"right_children":[2,4,6,-1,8,-1,-1,-1,-1],"split_conditions":[1.9343843E-1,-3.6701772E-2,5.86147E-1,2.630296E-3,-9E-1,4.192864E-3,-0E0,-2.698702E-3,-1.7795486E-4],"split_indices":[38,42,56,0,20,0,0,0,0],"split_type":[0,0,0,0,0,0,0,0,0],"sum_hessian":[6.99E2,6.51E2,4.8E1,2.1E1,6.3E2,2.4E1,2.4E1,3.7E1,5.93E2],"tree_param":{"num_deleted":"0","num_feature":"60","num_nodes":"9","size_leaf_vector":"1"}},{"base_weights":[-0E0,3.4959882E-2,-3.6025636E-3,3.9252876E-3,-0E0,-6.6565494E-3,1.9654823E-3,-2.0307312E-3,-1.5312446E-4],"categories":[],"categories_nodes":[],"categories_segments":[],"categories_sizes":[],"default_left":[0,0,0,0,0,0,0,0,0],"id":33,"left_children":[1,3,5,-1,-1,7,-1,-1,-1],"loss_changes":[8.04286E-2,1.18948355E-1,6.8201944E-2,0E0,0E0,5.248362E-2,0E0,0E0,0E0],"parents":[2147483647,0,0,1,1,2,2,5,5],"right_children":[2,4,6,-1,-1,8,-1,-1,-1],"split_conditions":[2.07172E-1,3E-1,2.1548334E-1,3.9252876E-3,-0E0,-9.09091E-1,1.9654823E-3,-2.0307312E-3,-1.5312446E-4],"split_indices":[56,1,38,0,0,20,0,0,0],"split_type":[0,0,0,0,0,0,0,0,0],"sum_hessian":[6.96E2,5.7E1,6.39E2,2.9E1,2.8E1,6.09E2,3E1,4.3E1,5.66E2],"tree_param":{"num_deleted":"0","num_feature":"60","num_nodes":"9","size_leaf_vector":"1"}},{"base_weights":[2.2849422E-3,2.6693003E-2,-1.1912149E-4,5.9973963E-2,-3.1612467E-2,8.931602E-6,8.405069E-3,6.880788E-5,-4.222725E-3],"categories":[],"categories_nodes":[],"categories_segments":[],"categories_sizes":[],"default_left":[0,0,0,0,0,0,0,0,0],"id":34,"left_children":[1,3,-1,5,7,-1,-1,-1,-1],"loss_changes":[9.0090856E-2,2.6441127E-1,0E0,4.7829968E-1,1.1498542E-1,0E0,0E0,0E0,0E0],"parents":[2147483647,0,0,1,1,3,3,4,4],"right_children":[2,4,-1,6,8,-1,-1,-1,-1],"split_conditions":[-9.45946E-1,2.82211E-1,-1.1912149E-4,1.17031E-1,2E0,8.931602E-6,8.405069E-3,6.880788E-5,-4.222725E-3],"split_indices":[19,52,0,45,39,0,0,0,0],"split_type":[0,0,0,0,0,0,0,0,0],"sum_hessian":[6.81E2,1.25E2,5.56E2,8.5E1,4E1,5.9E1,2.6E1,2E1,2E1],"tree_param":{"num_deleted":"0","num_feature":"60","num_nodes":"9","size_leaf_vector":"1"}},{"base_weights":[-4.168191E-4,-3.2951096E-3,3.136736E-3,-2.0155312E-5,-3.194314E-3],"categories":[],"categories_nodes":[],"categories_segments":[],"categories_sizes":[],"default_left":[0,0,0,0,0],"id":35,"left_children":[1,3,-1,-1,-1],"loss_changes":[1.0193048E-1,9.0464704E-2,0E0,0E0,0E0],"parents":[2147483647,0,0,1,1],"right_children":[2,4,-1,-1,-1],"split_conditions":[2.4636331E-1,9.62047E-1,3.136736E-3,-2.0155312E-5,-3.194314E-3],"split_indices":[38,3,0,0,0],"split_type":[0,0,0,0,0],"sum_hessian":[7.2E2,6.98E2,2.2E1,6.76E2,2.2E1],"tree_param":{"num_deleted":"0","num_feature":"60","num_nodes":"5","size_leaf_vector":"1"}},{"base_weights":[1.2954432E-4,1.4884275E-2,-6.207279E-3,9.709346E-6,3.8163175E-3,-1.3069689E-2,5.7403184E-4,-3.9481765E-4,-3.3612307E-3],"categories":[],"categories_nodes":[],"categories_segments":[],"categories_sizes":[],"default_left":[0,0,0,0,0,0,0,0,0],"id":36,"left_children":[1,3,5,-1,-1,7,-1,-1,-1],"loss_changes":[6.884999E-2,1.7020825E-1,5.6808837E-2,0E0,0E0,5.999476E-2,0E0,0E0,0E0],"parents":[2147483647,0,0,1,1,2,2,5,5],"right_children":[2,4,6,-1,-1,8,-1,-1,-1],"split_conditions":[1.96536E-1,1.84902E-1,3.0104265E-1,9.709346E-6,3.8163175E-3,2.39219E-1,5.7403184E-4,-3.9481765E-4,-3.3612307E-3],"split_indices":[52,52,35,0,0,45,0,0,0],"split_type":[0,0,0,0,0,0,0,0,0],"sum_hessian":[6.86E2,2.29E2,4.57E2,1.93E2,3.6E1,3.5E2,1.07E2,3.3E2,2E1],"tree_param":{"num_deleted":"0","num_feature":"60","num_nodes":"9","size_leaf_vector":"1"}},{"base_weights":[4.65565E-4,-1.2608456E-3,3.8331985E-2,-0E0,-2.7102097E-3,4.511122E-3,-0E0,1.4269502E-4,-1.8055255E-3],"categories":[],"categories_nodes":[],"categories_segments":[],"categories_sizes":[],"default_left":[0,0,0,0,0,0,0,0,0],"id":37,"left_children":[1,3,5,7,-1,-1,-1,-1,-1],"loss_changes":[6.5570034E-2,6.650152E-2,1.2257104E-1,5.459242E-2,0E0,0E0,0E0,0E0,0E0],"parents":[2147483647,0,0,1,1,2,2,3,3],"right_children":[2,4,6,8,-1,-1,-1,-1,-1],"split_conditions":[1.9343843E-1,1.3520949E-1,4.4401057E-2,3E-1,-2.7102097E-3,4.511122E-3,-0E0,1.4269502E-4,-1.8055255E-3],"split_indices":[38,38,50,7,0,0,0,0,0],"split_type":[0,0,0,0,0,0,0,0,0],"sum_hessian":[7.16E2,6.74E2,4.2E1,6.53E2,2.1E1,2.1E1,2.1E1,6.17E2,3.6E1],"tree_param":{"num_deleted":"0","num_feature":"60","num_nodes":"9","size_leaf_vector":"1"}},{"base_weights":[2.461941E-4,-2.8436072E-4,1.893905E-2,4.11986E-2,-5.7983887E-3,-0E0,3.8318278E-3,5.6183786E-4,-3.83905E-3],"categories":[],"categories_nodes":[],"categories_segments":[],"categories_sizes":[],"default_left":[0,0,0,0,0,0,0,0,0],"id":38,"left_children":[1,-1,3,5,7,-1,-1,-1,-1],"loss_changes":[8.6587325E-2,0E0,1.2500286E-1,1.9583099E-1,1.3486119E-1,0E0,0E0,0E0,0E0],"parents":[2147483647,0,0,2,2,3,3,4,4],"right_children":[2,-1,4,6,8,-1,-1,-1,-1],"split_conditions":[3E-1,-2.8436072E-4,5.60813E-1,6E-1,2.26982E-1,-0E0,3.8318278E-3,5.6183786E-4,-3.83905E-3],"split_indices":[27,0,56,27,45,0,0,0,0],"split_type":[0,0,0,0,0,0,0,0,0],"sum_hessian":[7.17E2,5.25E2,1.92E2,1.11E2,8.1E1,4.7E1,6.4E1,6.1E1,2E1],"tree_param":{"num_deleted":"0","num_feature":"60","num_nodes":"9","size_leaf_vector":"1"}},{"base_weights":[2.4346719E-3,-0E0,3.0506437E-3],"categories":[],"categories_nodes":[],"categories_segments":[],"categories_sizes":[],"default_left":[0,0,0],"id":39,"left_children":[1,-1,-1],"loss_changes":[8.5453175E-2,0E0,0E0],"parents":[2147483647,0,0],"right_children":[2,-1,-1],"split_conditions":[2.4636331E-1,-0E0,3.0506437E-3],"split_indices":[38,0,0],"split_type":[0,0,0],"sum_hessian":[6.54E2,6.32E2,2.2E1],"tree_param":{"num_deleted":"0","num_feature":"60","num_nodes":"3","size_leaf_vector":"1"}},{"base_weights":[-0E0,-1.7775358E-3,2.0007002E-3,1.1306795E-3,-1.5974237E-3,2.3326818E-4,-1.607115E-3],"categories":[],"categories_nodes":[],"categories_segments":[],"categories_sizes":[],"default_left":[0,0,0,0,0,0,0],"id":40,"left_children":[1,3,-1,5,-1,-1,-1],"loss_changes":[6.295636E-2,7.41816E-2,0E0,5.67743E-2,0E0,0E0,0E0],"parents":[2147483647,0,0,1,1,3,3],"right_children":[2,4,-1,6,-1,-1,-1],"split_conditions":[2.2022301E-1,1.35175E-1,2.0007002E-3,3E-1,-1.5974237E-3,2.3326818E-4,-1.607115E-3],"split_indices":[38,57,0,7,0,0,0],"split_type":[0,0,0,0,0,0,0],"sum_hessian":[7.03E2,6.67E2,3.6E1,5.95E2,7.2E1,5.53E2,4.2E1],"tree_param":{"num_deleted":"0","num_feature":"60","num_nodes":"7","size_leaf_vector":"1"}},{"base_weights":[-0E0],"categories":[],"categories_nodes":[],"categories_segments":[],"categories_sizes":[],"default_left":[0],"id":41,"left_children":[-1],"loss_changes":[0E0],"parents":[2147483647],"right_children":[-1],"split_conditions":[-0E0],"split_indices":[0],"split_type":[0],"sum_hessian":[6.88E2],"tree_param":{"num_deleted":"0","num_feature":"60","num_nodes":"1","size_leaf_vector":"1"}},{"base_weights":[-0E0,-2.6186956E-3,2.3588678E-3,-0E0,-1.8837815E-3],"categories":[],"categories_nodes":[],"categories_segments":[],"categories_sizes":[],"default_left":[0,0,0,0,0],"id":42,"left_children":[1,3,-1,-1,-1],"loss_changes":[7.3584504E-2,5.502931E-2,0E0,0E0,0E0],"parents":[2147483647,0,0,1,1],"right_children":[2,4,-1,-1,-1],"split_conditions":[2.1548334E-1,8.83402E-1,2.3588678E-3,-0E0,-1.8837815E-3],"split_indices":[38,6,0,0,0],"split_type":[0,0,0,0,0],"sum_hessian":[6.96E2,6.67E2,2.9E1,6.27E2,4E1],"tree_param":{"num_deleted":"0","num_feature":"60","num_nodes":"5","size_leaf_vector":"1"}},{"base_weights":[-8.941554E-5,-2.2099008E-4,2.3274373E-2,4.3461695E-3,-0E0],"categories":[],"categories_nodes":[],"categories_segments":[],"categories_sizes":[],"default_left":[0,0,0,0,0],"id":43,"left_children":[1,-1,3,-1,-1],"loss_changes":[6.0487494E-2,0E0,1.6280624E-1,0E0,0E0],"parents":[2147483647,0,0,2,2],"right_children":[2,-1,4,-1,-1],"split_conditions":[1.57898E-1,-2.2099008E-4,-8.71587E-1,4.3461695E-3,-0E0],"split_indices":[46,0,17,0,0],"split_type":[0,0,0,0,0],"sum_hessian":[6.87E2,5.99E2,8.8E1,2.6E1,6.2E1],"tree_param":{"num_deleted":"0","num_feature":"60","num_nodes":"5","size_leaf_vector":"1"}},{"base_weights":[1.0154289E-3],"categories":[],"categories_nodes":[],"categories_segments":[],"categories_sizes":[],"default_left":[0],"id":44,"left_children":[-1],"loss_changes":[0E0],"parents":[2147483647],"right_children":[-1],"split_conditions":[5.0771447E-5],"split_indices":[0],"split_type":[0],"sum_hessian":[6.66E2],"tree_param":{"num_deleted":"0","num_feature":"60","num_nodes":"1","size_leaf_vector":"1"}},{"base_weights":[-1.3601895E-3,4.6840374E-4,-1.9962331E-3,-1.4549014E-3,4.3253815E-3,2.027367E-3,-0E0],"categories":[],"categories_nodes":[],"categories_segments":[],"categories_sizes":[],"default_left":[0,0,0,0,0,0,0],"id":45,"left_children":[1,3,-1,-1,5,-1,-1],"loss_changes":[6.898761E-2,6.267371E-2,0E0,0E0,9.898458E-2,0E0,0E0],"parents":[2147483647,0,0,1,1,4,4],"right_children":[2,4,-1,-1,6,-1,-1],"split_conditions":[3E-1,-9.09091E-1,-1.9962331E-3,-1.4549014E-3,-7.3913E-1,2.027367E-3,-0E0],"split_indices":[7,20,0,0,20,0,0],"split_type":[0,0,0,0,0,0,0],"sum_hessian":[6.96E2,6.54E2,4.2E1,5.9E1,5.95E2,6.5E1,5.3E2],"tree_param":{"num_deleted":"0","num_feature":"60","num_nodes":"7","size_leaf_vector":"1"}},{"base_weights":[-5.9107743E-4],"categories":[],"categories_nodes":[],"categories_segments":[],"categories_sizes":[],"default_left":[0],"id":46,"left_children":[-1],"loss_changes":[0E0],"parents":[2147483647],"right_children":[-1],"split_conditions":[-2.9553872E-5],"split_indices":[0],"split_type":[0],"sum_hessian":[7.15E2],"tree_param":{"num_deleted":"0","num_feature":"60","num_nodes":"1","size_leaf_vector":"1"}},{"base_weights":[-1.2015228E-3],"categories":[],"categories_nodes":[],"categories_segments":[],"categories_sizes":[],"default_left":[0],"id":47,"left_children":[-1],"loss_changes":[0E0],"parents":[2147483647],"right_children":[-1],"split_conditions":[-6.0076138E-5],"split_indices":[0],"split_type":[0],"sum_hessian":[7.14E2],"tree_param":{"num_deleted":"0","num_feature":"60","num_nodes":"1","size_leaf_vector":"1"}},{"base_weights":[3.4210242E-3,2.4644878E-2,-7.9972734E-4,6.87139E-2,-9.9726645E-3,-6.445245E-4,3.6197068E-4,5.613388E-4,7.104733E-3,2.0468E-3,-2.067305E-3],"categories":[],"categories_nodes":[],"categories_segments":[],"categories_sizes":[],"default_left":[0,0,0,0,0,0,0,0,0,0,0],"id":48,"left_children":[1,3,5,7,9,-1,-1,-1,-1,-1,-1],"loss_changes":[7.422052E-2,2.3669195E-1,5.7638217E-2,1.9856632E-1,1.1698989E-1,0E0,0E0,0E0,0E0,0E0,0E0],"parents":[2147483647,0,0,1,1,2,2,3,3,4,4],"right_children":[2,4,6,8,10,-1,-1,-1,-1,-1,-1],"split_conditions":[-7.3913E-1,5.60813E-1,-5.31915E-1,-5.864E-3,2.770347E-2,-6.445245E-4,3.6197068E-4,5.613388E-4,7.104733E-3,2.0468E-3,-2.067305E-3],"split_indices":[20,56,20,45,50,0,0,0,0,0,0],"split_type":[0,0,0,0,0,0,0,0,0,0,0],"sum_hessian":[6.93E2,1.33E2,5.6E2,6.4E1,6.9E1,2.48E2,3.12E2,4.1E1,2.3E1,2E1,4.9E1],"tree_param":{"num_deleted":"0","num_feature":"60","num_nodes":"11","size_leaf_vector":"1"}},{"base_weights":[-1.3894733E-3,-0E0,-2.5989616E-3,-2.4733813E-3,4.3972596E-3,1.0064027E-3,-3.2480972E-4],"categories":[],"categories_nodes":[],"categories_segments":[],"categories_sizes":[],"default_left":[0,0,0,0,0,0,0],"id":49,"left_children":[1,3,-1,5,-1,-1,-1],"loss_changes":[6.885392E-2,1.8203183E-1,0E0,5.499933E-2,0E0,0E0,0E0],"parents":[2147483647,0,0,1,1,3,3],"right_children":[2,4,-1,6,-1,-1,-1],"split_conditions":[2.9777E0,1.1957E0,-2.5989616E-3,2.13013E-1,4.3972596E-3,1.0064027E-3,-3.2480972E-4],"split_indices":[54,54,0,56,0,0,0],"split_type":[0,0,0,0,0,0,0],"sum_hessian":[7.2E2,6.96E2,2.4E1,6.75E2,2.1E1,8.2E1,5.93E2],"tree_param":{"num_deleted":"0","num_feature":"60","num_nodes":"7","size_leaf_vector":"1"}}]},"name":"gbtree"},"learner_model_param":{"base_score":"[1.3671377E-2]","boost_from_average":"1","num_class":"0","num_feature":"60","num_target":"1"},"objective":{"name":"reg:squarederror","reg_loss_param":{"scale_pos_weight":"1"}}},"version":[3,2,0]}