{"learner":{"attributes":{"scikit_learn":"{\"_estimator_type\": \"regressor\"}"},"feature_names":["trig_ma60_bias","trig_pos_in_20d","trig_dist_from_high","trig_dist_from_low","trig_vol_change","trig_break_above","trig_break_below","trig_price_trend_10d","trend_dir_ord","trend_phase_ord","trend_short_dir_ord","trend_ma_slope","trend_ret_5d","trend_ma_alignment","tech_rsi14","tech_macd_hist","tech_ma60_bias","tech_volatility_20","tech_momentum_20","tech_vol_ratio"],"feature_types":["float","float","float","float","float","float","float","float","float","float","float","float","float","float","float","float","float","float","float","float"],"gradient_booster":{"model":{"cats":{"enc":[],"feature_segments":[],"sorted_idx":[]},"gbtree_model_param":{"num_parallel_tree":"1","num_trees":"54"},"iteration_indptr":[0,1,2,3,4,5,6,7,8,9,10,11,12,13,14,15,16,17,18,19,20,21,22,23,24,25,26,27,28,29,30,31,32,33,34,35,36,37,38,39,40,41,42,43,44,45,46,47,48,49,50,51,52,53,54],"tree_info":[0,0,0,0,0,0,0,0,0,0,0,0,0,0,0,0,0,0,0,0,0,0,0,0,0,0,0,0,0,0,0,0,0,0,0,0,0,0,0,0,0,0,0,0,0,0,0,0,0,0,0,0,0,0],"trees":[{"base_weights":[-5.6892895E-4,8.8027574E-4,-1.5473046E-3,7.9246087E-4,-6.43869E-3,2.214306E-3,-1.2636379E-2,-0E0,-8.400681E-3,-1.5379097E-5,1.5149958E-4,-5.330193E-4,-0E0,-1.0923074E-5,-3.3625215E-4],"categories":[],"categories_nodes":[],"categories_segments":[],"categories_sizes":[],"default_left":[0,0,0,0,0,0,0,0,0,0,0,0,0,0,0],"id":0,"left_children":[1,-1,3,5,7,9,11,-1,13,-1,-1,-1,-1,-1,-1],"loss_changes":[1.5205721E-2,0E0,9.06552E-3,6.3829958E-3,3.5966244E-3,4.1114124E-3,2.9455903E-3,0E0,2.171751E-3,0E0,0E0,0E0,0E0,0E0,0E0],"parents":[2147483647,0,0,2,2,3,3,4,4,5,5,6,6,8,8],"right_children":[2,-1,4,6,8,10,12,-1,14,-1,-1,-1,-1,-1,-1],"split_conditions":[-2.463651E-2,8.8027574E-4,7.111111E-1,1.3663898E-1,-3.9177276E-2,2.2146508E-2,1.4895165E0,-0E0,-1.6007079E-2,-1.5379097E-5,1.5149958E-4,-5.330193E-4,-0E0,-1.0923074E-5,-3.3625215E-4],"split_indices":[11,0,2,16,12,18,19,0,11,0,0,0,0,0,0],"split_type":[0,0,0,0,0,0,0,0,0,0,0,0,0,0,0],"sum_hessian":[7.07E2,1.5E1,6.92E2,4.41E2,2.51E2,4.13E2,2.8E1,5.3E1,1.98E2,1.75E2,2.38E2,2.3E1,5E0,7E1,1.28E2],"tree_param":{"num_deleted":"0","num_feature":"20","num_nodes":"15","size_leaf_vector":"1"}},{"base_weights":[-0E0,1.051334E-3,-3.090946E-4,-5.990912E-3,1.8576815E-3,-0E0,-9.743051E-3,2.7776898E-3,-6.232371E-3,7.19271E-5,-6.212368E-5,-3.628712E-4,-0E0,-0E0,2.3696246E-4,-0E0,-4.103024E-4],"categories":[],"categories_nodes":[],"categories_segments":[],"categories_sizes":[],"default_left":[0,0,0,0,0,0,0,0,0,0,0,0,0,0,0,0,0],"id":1,"left_children":[1,-1,3,5,7,9,11,13,15,-1,-1,-1,-1,-1,-1,-1,-1],"loss_changes":[1.3574418E-2,0E0,9.234032E-3,5.79896E-3,2.8171027E-3,4.005544E-4,4.369705E-3,5.0593633E-3,2.3570573E-3,0E0,0E0,0E0,0E0,0E0,0E0,0E0,0E0],"parents":[2147483647,0,0,2,2,3,3,4,4,5,5,6,6,7,7,8,8],"right_children":[2,-1,4,6,8,10,12,14,16,-1,-1,-1,-1,-1,-1,-1,-1],"split_conditions":[-2.6820574E-2,1.051334E-3,2.1212122E-1,-6.993007E-2,1.3663898E-1,-2.3675496E-3,0E0,5.269923E-2,2.151177E-1,7.19271E-5,-6.212368E-5,-3.628712E-4,-0E0,-0E0,2.3696246E-4,-0E0,-4.103024E-4],"split_indices":[11,0,1,18,16,15,13,18,17,0,0,0,0,0,0,0,0],"split_type":[0,0,0,0,0,0,0,0,0,0,0,0,0,0,0,0,0],"sum_hessian":[6.91E2,1E1,6.81E2,2.13E2,4.68E2,7.2E1,1.41E2,4.43E2,2.5E1,5.6E1,1.6E1,1.21E2,2E1,3.08E2,1.35E2,8E0,1.7E1],"tree_param":{"num_deleted":"0","num_feature":"20","num_nodes":"17","size_leaf_vector":"1"}},{"base_weights":[-1.9948458E-5,-1.6260225E-3,9.300733E-3,-3.9616628E-3,3.894219E-3,4.0773215E-4,-0E0,2.9696166E-3,-5.039033E-3,7.6954607E-3,-9.107185E-4,2.3348599E-4,-0E0,-2.8392486E-4,-2.4340972E-5,-0E0,4.383628E-4,-3.6454768E-4,-0E0],"categories":[],"categories_nodes":[],"categories_segments":[],"categories_sizes":[],"default_left":[0,0,0,0,0,0,0,0,0,0,0,0,0,0,0,0,0,0,0],"id":2,"left_children":[1,3,5,7,9,-1,-1,11,13,15,17,-1,-1,-1,-1,-1,-1,-1,-1],"loss_changes":[8.884126E-3,7.919614E-3,5.1097483E-3,3.8340539E-3,4.231519E-3,0E0,0E0,6.4287905E-4,5.7945643E-3,4.3157446E-3,2.6189184E-3,0E0,0E0,0E0,0E0,0E0,0E0,0E0,0E0],"parents":[2147483647,0,0,1,1,2,2,3,3,4,4,7,7,8,8,9,9,10,10],"right_children":[2,4,6,8,10,-1,-1,12,14,16,18,-1,-1,-1,-1,-1,-1,-1,-1],"split_conditions":[3.266873E-1,8.596491E-1,6.0014545E1,2.926847E1,5.6229327E-2,4.0773215E-4,-0E0,-4.1666668E-2,2.1212122E-1,1.901345E-1,3.448276E-2,2.3348599E-4,-0E0,-2.8392486E-4,-2.4340972E-5,-0E0,4.383628E-4,-3.6454768E-4,-0E0],"split_indices":[17,1,14,14,7,0,0,12,1,17,12,0,0,0,0,0,0,0,0],"split_type":[0,0,0,0,0,0,0,0,0,0,0,0,0,0,0,0,0,0,0],"sum_hessian":[6.94E2,6.11E2,8.3E1,4.55E2,1.56E2,6.6E1,1.7E1,3.6E1,4.19E2,1.1E2,4.6E1,1.5E1,2.1E1,1.81E2,2.38E2,6E1,5E1,1.7E1,2.9E1],"tree_param":{"num_deleted":"0","num_feature":"20","num_nodes":"19","size_leaf_vector":"1"}},{"base_weights":[4.595306E-5,-4.1069356E-3,2.965585E-3,1.1759324E-3,-8.048652E-3,4.3183453E-3,-9.179781E-3,1.2280492E-2,-0E0,-1.0050838E-2,-0E0,-0E0,6.5943026E-3,-0E0,-5.312341E-4,-0E0,7.815131E-4,1.4682373E-5,-1.9662772E-4,-0E0,-3.6247834E-4,3.443455E-5,-5.2631985E-5,1.5192867E-4,9.378135E-4],"categories":[],"categories_nodes":[],"categories_segments":[],"categories_sizes":[],"default_left":[0,0,0,0,0,0,0,0,0,0,0,0,0,0,0,0,0,0,0,0,0,0,0,0,0],"id":3,"left_children":[1,3,5,7,9,11,13,15,17,19,-1,21,23,-1,-1,-1,-1,-1,-1,-1,-1,-1,-1,-1,-1],"loss_changes":[8.356218E-3,6.8814303E-3,6.362171E-3,3.1906117E-3,3.8448041E-3,4.045423E-3,3.7432744E-3,5.504298E-3,1.2133712E-3,2.904824E-3,0E0,2.909372E-4,2.8041536E-3,0E0,0E0,0E0,0E0,0E0,0E0,0E0,0E0,0E0,0E0,0E0,0E0],"parents":[2147483647,0,0,1,1,2,2,3,3,4,4,5,5,6,6,7,7,8,8,9,9,11,11,12,12],"right_children":[2,4,6,8,10,12,14,16,18,20,-1,22,24,-1,-1,-1,-1,-1,-1,-1,-1,-1,-1,-1,-1],"split_conditions":[2.888889E-1,-1.6007079E-2,1.3663898E-1,-9.465792E-2,4.526402E1,1.1837432E-3,6.2653564E-2,8.916613E-3,-2.3197592E-3,-4.0515654E-2,-0E0,4.734816E-3,6.563707E-2,-0E0,-5.312341E-4,-0E0,7.815131E-4,1.4682373E-5,-1.9662772E-4,-0E0,-3.6247834E-4,3.443455E-5,-5.2631985E-5,1.5192867E-4,9.378135E-4],"split_indices":[1,11,0,18,14,11,7,4,15,12,0,15,12,0,0,0,0,0,0,0,0,0,0,0,0],"split_type":[0,0,0,0,0,0,0,0,0,0,0,0,0,0,0,0,0,0,0,0,0,0,0,0,0],"sum_hessian":[7.06E2,2.63E2,4.43E2,9.1E1,1.72E2,4.14E2,2.9E1,2.1E1,7E1,1.48E2,2.4E1,1.44E2,2.7E2,1E1,1.9E1,9E0,1.2E1,4.3E1,2.7E1,2.6E1,1.22E2,8.9E1,5.5E1,2.63E2,7E0],"tree_param":{"num_deleted":"0","num_feature":"20","num_nodes":"25","size_leaf_vector":"1"}},{"base_weights":[-5.642717E-4,6.814499E-4,-1.3812775E-3,-5.094635E-3,6.438969E-4,-6.487637E-3,3.8526749E-4,1.9752411E-3,-9.631483E-3,-9.314026E-5,-4.3253726E-4,2.822943E-4,-0E0,-0E0,2.1078305E-4,-0E0,-4.963474E-4],"categories":[],"categories_nodes":[],"categories_segments":[],"categories_sizes":[],"default_left":[0,0,0,0,0,0,0,0,0,0,0,0,0,0,0,0,0],"id":4,"left_children":[1,-1,3,5,7,9,11,13,15,-1,-1,-1,-1,-1,-1,-1,-1],"loss_changes":[9.363429E-3,0E0,6.157566E-3,3.3756243E-3,4.2197243E-3,3.2649832E-3,1.9436749E-3,3.517629E-3,3.4201555E-3,0E0,0E0,0E0,0E0,0E0,0E0,0E0,0E0],"parents":[2147483647,0,0,2,2,3,3,4,4,5,5,6,6,7,7,8,8],"right_children":[2,-1,4,6,8,10,12,14,16,-1,-1,-1,-1,-1,-1,-1,-1],"split_conditions":[-2.463651E-2,6.814499E-4,4.510247E1,2.6216558E-1,1.312892E-1,2.151177E-1,-4.923077E-2,6.4E-2,2.151177E-1,-9.314026E-5,-4.3253726E-4,2.822943E-4,-0E0,-0E0,2.1078305E-4,-0E0,-4.963474E-4],"split_indices":[11,0,14,17,16,17,18,18,17,0,0,0,0,0,0,0,0],"split_type":[0,0,0,0,0,0,0,0,0,0,0,0,0,0,0,0,0],"sum_hessian":[7.14E2,1.5E1,6.99E2,2.81E2,4.18E2,2.53E2,2.8E1,3.88E2,3E1,1.96E2,5.7E1,2.1E1,7E0,2.87E2,1.01E2,8E0,2.2E1],"tree_param":{"num_deleted":"0","num_feature":"20","num_nodes":"17","size_leaf_vector":"1"}},{"base_weights":[2.8985218E-4,-5.598439E-4,7.98217E-3,-2.653625E-3,4.291793E-3,1.1838732E-2,-8.9070277E-4,-4.59861E-3,-0E0,6.446807E-3,-4.3566963E-3,1.2952397E-2,-0E0,-0E0,-3.7852468E-4,-1.7096887E-4,-0E0,4.4720102E-5,-1.4463188E-4,-0E0,4.035195E-4,-2.6881267E-4,-0E0,4.0382697E-4,-0E0],"categories":[],"categories_nodes":[],"categories_segments":[],"categories_sizes":[],"default_left":[0,0,0,0,0,0,0,0,0,0,0,0,0,0,0,0,0,0,0,0,0,0,0,0,0],"id":5,"left_children":[1,3,5,7,9,11,13,15,17,19,21,23,-1,-1,-1,-1,-1,-1,-1,-1,-1,-1,-1,-1,-1],"loss_changes":[6.1884136E-3,6.032672E-3,5.450935E-3,2.4494505E-3,3.4281278E-3,9.218212E-4,1.1033003E-3,2.4860809E-3,1.3836778E-3,5.8312034E-3,2.9629288E-4,8.7933615E-5,0E0,0E0,0E0,0E0,0E0,0E0,0E0,0E0,0E0,0E0,0E0,0E0,0E0],"parents":[2147483647,0,0,1,1,2,2,3,3,4,4,5,5,6,6,7,7,8,8,9,9,10,10,11,11],"right_children":[2,4,6,8,10,12,14,16,18,20,22,24,-1,-1,-1,-1,-1,-1,-1,-1,-1,-1,-1,-1,-1],"split_conditions":[3.0350608E-1,1.2958623E-1,7.789855E-2,1.1837432E-3,1.3486111E-1,6.1554485E1,8.867964E-2,1.2161866E0,4.585799E-2,7.894737E-1,9.63847E-1,1E0,-0E0,-0E0,-3.7852468E-4,-1.7096887E-4,-0E0,4.4720102E-5,-1.4463188E-4,-0E0,4.035195E-4,-2.6881267E-4,-0E0,4.0382697E-4,-0E0],"split_indices":[17,4,7,11,0,14,0,19,7,1,19,6,0,0,0,0,0,0,0,0,0,0,0,0,0],"split_type":[0,0,0,0,0,0,0,0,0,0,0,0,0,0,0,0,0,0,0,0,0,0,0,0,0],"sum_hessian":[7.18E2,6.24E2,9.4E1,4.65E2,1.59E2,8.1E1,1.3E1,2.7E2,1.95E2,1.46E2,1.3E1,7.3E1,8E0,7E0,6E0,2.52E2,1.8E1,1.51E2,4.4E1,8.1E1,6.5E1,6E0,7E0,6.8E1,5E0],"tree_param":{"num_deleted":"0","num_feature":"20","num_nodes":"25","size_leaf_vector":"1"}},{"base_weights":[-0E0,7.327307E-4,-5.254175E-4,-5.6934245E-3,1.4115213E-3,-0E0,-7.461921E-3,9.2681125E-3,2.107605E-4,-0E0,5.67005E-5,-0E0,-3.159952E-4,-0E0,3.829555E-4,-3.7587868E-6,1.5623102E-4],"categories":[],"categories_nodes":[],"categories_segments":[],"categories_sizes":[],"default_left":[0,0,0,0,0,0,0,0,0,0,0,0,0,0,0,0,0],"id":6,"left_children":[1,-1,3,5,7,9,11,13,15,-1,-1,-1,-1,-1,-1,-1,-1],"loss_changes":[9.139273E-3,0E0,7.7914153E-3,2.7099736E-3,2.5928025E-3,1.2859788E-4,3.125891E-3,8.778332E-4,1.749282E-3,0E0,0E0,0E0,0E0,0E0,0E0,0E0,0E0],"parents":[2147483647,0,0,2,2,3,3,4,4,5,5,6,6,7,7,8,8],"right_children":[2,-1,4,6,8,10,12,14,16,-1,-1,-1,-1,-1,-1,-1,-1],"split_conditions":[-2.463651E-2,7.327307E-4,1.9642857E-1,-4.0515654E-2,7.10466E-1,-1.08325005E-1,-1.6007079E-2,1.22304475E-2,3.0845195E-1,-0E0,5.67005E-5,-0E0,-3.159952E-4,-0E0,3.829555E-4,-3.7587868E-6,1.5623102E-4],"split_indices":[11,0,3,12,19,0,11,0,17,0,0,0,0,0,0,0,0],"split_type":[0,0,0,0,0,0,0,0,0,0,0,0,0,0,0,0,0],"sum_hessian":[7.05E2,1.4E1,6.91E2,2.16E2,4.75E2,4.2E1,1.74E2,4E1,4.35E2,7E0,3.5E1,5.9E1,1.15E2,1.4E1,2.6E1,3.71E2,6.4E1],"tree_param":{"num_deleted":"0","num_feature":"20","num_nodes":"17","size_leaf_vector":"1"}},{"base_weights":[-0E0,-9.964678E-4,6.707457E-3,-2.6208162E-3,4.681179E-3,1.5328925E-2,-0E0,-1.9902094E-4,-5.6944815E-3,7.6339347E-3,-1.0207472E-4,5.0237635E-4,-0E0,2.423621E-4,-1.813111E-4,1.026742E-6,-1.5458048E-4,-0E0,-2.5702122E-4,-0E0,3.7372275E-4,-0E0,4.8025875E-5],"categories":[],"categories_nodes":[],"categories_segments":[],"categories_sizes":[],"default_left":[0,0,0,0,0,0,0,0,0,0,0,0,0,0,0,0,0,0,0,0,0,0,0],"id":7,"left_children":[1,3,5,7,9,11,13,15,17,19,-1,-1,-1,21,-1,-1,-1,-1,-1,-1,-1,-1,-1],"loss_changes":[4.840714E-3,5.281241E-3,6.1098835E-3,2.594167E-3,3.4978648E-3,5.97612E-4,3.3126297E-4,1.3947578E-3,2.0835176E-3,3.3866405E-3,0E0,0E0,0E0,8.973359E-5,0E0,0E0,0E0,0E0,0E0,0E0,0E0,0E0,0E0],"parents":[2147483647,0,0,1,1,2,2,3,3,4,4,5,5,6,6,7,7,8,8,9,9,13,13],"right_children":[2,4,6,8,10,12,14,16,18,20,-1,-1,-1,22,-1,-1,-1,-1,-1,-1,-1,-1,-1],"split_conditions":[3.0254495E-1,1.857063E-1,9.791922E-3,7.878788E-1,1.3486111E-1,5.245536E-2,1.312892E-1,2.5658107E-1,-5.7758156E-2,7.894737E-1,-1.0207472E-4,5.0237635E-4,-0E0,-8.067645E-3,-1.813111E-4,1.026742E-6,-1.5458048E-4,-0E0,-2.5702122E-4,-0E0,3.7372275E-4,-0E0,4.8025875E-5],"split_indices":[17,4,12,2,0,7,0,17,4,1,0,0,0,15,0,0,0,0,0,0,0,0,0],"split_type":[0,0,0,0,0,0,0,0,0,0,0,0,0,0,0,0,0,0,0,0,0,0,0],"sum_hessian":[7.08E2,6.15E2,9.3E1,5.06E2,1.09E2,4.3E1,5E1,3.2E2,1.86E2,9.8E1,1.1E1,3.8E1,5E0,4.2E1,8E0,2.68E2,5.2E1,7.6E1,1.1E2,4E1,5.8E1,7E0,3.5E1],"tree_param":{"num_deleted":"0","num_feature":"20","num_nodes":"23","size_leaf_vector":"1"}},{"base_weights":[-0E0,-1.2805179E-3,9.174883E-3,-3.7841261E-3,9.1015483E-4,1.3428618E-2,-0E0,2.1360137E-3,-5.21114E-3,3.2419704E-3,-1.6851124E-3,-0E0,4.361549E-4,3.4082163E-4,-0E0,-1.9217907E-4,-0E0,-0E0,2.3403978E-4,1.02238446E-4,-2.3324793E-4],"categories":[],"categories_nodes":[],"categories_segments":[],"categories_sizes":[],"default_left":[0,0,0,0,0,0,0,0,0,0,0,0,0,0,0,0,0,0,0,0,0],"id":8,"left_children":[1,3,5,7,9,11,-1,13,15,17,19,-1,-1,-1,-1,-1,-1,-1,-1,-1,-1],"loss_changes":[9.248085E-3,3.9183516E-3,4.3734526E-3,3.3886922E-3,2.0294613E-3,2.7049705E-4,0E0,1.6381096E-3,1.9873912E-3,2.8110235E-3,3.81538E-3,0E0,0E0,0E0,0E0,0E0,0E0,0E0,0E0,0E0,0E0],"parents":[2147483647,0,0,1,1,2,2,3,3,4,4,5,5,7,7,8,8,9,9,10,10],"right_children":[2,4,6,8,10,12,-1,14,16,18,20,-1,-1,-1,-1,-1,-1,-1,-1,-1,-1],"split_conditions":[3.0254495E-1,1.1837432E-3,3.6871508E-2,2.9063463E1,2.2642799E-1,6.25E-2,-0E0,-4.347826E-2,0E0,5.269923E-2,1.1822353E-2,-0E0,4.361549E-4,3.4082163E-4,-0E0,-1.9217907E-4,-0E0,-0E0,2.3403978E-4,1.02238446E-4,-2.3324793E-4],"split_indices":[17,11,12,14,17,2,0,12,13,18,11,0,0,0,0,0,0,0,0,0,0],"split_type":[0,0,0,0,0,0,0,0,0,0,0,0,0,0,0,0,0,0,0,0,0],"sum_hessian":[7.05E2,6.08E2,9.7E1,3.26E2,2.82E2,6.9E1,2.8E1,3.6E1,2.9E2,1.89E2,9.3E1,9E0,6E1,1.3E1,2.3E1,2.4E2,5E1,1.11E2,7.8E1,3.3E1,6E1],"tree_param":{"num_deleted":"0","num_feature":"20","num_nodes":"21","size_leaf_vector":"1"}},{"base_weights":[-1.5132384E-4,2.2654473E-3,-6.6492883E-3,-0E0,5.141364E-3,5.6723612E-3,-9.223343E-3,1.0467786E-2,-7.912012E-4,6.6853175E-3,-3.1506256E-4,1.081404E-2,-0E0,-0E0,-1.0961395E-2,5.10526E-4,-0E0,-9.117708E-5,1.3001158E-4,-0E0,2.7796457E-4,-0E0,4.6498977E-4,-3.7046443E-4,-0E0],"categories":[],"categories_nodes":[],"categories_segments":[],"categories_sizes":[],"default_left":[0,0,0,0,0,0,0,0,0,0,0,0,0,0,0,0,0,0,0,0,0,0,0,0,0],"id":9,"left_children":[1,3,5,7,9,11,13,15,17,19,-1,21,-1,-1,23,-1,-1,-1,-1,-1,-1,-1,-1,-1,-1],"loss_changes":[1.1916106E-2,2.560453E-3,7.51815E-3,3.6741532E-3,3.944186E-3,1.3327659E-3,2.7005803E-3,1.9959465E-3,2.8419027E-3,2.716871E-3,0E0,1.0181307E-3,0E0,0E0,2.942644E-3,0E0,0E0,0E0,0E0,0E0,0E0,0E0,0E0,0E0,0E0],"parents":[2147483647,0,0,1,1,2,2,3,3,4,4,5,5,6,6,7,7,8,8,9,9,11,11,14,14],"right_children":[2,4,6,8,10,12,14,16,18,20,-1,22,-1,-1,24,-1,-1,-1,-1,-1,-1,-1,-1,-1,-1],"split_conditions":[8.0487806E-1,4.006678E-2,-9.465792E-2,-1.9126995E-2,1.8285714E-1,-4.290007E-3,2.9814138E1,1E0,2.5138962E-1,1.9414671E-1,-3.1506256E-4,-1.3290964E-1,-0E0,-0E0,2.7185893E-2,5.10526E-4,-0E0,-9.117708E-5,1.3001158E-4,-0E0,2.7796457E-4,-0E0,4.6498977E-4,-3.7046443E-4,-0E0],"split_indices":[2,18,18,11,7,15,14,10,17,17,0,0,0,0,0,0,0,0,0,0,0,0,0,0,0],"split_type":[0,0,0,0,0,0,0,0,0,0,0,0,0,0,0,0,0,0,0,0,0,0,0,0,0],"sum_hessian":[7.01E2,4.89E2,2.12E2,2.98E2,1.91E2,2.3E1,1.89E2,3.1E1,2.67E2,1.86E2,5E0,1.7E1,6E0,3.3E1,1.56E2,1.8E1,1.3E1,2.13E2,5.4E1,5.8E1,1.28E2,5E0,1.2E1,1.42E2,1.4E1],"tree_param":{"num_deleted":"0","num_feature":"20","num_nodes":"25","size_leaf_vector":"1"}},{"base_weights":[-1.06898224E-4,-3.2209659E-3,3.4969144E-3,-4.1850647E-3,3.7146917E-6,-1.7154734E-3,6.9980943E-3,-1.1395872E-2,-2.329502E-3,6.7983437E-3,-2.6183357E-4,-4.7508203E-3,-0E0,8.4625315E-3,-0E0,-4.278571E-4,-0E0,-2.0212636E-5,-2.6211946E-4,-0E0,2.329728E-4,-0E0,-2.2592451E-4,1.1273775E-5,-0E0,8.634152E-5,4.886103E-4,-3.3452703E-5,-0E0],"categories":[],"categories_nodes":[],"categories_segments":[],"categories_sizes":[],"default_left":[0,0,0,0,0,0,0,0,0,0,0,0,0,0,0,0,0,0,0,0,0,0,0,0,0,0,0,0,0],"id":10,"left_children":[1,3,5,7,9,11,13,15,17,19,-1,21,23,25,27,-1,-1,-1,-1,-1,-1,-1,-1,-1,-1,-1,-1,-1,-1],"loss_changes":[8.025063E-3,2.1295925E-3,6.616379E-3,2.1522571E-3,2.5804844E-3,1.1727841E-3,3.567215E-3,8.463799E-4,1.4645709E-3,2.1582923E-4,0E0,1.8790105E-3,3.6717206E-6,4.4222865E-3,1.3677685E-5,0E0,0E0,0E0,0E0,0E0,0E0,0E0,0E0,0E0,0E0,0E0,0E0,0E0,0E0],"parents":[2147483647,0,0,1,1,2,2,3,3,4,4,5,5,6,6,7,7,8,8,9,9,11,11,12,12,13,13,14,14],"right_children":[2,4,6,8,10,12,14,16,18,20,-1,22,24,26,28,-1,-1,-1,-1,-1,-1,-1,-1,-1,-1,-1,-1,-1,-1],"split_conditions":[2.8476248E-2,3.195636E-1,1.623746E-1,-2.9620852E-2,3.941105E-2,5.43728E1,1.3486111E-1,2.0408163E-2,2.584787E-1,-1E0,-2.6183357E-4,2.7240294E1,6.111979E1,4.006678E-2,1.1958058E0,-4.278571E-4,-0E0,-2.0212636E-5,-2.6211946E-4,-0E0,2.329728E-4,-0E0,-2.2592451E-4,1.1273775E-5,-0E0,8.634152E-5,4.886103E-4,-3.3452703E-5,-0E0],"split_indices":[4,17,17,12,11,14,16,1,17,8,0,14,14,18,19,0,0,0,0,0,0,0,0,0,0,0,0,0,0],"split_type":[0,0,0,0,0,0,0,0,0,0,0,0,0,0,0,0,0,0,0,0,0,0,0,0,0,0,0,0,0],"sum_hessian":[7.18E2,4.15E2,3.03E2,3.67E2,4.8E1,9.9E1,2.04E2,5.2E1,3.15E2,4E1,8E0,6.4E1,3.5E1,1.89E2,1.5E1,3.7E1,1.5E1,2.76E2,3.9E1,6E0,3.4E1,6E0,5.8E1,2.5E1,1E1,1.26E2,6.3E1,1E1,5E0],"tree_param":{"num_deleted":"0","num_feature":"20","num_nodes":"29","size_leaf_vector":"1"}},{"base_weights":[-0E0,1.7203134E-2,-9.491004E-4,-0E0,8.822354E-4,-6.321729E-3,1.7177231E-3,-0E0,-8.407053E-3,3.0450472E-3,-8.511591E-3,3.051415E-5,-0E0,-0E0,-3.397347E-4,2.98577E-6,1.6959387E-4,-0E0,-4.0225085E-4],"categories":[],"categories_nodes":[],"categories_segments":[],"categories_sizes":[],"default_left":[0,0,0,0,0,0,0,0,0,0,0,0,0,0,0,0,0,0,0],"id":11,"left_children":[1,3,5,-1,-1,7,9,11,13,15,17,-1,-1,-1,-1,-1,-1,-1,-1],"loss_changes":[8.894572E-3,5.550607E-3,1.060296E-2,0E0,0E0,4.89139E-3,4.73025E-3,2.172598E-5,5.420071E-3,1.8910423E-3,1.996511E-3,0E0,0E0,0E0,0E0,0E0,0E0,0E0,0E0],"parents":[2147483647,0,0,1,1,2,2,5,5,6,6,7,7,8,8,9,9,10,10],"right_children":[2,4,6,-1,-1,8,10,12,14,16,18,-1,-1,-1,-1,-1,-1,-1,-1],"split_conditions":[-9.465792E-2,8.1551104E-4,4.510247E1,-0E0,8.822354E-4,2.9814138E1,1.3663898E-1,-7.388535E-2,7.659575E-1,4.006678E-2,6.2653564E-2,3.051415E-5,-0E0,-0E0,-3.397347E-4,2.98577E-6,1.6959387E-4,-0E0,-4.0225085E-4],"split_indices":[18,4,14,0,0,14,16,18,2,18,7,0,0,0,0,0,0,0,0],"split_type":[0,0,0,0,0,0,0,0,0,0,0,0,0,0,0,0,0,0,0],"sum_hessian":[7.01E2,2.7E1,6.74E2,1.2E1,1.5E1,2.48E2,4.26E2,3.9E1,2.09E2,3.95E2,3.1E1,2E1,1.9E1,5.2E1,1.57E2,2.22E2,1.73E2,8E0,2.3E1],"tree_param":{"num_deleted":"0","num_feature":"20","num_nodes":"19","size_leaf_vector":"1"}},{"base_weights":[1.271772E-3,3.9193733E-3,-3.2519428E-3,5.1591014E-3,-1.0850044E-2,4.559474E-3,-6.434458E-3,-0E0,7.2807083E-3,-0E0,-5.8991E-4,5.970445E-4,-0E0,-7.91878E-3,-0E0,2.4759085E-5,-6.837883E-5,3.9401156E-4,1.0315869E-4,-0E0,-2.5520544E-4,-0E0,1.4527716E-5],"categories":[],"categories_nodes":[],"categories_segments":[],"categories_sizes":[],"default_left":[0,0,0,0,0,0,0,0,0,0,0,0,0,0,0,0,0,0,0,0,0,0,0],"id":12,"left_children":[1,3,5,7,9,11,13,15,17,-1,-1,-1,-1,19,21,-1,-1,-1,-1,-1,-1,-1,-1],"loss_changes":[8.721759E-3,7.706618E-3,6.296143E-3,5.2498123E-3,2.8568106E-3,2.9004617E-3,2.9179822E-3,2.9619288E-4,4.0163584E-3,0E0,0E0,0E0,0E0,1.2802659E-3,3.0485658E-6,0E0,0E0,0E0,0E0,0E0,0E0,0E0,0E0],"parents":[2147483647,0,0,1,1,2,2,3,3,4,4,5,5,6,6,7,7,8,8,13,13,14,14],"right_children":[2,4,6,8,10,12,14,16,18,-1,-1,-1,-1,20,22,-1,-1,-1,-1,-1,-1,-1,-1],"split_conditions":[7.910448E-1,1.3486111E-1,-4.0515654E-2,1.623746E-1,2.151177E-1,2.437756E1,9.107732E-3,3.5826003E-3,1.4634146E-1,-0E0,-5.8991E-4,5.970445E-4,-0E0,7.193104E-1,-1.2653823E-2,2.4759085E-5,-6.837883E-5,3.9401156E-4,1.0315869E-4,-0E0,-2.5520544E-4,-0E0,1.4527716E-5],"split_indices":[2,16,12,17,17,14,0,15,2,0,0,0,0,19,15,0,0,0,0,0,0,0,0],"split_type":[0,0,0,0,0,0,0,0,0,0,0,0,0,0,0,0,0,0,0,0,0,0,0],"sum_hessian":[7.15E2,4.79E2,2.36E2,4.55E2,2.4E1,5E1,1.86E2,1.28E2,3.27E2,1E1,1.4E1,9E0,4.1E1,1.69E2,1.7E1,8.3E1,4.5E1,1.08E2,2.19E2,5E0,1.64E2,5E0,1.2E1],"tree_param":{"num_deleted":"0","num_feature":"20","num_nodes":"23","size_leaf_vector":"1"}},{"base_weights":[-1.3079266E-4,1.3035834E-2,-9.215772E-4,-0E0,2.0847687E-2,-5.518566E-3,5.98003E-4,8.277712E-4,-0E0,-0E0,-8.546249E-3,-0E0,6.6139568E-3,-2.9043015E-4,-0E0,2.0156174E-5,-3.043973E-4,-0E0,3.720591E-4],"categories":[],"categories_nodes":[],"categories_segments":[],"categories_sizes":[],"default_left":[0,0,0,0,0,0,0,0,0,0,0,0,0,0,0,0,0,0,0],"id":13,"left_children":[1,3,5,-1,7,9,11,-1,-1,-1,13,15,17,-1,-1,-1,-1,-1,-1],"loss_changes":[4.804654E-3,2.2710664E-3,5.660707E-3,0E0,1.094E-3,2.9962985E-3,2.1937657E-3,0E0,0E0,0E0,1.4400911E-3,3.5716947E-3,3.021111E-3,0E0,0E0,0E0,0E0,0E0,0E0],"parents":[2147483647,0,0,1,1,2,2,4,4,5,5,6,6,10,10,11,11,12,12],"right_children":[2,4,6,-1,8,10,12,-1,-1,-1,14,16,18,-1,-1,-1,-1,-1,-1],"split_conditions":[-9.465792E-2,8.916613E-3,2.1212122E-1,-0E0,-3.1203566E-2,3.2802338E1,1E0,8.277712E-4,-0E0,-0E0,1.9834803E-2,1.3486111E-1,-3.6089753E-3,-2.9043015E-4,-0E0,2.0156174E-5,-3.043973E-4,-0E0,3.720591E-4],"split_indices":[18,4,1,0,12,14,5,0,0,0,16,16,16,0,0,0,0,0,0],"split_type":[0,0,0,0,0,0,0,0,0,0,0,0,0,0,0,0,0,0,0],"sum_hessian":[6.92E2,2.4E1,6.68E2,1E1,1.4E1,1.98E2,4.7E2,9E0,5E0,7.5E1,1.23E2,4.17E2,5.3E1,1.11E2,1.2E1,3.85E2,3.2E1,1.9E1,3.4E1],"tree_param":{"num_deleted":"0","num_feature":"20","num_nodes":"19","size_leaf_vector":"1"}},{"base_weights":[-0E0,2.1974346E-2,-6.7438197E-4,8.5199455E-4,-0E0,-2.3185036E-3,2.2913234E-3,-3.63816E-3,3.690381E-3,-7.414171E-4,6.0425284E-3,-1.8739398E-5,-2.628511E-4,2.3667286E-4,-0E0,-0E0,-9.821887E-5,2.917902E-4,-0E0],"categories":[],"categories_nodes":[],"categories_segments":[],"categories_sizes":[],"default_left":[0,0,0,0,0,0,0,0,0,0,0,0,0,0,0,0,0,0,0],"id":14,"left_children":[1,3,5,-1,-1,7,9,11,13,15,17,-1,-1,-1,-1,-1,-1,-1,-1],"loss_changes":[8.035663E-3,1.1460967E-3,3.331291E-3,0E0,0E0,3.8250794E-3,3.3399886E-3,4.6483204E-3,1.6723785E-3,3.4080257E-4,3.6015958E-3,0E0,0E0,0E0,0E0,0E0,0E0,0E0,0E0],"parents":[2147483647,0,0,1,1,2,2,5,5,6,6,7,7,8,8,9,9,10,10],"right_children":[2,4,6,-1,-1,8,10,12,14,16,18,-1,-1,-1,-1,-1,-1,-1,-1],"split_conditions":[-2.463651E-2,-1.0550647E-1,8.181818E-1,8.5199455E-4,-0E0,3.0750865E-1,1.9069967E-1,2.2174546E-1,1.4522822E-2,6.2543037E1,1.1284916E-1,-1.8739398E-5,-2.628511E-4,2.3667286E-4,-0E0,-0E0,-9.821887E-5,2.917902E-4,-0E0],"split_indices":[11,0,1,0,0,17,17,17,12,14,18,0,0,0,0,0,0,0,0],"split_type":[0,0,0,0,0,0,0,0,0,0,0,0,0,0,0,0,0,0,0],"sum_hessian":[6.95E2,1.5E1,6.8E2,1E1,5E0,4.81E2,1.99E2,4.22E2,5.9E1,8.1E1,1.18E2,2.91E2,1.31E2,3.9E1,2E1,4.6E1,3.5E1,8.3E1,3.5E1],"tree_param":{"num_deleted":"0","num_feature":"20","num_nodes":"19","size_leaf_vector":"1"}},{"base_weights":[-0E0,6.106739E-4,-3.6669945E-4,-0E0,-1.4398231E-2,-7.3672296E-4,7.335746E-3,-0E0,-2.0583693E-2,-1.0344863E-4,4.6883364E-5,-0E0,2.6715253E-4,-0E0,-7.204939E-4],"categories":[],"categories_nodes":[],"categories_segments":[],"categories_sizes":[],"default_left":[0,0,0,0,0,0,0,0,0,0,0,0,0,0,0],"id":15,"left_children":[1,-1,3,5,7,9,11,-1,13,-1,-1,-1,-1,-1,-1],"loss_changes":[5.8923233E-3,0E0,5.506041E-3,4.4567874E-3,2.876422E-3,3.9802287E-3,1.4867233E-3,0E0,1.7809123E-4,0E0,0E0,0E0,0E0,0E0,0E0],"parents":[2147483647,0,0,2,2,3,3,4,4,5,5,6,6,8,8],"right_children":[2,-1,4,6,8,10,12,-1,14,-1,-1,-1,-1,-1,-1],"split_conditions":[-2.463651E-2,6.106739E-4,1.3486111E-1,3.0750865E-1,5.245536E-2,-4.174979E-3,1.3157895E-2,-0E0,2.0859279E-1,-1.0344863E-4,4.6883364E-5,-0E0,2.6715253E-4,-0E0,-7.204939E-4],"split_indices":[11,0,16,17,7,16,1,0,17,0,0,0,0,0,0],"split_type":[0,0,0,0,0,0,0,0,0,0,0,0,0,0,0],"sum_hessian":[6.91E2,1.3E1,6.78E2,6.52E2,2.6E1,5.76E2,7.6E1,7E0,1.9E1,3.04E2,2.72E2,6E0,7E1,5E0,1.4E1],"tree_param":{"num_deleted":"0","num_feature":"20","num_nodes":"15","size_leaf_vector":"1"}},{"base_weights":[-3.0980518E-4,1.927157E-2,-1.0777576E-3,7.143198E-4,-0E0,-4.6913875E-3,1.8464797E-4,-6.438186E-3,2.574469E-3,2.3148258E-3,-4.2236974E-3,-0E0,-2.1853074E-4,2.369996E-4,-0E0,-0E0,2.9130842E-4,-0E0,-2.762056E-4],"categories":[],"categories_nodes":[],"categories_segments":[],"categories_sizes":[],"default_left":[0,0,0,0,0,0,0,0,0,0,0,0,0,0,0,0,0,0,0],"id":16,"left_children":[1,3,5,-1,-1,7,9,11,13,15,17,-1,-1,-1,-1,-1,-1,-1,-1],"loss_changes":[6.6526635E-3,2.941289E-4,3.9495407E-3,0E0,0E0,3.505404E-3,3.900707E-3,1.9458979E-3,6.163596E-4,5.82631E-3,3.9980887E-3,0E0,0E0,0E0,0E0,0E0,0E0,0E0,0E0],"parents":[2147483647,0,0,1,1,2,2,5,5,6,6,7,7,8,8,9,9,10,10],"right_children":[2,4,6,-1,-1,8,10,12,14,16,18,-1,-1,-1,-1,-1,-1,-1,-1],"split_conditions":[-2.463651E-2,-1.0550647E-1,2.1212122E-1,7.143198E-4,-0E0,2.578519E-1,1.5891336E-2,2.437756E1,-7.63116E-2,4.006678E-2,2.1755616E-1,-0E0,-2.1853074E-4,2.369996E-4,-0E0,-0E0,2.9130842E-4,-0E0,-2.762056E-4],"split_indices":[11,0,1,0,0,17,11,14,18,18,17,0,0,0,0,0,0,0,0],"split_type":[0,0,0,0,0,0,0,0,0,0,0,0,0,0,0,0,0,0,0],"sum_hessian":[6.82E2,1.5E1,6.67E2,1E1,5E0,2.13E2,4.54E2,1.94E2,1.9E1,3.37E2,1.17E2,6E0,1.88E2,1.1E1,8E0,2.57E2,8E1,4.6E1,7.1E1],"tree_param":{"num_deleted":"0","num_feature":"20","num_nodes":"19","size_leaf_vector":"1"}},{"base_weights":[4.8418978E-4,-3.586309E-4,8.216825E-3,-3.6507794E-3,2.663446E-3,1.071002E-2,-0E0,4.658199E-3,-5.4629426E-3,4.6287607E-3,-3.4423019E-3,1.2191671E-2,-0E0,3.0169456E-4,-0E0,-0E0,-2.1775301E-4,-0E0,2.420341E-4,-2.4637557E-4,-0E0,-0E0,3.9585278E-4],"categories":[],"categories_nodes":[],"categories_segments":[],"categories_sizes":[],"default_left":[0,0,0,0,0,0,0,0,0,0,0,0,0,0,0,0,0,0,0,0,0,0,0],"id":17,"left_children":[1,3,5,7,9,11,-1,13,15,17,19,21,-1,-1,-1,-1,-1,-1,-1,-1,-1,-1,-1],"loss_changes":[5.9932643E-3,6.067225E-3,2.6410837E-3,4.9143652E-3,3.5651478E-3,9.438507E-4,0E0,2.3322636E-3,2.925315E-3,2.6019164E-3,1.2440559E-3,4.370138E-4,0E0,0E0,0E0,0E0,0E0,0E0,0E0,0E0,0E0,0E0,0E0],"parents":[2147483647,0,0,1,1,2,2,3,3,4,4,5,5,7,7,8,8,9,9,10,10,11,11],"right_children":[2,4,6,8,10,12,-1,14,16,18,20,22,-1,-1,-1,-1,-1,-1,-1,-1,-1,-1,-1],"split_conditions":[3.0350608E-1,1.1837432E-3,6.666667E-1,-4.0515654E-2,1.1057977E-1,6.094808E-2,-0E0,2.5418338E-1,-9.758895E-2,1.8623365E-1,3.5036497E-2,6.25E-2,-0E0,3.0169456E-4,-0E0,-0E0,-2.1775301E-4,-0E0,2.420341E-4,-2.4637557E-4,-0E0,-0E0,3.9585278E-4],"split_indices":[17,11,13,12,0,12,0,17,4,17,12,2,0,0,0,0,0,0,0,0,0,0,0],"split_type":[0,0,0,0,0,0,0,0,0,0,0,0,0,0,0,0,0,0,0,0,0,0,0],"sum_hessian":[6.77E2,5.88E2,8.9E1,3.13E2,2.75E2,7.5E1,1.4E1,3.6E1,2.77E2,2.33E2,4.2E1,6.4E1,1.1E1,3E1,6E0,6.5E1,2.12E2,1.17E2,1.16E2,2.5E1,1.7E1,7E0,5.7E1],"tree_param":{"num_deleted":"0","num_feature":"20","num_nodes":"23","size_leaf_vector":"1"}},{"base_weights":[6.3078525E-4,-2.4943335E-3,2.381837E-3,4.358869E-3,-6.809527E-3,4.594072E-3,-3.1424642E-3,3.485522E-4,-0E0,-9.077845E-3,-0E0,2.2908008E-4,1.1080594E-2,-0E0,-1.2262171E-2,-0E0,-3.0742044E-4,1.20732206E-4,-0E0,-0E0,4.149067E-4,-3.6088345E-4,1.545305E-4,-5.3155323E-4,-0E0],"categories":[],"categories_nodes":[],"categories_segments":[],"categories_sizes":[],"default_left":[0,0,0,0,0,0,0,0,0,0,0,0,0,0,0,0,0,0,0,0,0,0,0,0,0],"id":18,"left_children":[1,3,5,7,9,11,13,-1,-1,15,-1,17,19,21,23,-1,-1,-1,-1,-1,-1,-1,-1,-1,-1],"loss_changes":[3.8468463E-3,6.81884E-3,6.3419575E-3,1.8697262E-3,3.556645E-3,8.466388E-3,5.470367E-3,0E0,0E0,1.8202281E-3,0E0,8.292747E-4,1.718672E-3,3.3815359E-3,4.3721343E-3,0E0,0E0,0E0,0E0,0E0,0E0,0E0,0E0,0E0,0E0],"parents":[2147483647,0,0,1,1,2,2,3,3,4,4,5,5,6,6,9,9,11,11,12,12,13,13,14,14],"right_children":[2,4,6,8,10,12,14,-1,-1,16,-1,18,20,22,24,-1,-1,-1,-1,-1,-1,-1,-1,-1,-1],"split_conditions":[1.9117647E-1,-7.388535E-2,1.698726E-2,2.764472E1,4.428847E1,2.3509206E-1,6.2653564E-2,3.485522E-4,-0E0,-9.368118E-2,-0E0,-9.756098E-3,8.5210365E-1,1.8899584E-2,1.3288007E0,-0E0,-3.0742044E-4,1.20732206E-4,-0E0,-0E0,4.149067E-4,-3.6088345E-4,1.545305E-4,-5.3155323E-4,-0E0],"split_indices":[1,18,11,14,14,17,7,0,0,0,0,7,19,11,4,0,0,0,0,0,0,0,0,0,0],"split_type":[0,0,0,0,0,0,0,0,0,0,0,0,0,0,0,0,0,0,0,0,0,0,0,0,0],"sum_hessian":[7.05E2,2.12E2,4.93E2,6.4E1,1.48E2,3.78E2,1.15E2,2.2E1,4.2E1,1.26E2,2.2E1,2.45E2,1.33E2,7.2E1,4.3E1,1E1,1.16E2,5.1E1,1.94E2,3.9E1,9.4E1,1.1E1,6.1E1,3.4E1,9E0],"tree_param":{"num_deleted":"0","num_feature":"20","num_nodes":"25","size_leaf_vector":"1"}},{"base_weights":[2.1019665E-4,1.3124192E-2,-2.844946E-5,-0E0,1.7994815E-2,-1.6673654E-3,3.639916E-3,6.666569E-4,-0E0,-4.0502604E-3,-0E0,5.6629083E-3,-7.266683E-5,-0E0,-1.8070145E-4,7.2830546E-5,-1.3789306E-4,7.60489E-5,9.1355457E-4],"categories":[],"categories_nodes":[],"categories_segments":[],"categories_sizes":[],"default_left":[0,0,0,0,0,0,0,0,0,0,0,0,0,0,0,0,0,0,0],"id":19,"left_children":[1,3,5,-1,7,9,11,-1,-1,13,15,17,-1,-1,-1,-1,-1,-1,-1],"loss_changes":[4.7922437E-3,6.8198424E-4,3.687792E-3,0E0,4.2092428E-4,2.3307365E-3,2.7712039E-3,0E0,0E0,2.4275403E-3,2.9662033E-3,5.266356E-3,0E0,0E0,0E0,0E0,0E0,0E0,0E0],"parents":[2147483647,0,0,1,1,2,2,4,4,5,5,6,6,9,9,10,10,11,11],"right_children":[2,4,6,-1,8,10,12,-1,-1,14,16,18,-1,-1,-1,-1,-1,-1,-1],"split_conditions":[-9.465792E-2,8.1551104E-4,1.2175932E-1,-0E0,-1.3975156E-2,3.75E-1,1.312892E-1,6.666569E-4,-0E0,3.31168E1,4.411765E-2,6.563707E-2,-7.266683E-5,-0E0,-1.8070145E-4,7.2830546E-5,-1.3789306E-4,7.60489E-5,9.1355457E-4],"split_indices":[18,4,4,0,12,1,0,0,0,14,7,12,0,0,0,0,0,0,0],"split_type":[0,0,0,0,0,0,0,0,0,0,0,0,0,0,0,0,0,0,0],"sum_hessian":[7.04E2,2.7E1,6.77E2,1.1E1,1.6E1,5.06E2,1.71E2,1.1E1,5E0,2.27E2,2.79E2,1.53E2,1.8E1,5.8E1,1.69E2,1.94E2,8.5E1,1.44E2,9E0],"tree_param":{"num_deleted":"0","num_feature":"20","num_nodes":"19","size_leaf_vector":"1"}},{"base_weights":[-4.6883445E-4,1.5915187E-2,-1.1517766E-3,-0E0,6.0929474E-4,-6.625333E-3,-0E0,-7.5804144E-3,-0E0,1.2479043E-3,-7.8942E-3,-0E0,-2.450012E-4,-1.9176277E-5,1.11406356E-4,-3.2378422E-4,-0E0],"categories":[],"categories_nodes":[],"categories_segments":[],"categories_sizes":[],"default_left":[0,0,0,0,0,0,0,0,0,0,0,0,0,0,0,0,0],"id":20,"left_children":[1,3,5,-1,-1,7,9,11,-1,13,15,-1,-1,-1,-1,-1,-1],"loss_changes":[5.077216E-3,6.4388337E-4,5.3922725E-3,0E0,0E0,1.4365767E-3,4.514622E-3,1.1256058E-4,0E0,2.9344074E-3,2.5510695E-3,0E0,0E0,0E0,0E0,0E0,0E0],"parents":[2147483647,0,0,1,1,2,2,5,5,6,6,7,7,9,9,10,10],"right_children":[2,4,6,-1,-1,8,10,12,-1,14,16,-1,-1,-1,-1,-1,-1],"split_conditions":[-2.463651E-2,8.694088E-1,5.7692308E-2,-0E0,6.0929474E-4,2.4143018E-1,1.1057977E-1,-1.0820146E-2,-0E0,1.1837432E-3,1.4895165E0,-0E0,-2.450012E-4,-1.9176277E-5,1.11406356E-4,-3.2378422E-4,-0E0],"split_indices":[11,19,1,0,0,4,0,15,0,11,19,0,0,0,0,0,0],"split_type":[0,0,0,0,0,0,0,0,0,0,0,0,0,0,0,0,0],"sum_hessian":[7.15E2,1.6E1,6.99E2,5E0,1.1E1,1.43E2,5.56E2,1.34E2,9E0,4.97E2,5.9E1,1.7E1,1.17E2,2.36E2,2.61E2,5.3E1,6E0],"tree_param":{"num_deleted":"0","num_feature":"20","num_nodes":"17","size_leaf_vector":"1"}},{"base_weights":[4.6149504E-4,9.2496973E-4,-0E0,-2.6263853E-3,2.639196E-3,-4.8115756E-3,2.267228E-3,3.7879525E-3,-4.8597087E-3,-0E0,-1.9517653E-4,-0E0,1.7560858E-4,-0E0,1.8155896E-4,-0E0,-2.8186257E-4],"categories":[],"categories_nodes":[],"categories_segments":[],"categories_sizes":[],"default_left":[0,0,0,0,0,0,0,0,0,0,0,0,0,0,0,0,0],"id":21,"left_children":[1,-1,3,5,7,9,11,13,15,-1,-1,-1,-1,-1,-1,-1,-1],"loss_changes":[8.404901E-3,0E0,4.8596445E-3,4.176948E-3,2.8966323E-3,2.4572005E-3,1.5521519E-3,2.33535E-3,9.1023697E-4,0E0,0E0,0E0,0E0,0E0,0E0,0E0,0E0],"parents":[2147483647,0,0,2,2,3,3,4,4,5,5,6,6,7,7,8,8],"right_children":[2,-1,4,6,8,10,12,14,16,-1,-1,-1,-1,-1,-1,-1,-1],"split_conditions":[-1.1374407E-1,9.2496973E-4,-3.90625E-3,2.4497606E-1,1.3663898E-1,-1.6770024E-2,-9.47192E-3,1.901345E-1,2.151177E-1,-0E0,-1.9517653E-4,-0E0,1.7560858E-4,-0E0,1.8155896E-4,-0E0,-2.8186257E-4],"split_indices":[18,0,18,17,0,11,15,17,17,0,0,0,0,0,0,0,0],"split_type":[0,0,0,0,0,0,0,0,0,0,0,0,0,0,0,0,0],"sum_hessian":[7.07E2,8E0,6.99E2,3.41E2,3.58E2,2.64E2,7.7E1,3.34E2,2.4E1,6.2E1,2.02E2,2.1E1,5.6E1,1.4E2,1.94E2,8E0,1.6E1],"tree_param":{"num_deleted":"0","num_feature":"20","num_nodes":"17","size_leaf_vector":"1"}},{"base_weights":[-0E0,-8.8943716E-4,6.0809352E-3,-0E0,-8.938536E-3,-0E0,1.5660554E-2,-2.0571204E-3,3.1115785E-3,-1.1742866E-2,-0E0,1.3629658E-4,-1.6470049E-5,5.645067E-4,-0E0,-1.7855069E-4,-0E0,-0E0,2.3228211E-4,-0E0,-4.4608512E-4,-6.1163075E-5,-0E0],"categories":[],"categories_nodes":[],"categories_segments":[],"categories_sizes":[],"default_left":[0,0,0,0,0,0,0,0,0,0,0,0,0,0,0,0,0,0,0,0,0,0,0],"id":22,"left_children":[1,3,5,7,9,11,13,15,17,19,-1,-1,21,-1,-1,-1,-1,-1,-1,-1,-1,-1,-1],"loss_changes":[3.7601432E-3,3.4458523E-3,4.557073E-3,3.400568E-3,2.152402E-3,1.8578116E-4,1.3578655E-3,3.2116012E-3,1.660614E-3,1.2289961E-3,0E0,0E0,1.7871935E-4,0E0,0E0,0E0,0E0,0E0,0E0,0E0,0E0,0E0,0E0],"parents":[2147483647,0,0,1,1,2,2,3,3,4,4,5,5,6,6,7,7,8,8,9,9,12,12],"right_children":[2,4,6,8,10,12,14,16,18,20,-1,-1,22,-1,-1,-1,-1,-1,-1,-1,-1,-1,-1],"split_conditions":[1.2067792E0,5.7894737E-2,2.5E-2,3.720605E-2,1.3288007E0,-1.6007079E-2,5.750742E-1,2.2222222E-1,8.055556E-1,-1.3370563E-1,-0E0,1.3629658E-4,6.504065E-2,5.645067E-4,-0E0,-1.7855069E-4,-0E0,-0E0,2.3228211E-4,-0E0,-4.4608512E-4,-6.1163075E-5,-0E0],"split_indices":[19,7,12,4,4,11,4,1,1,4,0,0,18,0,0,0,0,0,0,0,0,0,0],"split_type":[0,0,0,0,0,0,0,0,0,0,0,0,0,0,0,0,0,0,0,0,0,0,0],"sum_hessian":[6.8E2,5.92E2,8.8E1,5.44E2,4.8E1,5.7E1,3.1E1,3.45E2,1.99E2,4.3E1,5E0,8E0,4.9E1,2.5E1,6E0,1.31E2,2.14E2,1.4E2,5.9E1,1.1E1,3.2E1,4.2E1,7E0],"tree_param":{"num_deleted":"0","num_feature":"20","num_nodes":"23","size_leaf_vector":"1"}},{"base_weights":[4.4249513E-4,1.1750799E-2,-0E0,-0E0,1.6952287E-2,-3.4767007E-3,2.053942E-3,7.0524076E-4,-0E0,1.1728354E-3,-5.1207785E-3,3.3036692E-3,-9.847719E-3,1.5696956E-4,-0E0,-0E0,-2.3862474E-4,5.807617E-5,6.817049E-4,-0E0,-3.6714977E-4],"categories":[],"categories_nodes":[],"categories_segments":[],"categories_sizes":[],"default_left":[0,0,0,0,0,0,0,0,0,0,0,0,0,0,0,0,0,0,0,0,0],"id":23,"left_children":[1,3,5,-1,7,9,11,-1,-1,13,15,17,19,-1,-1,-1,-1,-1,-1,-1,-1],"loss_changes":[4.0008733E-3,4.5564305E-4,5.0093364E-3,0E0,9.2819193E-4,2.8136626E-3,5.134344E-3,0E0,0E0,6.595355E-4,4.107234E-3,5.808461E-3,4.7411537E-4,0E0,0E0,0E0,0E0,0E0,0E0,0E0,0E0],"parents":[2147483647,0,0,1,1,2,2,4,4,5,5,6,6,9,9,10,10,11,11,12,12],"right_children":[2,4,6,-1,8,10,12,-1,-1,14,16,18,20,-1,-1,-1,-1,-1,-1,-1,-1],"split_conditions":[-9.465792E-2,8.1551104E-4,4.510247E1,-0E0,-1.3975156E-2,-4.0515654E-2,1.3663898E-1,7.0524076E-4,-0E0,3.401315E1,7.777778E-1,6.563707E-2,2.5893315E-3,1.5696956E-4,-0E0,-0E0,-2.3862474E-4,5.807617E-5,6.817049E-4,-0E0,-3.6714977E-4],"split_indices":[18,4,14,0,12,12,0,0,0,14,2,12,15,0,0,0,0,0,0,0,0],"split_type":[0,0,0,0,0,0,0,0,0,0,0,0,0,0,0,0,0,0,0,0,0],"sum_hessian":[7.22E2,2.9E1,6.93E2,1.4E1,1.5E1,2.63E2,4.3E2,9E0,6E0,3.7E1,2.26E2,4.05E2,2.5E1,2.5E1,1.2E1,6.8E1,1.58E2,3.89E2,1.6E1,6E0,1.9E1],"tree_param":{"num_deleted":"0","num_feature":"20","num_nodes":"21","size_leaf_vector":"1"}},{"base_weights":[1.0219523E-4,1.7282555E-2,-1.125097E-5,-0E0,6.7353284E-4,-3.3562642E-3,1.7435079E-3,-3.1146724E-4,-7.2733914E-3,3.075039E-3,-1.0086153E-2,-3.196005E-4,-0E0,-0E0,-2.9290374E-4,2.1555401E-5,1.9279755E-4,-0E0,-3.7938813E-4],"categories":[],"categories_nodes":[],"categories_segments":[],"categories_sizes":[],"default_left":[0,0,0,0,0,0,0,0,0,0,0,0,0,0,0,0,0,0,0],"id":24,"left_children":[1,3,5,-1,-1,7,9,11,13,15,17,-1,-1,-1,-1,-1,-1,-1,-1],"loss_changes":[4.7720107E-3,2.615298E-4,4.208269E-3,0E0,0E0,1.6652334E-3,4.8506586E-3,1.3444644E-3,1.4454126E-3,1.4965222E-3,6.553014E-4,0E0,0E0,0E0,0E0,0E0,0E0,0E0,0E0],"parents":[2147483647,0,0,1,1,2,2,5,5,6,6,7,7,8,8,9,9,10,10],"right_children":[2,4,6,-1,-1,8,10,12,14,16,18,-1,-1,-1,-1,-1,-1,-1,-1],"split_conditions":[-2.463651E-2,1E0,4.510247E1,-0E0,6.7353284E-4,-4.0871933E-2,1.3663898E-1,-1.08325005E-1,-1.1193193E-1,7.304189E-2,6.891496E-2,-3.196005E-4,-0E0,-0E0,-2.9290374E-4,2.1555401E-5,1.9279755E-4,-0E0,-3.7938813E-4],"split_indices":[11,9,14,0,0,18,0,16,4,4,7,0,0,0,0,0,0,0,0],"split_type":[0,0,0,0,0,0,0,0,0,0,0,0,0,0,0,0,0,0,0],"sum_hessian":[6.75E2,1.5E1,6.6E2,6E0,9E0,2.66E2,3.94E2,1.79E2,8.7E1,3.7E2,2.4E1,1.1E1,1.68E2,2.4E1,6.3E1,2.53E2,1.17E2,5E0,1.9E1],"tree_param":{"num_deleted":"0","num_feature":"20","num_nodes":"19","size_leaf_vector":"1"}},{"base_weights":[2.4882309E-5,5.7301903E-4,-9.767981E-5,-3.777612E-3,1.1518105E-3,-0E0,-7.021409E-3,-0E0,6.2357616E-3,7.997318E-5,-0E0,-0E0,-2.801586E-4,4.3829354E-5,-1.03489525E-4,-0E0,3.86259E-4],"categories":[],"categories_nodes":[],"categories_segments":[],"categories_sizes":[],"default_left":[0,0,0,0,0,0,0,0,0,0,0,0,0,0,0,0,0],"id":25,"left_children":[1,-1,3,5,7,9,11,13,15,-1,-1,-1,-1,-1,-1,-1,-1],"loss_changes":[5.4787775E-3,0E0,3.7619332E-3,3.431717E-3,2.3506896E-3,2.2740298E-4,2.0768489E-3,1.9102851E-3,2.64217E-3,0E0,0E0,0E0,0E0,0E0,0E0,0E0,0E0],"parents":[2147483647,0,0,2,2,3,3,4,4,5,5,6,6,7,7,8,8],"right_children":[2,-1,4,6,8,10,12,14,16,-1,-1,-1,-1,-1,-1,-1,-1],"split_conditions":[-1.05522685E-1,5.7301903E-4,2.1212122E-1,-5.730374E-3,1.2143468E0,-4.0515654E-2,-9.279901E-2,2.698145E-2,2.5E-2,7.997318E-5,-0E0,-0E0,-2.801586E-4,4.3829354E-5,-1.03489525E-4,-0E0,3.86259E-4],"split_indices":[18,0,1,15,19,12,4,12,12,0,0,0,0,0,0,0,0],"split_type":[0,0,0,0,0,0,0,0,0,0,0,0,0,0,0,0,0],"sum_hessian":[7.16E2,1.4E1,7.02E2,2.18E2,4.84E2,8.6E1,1.32E2,4.08E2,7.6E1,3.1E1,5.5E1,3.4E1,9.8E1,3.03E2,1.05E2,4.3E1,3.3E1],"tree_param":{"num_deleted":"0","num_feature":"20","num_nodes":"17","size_leaf_vector":"1"}},{"base_weights":[2.8543474E-4,1.0439357E-3,-1.2023467E-2,-0E0,5.3468468E-3,-0E0,-4.386878E-4,1.4460789E-2,-9.1710035E-4,8.25983E-3,2.4096797E-4,5.1996164E-4,-0E0,-0E0,-1.1473725E-4,-0E0,3.230867E-4,1.5318362E-4,-6.0917402E-5],"categories":[],"categories_nodes":[],"categories_segments":[],"categories_sizes":[],"default_left":[0,0,0,0,0,0,0,0,0,0,0,0,0,0,0,0,0,0,0],"id":26,"left_children":[1,3,5,7,9,-1,-1,11,13,15,17,-1,-1,-1,-1,-1,-1,-1,-1],"loss_changes":[4.2867097E-3,4.073837E-3,4.4867583E-4,3.9637065E-3,7.965709E-4,0E0,0E0,4.9856724E-5,1.4781698E-3,2.0604674E-3,1.586951E-3,0E0,0E0,0E0,0E0,0E0,0E0,0E0,0E0],"parents":[2147483647,0,0,1,1,2,2,3,3,4,4,7,7,8,8,9,9,10,10],"right_children":[2,4,6,8,10,-1,-1,12,14,16,18,-1,-1,-1,-1,-1,-1,-1,-1],"split_conditions":[1.3486111E-1,4.071661E-2,9.284818E-2,-2.463651E-2,6.666667E-1,-0E0,-4.386878E-4,4.3250826E-1,1.0800924E0,1.6162072E-1,2.2944579E-1,5.1996164E-4,-0E0,-0E0,-1.1473725E-4,-0E0,3.230867E-4,1.5318362E-4,-6.0917402E-5],"split_indices":[0,18,18,11,13,0,0,17,19,17,17,0,0,0,0,0,0,0,0],"split_type":[0,0,0,0,0,0,0,0,0,0,0,0,0,0,0,0,0,0,0],"sum_hessian":[6.92E2,6.68E2,2.4E1,5.01E2,1.67E2,6E0,1.8E1,1.6E1,4.85E2,8.1E1,8.6E1,1.1E1,5E0,3.57E2,1.28E2,1.6E1,6.5E1,5.5E1,3.1E1],"tree_param":{"num_deleted":"0","num_feature":"20","num_nodes":"19","size_leaf_vector":"1"}},{"base_weights":[5.556341E-4,1.5637359E-2,-0E0,6.6894584E-4,-0E0,-2.3505446E-3,2.3246664E-3,6.6036393E-4,-4.0444005E-3,7.0674415E-3,-0E0,-0E0,8.744581E-5,-0E0,-1.4884619E-4,-0E0,2.625311E-4,3.4109926E-5,-1.5510722E-4],"categories":[],"categories_nodes":[],"categories_segments":[],"categories_sizes":[],"default_left":[0,0,0,0,0,0,0,0,0,0,0,0,0,0,0,0,0,0,0],"id":27,"left_children":[1,3,5,-1,-1,7,9,11,13,15,17,-1,-1,-1,-1,-1,-1,-1,-1],"loss_changes":[6.627866E-3,2.600226E-3,3.733206E-3,0E0,0E0,2.4593943E-3,4.438631E-3,4.051826E-4,1.0154694E-3,2.4100207E-3,1.6718975E-3,0E0,0E0,0E0,0E0,0E0,0E0,0E0,0E0],"parents":[2147483647,0,0,1,1,2,2,5,5,6,6,7,7,8,8,9,9,10,10],"right_children":[2,4,6,-1,-1,8,10,12,14,16,18,-1,-1,-1,-1,-1,-1,-1,-1],"split_conditions":[-9.811321E-2,-1.3975156E-2,1.1837432E-3,6.6894584E-4,-0E0,3.31168E1,2E0,9.752942E-1,-1.332129E-1,-2.6007802E-3,6.2653564E-2,-0E0,8.744581E-5,-0E0,-1.4884619E-4,-0E0,2.625311E-4,3.4109926E-5,-1.5510722E-4],"split_indices":[18,12,11,0,0,14,8,19,4,18,7,0,0,0,0,0,0,0,0],"split_type":[0,0,0,0,0,0,0,0,0,0,0,0,0,0,0,0,0,0,0],"sum_hessian":[7.08E2,2.7E1,6.81E2,1.8E1,9E0,3.48E2,3.33E2,8.3E1,2.65E2,1.24E2,2.09E2,3.2E1,5.1E1,4.8E1,2.17E2,1.2E1,1.12E2,1.55E2,5.4E1],"tree_param":{"num_deleted":"0","num_feature":"20","num_nodes":"19","size_leaf_vector":"1"}},{"base_weights":[-7.6033064E-4,-2.80352E-3,1.6876775E-3,-6.4642695E-3,-4.452075E-4,-9.4730916E-5,3.6771656E-3,-0E0,-1.4597334E-2,4.4577057E-4,-6.893806E-3,-3.2332821E-3,-0E0,5.0429413E-3,-0E0,-4.405519E-5,-0E0,-5.2610406E-4,-0E0,-0E0,7.88727E-5,-0E0,-3.6042582E-4,-0E0,-1.3586816E-4,1.3629466E-5,-0E0,5.399482E-6,2.3305118E-4],"categories":[],"categories_nodes":[],"categories_segments":[],"categories_sizes":[],"default_left":[0,0,0,0,0,0,0,0,0,0,0,0,0,0,0,0,0,0,0,0,0,0,0,0,0,0,0,0,0],"id":28,"left_children":[1,3,5,7,9,11,13,15,17,19,21,23,25,27,-1,-1,-1,-1,-1,-1,-1,-1,-1,-1,-1,-1,-1,-1,-1],"loss_changes":[3.734123E-3,2.3015994E-3,1.6920071E-3,5.267762E-3,2.9818746E-3,4.9050874E-4,1.7471465E-3,1.423297E-4,2.357006E-3,5.690771E-4,3.501292E-3,2.880856E-4,7.843299E-6,6.0903747E-4,0E0,0E0,0E0,0E0,0E0,0E0,0E0,0E0,0E0,0E0,0E0,0E0,0E0,0E0,0E0],"parents":[2147483647,0,0,1,1,2,2,3,3,4,4,5,5,6,6,7,7,8,8,9,9,10,10,11,11,12,12,13,13],"right_children":[2,4,6,8,10,12,14,16,18,20,22,24,26,28,-1,-1,-1,-1,-1,-1,-1,-1,-1,-1,-1,-1,-1,-1,-1],"split_conditions":[3.720605E-2,2.1212122E-1,1.634686E-1,-5.63475E-2,7.130882E-2,1.4408718E-1,1.3486111E-1,1.0958904E-1,1.1254328E0,2.2230569E-1,6.551724E-1,5.4474115E-2,2.6264137E-2,9.752942E-1,-0E0,-4.405519E-5,-0E0,-5.2610406E-4,-0E0,-0E0,7.88727E-5,-0E0,-3.6042582E-4,-0E0,-1.3586816E-4,1.3629466E-5,-0E0,5.399482E-6,2.3305118E-4],"split_indices":[4,1,17,4,0,4,0,1,19,17,1,4,0,19,0,0,0,0,0,0,0,0,0,0,0,0,0,0,0],"split_type":[0,0,0,0,0,0,0,0,0,0,0,0,0,0,0,0,0,0,0,0,0,0,0,0,0,0,0,0,0],"sum_hessian":[7E2,4.26E2,2.74E2,1.33E2,2.93E2,9.2E1,1.82E2,8.3E1,5E1,2.31E2,6.2E1,4.6E1,4.6E1,1.65E2,1.7E1,6.5E1,1.8E1,4.2E1,8E0,1.43E2,8.8E1,1.8E1,4.4E1,9E0,3.7E1,3.7E1,9E0,8.6E1,7.9E1],"tree_param":{"num_deleted":"0","num_feature":"20","num_nodes":"29","size_leaf_vector":"1"}},{"base_weights":[-5.660597E-4,8.638111E-3,-1.2180925E-3,3.4359624E-4,-0E0,-4.103694E-3,-0E0,-0E0,-7.403358E-3,2.385605E-3,-1.9382638E-3,-0E0,2.6902113E-5,-3.0368066E-4,-0E0,3.264442E-4,1.306953E-5,-9.549757E-5,-0E0],"categories":[],"categories_nodes":[],"categories_segments":[],"categories_sizes":[],"default_left":[0,0,0,0,0,0,0,0,0,0,0,0,0,0,0,0,0,0,0],"id":29,"left_children":[1,3,5,-1,-1,7,9,11,13,15,17,-1,-1,-1,-1,-1,-1,-1,-1],"loss_changes":[2.8055315E-3,6.088619E-4,2.7023717E-3,0E0,0E0,3.6776033E-3,2.1953527E-3,5.950617E-5,3.9747288E-3,1.4758753E-3,1.0971915E-3,0E0,0E0,0E0,0E0,0E0,0E0,0E0,0E0],"parents":[2147483647,0,0,1,1,2,2,5,5,6,6,7,7,8,8,9,9,10,10],"right_children":[2,4,6,-1,-1,8,10,12,14,16,18,-1,-1,-1,-1,-1,-1,-1,-1],"split_conditions":[-9.465792E-2,-2.3675496E-3,2.1212122E-1,3.4359624E-4,-0E0,3.346922E1,2.2214612E-3,-8.386277E-2,0E0,7.10466E-1,1.1738774E0,-0E0,2.6902113E-5,-3.0368066E-4,-0E0,3.264442E-4,1.306953E-5,-9.549757E-5,-0E0],"split_indices":[18,15,1,0,0,14,15,18,13,19,19,0,0,0,0,0,0,0,0],"split_type":[0,0,0,0,0,0,0,0,0,0,0,0,0,0,0,0,0,0,0],"sum_hessian":[7.12E2,2.6E1,6.86E2,1.9E1,7E0,2.2E2,4.66E2,8.6E1,1.34E2,2.25E2,2.41E2,1.3E1,7.3E1,1.1E2,2.4E1,2.2E1,2.03E2,1.97E2,4.4E1],"tree_param":{"num_deleted":"0","num_feature":"20","num_nodes":"19","size_leaf_vector":"1"}},{"base_weights":[-0E0,1.3848593E-3,-3.040362E-3,2.4955343E-3,-9.276641E-3,-0E0,-6.517373E-3,4.9573474E-4,8.000362E-3,-0E0,-4.0072633E-4,1.8378109E-3,-0E0,-0E0,-7.864789E-3,2.3505113E-4,-0E0,3.2853152E-4,-0E0,-0E0,2.1674071E-4,-5.0269406E-5,-0E0,-2.9244105E-4,-0E0],"categories":[],"categories_nodes":[],"categories_segments":[],"categories_sizes":[],"default_left":[0,0,0,0,0,0,0,0,0,0,0,0,0,0,0,0,0,0,0,0,0,0,0,0,0],"id":30,"left_children":[1,3,5,7,9,11,13,15,17,-1,-1,19,21,-1,23,-1,-1,-1,-1,-1,-1,-1,-1,-1,-1],"loss_changes":[3.0436814E-3,4.161367E-3,3.495522E-3,3.1185602E-3,1.2449666E-3,1.08081564E-4,2.206246E-3,2.4311326E-3,1.5549343E-3,0E0,0E0,7.792529E-4,7.58104E-5,0E0,2.5020633E-3,0E0,0E0,0E0,0E0,0E0,0E0,0E0,0E0,0E0,0E0],"parents":[2147483647,0,0,1,1,2,2,3,3,4,4,5,5,6,6,7,7,8,8,11,11,12,12,14,14],"right_children":[2,4,6,8,10,12,14,16,18,-1,-1,20,22,-1,24,-1,-1,-1,-1,-1,-1,-1,-1,-1,-1],"split_conditions":[8.0487806E-1,1.3486111E-1,3.336098E1,1.6840035E-1,2.5893315E-3,-4.347826E-2,-9.465792E-2,-4.5748134E-3,2.6086956E-1,-0E0,-4.0072633E-4,8.916613E-3,-2.7314112E-2,-0E0,4.4967064E1,2.3505113E-4,-0E0,3.2853152E-4,-0E0,-0E0,2.1674071E-4,-5.0269406E-5,-0E0,-2.9244105E-4,-0E0],"split_indices":[2,0,14,4,15,12,18,15,2,0,0,4,12,0,14,0,0,0,0,0,0,0,0,0,0],"split_type":[0,0,0,0,0,0,0,0,0,0,0,0,0,0,0,0,0,0,0,0,0,0,0,0,0],"sum_hessian":[6.95E2,4.63E2,2.32E2,4.37E2,2.6E1,1E2,1.32E2,3.48E2,8.9E1,7E0,1.9E1,3.1E1,6.9E1,6E0,1.26E2,4E1,3.08E2,6E1,2.9E1,1.5E1,1.6E1,2.6E1,4.3E1,1.08E2,1.8E1],"tree_param":{"num_deleted":"0","num_feature":"20","num_nodes":"25","size_leaf_vector":"1"}},{"base_weights":[-0E0,1.5207124E-2,-2.6969542E-4,5.3890696E-4,-0E0,-0E0,-3.6885828E-4,-1.6047042E-3,4.52346E-3,-7.993617E-5,1.5959103E-4,6.693883E-5,8.368987E-4],"categories":[],"categories_nodes":[],"categories_segments":[],"categories_sizes":[],"default_left":[0,0,0,0,0,0,0,0,0,0,0,0,0],"id":31,"left_children":[1,3,5,-1,-1,7,-1,9,11,-1,-1,-1,-1],"loss_changes":[4.4439905E-3,1.2378022E-4,3.275709E-3,0E0,0E0,5.1032957E-3,0E0,3.0057312E-3,4.0378757E-3,0E0,0E0,0E0,0E0],"parents":[2147483647,0,0,1,1,2,2,5,5,7,7,8,8],"right_children":[2,4,6,-1,-1,8,-1,10,12,-1,-1,-1,-1],"split_conditions":[-2.463651E-2,9.791922E-3,1.3663898E-1,5.3890696E-4,-0E0,4.006678E-2,-3.6885828E-4,3.266873E-1,6.563707E-2,-7.993617E-5,1.5959103E-4,6.693883E-5,8.368987E-4],"split_indices":[11,12,0,0,0,18,0,17,12,0,0,0,0],"split_type":[0,0,0,0,0,0,0,0,0,0,0,0,0],"sum_hessian":[7.06E2,1.8E1,6.88E2,1.3E1,5E0,6.67E2,2.1E1,4.79E2,1.88E2,4.41E2,3.8E1,1.8E2,8E0],"tree_param":{"num_deleted":"0","num_feature":"20","num_nodes":"13","size_leaf_vector":"1"}},{"base_weights":[-2.4545669E-5,-2.4418638E-3,6.524727E-4,-0E0,-5.220725E-3,2.050453E-3,-6.925063E-4,1.411353E-4,-0E0,-6.4904904E-3,-0E0,-0E0,4.9286243E-3,-2.8777118E-3,1.4818948E-3,9.430866E-5,-8.096399E-5,-2.853621E-4,-0E0,-2.4849702E-5,1.2920638E-4,2.2559408E-4,-0E0,-1.2116724E-4,-0E0,-0E0,1.3199396E-4],"categories":[],"categories_nodes":[],"categories_segments":[],"categories_sizes":[],"default_left":[0,0,0,0,0,0,0,0,0,0,0,0,0,0,0,0,0,0,0,0,0,0,0,0,0,0,0],"id":32,"left_children":[1,3,5,7,9,11,13,-1,15,17,-1,19,21,23,25,-1,-1,-1,-1,-1,-1,-1,-1,-1,-1,-1,-1],"loss_changes":[1.5050697E-3,2.4341994E-3,1.181172E-3,4.8691314E-4,1.2368548E-3,1.1257832E-3,1.1101911E-3,0E0,4.723689E-4,1.543601E-3,0E0,1.2529688E-3,1.1333541E-3,9.213815E-4,4.885143E-4,0E0,0E0,0E0,0E0,0E0,0E0,0E0,0E0,0E0,0E0,0E0,0E0],"parents":[2147483647,0,0,1,1,2,2,3,3,4,4,5,5,6,6,8,8,9,9,11,11,12,12,13,13,14,14],"right_children":[2,4,6,8,10,12,14,-1,16,18,-1,20,22,24,26,-1,-1,-1,-1,-1,-1,-1,-1,-1,-1,-1,-1],"split_conditions":[1.9117647E-1,-6.993007E-2,4.2097126E-3,9.13064E-1,-1.7348204E-2,2.447259E-1,1.1415248E0,1.411353E-4,2.437756E1,1.027637E0,-0E0,4.006678E-2,2.16763E-2,1.3288007E0,-4.3277375E-2,9.430866E-5,-8.096399E-5,-2.853621E-4,-0E0,-2.4849702E-5,1.2920638E-4,2.2559408E-4,-0E0,-1.2116724E-4,-0E0,-0E0,1.3199396E-4],"split_indices":[3,18,15,19,7,17,19,0,14,19,0,18,12,4,4,0,0,0,0,0,0,0,0,0,0,0,0],"split_type":[0,0,0,0,0,0,0,0,0,0,0,0,0,0,0,0,0,0,0,0,0,0,0,0,0,0,0],"sum_hessian":[6.99E2,2.17E2,4.82E2,8.1E1,1.36E2,3.09E2,1.73E2,2.1E1,6E1,1.17E2,1.9E1,2.1E2,9.9E1,1.32E2,4.1E1,7E0,5.3E1,7.1E1,4.6E1,1.49E2,6.1E1,6.2E1,3.7E1,1.23E2,9E0,1.2E1,2.9E1],"tree_param":{"num_deleted":"0","num_feature":"20","num_nodes":"27","size_leaf_vector":"1"}},{"base_weights":[-0E0,-9.819164E-4,4.950718E-3,-1.8738186E-3,1.8370315E-2,9.2632E-3,-0E0,-0E0,-4.497178E-3,1.2783692E-3,-0E0,3.2776303E-4,-0E0,-0E0,-1.358435E-3,1.4006865E-4,-3.4955818E-5,-2.47988E-4,-0E0,-0E0,-1.0672044E-4],"categories":[],"categories_nodes":[],"categories_segments":[],"categories_sizes":[],"default_left":[0,0,0,0,0,0,0,0,0,0,0,0,0,0,0,0,0,0,0,0,0],"id":33,"left_children":[1,3,5,7,9,11,13,15,17,-1,-1,-1,-1,-1,19,-1,-1,-1,-1,-1,-1],"loss_changes":[2.792074E-3,7.2293826E-3,3.2857752E-3,2.1887647E-3,6.973698E-3,4.7661597E-4,2.3989493E-5,1.5216221E-3,2.6340554E-3,0E0,0E0,0E0,0E0,0E0,6.459359E-5,0E0,0E0,0E0,0E0,0E0,0E0],"parents":[2147483647,0,0,1,1,2,2,3,3,4,4,5,5,6,6,7,7,8,8,14,14],"right_children":[2,4,6,8,10,12,14,16,18,-1,-1,-1,-1,-1,20,-1,-1,-1,-1,-1,-1],"split_conditions":[3.195636E-1,6.479218E-2,3.6871508E-2,2.151177E-1,9.452357E-2,7.39382E-3,3.9980122E-1,-1.7003188E-2,4.3076923E-1,1.2783692E-3,-0E0,3.2776303E-4,-0E0,-0E0,6.5217394E-1,1.4006865E-4,-3.4955818E-5,-2.47988E-4,-0E0,-0E0,-1.0672044E-4],"split_indices":[17,12,12,17,0,15,17,11,1,0,0,0,0,0,1,0,0,0,0,0,0],"split_type":[0,0,0,0,0,0,0,0,0,0,0,0,0,0,0,0,0,0,0,0,0],"sum_hessian":[6.96E2,6.07E2,8.9E1,5.91E2,1.6E1,6.3E1,2.6E1,3.81E2,2.1E2,6E0,1E1,4.9E1,1.4E1,1.4E1,1.2E1,4.8E1,3.33E2,1E2,1.1E2,6E0,6E0],"tree_param":{"num_deleted":"0","num_feature":"20","num_nodes":"21","size_leaf_vector":"1"}},{"base_weights":[1.4969474E-4,-3.681394E-4,5.85131E-3,-2.145205E-3,9.966345E-4,1.2589167E-2,-0E0,-0E0,-4.9232314E-3,4.303935E-3,-0E0,4.104515E-4,-0E0,7.132008E-5,-1.9835716E-5,-3.2530935E-4,-0E0,-0E0,2.1582318E-4,3.853054E-5,-1.6944425E-4],"categories":[],"categories_nodes":[],"categories_segments":[],"categories_sizes":[],"default_left":[0,0,0,0,0,0,0,0,0,0,0,0,0,0,0,0,0,0,0,0,0],"id":34,"left_children":[1,3,5,7,9,11,-1,13,15,17,19,-1,-1,-1,-1,-1,-1,-1,-1,-1,-1],"loss_changes":[3.1123871E-3,1.672476E-3,3.6092917E-3,2.4205386E-3,1.6553155E-3,2.6954897E-4,0E0,4.3106335E-4,3.270311E-3,2.2139319E-3,2.0064355E-3,0E0,0E0,0E0,0E0,0E0,0E0,0E0,0E0,0E0,0E0],"parents":[2147483647,0,0,1,1,2,2,3,3,4,4,5,5,7,7,8,8,9,9,10,10],"right_children":[2,4,6,8,10,12,-1,14,16,18,20,-1,-1,-1,-1,-1,-1,-1,-1,-1,-1],"split_conditions":[3.1067172E-1,1.1837432E-3,1.4522822E-2,-4.191617E-2,2E0,6.666667E-1,-0E0,1.6693841E-1,1.6214958E-1,4.7335068E1,2.253203E-1,4.104515E-4,-0E0,7.132008E-5,-1.9835716E-5,-3.2530935E-4,-0E0,-0E0,2.1582318E-4,3.853054E-5,-1.6944425E-4],"split_indices":[17,11,12,18,8,1,0,17,17,14,17,0,0,0,0,0,0,0,0,0,0],"split_type":[0,0,0,0,0,0,0,0,0,0,0,0,0,0,0,0,0,0,0,0,0],"sum_hessian":[6.81E2,5.93E2,8.8E1,3.21E2,2.72E2,4.1E1,4.7E1,1.61E2,1.6E2,1.03E2,1.69E2,3.6E1,5E0,6.8E1,9.3E1,6E1,1E2,2.4E1,7.9E1,1.13E2,5.6E1],"tree_param":{"num_deleted":"0","num_feature":"20","num_nodes":"21","size_leaf_vector":"1"}},{"base_weights":[6.7590916E-4,-4.0959136E-4,5.4769684E-3,9.0636895E-5,-5.807108E-3,7.5205164E-3,-0E0,-3.7791728E-4,8.62083E-3,-0E0,-8.064289E-3,4.4140895E-3,9.628368E-4,-3.2196607E-5,-0E0,-1.0027417E-4,4.2443084E-5,3.2551E-4,-0E0,-0E0,-2.5573993E-4,-0E0,1.946638E-4],"categories":[],"categories_nodes":[],"categories_segments":[],"categories_sizes":[],"default_left":[0,0,0,0,0,0,0,0,0,0,0,0,0,0,0,0,0,0,0,0,0,0,0],"id":35,"left_children":[1,3,5,7,9,11,13,15,17,-1,19,21,-1,-1,-1,-1,-1,-1,-1,-1,-1,-1,-1],"loss_changes":[4.7732475E-3,2.642315E-3,3.2479623E-3,3.550348E-3,1.9508353E-3,3.701874E-3,1.9580631E-5,2.6701982E-3,1.0984794E-3,0E0,1.8652529E-4,5.111196E-4,0E0,0E0,0E0,0E0,0E0,0E0,0E0,0E0,0E0,0E0,0E0],"parents":[2147483647,0,0,1,1,2,2,3,3,4,4,5,5,6,6,7,7,8,8,10,10,11,11],"right_children":[2,4,6,8,10,12,14,16,18,-1,20,22,-1,-1,-1,-1,-1,-1,-1,-1,-1,-1,-1],"split_conditions":[1.4123741E-1,4.411765E-2,1.312892E-1,3.3605662E-1,-1.6806724E-2,6.563707E-2,7.572051E1,2.888889E-1,3.4300793E-2,-0E0,5.294118E-1,6.3051702E-3,9.628368E-4,-3.2196607E-5,-0E0,-1.0027417E-4,4.2443084E-5,3.2551E-4,-0E0,-0E0,-2.5573993E-4,-0E0,1.946638E-4],"split_indices":[4,7,0,17,18,12,14,1,7,0,1,18,0,0,0,0,0,0,0,0,0,0,0],"split_type":[0,0,0,0,0,0,0,0,0,0,0,0,0,0,0,0,0,0,0,0,0,0,0],"sum_hessian":[7.2E2,5.54E2,1.66E2,4.74E2,8E1,1.45E2,2.1E1,4.28E2,4.6E1,9E0,7.1E1,1.37E2,8E0,1.6E1,5E0,2.03E2,2.25E2,3.8E1,8E0,5E0,6.6E1,6.2E1,7.5E1],"tree_param":{"num_deleted":"0","num_feature":"20","num_nodes":"23","size_leaf_vector":"1"}},{"base_weights":[-0E0,-1.6666685E-3,3.5955377E-3,-3.396404E-3,-0E0,6.213408E-3,-2.2205256E-3,-0E0,-6.3383495E-3,1.1994462E-3,-1.9925581E-4,2.7883765E-3,1.4452851E-2,-0E0,-2.9630185E-4,1.8851217E-5,-0E0,-2.3450296E-4,-0E0,-0E0,1.3061895E-4,2.0109014E-4,-0E0,-0E0,5.342987E-4,-0E0,3.2876134E-5],"categories":[],"categories_nodes":[],"categories_segments":[],"categories_sizes":[],"default_left":[0,0,0,0,0,0,0,0,0,0,0,0,0,0,0,0,0,0,0,0,0,0,0,0,0,0,0],"id":36,"left_children":[1,3,5,7,9,11,13,15,17,19,-1,21,23,25,-1,-1,-1,-1,-1,-1,-1,-1,-1,-1,-1,-1,-1],"loss_changes":[4.1339886E-3,1.7426073E-3,4.1468022E-3,3.5834338E-3,1.0232909E-3,1.4500166E-3,2.021762E-3,2.8824328E-5,1.8032305E-3,1.0536432E-3,0E0,2.670087E-3,1.4621657E-3,2.1616805E-5,0E0,0E0,0E0,0E0,0E0,0E0,0E0,0E0,0E0,0E0,0E0,0E0,0E0],"parents":[2147483647,0,0,1,1,2,2,3,3,4,4,5,5,6,6,7,7,8,8,9,9,11,11,12,12,13,13],"right_children":[2,4,6,8,10,12,14,16,18,20,-1,22,24,26,-1,-1,-1,-1,-1,-1,-1,-1,-1,-1,-1,-1,-1],"split_conditions":[2.3631006E-1,0E0,1.698726E-2,-1.4189042E-2,2.253203E-1,1.1789187E0,3.6144577E-2,-1.242837E-3,5.920026E-4,5.1682692E-2,-1.9925581E-4,1E0,-9.47192E-3,1.9614909E-2,-2.9630185E-4,1.8851217E-5,-0E0,-2.3450296E-4,-0E0,-0E0,1.3061895E-4,2.0109014E-4,-0E0,-0E0,5.342987E-4,-0E0,3.2876134E-5],"split_indices":[17,13,11,11,17,19,7,15,11,18,0,10,15,11,0,0,0,0,0,0,0,0,0,0,0,0,0],"split_type":[0,0,0,0,0,0,0,0,0,0,0,0,0,0,0,0,0,0,0,0,0,0,0,0,0,0,0],"sum_hessian":[6.86E2,4.68E2,2.18E2,2.63E2,2.05E2,1.74E2,4.4E1,9.9E1,1.64E2,1.89E2,1.6E1,1.41E2,3.3E1,2.2E1,2.2E1,7.2E1,2.7E1,1.37E2,2.7E1,1.2E2,6.9E1,8.3E1,5.8E1,7E0,2.6E1,5E0,1.7E1],"tree_param":{"num_deleted":"0","num_feature":"20","num_nodes":"27","size_leaf_vector":"1"}},{"base_weights":[5.332608E-4,1.2073139E-2,-0E0,-0E0,1.6643614E-2,-2.0270636E-3,4.263073E-3,6.0575304E-4,-0E0,-3.0349593E-3,2.3991677E-3,-0E0,7.3229773E-3,-0E0,-1.3169563E-4,1.705456E-4,-0E0,-0E0,2.7476824E-4],"categories":[],"categories_nodes":[],"categories_segments":[],"categories_sizes":[],"default_left":[0,0,0,0,0,0,0,0,0,0,0,0,0,0,0,0,0,0,0],"id":37,"left_children":[1,3,5,-1,7,9,11,-1,-1,13,15,-1,17,-1,-1,-1,-1,-1,-1],"loss_changes":[4.3146904E-3,1.2986255E-3,5.963435E-3,0E0,2.9840553E-4,2.2088876E-3,3.0795014E-3,0E0,0E0,2.5661467E-3,7.786789E-4,0E0,2.3468854E-3,0E0,0E0,0E0,0E0,0E0,0E0],"parents":[2147483647,0,0,1,1,2,2,4,4,5,5,6,6,9,9,10,10,12,12],"right_children":[2,4,6,-1,8,10,12,-1,-1,14,16,-1,18,-1,-1,-1,-1,-1,-1],"split_conditions":[-9.465792E-2,2.35973E-1,8.090909E-1,-0E0,-1.3975156E-2,3.2187864E-1,1.8623365E-1,6.0575304E-4,-0E0,3.346922E1,1.4522822E-2,-0E0,5.4347827E-3,-0E0,-1.3169563E-4,1.705456E-4,-0E0,-0E0,2.7476824E-4],"split_indices":[18,17,1,0,12,17,17,0,0,14,12,0,12,0,0,0,0,0,0],"split_type":[0,0,0,0,0,0,0,0,0,0,0,0,0,0,0,0,0,0,0],"sum_hessian":[7.16E2,3E1,6.86E2,1E1,2E1,4.64E2,2.22E2,1.4E1,6E0,4.15E2,4.9E1,9E1,1.32E2,8.4E1,3.31E2,3.2E1,1.7E1,2E1,1.12E2],"tree_param":{"num_deleted":"0","num_feature":"20","num_nodes":"19","size_leaf_vector":"1"}},{"base_weights":[-0E0,4.5905057E-3,-6.819761E-4,7.6496596E-3,-0E0,-2.6852693E-3,3.3098384E-4,1.0673679E-2,-0E0,-0E0,-8.66488E-6,-0E0,-4.1422267E-3,3.2378286E-3,-3.7219021E-3,3.564529E-4,-0E0,-7.865046E-5,4.1764248E-5,-0E0,-1.8766438E-4,-0E0,1.3995336E-4,-0E0,-3.21075E-4],"categories":[],"categories_nodes":[],"categories_segments":[],"categories_sizes":[],"default_left":[0,0,0,0,0,0,0,0,0,0,0,0,0,0,0,0,0,0,0,0,0,0,0,0,0],"id":38,"left_children":[1,3,5,7,9,11,13,15,-1,-1,-1,17,19,21,23,-1,-1,-1,-1,-1,-1,-1,-1,-1,-1],"loss_changes":[2.1066589E-3,1.4647125E-3,1.756265E-3,1.5079838E-3,1.5850251E-6,1.2997249E-3,4.0975306E-3,4.385705E-4,0E0,0E0,0E0,2.5938198E-4,1.3059583E-3,6.815607E-4,5.2103037E-3,0E0,0E0,0E0,0E0,0E0,0E0,0E0,0E0,0E0,0E0],"parents":[2147483647,0,0,1,1,2,2,3,3,4,4,5,5,6,6,7,7,11,11,12,12,13,13,14,14],"right_children":[2,4,6,8,10,12,14,16,-1,-1,-1,18,20,22,24,-1,-1,-1,-1,-1,-1,-1,-1,-1,-1],"split_conditions":[-1.8571429E-2,-2.3675496E-3,0E0,-2.0470829E-3,6.666667E-1,6.707317E-1,4.411765E-2,4.0693593E-1,-0E0,-0E0,-8.66488E-6,1.6214958E-1,-3.9334342E-2,1.6456884E-1,2.253203E-1,3.564529E-4,-0E0,-7.865046E-5,4.1764248E-5,-0E0,-1.8766438E-4,-0E0,1.3995336E-4,-0E0,-3.21075E-4],"split_indices":[11,15,13,12,2,2,7,17,0,0,0,17,7,17,17,0,0,0,0,0,0,0,0,0,0],"split_type":[0,0,0,0,0,0,0,0,0,0,0,0,0,0,0,0,0,0,0,0,0,0,0,0,0],"sum_hessian":[7.17E2,8.5E1,6.32E2,5.5E1,3E1,2.78E2,3.54E2,4.1E1,1.4E1,1.2E1,1.8E1,8.6E1,1.92E2,2.35E2,1.19E2,3.6E1,5E0,1.7E1,6.9E1,7.5E1,1.17E2,9.1E1,1.44E2,6E1,5.9E1],"tree_param":{"num_deleted":"0","num_feature":"20","num_nodes":"25","size_leaf_vector":"1"}},{"base_weights":[5.95199E-4,1.167005E-2,-0E0,1.5194085E-2,-0E0,-3.6066712E-3,1.8090926E-3,5.430099E-4,-0E0,-0E0,-6.1153974E-3,2.8684896E-3,-6.3709505E-3,-2.1585887E-5,5.035361E-5,-2.6471677E-4,-0E0,-0E0,1.61222E-4,-0E0,-4.0663333E-4],"categories":[],"categories_nodes":[],"categories_segments":[],"categories_sizes":[],"default_left":[0,0,0,0,0,0,0,0,0,0,0,0,0,0,0,0,0,0,0,0,0],"id":39,"left_children":[1,3,5,7,-1,9,11,-1,-1,13,15,17,19,-1,-1,-1,-1,-1,-1,-1,-1],"loss_changes":[3.17271E-3,9.815928E-4,3.947325E-3,2.0036288E-4,0E0,1.7902213E-3,3.1221183E-3,0E0,0E0,1.0350391E-4,3.3296058E-3,2.7408816E-3,2.6811012E-3,0E0,0E0,0E0,0E0,0E0,0E0,0E0,0E0],"parents":[2147483647,0,0,1,1,2,2,3,3,5,5,6,6,9,9,10,10,11,11,12,12],"right_children":[2,4,6,8,-1,10,12,-1,-1,14,16,18,20,-1,-1,-1,-1,-1,-1,-1,-1],"split_conditions":[-9.465792E-2,0E0,2.1212122E-1,-3.2214765E-2,-0E0,3.362076E1,1.3663898E-1,5.430099E-4,-0E0,1.3157895E-2,4.4838802E1,-2.5358306E-2,6.2653564E-2,-2.1585887E-5,5.035361E-5,-2.6471677E-4,-0E0,-0E0,1.61222E-4,-0E0,-4.0663333E-4],"split_indices":[18,10,1,12,0,14,0,0,0,1,14,4,7,0,0,0,0,0,0,0,0],"split_type":[0,0,0,0,0,0,0,0,0,0,0,0,0,0,0,0,0,0,0,0,0],"sum_hessian":[6.54E2,2.4E1,6.3E2,1.8E1,6E0,1.92E2,4.38E2,1.3E1,5E0,7.8E1,1.14E2,4.1E2,2.8E1,5.2E1,2.6E1,9.7E1,1.7E1,1.99E2,2.11E2,8E0,2E1],"tree_param":{"num_deleted":"0","num_feature":"20","num_nodes":"21","size_leaf_vector":"1"}},{"base_weights":[-0E0,4.6643955E-4,-9.542305E-3,1.7537942E-2,-0E0,-0E0,-1.4954135E-2,6.8046537E-4,-0E0,9.1163255E-3,-5.118364E-4,-0E0,-6.3450815E-4,3.1444203E-4,-0E0,-5.7479127E-5,7.4037016E-5],"categories":[],"categories_nodes":[],"categories_segments":[],"categories_sizes":[],"default_left":[0,0,0,0,0,0,0,0,0,0,0,0,0,0,0,0,0],"id":40,"left_children":[1,3,5,7,9,-1,11,-1,-1,13,15,-1,-1,-1,-1,-1,-1],"loss_changes":[2.6060105E-3,4.77376E-3,1.7903957E-3,2.235421E-4,3.4049237E-3,0E0,2.0137792E-3,0E0,0E0,3.8418407E-4,2.5093122E-3,0E0,0E0,0E0,0E0,0E0,0E0],"parents":[2147483647,0,0,1,1,2,2,3,3,4,4,6,6,9,9,10,10],"right_children":[2,4,6,8,10,-1,12,-1,-1,14,16,-1,-1,-1,-1,-1,-1],"split_conditions":[1.3486111E-1,-2.463651E-2,2.151177E-1,4.158062E-1,7.051677E-1,-0E0,2.5893315E-3,6.8046537E-4,-0E0,7.934606E-1,4.006678E-2,-0E0,-6.3450815E-4,3.1444203E-4,-0E0,-5.7479127E-5,7.4037016E-5],"split_indices":[0,11,17,17,19,0,15,0,0,4,18,0,0,0,0,0,0],"split_type":[0,0,0,0,0,0,0,0,0,0,0,0,0,0,0,0,0],"sum_hessian":[7.03E2,6.77E2,2.6E1,1.5E1,6.62E2,8E0,1.8E1,9E0,6E0,3.8E1,6.24E2,5E0,1.3E1,3.2E1,6E0,4.7E2,1.54E2],"tree_param":{"num_deleted":"0","num_feature":"20","num_nodes":"17","size_leaf_vector":"1"}},{"base_weights":[-4.043212E-5,-9.105218E-4,3.9136023E-3,-2.7060416E-3,1.4263038E-3,1.1160826E-2,-0E0,-4.930645E-4,-7.5140535E-3,-1.2142077E-3,5.3803623E-3,3.9130443E-4,-0E0,-0E0,-1.4412729E-4,3.2959277E-5,-4.8092006E-5,-2.8574074E-4,-0E0,-9.067021E-5,-0E0,2.812887E-4,-0E0],"categories":[],"categories_nodes":[],"categories_segments":[],"categories_sizes":[],"default_left":[0,0,0,0,0,0,0,0,0,0,0,0,0,0,0,0,0,0,0,0,0,0,0],"id":41,"left_children":[1,3,5,7,9,11,13,15,17,19,21,-1,-1,-1,-1,-1,-1,-1,-1,-1,-1,-1,-1],"loss_changes":[1.7733583E-3,2.8066682E-3,4.209567E-3,2.5657592E-3,3.0949628E-3,1.1543464E-3,1.8464604E-4,6.2915205E-4,1.5309067E-3,3.549697E-4,3.4704048E-3,0E0,0E0,0E0,0E0,0E0,0E0,0E0,0E0,0E0,0E0,0E0,0E0],"parents":[2147483647,0,0,1,1,2,2,3,3,4,4,5,5,6,6,7,7,8,8,9,9,10,10],"right_children":[2,4,6,8,10,12,14,16,18,20,22,-1,-1,-1,-1,-1,-1,-1,-1,-1,-1,-1,-1],"split_conditions":[3.266873E-1,7.3913044E-1,1.4522822E-2,1.0962638E0,1.9069967E-1,3.6077704E-2,1.3663898E-1,-1.8571429E-2,1.2944379E0,9.9713135E-1,6.2653564E-2,3.9130443E-4,-0E0,-0E0,-1.4412729E-4,3.2959277E-5,-4.8092006E-5,-2.8574074E-4,-0E0,-9.067021E-5,-0E0,2.812887E-4,-0E0],"split_indices":[17,1,12,19,17,11,0,11,19,19,7,0,0,0,0,0,0,0,0,0,0,0,0],"split_type":[0,0,0,0,0,0,0,0,0,0,0,0,0,0,0,0,0,0,0,0,0,0,0],"sum_hessian":[6.88E2,6.06E2,8.2E1,3.91E2,2.15E2,4.3E1,3.9E1,2.97E2,9.4E1,9.9E1,1.16E2,3.8E1,5E0,3.2E1,7E0,4.8E1,2.49E2,7.5E1,1.9E1,5.4E1,4.5E1,7.7E1,3.9E1],"tree_param":{"num_deleted":"0","num_feature":"20","num_nodes":"23","size_leaf_vector":"1"}},{"base_weights":[2.3383023E-4,-3.5494292E-4,6.283425E-3,5.0541817E-4,-2.6607409E-3,1.071345E-2,-0E0,-2.9987656E-4,4.3807398E-3,-0E0,-8.381234E-3,3.8466818E-4,-0E0,5.4359302E-6,-1.0369596E-4,-0E0,3.698102E-4,-1.4328495E-4,1.571278E-4,-0E0,-3.620408E-4],"categories":[],"categories_nodes":[],"categories_segments":[],"categories_sizes":[],"default_left":[0,0,0,0,0,0,0,0,0,0,0,0,0,0,0,0,0,0,0,0,0],"id":42,"left_children":[1,3,5,7,9,11,-1,13,15,17,19,-1,-1,-1,-1,-1,-1,-1,-1,-1,-1],"loss_changes":[3.6705283E-3,1.6346035E-3,1.6474971E-3,2.0002604E-3,2.460079E-3,1.4610491E-3,0E0,1.0687483E-3,1.574307E-3,4.247066E-3,3.0620117E-3,0E0,0E0,0E0,0E0,0E0,0E0,0E0,0E0,0E0,0E0],"parents":[2147483647,0,0,1,1,2,2,3,3,4,4,5,5,7,7,8,8,9,9,10,10],"right_children":[2,4,6,8,10,12,-1,14,16,18,20,-1,-1,-1,-1,-1,-1,-1,-1,-1,-1],"split_conditions":[3.0750865E-1,2.0962477E-1,1.726264E-2,2.3054754E-2,8.867964E-2,3.6077704E-2,-0E0,-4.560941E-3,1.9414671E-1,1.5506233E-2,1.1309419E-2,3.8466818E-4,-0E0,5.4359302E-6,-1.0369596E-4,-0E0,3.698102E-4,-1.4328495E-4,1.571278E-4,-0E0,-3.620408E-4],"split_indices":[17,17,12,18,16,11,0,11,17,0,11,0,0,0,0,0,0,0,0,0,0],"split_type":[0,0,0,0,0,0,0,0,0,0,0,0,0,0,0,0,0,0,0,0,0],"sum_hessian":[6.96E2,6.05E2,9.1E1,3.78E2,2.27E2,4.5E1,4.6E1,2.71E2,1.07E2,1.7E2,5.7E1,4E1,5E0,1.81E2,9E1,8.4E1,2.3E1,1.01E2,6.9E1,9E0,4.8E1],"tree_param":{"num_deleted":"0","num_feature":"20","num_nodes":"21","size_leaf_vector":"1"}},{"base_weights":[-1.3352915E-5,5.139235E-4,-6.916151E-4,-2.2091186E-3,4.2869947E-3,3.6748187E-4,-4.098846E-3,7.606326E-3,-0E0,-2.7878189E-6,7.683714E-5,-1.4379455E-4,-0E0,3.1618468E-4,-0E0],"categories":[],"categories_nodes":[],"categories_segments":[],"categories_sizes":[],"default_left":[0,0,0,0,0,0,0,0,0,0,0,0,0,0,0],"id":43,"left_children":[1,-1,3,5,7,9,11,13,-1,-1,-1,-1,-1,-1,-1],"loss_changes":[4.7242297E-3,0E0,4.686004E-3,3.4160314E-3,1.3687492E-3,6.8378495E-4,1.0570381E-3,2.4066505E-3,0E0,0E0,0E0,0E0,0E0,0E0,0E0],"parents":[2147483647,0,0,2,2,3,3,4,4,5,5,6,6,7,7],"right_children":[2,-1,4,6,8,10,12,14,-1,-1,-1,-1,-1,-1,-1],"split_conditions":[-2.463651E-2,5.139235E-4,1.6840035E-1,-9.5666274E-2,2.1052632E-1,2.0323981E-1,7.4074075E-2,1.3486111E-1,-0E0,-2.7878189E-6,7.683714E-5,-1.4379455E-4,-0E0,3.1618468E-4,-0E0],"split_indices":[11,0,4,4,2,17,18,0,0,0,0,0,0,0,0],"split_type":[0,0,0,0,0,0,0,0,0,0,0,0,0,0,0],"sum_hessian":[6.87E2,1.4E1,6.73E2,5.47E2,1.26E2,1.87E2,3.6E2,6.3E1,6.3E1,8E1,1.07E2,3.09E2,5.1E1,5.4E1,9E0],"tree_param":{"num_deleted":"0","num_feature":"20","num_nodes":"15","size_leaf_vector":"1"}},{"base_weights":[4.0191822E-4,-1.1697116E-3,2.8738056E-3,4.0707113E-3,-2.7220657E-3,-0E0,5.376583E-3,6.838862E-3,-0E0,-5.422267E-3,-0E0,3.2051438E-3,-1.0374013E-3,7.3256968E-3,-0E0,3.3948265E-4,-0E0,-0E0,-2.2838524E-4,3.6941543E-5,-1.3663214E-4,-0E0,1.497635E-4,-0E0,-1.10158755E-4,-0E0,3.216297E-4],"categories":[],"categories_nodes":[],"categories_segments":[],"categories_sizes":[],"default_left":[0,0,0,0,0,0,0,0,0,0,0,0,0,0,0,0,0,0,0,0,0,0,0,0,0,0,0],"id":44,"left_children":[1,3,5,7,9,11,13,15,-1,17,19,21,23,25,-1,-1,-1,-1,-1,-1,-1,-1,-1,-1,-1,-1,-1],"loss_changes":[2.935403E-3,2.6618137E-3,1.9865439E-3,7.1193447E-4,2.076585E-3,6.071788E-4,2.0087315E-3,1.4831116E-3,0E0,2.7771639E-3,1.0131774E-3,3.7914154E-4,8.297523E-4,1.8433607E-3,0E0,0E0,0E0,0E0,0E0,0E0,0E0,0E0,0E0,0E0,0E0,0E0,0E0],"parents":[2147483647,0,0,1,1,2,2,3,3,4,4,5,5,6,6,7,7,9,9,10,10,11,11,12,12,13,13],"right_children":[2,4,6,8,10,12,14,16,-1,18,20,22,24,26,-1,-1,-1,-1,-1,-1,-1,-1,-1,-1,-1,-1,-1],"split_conditions":[9.984262E-1,7.443633E-1,-6.2256088E-3,1.0893246E-2,-3.6520787E-4,1.0564232E0,8.627451E-2,1.2490561E-3,-0E0,-1.8571429E-2,6.1587874E-2,3.176435E1,-3.6252325E-3,1.6456884E-1,-0E0,3.3948265E-4,-0E0,-0E0,-2.2838524E-4,3.6941543E-5,-1.3663214E-4,-0E0,1.497635E-4,-0E0,-1.10158755E-4,-0E0,3.216297E-4],"split_indices":[19,19,0,12,15,19,18,15,0,11,0,14,15,17,0,0,0,0,0,0,0,0,0,0,0,0,0],"split_type":[0,0,0,0,0,0,0,0,0,0,0,0,0,0,0,0,0,0,0,0,0,0,0,0,0,0,0],"sum_hessian":[6.66E2,3.58E2,3.08E2,5.2E1,3.06E2,1.52E2,1.56E2,3.3E1,1.9E1,1.47E2,1.59E2,4.7E1,1.05E2,1.21E2,3.5E1,2.3E1,1E1,2.5E1,1.22E2,1.2E2,3.9E1,1.3E1,3.4E1,3.6E1,6.9E1,4.9E1,7.2E1],"tree_param":{"num_deleted":"0","num_feature":"20","num_nodes":"27","size_leaf_vector":"1"}},{"base_weights":[-8.229939E-5,9.743643E-4,-3.2484687E-3,2.360822E-3,-1.9198693E-3,5.9211813E-4,-5.3247493E-3,1.162881E-3,1.263323E-2,-1.2295936E-2,-0E0,-0E0,6.4967033E-3,-0E0,-7.5381096E-3,1.5556565E-4,-0E0,6.015007E-4,-0E0,-0E0,-4.7192432E-4,1.4420648E-4,-2.0738963E-4,-1.6653603E-5,-0E0,4.1329407E-4,-0E0,-5.6405268E-5,3.056759E-5,-2.565927E-4,-0E0],"categories":[],"categories_nodes":[],"categories_segments":[],"categories_sizes":[],"default_left":[0,0,0,0,0,0,0,0,0,0,0,0,0,0,0,0,0,0,0,0,0,0,0,0,0,0,0,0,0,0,0],"id":45,"left_children":[1,3,5,7,9,11,13,15,17,19,21,23,25,27,29,-1,-1,-1,-1,-1,-1,-1,-1,-1,-1,-1,-1,-1,-1,-1,-1],"loss_changes":[2.7898527E-3,2.0027836E-3,2.7199374E-3,1.7669038E-3,2.1721537E-3,9.549873E-4,1.771945E-3,1.8943378E-3,2.678484E-3,3.992701E-4,3.0868337E-3,4.9305336E-6,1.3067287E-3,1.5217891E-4,1.301473E-3,0E0,0E0,0E0,0E0,0E0,0E0,0E0,0E0,0E0,0E0,0E0,0E0,0E0,0E0,0E0,0E0],"parents":[2147483647,0,0,1,1,2,2,3,3,4,4,5,5,6,6,7,7,8,8,9,9,10,10,11,11,12,12,13,13,14,14],"right_children":[2,4,6,8,10,12,14,16,18,20,22,24,26,28,30,-1,-1,-1,-1,-1,-1,-1,-1,-1,-1,-1,-1,-1,-1,-1,-1],"split_conditions":[8.0487806E-1,1.698726E-2,-4.0097207E-2,6.563707E-2,1.9614909E-2,8.916613E-3,-1.6386183E-2,-9.756098E-3,9.452357E-2,2.151177E-1,6.2653564E-2,2.0408163E-2,-1.137351E-2,-7.6511025E-2,1.7948012E-1,1.5556565E-4,-0E0,6.015007E-4,-0E0,-0E0,-4.7192432E-4,1.4420648E-4,-2.0738963E-4,-1.6653603E-5,-0E0,4.1329407E-4,-0E0,-5.6405268E-5,3.056759E-5,-2.565927E-4,-0E0],"split_indices":[2,11,12,12,11,4,11,7,0,17,7,1,11,0,4,0,0,0,0,0,0,0,0,0,0,0,0,0,0,0,0],"split_type":[0,0,0,0,0,0,0,0,0,0,0,0,0,0,0,0,0,0,0,0,0,0,0,0,0,0,0,0,0,0,0],"sum_hessian":[6.96E2,4.75E2,2.21E2,3.68E2,1.07E2,4.4E1,1.77E2,3.48E2,2E1,1.6E1,9.1E1,2.2E1,2.2E1,5.8E1,1.19E2,8.7E1,2.61E2,1.4E1,6E0,5E0,1.1E1,5.4E1,3.7E1,1.5E1,7E0,1.1E1,1.1E1,3.5E1,2.3E1,1.1E2,9E0],"tree_param":{"num_deleted":"0","num_feature":"20","num_nodes":"31","size_leaf_vector":"1"}},{"base_weights":[-0E0,-9.856373E-4,4.1030063E-3,-1.8578744E-3,1.7372572E-3,5.026568E-3,-0E0,-7.368483E-4,-6.3753463E-3,7.0231548E-3,-0E0,-0E0,5.7478393E-3,-6.8992966E-5,2.9628878E-5,-0E0,-2.7246785E-4,2.549309E-4,-0E0,-0E0,-1.1211787E-4,1.8827028E-4,-0E0],"categories":[],"categories_nodes":[],"categories_segments":[],"categories_sizes":[],"default_left":[0,0,0,0,0,0,0,0,0,0,0,0,0,0,0,0,0,0,0,0,0,0,0],"id":46,"left_children":[1,3,5,7,9,11,-1,13,15,17,19,-1,21,-1,-1,-1,-1,-1,-1,-1,-1,-1,-1],"loss_changes":[2.6477228E-3,1.4381069E-3,7.339057E-4,1.1353504E-3,2.0989783E-3,6.3134707E-4,0E0,1.4559841E-3,2.0598583E-3,7.374813E-4,2.6537548E-4,0E0,4.2372686E-4,0E0,0E0,0E0,0E0,0E0,0E0,0E0,0E0,0E0,0E0],"parents":[2147483647,0,0,1,1,2,2,3,3,4,4,5,5,7,7,8,8,9,9,10,10,12,12],"right_children":[2,4,6,8,10,12,-1,14,16,18,20,-1,22,-1,-1,-1,-1,-1,-1,-1,-1,-1,-1],"split_conditions":[1.857063E-1,3.0350608E-1,1.4093801E-1,2.5418338E-1,1.4522822E-2,-1.5192773E-2,-0E0,1.0751805E-2,-1.9691538E-2,3.6729988E-2,3.8396868E-1,-0E0,1.2258363E-2,-6.8992966E-5,2.9628878E-5,-0E0,-2.7246785E-4,2.549309E-4,-0E0,-0E0,-1.1211787E-4,1.8827028E-4,-0E0],"split_indices":[4,17,0,17,12,15,0,0,11,11,17,0,15,0,0,0,0,0,0,0,0,0,0],"split_type":[0,0,0,0,0,0,0,0,0,0,0,0,0,0,0,0,0,0,0,0,0,0,0],"sum_hessian":[7.15E2,5.93E2,1.22E2,5.05E2,8.8E1,1.1E2,1.2E1,4.41E2,6.4E1,4.7E1,4.1E1,7E0,1.03E2,2.92E2,1.49E2,8E0,5.6E1,4.2E1,5E0,2.3E1,1.8E1,9.7E1,6E0],"tree_param":{"num_deleted":"0","num_feature":"20","num_nodes":"23","size_leaf_vector":"1"}},{"base_weights":[-3.610867E-4,3.9179972E-3,-1.0266437E-3,7.7110427E-3,-0E0,-1.6811987E-3,1.657194E-3,-0E0,3.5239747E-4,-2.1999252E-3,4.198152E-3,6.6232136E-3,-1.4949228E-3,-3.7189197E-6,-1.3798295E-4,3.8670585E-4,-0E0,2.2241127E-4,-0E0,-0E0,-1.8080338E-4],"categories":[],"categories_nodes":[],"categories_segments":[],"categories_sizes":[],"default_left":[0,0,0,0,0,0,0,0,0,0,0,0,0,0,0,0,0,0,0,0,0],"id":47,"left_children":[1,3,5,7,-1,9,11,-1,-1,13,15,17,19,-1,-1,-1,-1,-1,-1,-1,-1],"loss_changes":[1.4620535E-3,1.1025465E-3,1.1670218E-3,1.3493868E-3,0E0,1.4120076E-3,2.1313026E-3,0E0,0E0,1.9189878E-3,1.0296409E-3,8.2330545E-5,4.6604796E-4,0E0,0E0,0E0,0E0,0E0,0E0,0E0,0E0],"parents":[2147483647,0,0,1,1,2,2,3,3,5,5,6,6,9,9,10,10,11,11,12,12],"right_children":[2,4,6,8,-1,10,12,-1,-1,14,16,18,20,-1,-1,-1,-1,-1,-1,-1,-1],"split_conditions":[7.193104E-1,9.398667E-4,3.266873E-1,-8.067645E-3,-0E0,6.263982E-2,5.971039E1,-0E0,3.5239747E-4,2.0749666E-1,9.654827E-3,4.088785E-2,-7.876251E-5,-3.7189197E-6,-1.3798295E-4,3.8670585E-4,-0E0,2.2241127E-4,-0E0,-0E0,-1.8080338E-4],"split_indices":[19,15,17,15,0,12,14,0,0,17,11,12,15,0,0,0,0,0,0,0,0],"split_type":[0,0,0,0,0,0,0,0,0,0,0,0,0,0,0,0,0,0,0,0,0],"sum_hessian":[7.14E2,5.5E1,6.59E2,3.2E1,2.3E1,5.9E2,6.9E1,9E0,2.3E1,5.74E2,1.6E1,5.1E1,1.8E1,3.53E2,2.21E2,7E0,9E0,4.2E1,9E0,5E0,1.3E1],"tree_param":{"num_deleted":"0","num_feature":"20","num_nodes":"21","size_leaf_vector":"1"}},{"base_weights":[8.939174E-4,-0E0,2.6506607E-3,2.1442727E-3,-7.445401E-4,-0E0,5.547838E-3,-0E0,5.8450205E-3,-3.156746E-3,-0E0,1.3759491E-3,-5.318657E-4,-0E0,7.1682623E-3,2.0973729E-4,-0E0,-1.6623909E-4,-0E0,3.364748E-5,-0E0,9.577961E-5,-0E0,-1.8100822E-4,1.3828454E-5,8.3714054E-5,6.904526E-4],"categories":[],"categories_nodes":[],"categories_segments":[],"categories_sizes":[],"default_left":[0,0,0,0,0,0,0,0,0,0,0,0,0,0,0,0,0,0,0,0,0,0,0,0,0,0,0],"id":48,"left_children":[1,3,5,7,9,11,13,-1,15,17,19,21,23,-1,25,-1,-1,-1,-1,-1,-1,-1,-1,-1,-1,-1,-1],"loss_changes":[1.4548693E-3,4.618062E-4,2.053326E-3,8.26578E-4,1.1800486E-3,1.3591968E-4,1.6408595E-3,0E0,3.0925614E-5,1.7875456E-3,1.9372394E-4,3.5077223E-4,1.6580713E-3,0E0,2.4751942E-3,0E0,0E0,0E0,0E0,0E0,0E0,0E0,0E0,0E0,0E0,0E0,0E0],"parents":[2147483647,0,0,1,1,2,2,3,3,4,4,5,5,6,6,8,8,9,9,10,10,11,11,12,12,14,14],"right_children":[2,4,6,8,10,12,14,-1,16,18,20,22,24,-1,26,-1,-1,-1,-1,-1,-1,-1,-1,-1,-1,-1,-1],"split_conditions":[1.027637E0,-1.775298E-2,1.1260947E-2,-8.145364E-2,0E0,1.0946233E0,1.425812E-1,-0E0,9.372939E-1,2.4312033E-1,4.411765E-2,2.9565217E-2,1.1789187E0,-0E0,4.761905E-2,2.0973729E-4,-0E0,-1.6623909E-4,-0E0,3.364748E-5,-0E0,9.577961E-5,-0E0,-1.8100822E-4,1.3828454E-5,8.3714054E-5,6.904526E-4],"split_indices":[19,11,4,18,10,19,17,0,19,17,7,7,19,0,12,0,0,0,0,0,0,0,0,0,0,0,0],"split_type":[0,0,0,0,0,0,0,0,0,0,0,0,0,0,0,0,0,0,0,0,0,0,0,0,0,0,0],"sum_hessian":[6.93E2,4.08E2,2.85E2,5.7E1,3.51E2,1.54E2,1.31E2,2.6E1,3.1E1,1.37E2,2.14E2,5.6E1,9.8E1,2.1E1,1.1E2,2.2E1,9E0,1.02E2,3.5E1,1.53E2,6.1E1,4.4E1,1.2E1,4.5E1,5.3E1,9.7E1,1.3E1],"tree_param":{"num_deleted":"0","num_feature":"20","num_nodes":"27","size_leaf_vector":"1"}},{"base_weights":[3.8106323E-4,1.3769443E-2,-0E0,5.9335155E-4,-0E0,-1.6117934E-3,1.7652616E-3,-0E0,-8.351202E-3,3.0941202E-3,-5.2454337E-3,3.620173E-5,-5.6722096E-5,-0E0,-3.4441327E-4,-0E0,1.6575957E-4,-0E0,-2.276729E-4],"categories":[],"categories_nodes":[],"categories_segments":[],"categories_sizes":[],"default_left":[0,0,0,0,0,0,0,0,0,0,0,0,0,0,0,0,0,0,0],"id":49,"left_children":[1,3,5,-1,-1,7,9,11,13,15,17,-1,-1,-1,-1,-1,-1,-1,-1],"loss_changes":[3.1184629E-3,6.8868673E-4,2.0149783E-3,0E0,0E0,2.8386565E-3,2.8373285E-3,7.8100956E-4,1.6377252E-3,2.1760873E-3,6.745824E-4,0E0,0E0,0E0,0E0,0E0,0E0,0E0,0E0],"parents":[2147483647,0,0,1,1,2,2,5,5,6,6,7,7,8,8,9,9,10,10],"right_children":[2,4,6,-1,-1,8,10,12,14,16,18,-1,-1,-1,-1,-1,-1,-1,-1],"split_conditions":[-2.463651E-2,-6.666667E-1,5.920026E-4,5.9335155E-4,-0E0,-3.084671E-3,1.3486111E-1,-2.3197592E-3,-9.016332E-2,-2.983732E-2,5.922166E-2,3.620173E-5,-5.6722096E-5,-0E0,-3.4441327E-4,-0E0,1.6575957E-4,-0E0,-2.276729E-4],"split_indices":[11,13,11,0,0,11,0,15,4,4,18,0,0,0,0,0,0,0,0],"split_type":[0,0,0,0,0,0,0,0,0,0,0,0,0,0,0,0,0,0,0],"sum_hessian":[7.2E2,1.6E1,7.04E2,9E0,7E0,3.56E2,3.48E2,3.03E2,5.3E1,3.17E2,3.1E1,1.45E2,1.58E2,1.3E1,4E1,1.47E2,1.7E2,5E0,2.6E1],"tree_param":{"num_deleted":"0","num_feature":"20","num_nodes":"19","size_leaf_vector":"1"}},{"base_weights":[1.7931608E-4,1.4905464E-2,-0E0,5.558461E-4,-0E0,-4.143962E-3,7.985185E-4,-5.1525533E-3,-0E0,-9.247643E-6,3.0309209E-3,-3.50779E-5,-3.8206857E-4,3.7856636E-5,-3.830758E-5,-0E0,1.6692301E-4],"categories":[],"categories_nodes":[],"categories_segments":[],"categories_sizes":[],"default_left":[0,0,0,0,0,0,0,0,0,0,0,0,0,0,0,0,0],"id":50,"left_children":[1,3,5,-1,-1,7,9,11,-1,13,15,-1,-1,-1,-1,-1,-1],"loss_changes":[4.198841E-3,5.848361E-4,2.7821679E-3,0E0,0E0,9.0666534E-4,1.5763192E-3,1.0100314E-3,0E0,5.3798524E-4,2.0737643E-3,0E0,0E0,0E0,0E0,0E0,0E0],"parents":[2147483647,0,0,1,1,2,2,5,5,6,6,7,7,9,9,10,10],"right_children":[2,4,6,-1,-1,8,10,12,-1,14,16,-1,-1,-1,-1,-1,-1],"split_conditions":[-2.463651E-2,-8.2775995E-2,5.7971016E-2,5.558461E-4,-0E0,1.9172953E-1,1.0335721E0,2.1883024E-1,-0E0,-1.5806112E-2,-1.789509E-3,-3.50779E-5,-3.8206857E-4,3.7856636E-5,-3.830758E-5,-0E0,1.6692301E-4],"split_indices":[11,0,1,0,0,4,19,17,0,18,0,0,0,0,0,0,0],"split_type":[0,0,0,0,0,0,0,0,0,0,0,0,0,0,0,0,0],"sum_hessian":[6.97E2,1.8E1,6.79E2,1.3E1,5E0,1.41E2,5.38E2,1.25E2,1.6E1,3.3E2,2.08E2,1E2,2.5E1,8.6E1,2.44E2,8E1,1.28E2],"tree_param":{"num_deleted":"0","num_feature":"20","num_nodes":"17","size_leaf_vector":"1"}},{"base_weights":[1.61779E-5,5.25237E-4,-7.385384E-5,-4.235313E-3,3.676433E-4,-0E0,-7.527861E-3,9.644389E-4,-3.857918E-3,-2.6384785E-4,-0E0,-6.1110027E-6,8.064866E-5,-2.5525474E-4,-0E0],"categories":[],"categories_nodes":[],"categories_segments":[],"categories_sizes":[],"default_left":[0,0,0,0,0,0,0,0,0,0,0,0,0,0,0],"id":51,"left_children":[1,-1,3,5,7,-1,9,11,13,-1,-1,-1,-1,-1,-1],"loss_changes":[4.6014925E-3,0E0,2.0483208E-3,2.3336539E-3,8.97754E-4,0E0,1.1077328E-3,1.613053E-3,1.3484714E-3,0E0,0E0,0E0,0E0,0E0,0E0],"parents":[2147483647,0,0,2,2,3,3,4,4,6,6,7,7,8,8],"right_children":[2,-1,4,6,8,-1,10,12,14,-1,-1,-1,-1,-1,-1],"split_conditions":[-1.0723192E-1,5.25237E-4,3.3333335E-2,3.001587E1,1.3663898E-1,-0E0,1.9172953E-1,5.920026E-4,1.4895165E0,-2.6384785E-4,-0E0,-6.1110027E-6,8.064866E-5,-2.5525474E-4,-0E0],"split_indices":[18,0,1,14,0,0,4,11,19,0,0,0,0,0,0],"split_type":[0,0,0,0,0,0,0,0,0,0,0,0,0,0,0],"sum_hessian":[7.06E2,1.4E1,6.92E2,1.09E2,5.83E2,3.4E1,7.5E1,5.53E2,3E1,6.9E1,6E0,2.61E2,2.92E2,2.4E1,6E0],"tree_param":{"num_deleted":"0","num_feature":"20","num_nodes":"15","size_leaf_vector":"1"}},{"base_weights":[1.0856026E-4,-1.942681E-4,4.891334E-3,1.9438287E-3,-1.3958615E-3,7.7543105E-3,-0E0,6.1257947E-3,-0E0,-0E0,-7.976845E-3,2.9755267E-4,-0E0,-0E0,4.529151E-4,-3.9266997E-5,-0E0,1.2032277E-4,-2.1762196E-5,-0E0,-3.2628668E-4],"categories":[],"categories_nodes":[],"categories_segments":[],"categories_sizes":[],"default_left":[0,0,0,0,0,0,0,0,0,0,0,0,0,0,0,0,0,0,0,0,0],"id":52,"left_children":[1,3,5,7,9,11,-1,13,15,17,19,-1,-1,-1,-1,-1,-1,-1,-1,-1,-1],"loss_changes":[1.977389E-3,1.524513E-3,2.0668032E-3,2.0632646E-3,2.7806268E-3,2.998393E-4,0E0,4.363835E-3,1.2849145E-4,5.741537E-4,1.869191E-3,0E0,0E0,0E0,0E0,0E0,0E0,0E0,0E0,0E0,0E0],"parents":[2147483647,0,0,1,1,2,2,3,3,4,4,5,5,7,7,8,8,9,9,10,10],"right_children":[2,4,6,8,10,12,-1,14,16,18,20,-1,-1,-1,-1,-1,-1,-1,-1,-1,-1],"split_conditions":[3.266873E-1,1.4035088E-1,6.0014545E1,6.2543037E1,2.5612003E-1,1.8957347E-2,-0E0,3.949447E-2,2.8593978E-2,2.7240294E1,-1.9126995E-2,2.9755267E-4,-0E0,-0E0,4.529151E-4,-3.9266997E-5,-0E0,1.2032277E-4,-2.1762196E-5,-0E0,-3.2628668E-4],"split_indices":[17,2,14,14,17,12,0,18,11,14,11,0,0,0,0,0,0,0,0,0,0],"split_type":[0,0,0,0,0,0,0,0,0,0,0,0,0,0,0,0,0,0,0,0,0],"sum_hessian":[7.15E2,6.34E2,8.1E1,1.68E2,4.66E2,6.6E1,1.5E1,7.1E1,9.7E1,4.09E2,5.7E1,4.3E1,2.3E1,4.1E1,3E1,7.4E1,2.3E1,2.2E1,3.87E2,1.1E1,4.6E1],"tree_param":{"num_deleted":"0","num_feature":"20","num_nodes":"21","size_leaf_vector":"1"}},{"base_weights":[8.9830137E-4,-0E0,4.0330957E-3,3.8194092E-4,-7.7510666E-4,1.6133683E-2,-0E0,-0E0,-3.0375891E-3,2.0135779E-2,-0E0,5.950244E-3,-2.928252E-4,-4.5580753E-5,8.5915024E-5,-1.4152878E-4,-0E0,-0E0,7.781932E-4,-0E0,2.3472443E-4,-0E0,-1.4489716E-4],"categories":[],"categories_nodes":[],"categories_segments":[],"categories_sizes":[],"default_left":[0,0,0,0,0,0,0,0,0,0,0,0,0,0,0,0,0,0,0,0,0,0,0],"id":53,"left_children":[1,3,5,-1,7,9,11,13,15,17,-1,19,21,-1,-1,-1,-1,-1,-1,-1,-1,-1,-1],"loss_changes":[2.6720446E-3,2.8859873E-3,6.6543305E-3,0E0,1.322131E-3,2.272251E-3,1.3561238E-3,1.5734591E-3,1.3453318E-3,1.96682E-3,0E0,4.911134E-4,5.0249737E-4,0E0,0E0,0E0,0E0,0E0,0E0,0E0,0E0,0E0,0E0],"parents":[2147483647,0,0,1,1,2,2,4,4,5,5,6,6,7,7,8,8,9,9,11,11,12,12],"right_children":[2,4,6,-1,8,10,12,14,16,18,-1,20,22,-1,-1,-1,-1,-1,-1,-1,-1,-1,-1],"split_conditions":[4.006678E-2,2.5510794E1,9.745014E-3,3.8194092E-4,-1.1093502E-2,2.2580644E-1,5.942087E1,1.4666666E-1,1.1438887E-1,-5.625918E-3,-0E0,-2.103239E-1,1.3663898E-1,-4.5580753E-5,8.5915024E-5,-1.4152878E-4,-0E0,-0E0,7.781932E-4,-0E0,2.3472443E-4,-0E0,-1.4489716E-4],"split_indices":[18,14,11,0,18,2,14,3,4,0,0,4,0,0,0,0,0,0,0,0,0,0,0],"split_type":[0,0,0,0,0,0,0,0,0,0,0,0,0,0,0,0,0,0,0,0,0,0,0],"sum_hessian":[6.99E2,5.01E2,1.98E2,1.5E1,4.86E2,3.7E1,1.61E2,3.12E2,1.74E2,2.9E1,8E0,3.7E1,1.24E2,1.69E2,1.43E2,1.32E2,4.2E1,9E0,2E1,8E0,2.9E1,1.03E2,2.1E1],"tree_param":{"num_deleted":"0","num_feature":"20","num_nodes":"23","size_leaf_vector":"1"}}]},"name":"gbtree"},"learner_model_param":{"base_score":"[1.0061705E-5]","boost_from_average":"1","num_class":"0","num_feature":"20","num_target":"1"},"objective":{"name":"reg:squarederror","reg_loss_param":{"scale_pos_weight":"1"}}},"version":[3,2,0]}