{"learner":{"attributes":{"scikit_learn":"{\"_estimator_type\": \"regressor\"}"},"feature_names":["macd_trend","macd_hist_direction","macd_momentum_decay","momentum_20","vol_ratio","price_momentum_5d","price_momentum_20d","macd_bottom_divergence","macd_top_divergence","rsi_bottom_divergence","rsi_top_divergence","volume_breakout","volume_pullback","volume_dry_up","volume_climax","rsi_extreme","boll_position","ma_bias","volatility_20","pe_rank","pb_rank","roe_level","revenue_growth","debt_level","main_inflow_5d","elg_ratio","margin_delta_5d","northbound_net_5d","turnover_extreme","holder_count_trend","insider_net_30d","trig_ma60_bias","trig_pos_in_20d","trig_dist_from_high","trig_dist_from_low","trig_vol_change","trig_break_above","trig_break_below","trig_price_trend_10d","trend_dir_ord","trend_phase_ord","trend_short_dir_ord","trend_ma_slope","trend_ret_5d","trend_ma_alignment","comp_lag1","comp_lag3","comp_lag5","comp_delta_3d","comp_delta_5d","comp_std_5d","comp_sign_changes_10d","comp_roll_max_10d","tech_rsi14","tech_macd_hist","tech_ma60_bias","tech_volatility_20","tech_momentum_20","tech_turnover_rate","tech_vol_ratio"],"feature_types":["float","float","float","float","float","float","float","float","float","float","float","float","float","float","float","float","float","float","float","float","float","float","float","float","float","float","float","float","float","float","float","float","float","float","float","float","float","float","float","float","float","float","float","float","float","float","float","float","float","float","float","float","float","float","float","float","float","float","float","float"],"gradient_booster":{"model":{"cats":{"enc":[],"feature_segments":[],"sorted_idx":[]},"gbtree_model_param":{"num_parallel_tree":"1","num_trees":"50"},"iteration_indptr":[0,1,2,3,4,5,6,7,8,9,10,11,12,13,14,15,16,17,18,19,20,21,22,23,24,25,26,27,28,29,30,31,32,33,34,35,36,37,38,39,40,41,42,43,44,45,46,47,48,49,50],"tree_info":[0,0,0,0,0,0,0,0,0,0,0,0,0,0,0,0,0,0,0,0,0,0,0,0,0,0,0,0,0,0,0,0,0,0,0,0,0,0,0,0,0,0,0,0,0,0,0,0,0,0],"trees":[{"base_weights":[-9.2717394E-4,-2.054636E-2,4.1494954E-2,3.3384308E-4,-2.8324429E-2,-4.923177E-4,8.402083E-2,-0E0,-2.6576694E-3,5.766385E-3,-0E0],"categories":[],"categories_nodes":[],"categories_segments":[],"categories_sizes":[],"default_left":[0,0,0,0,0,0,0,0,0,0,0],"id":0,"left_children":[1,3,5,-1,7,-1,9,-1,-1,-1,-1],"loss_changes":[3.449531E-1,7.472524E-2,3.1602523E-1,0E0,1.880999E-1,0E0,1.7546278E-1,0E0,0E0,0E0,0E0],"parents":[2147483647,0,0,1,1,2,2,4,4,6,6],"right_children":[2,4,6,-1,8,-1,10,-1,-1,-1,-1],"split_conditions":[2.46508E-1,1.40658E-1,-1.8664886E-1,3.3384308E-4,-1.32075E-1,-4.923177E-4,9.78251E-1,-0E0,-2.6576694E-3,5.766385E-3,-0E0],"split_indices":[52,52,35,0,6,0,6,0,0,0,0],"split_type":[0,0,0,0,0,0,0,0,0,0,0],"sum_hessian":[4.23E2,2.98E2,1.25E2,5.2E1,2.46E2,5.2E1,7.3E1,1.11E2,1.35E2,5.1E1,2.2E1],"tree_param":{"num_deleted":"0","num_feature":"60","num_nodes":"11","size_leaf_vector":"1"}},{"base_weights":[-0E0,-1.8499222E-2,4.1100595E-2,-0E0,-3.2165233E-2,-2.149771E-4,7.76612E-2,3.7193826E-5,-2.3424828E-3,5.3131925E-3,6.5782317E-4],"categories":[],"categories_nodes":[],"categories_segments":[],"categories_sizes":[],"default_left":[0,0,0,0,0,0,0,0,0,0,0],"id":1,"left_children":[1,3,5,-1,7,-1,9,-1,-1,-1,-1],"loss_changes":[3.1174856E-1,8.732646E-2,2.4649052E-1,0E0,1.1010784E-1,0E0,7.7714205E-2,0E0,0E0,0E0,0E0],"parents":[2147483647,0,0,1,1,2,2,4,4,6,6],"right_children":[2,4,6,-1,8,-1,10,-1,-1,-1,-1],"split_conditions":[2.46508E-1,-1.32075E-1,-1.8664886E-1,-0E0,1.40658E-1,-2.149771E-4,3.0935E-1,3.7193826E-5,-2.3424828E-3,5.3131925E-3,6.5782317E-4],"split_indices":[52,6,35,0,52,0,52,0,0,0,0],"split_type":[0,0,0,0,0,0,0,0,0,0,0],"sum_hessian":[4.11E2,2.87E2,1.24E2,1.09E2,1.78E2,5E1,7.4E1,4.5E1,1.33E2,4.5E1,2.9E1],"tree_param":{"num_deleted":"0","num_feature":"60","num_nodes":"11","size_leaf_vector":"1"}},{"base_weights":[2.645741E-3,-1.9751582E-2,5.301321E-2,-3.2346867E-2,5.819239E-4,8.635249E-2,-0E0,-0E0,-2.3526703E-3,-8.330363E-5,6.572605E-3],"categories":[],"categories_nodes":[],"categories_segments":[],"categories_sizes":[],"default_left":[0,0,0,0,0,0,0,0,0,0,0],"id":2,"left_children":[1,3,5,7,-1,9,-1,-1,-1,-1,-1],"loss_changes":[4.936536E-1,1.2418202E-1,2.264289E-1,8.174409E-2,0E0,3.9083833E-1,0E0,0E0,0E0,0E0,0E0],"parents":[2147483647,0,0,1,1,2,2,3,3,5,5],"right_children":[2,4,6,8,-1,10,-1,-1,-1,-1,-1],"split_conditions":[2.45439E-1,-4.89712E-1,3.0935E-1,1.71509E-1,5.819239E-4,-2.2553658E-1,-0E0,-0E0,-2.3526703E-3,-8.330363E-5,6.572605E-3],"split_indices":[52,20,52,52,0,35,0,0,0,0,0],"split_type":[0,0,0,0,0,0,0,0,0,0,0],"sum_hessian":[4.19E2,2.84E2,1.35E2,2.14E2,7E1,8E1,5.5E1,7.7E1,1.37E2,2.4E1,5.6E1],"tree_param":{"num_deleted":"0","num_feature":"60","num_nodes":"11","size_leaf_vector":"1"}},{"base_weights":[-1.0804563E-3,-2.4841879E-2,9.024228E-3,2.8484472E-4,-1.8930295E-3,-1.496211E-3,4.6103228E-2,2.136448E-3,-8.6767983E-4,-0E0,4.6687047E-3],"categories":[],"categories_nodes":[],"categories_segments":[],"categories_sizes":[],"default_left":[0,0,0,0,0,0,0,0,0,0,0],"id":3,"left_children":[1,3,5,-1,-1,7,9,-1,-1,-1,-1],"loss_changes":[1.1112069E-1,7.336653E-2,1.3439652E-1,0E0,0E0,1.3957386E-1,1.8274252E-1,0E0,0E0,0E0,0E0],"parents":[2147483647,0,0,1,1,2,2,5,5,6,6],"right_children":[2,4,6,-1,-1,8,10,-1,-1,-1,-1],"split_conditions":[-1.9577731E-1,-2.86361E-1,7.4153E-2,2.8484472E-4,-1.8930295E-3,-4.3772E-1,-6.09959E-1,2.136448E-3,-8.6767983E-4,-0E0,4.6687047E-3],"split_indices":[35,6,46,0,0,6,20,0,0,0,0],"split_type":[0,0,0,0,0,0,0,0,0,0,0],"sum_hessian":[4.26E2,1.41E2,2.85E2,3.1E1,1.1E2,2.13E2,7.2E1,4.7E1,1.66E2,3.5E1,3.7E1],"tree_param":{"num_deleted":"0","num_feature":"60","num_nodes":"11","size_leaf_vector":"1"}},{"base_weights":[7.5534155E-4,2.1604958E-3,-3.929639E-3,-1.2119191E-2,3.804593E-3,-8.878059E-4,2.550709E-3],"categories":[],"categories_nodes":[],"categories_segments":[],"categories_sizes":[],"default_left":[0,0,0,0,0,0,0],"id":4,"left_children":[1,-1,3,5,-1,-1,-1],"loss_changes":[1.0848973E-1,0E0,2.267514E-1,1.143664E-1,0E0,0E0,0E0],"parents":[2147483647,0,0,2,2,3,3],"right_children":[2,-1,4,6,-1,-1,-1],"split_conditions":[-4.72717E-1,2.1604958E-3,1.8555595E-1,-3.46304E-1,3.804593E-3,-8.878059E-4,2.550709E-3],"split_indices":[6,0,38,20,0,0,0],"split_type":[0,0,0,0,0,0,0],"sum_hessian":[4.43E2,5.3E1,3.9E2,3.61E2,2.9E1,3.4E2,2.1E1],"tree_param":{"num_deleted":"0","num_feature":"60","num_nodes":"7","size_leaf_vector":"1"}},{"base_weights":[-0E0,-2.166609E-2,1.2195338E-2,1.5794318E-4,-1.7986639E-3,3.5149131E-3,4.8113773E-3,-2.1037718E-4,2.8798264E-3],"categories":[],"categories_nodes":[],"categories_segments":[],"categories_sizes":[],"default_left":[0,0,0,0,0,0,0,0,0],"id":5,"left_children":[1,3,5,-1,-1,-1,7,-1,-1],"loss_changes":[1.12423435E-1,7.09763E-2,7.8893825E-2,0E0,0E0,0E0,1.4714757E-1,0E0,0E0],"parents":[2147483647,0,0,1,1,2,2,6,6],"right_children":[2,4,6,-1,-1,-1,8,-1,-1],"split_conditions":[-1.7867894E-1,-2.4136E-1,-3.3898E-2,1.5794318E-4,-1.7986639E-3,3.5149131E-3,5.40212E-1,-2.1037718E-4,2.8798264E-3],"split_indices":[35,6,19,0,0,0,6,0,0],"split_type":[0,0,0,0,0,0,0,0,0],"sum_hessian":[4.22E2,1.51E2,2.71E2,4.3E1,1.08E2,2.1E1,2.5E2,2.07E2,4.3E1],"tree_param":{"num_deleted":"0","num_feature":"60","num_nodes":"9","size_leaf_vector":"1"}},{"base_weights":[-0E0,-1.8855795E-2,3.870958E-2,1.6042539E-4,-2.769661E-2,6.680527E-2,7.811545E-5,-0E0,-2.175828E-3,-0E0,5.3505595E-3],"categories":[],"categories_nodes":[],"categories_segments":[],"categories_sizes":[],"default_left":[0,0,0,0,0,0,0,0,0,0,0],"id":6,"left_children":[1,3,5,-1,7,9,-1,-1,-1,-1,-1],"loss_changes":[3.1217623E-1,6.860091E-2,1.11722425E-1,0E0,8.156417E-2,1.8252942E-1,0E0,0E0,0E0,0E0,0E0],"parents":[2147483647,0,0,1,1,2,2,4,4,5,5],"right_children":[2,4,6,-1,8,10,-1,-1,-1,-1,-1],"split_conditions":[2.46508E-1,-2.53131E-1,3.0935E-1,1.6042539E-4,1.75886E-1,-3.8790036E-2,7.811545E-5,-0E0,-2.175828E-3,-0E0,5.3505595E-3],"split_indices":[52,6,52,0,52,38,0,0,0,0,0],"split_type":[0,0,0,0,0,0,0,0,0,0,0],"sum_hessian":[4.24E2,2.86E2,1.38E2,6.6E1,2.2E2,7E1,6.8E1,8.9E1,1.31E2,2.8E1,4.2E1],"tree_param":{"num_deleted":"0","num_feature":"60","num_nodes":"11","size_leaf_vector":"1"}},{"base_weights":[1.5687711E-3,-2.6977507E-3,4.1747424E-3,1.9556698E-3,-7.3740575E-3,3.2012336E-4,-1.110489E-3],"categories":[],"categories_nodes":[],"categories_segments":[],"categories_sizes":[],"default_left":[0,0,0,0,0,0,0],"id":7,"left_children":[1,3,-1,-1,5,-1,-1],"loss_changes":[1.9010238E-1,6.330692E-2,0E0,0E0,8.4627934E-2,0E0,0E0],"parents":[2147483647,0,0,1,1,4,4],"right_children":[2,4,-1,-1,6,-1,-1],"split_conditions":[2.0791666E-1,-4.2373E-2,4.1747424E-3,1.9556698E-3,-7.3233E-2,3.2012336E-4,-1.110489E-3],"split_indices":[38,19,0,0,46,0,0],"split_type":[0,0,0,0,0,0,0],"sum_hessian":[4.25E2,4E2,2.5E1,2.8E1,3.72E2,1.76E2,1.96E2],"tree_param":{"num_deleted":"0","num_feature":"60","num_nodes":"7","size_leaf_vector":"1"}},{"base_weights":[-1.4699339E-3,7.0647127E-3,-1.925898E-2,-1.2546395E-3,1.8306049E-2,-0E0,-2.0148545E-3,-1.1415128E-5,1.9145584E-3],"categories":[],"categories_nodes":[],"categories_segments":[],"categories_sizes":[],"default_left":[0,0,0,0,0,0,0,0,0],"id":8,"left_children":[1,3,5,-1,7,-1,-1,-1,-1],"loss_changes":[7.0742294E-2,9.476701E-2,6.1932683E-2,0E0,9.757609E-2,0E0,0E0,0E0,0E0],"parents":[2147483647,0,0,1,1,2,2,4,4],"right_children":[2,4,6,-1,8,-1,-1,-1,-1],"split_conditions":[2E0,-6.97674E-1,-5.2348E-2,-1.2546395E-3,-2.753005E-2,-0E0,-2.0148545E-3,-1.1415128E-5,1.9145584E-3],"split_indices":[51,20,45,0,38,0,0,0,0],"split_type":[0,0,0,0,0,0,0,0,0],"sum_hessian":[4.22E2,2.67E2,1.55E2,5.7E1,2.1E2,8.3E1,7.2E1,9.7E1,1.13E2],"tree_param":{"num_deleted":"0","num_feature":"60","num_nodes":"9","size_leaf_vector":"1"}},{"base_weights":[-0E0,-9.445997E-4,9.690393E-3,-5.136097E-4,6.6059686E-2,4.8269415E-3,2.667505E-4],"categories":[],"categories_nodes":[],"categories_segments":[],"categories_sizes":[],"default_left":[0,0,0,0,0,0,0],"id":9,"left_children":[1,-1,3,-1,5,-1,-1],"loss_changes":[8.2665704E-2,0E0,3.3982736E-1,0E0,9.424904E-2,0E0,0E0],"parents":[2147483647,0,0,2,2,4,4],"right_children":[2,-1,4,-1,6,-1,-1],"split_conditions":[-1.7867894E-1,-9.445997E-4,2.46508E-1,-5.136097E-4,3.0935E-1,4.8269415E-3,2.667505E-4],"split_indices":[35,0,52,0,52,0,0],"split_type":[0,0,0,0,0,0,0],"sum_hessian":[4.31E2,1.57E2,2.74E2,1.97E2,7.7E1,4.5E1,3.2E1],"tree_param":{"num_deleted":"0","num_feature":"60","num_nodes":"7","size_leaf_vector":"1"}},{"base_weights":[-0E0,-1.3673583E-2,3.313815E-2,-2.373422E-2,4.0225365E-4,7.5878106E-2,-0E0,-0E0,-2.0608937E-3,7.428141E-5,6.2636244E-3],"categories":[],"categories_nodes":[],"categories_segments":[],"categories_sizes":[],"default_left":[0,0,0,0,0,0,0,0,0,0,0],"id":10,"left_children":[1,3,5,7,-1,9,-1,-1,-1,-1,-1],"loss_changes":[2.105771E-1,7.4651524E-2,2.2049747E-1,1.11665696E-1,0E0,1.750958E-1,0E0,0E0,0E0,0E0,0E0],"parents":[2147483647,0,0,1,1,2,2,3,3,5,5],"right_children":[2,4,6,8,-1,10,-1,-1,-1,-1,-1],"split_conditions":[2.46508E-1,-4.89712E-1,3.0253E-1,1.75886E-1,4.0225365E-4,-1.7258221E-2,-0E0,-0E0,-2.0608937E-3,7.428141E-5,6.2636244E-3],"split_indices":[52,20,52,52,0,38,0,0,0,0,0],"split_type":[0,0,0,0,0,0,0,0,0,0,0],"sum_hessian":[4.4E2,3.02E2,1.38E2,2.22E2,8E1,6.3E1,7.5E1,8.4E1,1.38E2,3E1,3.3E1],"tree_param":{"num_deleted":"0","num_feature":"60","num_nodes":"11","size_leaf_vector":"1"}},{"base_weights":[-0E0,2.0306127E-3,-6.6012084E-3,-1.4486585E-2,1.3526082E-3,-1.4414756E-4,-1.7576276E-3],"categories":[],"categories_nodes":[],"categories_segments":[],"categories_sizes":[],"default_left":[0,0,0,0,0,0,0],"id":11,"left_children":[1,-1,3,5,-1,-1,-1],"loss_changes":[1.01453796E-1,0E0,9.003402E-2,5.3918667E-2,0E0,0E0,0E0],"parents":[2147483647,0,0,2,2,3,3],"right_children":[2,-1,4,6,-1,-1,-1],"split_conditions":[-4.72717E-1,2.0306127E-3,1.252964E-1,2.85171E-1,1.3526082E-3,-1.4414756E-4,-1.7576276E-3],"split_indices":[6,0,49,19,0,0,0],"split_type":[0,0,0,0,0,0,0],"sum_hessian":[4.08E2,5E1,3.58E2,3.03E2,5.5E1,2.11E2,9.2E1],"tree_param":{"num_deleted":"0","num_feature":"60","num_nodes":"7","size_leaf_vector":"1"}},{"base_weights":[4.040141E-3,-1.2155215E-2,4.1018464E-2,-1.9558188E-2,1.8906588E-3,6.451269E-2,8.472903E-5,-0E0,-2.0275156E-3,1.1450256E-3,6.0406704E-3],"categories":[],"categories_nodes":[],"categories_segments":[],"categories_sizes":[],"default_left":[0,0,0,0,0,0,0,0,0,0,0],"id":12,"left_children":[1,3,5,7,-1,9,-1,-1,-1,-1,-1],"loss_changes":[2.693527E-1,9.851712E-2,9.509762E-2,9.7863406E-2,0E0,1.0769054E-1,0E0,0E0,0E0,0E0,0E0],"parents":[2147483647,0,0,1,1,2,2,3,3,5,5],"right_children":[2,4,6,8,-1,10,-1,-1,-1,-1,-1],"split_conditions":[2.46508E-1,1.17791E-1,3.0935E-1,-5.2355E-2,1.8906588E-3,2.82482E-1,8.472903E-5,-0E0,-2.0275156E-3,1.1450256E-3,6.0406704E-3],"split_indices":[52,49,52,46,0,52,0,0,0,0,0],"split_type":[0,0,0,0,0,0,0,0,0,0,0],"sum_hessian":[4.22E2,2.85E2,1.37E2,2.58E2,2.7E1,7.7E1,6E1,1.4E2,1.18E2,5.1E1,2.6E1],"tree_param":{"num_deleted":"0","num_feature":"60","num_nodes":"11","size_leaf_vector":"1"}},{"base_weights":[-0E0,-8.3108444E-4,3.755866E-2,-0E0,7.375855E-2,6.0330587E-3,-0E0],"categories":[],"categories_nodes":[],"categories_segments":[],"categories_sizes":[],"default_left":[0,0,0,0,0,0,0],"id":13,"left_children":[1,-1,3,-1,5,-1,-1],"loss_changes":[2.601031E-1,0E0,1.4726652E-1,0E0,1.9770887E-1,0E0,0E0],"parents":[2147483647,0,0,2,2,4,4],"right_children":[2,-1,4,-1,6,-1,-1],"split_conditions":[2.46508E-1,-8.3108444E-4,1.5377446E-2,-0E0,3.0935E-1,6.0330587E-3,-0E0],"split_indices":[52,0,38,0,52,0,0],"split_type":[0,0,0,0,0,0,0],"sum_hessian":[4.16E2,2.91E2,1.25E2,6.7E1,5.8E1,3.4E1,2.4E1],"tree_param":{"num_deleted":"0","num_feature":"60","num_nodes":"7","size_leaf_vector":"1"}},{"base_weights":[-0E0,1.928341E-3,-6.9065443E-3,-1.7260559E-2,2.1860184E-2,3.7186767E-4,-1.2354006E-3,3.9649378E-3,-0E0],"categories":[],"categories_nodes":[],"categories_segments":[],"categories_sizes":[],"default_left":[0,0,0,0,0,0,0,0,0],"id":14,"left_children":[1,-1,3,5,7,-1,-1,-1,-1],"loss_changes":[1.2234819E-1,0E0,1.0300058E-1,5.9033588E-2,1.12211704E-1,0E0,0E0,0E0,0E0],"parents":[2147483647,0,0,2,2,3,3,4,4],"right_children":[2,-1,4,6,8,-1,-1,-1,-1],"split_conditions":[-4.00926E-1,1.928341E-3,2.65661E-1,1.40658E-1,3.0253E-1,3.7186767E-4,-1.2354006E-3,3.9649378E-3,-0E0],"split_indices":[6,0,52,52,52,0,0,0,0],"split_type":[0,0,0,0,0,0,0,0,0],"sum_hessian":[4.18E2,6.9E1,3.49E2,2.7E2,7.9E1,4.7E1,2.23E2,2.2E1,5.7E1],"tree_param":{"num_deleted":"0","num_feature":"60","num_nodes":"9","size_leaf_vector":"1"}},{"base_weights":[-3.1780987E-4,-1.2916598E-2,2.6156591E-2,-1.7134406E-3,-2.5010959E-5,-6.267414E-4,5.1433742E-2,4.148691E-3,2.7698398E-4],"categories":[],"categories_nodes":[],"categories_segments":[],"categories_sizes":[],"default_left":[0,0,0,0,0,0,0,0,0],"id":15,"left_children":[1,3,5,-1,-1,-1,7,-1,-1],"loss_changes":[1.3281058E-1,6.105588E-2,1.4005595E-1,0E0,0E0,0E0,7.3519126E-2,0E0,0E0],"parents":[2147483647,0,0,1,1,2,2,6,6],"right_children":[2,4,6,-1,-1,-1,8,-1,-1],"split_conditions":[2.46508E-1,-4.8708666E-2,-1.8664886E-1,-1.7134406E-3,-2.5010959E-5,-6.267414E-4,1.676034E-1,4.148691E-3,2.7698398E-4],"split_indices":[52,48,35,0,0,0,35,0,0],"split_type":[0,0,0,0,0,0,0,0,0],"sum_hessian":[4.14E2,2.94E2,1.2E2,9.2E1,2.02E2,4E1,8E1,4E1,4E1],"tree_param":{"num_deleted":"0","num_feature":"60","num_nodes":"9","size_leaf_vector":"1"}},{"base_weights":[3.3105025E-3,-2.678448E-4,4.2174514E-3,2.0169404E-3,-3.981832E-4],"categories":[],"categories_nodes":[],"categories_segments":[],"categories_sizes":[],"default_left":[0,0,0,0,0],"id":16,"left_children":[1,3,-1,-1,-1],"loss_changes":[1.592393E-1,1.0414297E-1,0E0,0E0,0E0],"parents":[2147483647,0,0,1,1],"right_children":[2,4,-1,-1,-1],"split_conditions":[2.0791666E-1,-4.55499E-1,4.2174514E-3,2.0169404E-3,-3.981832E-4],"split_indices":[38,6,0,0,0],"split_type":[0,0,0,0,0],"sum_hessian":[4.02E2,3.81E2,2.1E1,4.9E1,3.32E2],"tree_param":{"num_deleted":"0","num_feature":"60","num_nodes":"5","size_leaf_vector":"1"}},{"base_weights":[8.0987165E-4,-1.1325773E-4,3.6507982E-3],"categories":[],"categories_nodes":[],"categories_segments":[],"categories_sizes":[],"default_left":[0,0,0],"id":17,"left_children":[1,-1,-1],"loss_changes":[1.24298416E-1,0E0,0E0],"parents":[2147483647,0,0],"right_children":[2,-1,-1],"split_conditions":[2.051472E-1,-1.1325773E-4,3.6507982E-3],"split_indices":[49,0,0],"split_type":[0,0,0],"sum_hessian":[3.97E2,3.76E2,2.1E1],"tree_param":{"num_deleted":"0","num_feature":"60","num_nodes":"3","size_leaf_vector":"1"}},{"base_weights":[-8.8966754E-4,-4.8130606E-3,2.195225E-3,1.2063206E-3,-5.6525104E-4],"categories":[],"categories_nodes":[],"categories_segments":[],"categories_sizes":[],"default_left":[0,0,0,0,0],"id":18,"left_children":[1,3,-1,-1,-1],"loss_changes":[5.5217102E-2,6.947222E-2,0E0,0E0,0E0],"parents":[2147483647,0,0,1,1],"right_children":[2,4,-1,-1,-1],"split_conditions":[2.0791666E-1,-4.44289E-1,2.195225E-3,1.2063206E-3,-5.6525104E-4],"split_indices":[38,6,0,0,0],"split_type":[0,0,0,0,0],"sum_hessian":[4.21E2,3.99E2,2.2E1,5.8E1,3.41E2],"tree_param":{"num_deleted":"0","num_feature":"60","num_nodes":"5","size_leaf_vector":"1"}},{"base_weights":[-0E0,-9.039858E-3,2.36286E-2,1.9815208E-4,-1.0156777E-3,4.8203748E-2,-0E0,2.6798903E-4,5.118629E-3],"categories":[],"categories_nodes":[],"categories_segments":[],"categories_sizes":[],"default_left":[0,0,0,0,0,0,0,0,0],"id":19,"left_children":[1,3,5,-1,-1,7,-1,-1,-1],"loss_changes":[9.573433E-2,5.1873714E-2,7.724671E-2,0E0,0E0,9.356813E-2,0E0,0E0,0E0],"parents":[2147483647,0,0,1,1,2,2,5,5],"right_children":[2,4,6,-1,-1,8,-1,-1,-1],"split_conditions":[2.46508E-1,-1.32075E-1,3.0253E-1,1.9815208E-4,-1.0156777E-3,2.79214E-1,-0E0,2.6798903E-4,5.118629E-3],"split_indices":[52,6,52,0,0,52,0,0,0],"split_type":[0,0,0,0,0,0,0,0,0],"sum_hessian":[4.21E2,2.95E2,1.26E2,1.17E2,1.78E2,6.2E1,6.4E1,4.1E1,2.1E1],"tree_param":{"num_deleted":"0","num_feature":"60","num_nodes":"9","size_leaf_vector":"1"}},{"base_weights":[-0E0,-6.772845E-4,2.876903E-2,5.7103157E-2,-9.380633E-6,-0E0,4.8901928E-3],"categories":[],"categories_nodes":[],"categories_segments":[],"categories_sizes":[],"default_left":[0,0,0,0,0,0,0],"id":20,"left_children":[1,-1,3,5,-1,-1,-1],"loss_changes":[1.7046094E-1,0E0,1.4416423E-1,1.8872124E-1,0E0,0E0,0E0],"parents":[2147483647,0,0,2,2,3,3],"right_children":[2,-1,4,6,-1,-1,-1],"split_conditions":[2.46508E-1,-6.772845E-4,2.52101E-1,-1.8664886E-1,-9.380633E-6,-0E0,4.8901928E-3],"split_indices":[52,0,19,35,0,0,0],"split_type":[0,0,0,0,0,0,0],"sum_hessian":[4.3E2,2.91E2,1.39E2,7.8E1,6.1E1,3.3E1,4.5E1],"tree_param":{"num_deleted":"0","num_feature":"60","num_nodes":"7","size_leaf_vector":"1"}},{"base_weights":[3.2881808E-3,-2.757278E-4,2.5234643E-2,-6.799573E-4,5.0381955E-2,4.3382132E-3,2.3545716E-4],"categories":[],"categories_nodes":[],"categories_segments":[],"categories_sizes":[],"default_left":[0,0,0,0,0,0,0],"id":21,"left_children":[1,-1,3,-1,5,-1,-1],"loss_changes":[9.205048E-2,0E0,1.5452772E-1,0E0,1.063209E-1,0E0,0E0],"parents":[2147483647,0,0,2,2,4,4],"right_children":[2,-1,4,-1,6,-1,-1],"split_conditions":[2.46508E-1,-2.757278E-4,-2.3038267E-1,-6.799573E-4,2.60504E-1,4.3382132E-3,2.3545716E-4],"split_indices":[52,0,35,0,19,0,0],"split_type":[0,0,0,0,0,0,0],"sum_hessian":[4.22E2,2.86E2,1.36E2,4.6E1,9E1,4.3E1,4.7E1],"tree_param":{"num_deleted":"0","num_feature":"60","num_nodes":"7","size_leaf_vector":"1"}},{"base_weights":[-0E0,-9.76558E-3,2.1826962E-2,6.7001116E-3,-1.0235434E-3,-4.1490616E-4,4.3756723E-2,1.8639344E-3,-5.6696974E-4,3.1846915E-3,-0E0],"categories":[],"categories_nodes":[],"categories_segments":[],"categories_sizes":[],"default_left":[0,0,0,0,0,0,0,0,0,0,0],"id":22,"left_children":[1,3,5,7,-1,-1,9,-1,-1,-1,-1],"loss_changes":[8.8065386E-2,5.7220347E-2,1.0301689E-1,6.621921E-2,0E0,0E0,7.8526676E-2,0E0,0E0,0E0,0E0],"parents":[2147483647,0,0,1,1,2,2,3,3,6,6],"right_children":[2,4,6,8,-1,-1,10,-1,-1,-1,-1],"split_conditions":[2.46508E-1,1.76782E-1,-2.3038267E-1,4.225352E-1,-1.0235434E-3,-4.1490616E-4,3.0935E-1,1.8639344E-3,-5.6696974E-4,3.1846915E-3,-0E0],"split_indices":[52,52,35,33,0,0,52,0,0,0,0],"split_type":[0,0,0,0,0,0,0,0,0,0,0],"sum_hessian":[4.08E2,2.82E2,1.26E2,9.3E1,1.89E2,4.4E1,8.2E1,4.4E1,4.9E1,5.7E1,2.5E1],"tree_param":{"num_deleted":"0","num_feature":"60","num_nodes":"11","size_leaf_vector":"1"}},{"base_weights":[-0E0],"categories":[],"categories_nodes":[],"categories_segments":[],"categories_sizes":[],"default_left":[0],"id":23,"left_children":[-1],"loss_changes":[0E0],"parents":[2147483647],"right_children":[-1],"split_conditions":[-0E0],"split_indices":[0],"split_type":[0],"sum_hessian":[4.25E2],"tree_param":{"num_deleted":"0","num_feature":"60","num_nodes":"1","size_leaf_vector":"1"}},{"base_weights":[-1.0023547E-3,-7.1893847E-3,1.2131135E-3,1.7398804E-4,-1.073412E-3],"categories":[],"categories_nodes":[],"categories_segments":[],"categories_sizes":[],"default_left":[0,0,0,0,0],"id":24,"left_children":[1,3,-1,-1,-1],"loss_changes":[5.6525998E-2,6.2463768E-2,0E0,0E0,0E0],"parents":[2147483647,0,0,1,1],"right_children":[2,4,-1,-1,-1],"split_conditions":[1.20085E-1,-6.7875E-2,1.2131135E-3,1.7398804E-4,-1.073412E-3],"split_indices":[49,46,0,0,0],"split_type":[0,0,0,0,0],"sum_hessian":[4.12E2,3.48E2,6.4E1,1.8E2,1.68E2],"tree_param":{"num_deleted":"0","num_feature":"60","num_nodes":"5","size_leaf_vector":"1"}},{"base_weights":[2.1035997E-3,-3.750665E-4,2.7875572E-3,1.9719306E-2,-1.3605421E-2,2.018122E-4,3.100744E-3,-1.6020745E-3,-0E0],"categories":[],"categories_nodes":[],"categories_segments":[],"categories_sizes":[],"default_left":[0,0,0,0,0,0,0,0,0],"id":25,"left_children":[1,3,-1,5,7,-1,-1,-1,-1],"loss_changes":[8.5174784E-2,1.0541703E-1,0E0,6.398246E-2,5.640596E-2,0E0,0E0,0E0,0E0],"parents":[2147483647,0,0,1,1,3,3,4,4],"right_children":[2,4,-1,6,8,-1,-1,-1,-1],"split_conditions":[2.0791666E-1,-2.26909E-1,2.7875572E-3,-1.1367127E-2,-1.7867894E-1,2.018122E-4,3.100744E-3,-1.6020745E-3,-0E0],"split_indices":[38,6,0,38,35,0,0,0,0],"split_type":[0,0,0,0,0,0,0,0,0],"sum_hessian":[4.3E2,4.04E2,2.6E1,1.45E2,2.59E2,1.16E2,2.9E1,1E2,1.59E2],"tree_param":{"num_deleted":"0","num_feature":"60","num_nodes":"9","size_leaf_vector":"1"}},{"base_weights":[-2.6807748E-4,1.7200304E-3,-5.8230464E-3,1.4759824E-3,-2.6341846E-2,1.9162089E-3,-3.3522418E-4,-1.957766E-3,-0E0],"categories":[],"categories_nodes":[],"categories_segments":[],"categories_sizes":[],"default_left":[0,0,0,0,0,0,0,0,0],"id":26,"left_children":[1,-1,3,5,7,-1,-1,-1,-1],"loss_changes":[6.71895E-2,0E0,6.897297E-2,9.529981E-2,5.8330193E-2,0E0,0E0,0E0,0E0],"parents":[2147483647,0,0,2,2,3,3,4,4],"right_children":[2,-1,4,6,8,-1,-1,-1,-1],"split_conditions":[-4.82495E-1,1.7200304E-3,3.10078E-1,1.71262E-1,3E-1,1.9162089E-3,-3.3522418E-4,-1.957766E-3,-0E0],"split_indices":[6,0,19,52,30,0,0,0,0],"split_type":[0,0,0,0,0,0,0,0,0],"sum_hessian":[4.19E2,4.4E1,3.75E2,2.6E2,1.15E2,5.7E1,2.03E2,8.9E1,2.6E1],"tree_param":{"num_deleted":"0","num_feature":"60","num_nodes":"9","size_leaf_vector":"1"}},{"base_weights":[-2.7791486E-4,-2.3848042E-4,2.1218841E-3],"categories":[],"categories_nodes":[],"categories_segments":[],"categories_sizes":[],"default_left":[0,0,0],"id":27,"left_children":[1,-1,-1],"loss_changes":[6.503222E-2,0E0,0E0],"parents":[2147483647,0,0],"right_children":[2,-1,-1],"split_conditions":[-3.73391E-1,-2.3848042E-4,2.1218841E-3],"split_indices":[20,0,0],"split_type":[0,0,0],"sum_hessian":[4.33E2,4.04E2,2.9E1],"tree_param":{"num_deleted":"0","num_feature":"60","num_nodes":"3","size_leaf_vector":"1"}},{"base_weights":[-1.5873504E-3,6.81475E-3,-9.3063165E-4,-2.7461123E-4,3.653608E-2,-1.3140893E-3,5.7563013E-3],"categories":[],"categories_nodes":[],"categories_segments":[],"categories_sizes":[],"default_left":[0,0,0,0,0,0,0],"id":28,"left_children":[1,3,-1,-1,5,-1,-1],"loss_changes":[6.5374546E-2,1.1066019E-1,0E0,0E0,4.849165E-1,0E0,0E0],"parents":[2147483647,0,0,1,1,4,4],"right_children":[2,4,-1,-1,6,-1,-1],"split_conditions":[2.85171E-1,1.68067E-1,-9.3063165E-4,-2.7461123E-4,-6.61538E-1,-1.3140893E-3,5.7563013E-3],"split_indices":[19,19,0,0,20,0,0],"split_type":[0,0,0,0,0,0,0],"sum_hessian":[4.12E2,2.57E2,1.55E2,1.71E2,8.6E1,4.5E1,4.1E1],"tree_param":{"num_deleted":"0","num_feature":"60","num_nodes":"7","size_leaf_vector":"1"}},{"base_weights":[6.337804E-4,-3.4535633E-4,2.0879835E-2,-2.3131934E-4,3.861382E-2,3.40917E-3,-0E0],"categories":[],"categories_nodes":[],"categories_segments":[],"categories_sizes":[],"default_left":[0,0,0,0,0,0,0],"id":29,"left_children":[1,-1,3,-1,5,-1,-1],"loss_changes":[7.338247E-2,0E0,7.8867465E-2,0E0,9.99233E-2,0E0,0E0],"parents":[2147483647,0,0,2,2,4,4],"right_children":[2,-1,4,-1,6,-1,-1],"split_conditions":[2.46508E-1,-3.4535633E-4,-2.3038267E-1,-2.3131934E-4,1.676034E-1,3.40917E-3,-0E0],"split_indices":[52,0,35,0,35,0,0],"split_type":[0,0,0,0,0,0,0],"sum_hessian":[4.31E2,2.97E2,1.34E2,4.4E1,9E1,4.9E1,4.1E1],"tree_param":{"num_deleted":"0","num_feature":"60","num_nodes":"7","size_leaf_vector":"1"}},{"base_weights":[-1.978142E-3,6.9620827E-4,-5.5183E-4],"categories":[],"categories_nodes":[],"categories_segments":[],"categories_sizes":[],"default_left":[0,0,0],"id":30,"left_children":[1,-1,-1],"loss_changes":[5.965283E-2,0E0,0E0],"parents":[2147483647,0,0],"right_children":[2,-1,-1],"split_conditions":[-2.53131E-1,6.9620827E-4,-5.5183E-4],"split_indices":[6,0,0],"split_type":[0,0,0],"sum_hessian":[4.2E2,1.32E2,2.88E2],"tree_param":{"num_deleted":"0","num_feature":"60","num_nodes":"3","size_leaf_vector":"1"}},{"base_weights":[1.263792E-3],"categories":[],"categories_nodes":[],"categories_segments":[],"categories_sizes":[],"default_left":[0],"id":31,"left_children":[-1],"loss_changes":[0E0],"parents":[2147483647],"right_children":[-1],"split_conditions":[6.3189604E-5],"split_indices":[0],"split_type":[0],"sum_hessian":[4.23E2],"tree_param":{"num_deleted":"0","num_feature":"60","num_nodes":"1","size_leaf_vector":"1"}},{"base_weights":[2.8650917E-4,-3.1805641E-3,1.7310318E-3,1.2433251E-3,-5.123861E-4],"categories":[],"categories_nodes":[],"categories_segments":[],"categories_sizes":[],"default_left":[0,0,0,0,0],"id":32,"left_children":[1,3,-1,-1,-1],"loss_changes":[6.474622E-2,6.475516E-2,0E0,0E0,0E0],"parents":[2147483647,0,0,1,1],"right_children":[2,4,-1,-1,-1],"split_conditions":[1.335554E-1,-4.3772E-1,1.7310318E-3,1.2433251E-3,-5.123861E-4],"split_indices":[49,6,0,0,0],"split_type":[0,0,0,0,0],"sum_hessian":[4.08E2,3.59E2,4.9E1,5.7E1,3.02E2],"tree_param":{"num_deleted":"0","num_feature":"60","num_nodes":"5","size_leaf_vector":"1"}},{"base_weights":[-0E0],"categories":[],"categories_nodes":[],"categories_segments":[],"categories_sizes":[],"default_left":[0],"id":33,"left_children":[-1],"loss_changes":[0E0],"parents":[2147483647],"right_children":[-1],"split_conditions":[-0E0],"split_indices":[0],"split_type":[0],"sum_hessian":[4.23E2],"tree_param":{"num_deleted":"0","num_feature":"60","num_nodes":"1","size_leaf_vector":"1"}},{"base_weights":[-0E0,-6.132409E-4,2.4270695E-2,-7.313074E-5,2.2864507E-3],"categories":[],"categories_nodes":[],"categories_segments":[],"categories_sizes":[],"default_left":[0,0,0,0,0],"id":34,"left_children":[1,-1,3,-1,-1],"loss_changes":[1.17807955E-1,0E0,9.3499936E-2,0E0,0E0],"parents":[2147483647,0,0,2,2],"right_children":[2,-1,4,-1,-1],"split_conditions":[2.46508E-1,-6.132409E-4,-1.8664886E-1,-7.313074E-5,2.2864507E-3],"split_indices":[52,0,35,0,0],"split_type":[0,0,0,0,0],"sum_hessian":[4.03E2,2.76E2,1.27E2,4.8E1,7.9E1],"tree_param":{"num_deleted":"0","num_feature":"60","num_nodes":"5","size_leaf_vector":"1"}},{"base_weights":[1.1286055E-3,-3.247096E-5,2.812132E-3],"categories":[],"categories_nodes":[],"categories_segments":[],"categories_sizes":[],"default_left":[0,0,0],"id":35,"left_children":[1,-1,-1],"loss_changes":[6.922317E-2,0E0,0E0],"parents":[2147483647,0,0],"right_children":[2,-1,-1],"split_conditions":[2.051472E-1,-3.247096E-5,2.812132E-3],"split_indices":[49,0,0],"split_type":[0,0,0],"sum_hessian":[4.2E2,4E2,2E1],"tree_param":{"num_deleted":"0","num_feature":"60","num_nodes":"3","size_leaf_vector":"1"}},{"base_weights":[-0E0],"categories":[],"categories_nodes":[],"categories_segments":[],"categories_sizes":[],"default_left":[0],"id":36,"left_children":[-1],"loss_changes":[0E0],"parents":[2147483647],"right_children":[-1],"split_conditions":[-0E0],"split_indices":[0],"split_type":[0],"sum_hessian":[4.1E2],"tree_param":{"num_deleted":"0","num_feature":"60","num_nodes":"1","size_leaf_vector":"1"}},{"base_weights":[-0E0],"categories":[],"categories_nodes":[],"categories_segments":[],"categories_sizes":[],"default_left":[0],"id":37,"left_children":[-1],"loss_changes":[0E0],"parents":[2147483647],"right_children":[-1],"split_conditions":[-0E0],"split_indices":[0],"split_type":[0],"sum_hessian":[4.22E2],"tree_param":{"num_deleted":"0","num_feature":"60","num_nodes":"1","size_leaf_vector":"1"}},{"base_weights":[5.3139066E-4,-6.1904336E-3,2.0813785E-2,2.4955356E-4,-1.0078716E-3,4.6009853E-2,-1.2805613E-4,4.431886E-3,-0E0],"categories":[],"categories_nodes":[],"categories_segments":[],"categories_sizes":[],"default_left":[0,0,0,0,0,0,0,0,0],"id":38,"left_children":[1,3,5,-1,-1,7,-1,-1,-1],"loss_changes":[6.7283966E-2,5.6510076E-2,9.734638E-2,0E0,0E0,1.1470868E-1,0E0,0E0,0E0],"parents":[2147483647,0,0,1,1,2,2,5,5],"right_children":[2,4,6,-1,-1,8,-1,-1,-1],"split_conditions":[2.46508E-1,-5.2355E-2,2.60504E-1,2.4955356E-4,-1.0078716E-3,3.0935E-1,-1.2805613E-4,4.431886E-3,-0E0],"split_indices":[52,46,19,0,0,52,0,0,0],"split_type":[0,0,0,0,0,0,0,0,0],"sum_hessian":[4.36E2,3.1E2,1.26E2,1.53E2,1.57E2,7E1,5.6E1,3.2E1,3.8E1],"tree_param":{"num_deleted":"0","num_feature":"60","num_nodes":"9","size_leaf_vector":"1"}},{"base_weights":[-0E0,1.8052341E-3,-3.661002E-3,-1.4197583E-3,7.584452E-5],"categories":[],"categories_nodes":[],"categories_segments":[],"categories_sizes":[],"default_left":[0,0,0,0,0],"id":39,"left_children":[1,-1,3,-1,-1],"loss_changes":[5.051626E-2,0E0,6.027114E-2,0E0,0E0],"parents":[2147483647,0,0,2,2],"right_children":[2,-1,4,-1,-1],"split_conditions":[-2.8807E-2,1.8052341E-3,-6.66667E-1,-1.4197583E-3,7.584452E-5],"split_indices":[19,0,20,0,0],"split_type":[0,0,0,0,0],"sum_hessian":[3.96E2,3.3E1,3.63E2,7.8E1,2.85E2],"tree_param":{"num_deleted":"0","num_feature":"60","num_nodes":"5","size_leaf_vector":"1"}},{"base_weights":[-0E0,-1.0965852E-2,1.9238329E-2,-0E0,-1.3266142E-3,-0E0,4.625341E-2,-0E0,5.1196683E-3],"categories":[],"categories_nodes":[],"categories_segments":[],"categories_sizes":[],"default_left":[0,0,0,0,0,0,0,0,0],"id":40,"left_children":[1,3,5,-1,-1,-1,7,-1,-1],"loss_changes":[8.497675E-2,5.653988E-2,7.337839E-2,0E0,0E0,0E0,1.3802615E-1,0E0,0E0],"parents":[2147483647,0,0,1,1,2,2,6,6],"right_children":[2,4,6,-1,-1,-1,8,-1,-1],"split_conditions":[2.46508E-1,-3.5487E-2,3.4892738E-2,-0E0,-1.3266142E-3,-0E0,6.513313E-2,-0E0,5.1196683E-3],"split_indices":[52,47,38,0,0,0,50,0,0],"split_type":[0,0,0,0,0,0,0,0,0],"sum_hessian":[4.18E2,2.83E2,1.35E2,1.56E2,1.27E2,7.9E1,5.6E1,3.3E1,2.3E1],"tree_param":{"num_deleted":"0","num_feature":"60","num_nodes":"9","size_leaf_vector":"1"}},{"base_weights":[-1.2460821E-3,-3.9288244E-4,1.4133117E-3],"categories":[],"categories_nodes":[],"categories_segments":[],"categories_sizes":[],"default_left":[0,0,0],"id":41,"left_children":[1,-1,-1],"loss_changes":[7.063044E-2,0E0,0E0],"parents":[2147483647,0,0],"right_children":[2,-1,-1],"split_conditions":[1.252964E-1,-3.9288244E-4,1.4133117E-3],"split_indices":[49,0,0],"split_type":[0,0,0],"sum_hessian":[4.1E2,3.5E2,6E1],"tree_param":{"num_deleted":"0","num_feature":"60","num_nodes":"3","size_leaf_vector":"1"}},{"base_weights":[-0E0],"categories":[],"categories_nodes":[],"categories_segments":[],"categories_sizes":[],"default_left":[0],"id":42,"left_children":[-1],"loss_changes":[0E0],"parents":[2147483647],"right_children":[-1],"split_conditions":[-0E0],"split_indices":[0],"split_type":[0],"sum_hessian":[4.19E2],"tree_param":{"num_deleted":"0","num_feature":"60","num_nodes":"1","size_leaf_vector":"1"}},{"base_weights":[1.0295185E-3,-5.9448994E-5,2.3979188E-3],"categories":[],"categories_nodes":[],"categories_segments":[],"categories_sizes":[],"default_left":[0,0,0],"id":43,"left_children":[1,-1,-1],"loss_changes":[6.6809155E-2,0E0,0E0],"parents":[2147483647,0,0],"right_children":[2,-1,-1],"split_conditions":[1.8555595E-1,-5.9448994E-5,2.3979188E-3],"split_indices":[38,0,0],"split_type":[0,0,0],"sum_hessian":[4.14E2,3.87E2,2.7E1],"tree_param":{"num_deleted":"0","num_feature":"60","num_nodes":"3","size_leaf_vector":"1"}},{"base_weights":[-0E0,-5.3575676E-4,2.3523027E-2,5.0618168E-2,-0E0,3.75557E-3,-0E0],"categories":[],"categories_nodes":[],"categories_segments":[],"categories_sizes":[],"default_left":[0,0,0,0,0,0,0],"id":44,"left_children":[1,-1,3,5,-1,-1,-1],"loss_changes":[1.0189975E-1,0E0,9.460966E-2,5.34842E-2,0E0,0E0,0E0],"parents":[2147483647,0,0,2,2,3,3],"right_children":[2,-1,4,6,-1,-1,-1],"split_conditions":[2.46508E-1,-5.3575676E-4,3.0253E-1,7.1428573E-1,-0E0,3.75557E-3,-0E0],"split_indices":[52,0,52,33,0,0,0],"split_type":[0,0,0,0,0,0,0],"sum_hessian":[3.87E2,2.59E2,1.28E2,6.3E1,6.5E1,3.7E1,2.6E1],"tree_param":{"num_deleted":"0","num_feature":"60","num_nodes":"7","size_leaf_vector":"1"}},{"base_weights":[4.629297E-3,-0E0,1.8901126E-3],"categories":[],"categories_nodes":[],"categories_segments":[],"categories_sizes":[],"default_left":[0,0,0],"id":45,"left_children":[1,-1,-1],"loss_changes":[5.1060535E-2,0E0,0E0],"parents":[2147483647,0,0],"right_children":[2,-1,-1],"split_conditions":[1.3947056E-1,-0E0,1.8901126E-3],"split_indices":[38,0,0],"split_type":[0,0,0],"sum_hessian":[4.16E2,3.76E2,4E1],"tree_param":{"num_deleted":"0","num_feature":"60","num_nodes":"3","size_leaf_vector":"1"}},{"base_weights":[-0E0,-3.7193348E-4,2.0027913E-2,4.482126E-2,-1.0513708E-4,4.437888E-3,-0E0],"categories":[],"categories_nodes":[],"categories_segments":[],"categories_sizes":[],"default_left":[0,0,0,0,0,0,0],"id":46,"left_children":[1,-1,3,5,-1,-1,-1],"loss_changes":[6.976896E-2,0E0,9.397522E-2,1.21196985E-1,0E0,0E0,0E0],"parents":[2147483647,0,0,2,2,3,3],"right_children":[2,-1,4,6,-1,-1,-1],"split_conditions":[2.46508E-1,-3.7193348E-4,2.60504E-1,3.0935E-1,-1.0513708E-4,4.437888E-3,-0E0],"split_indices":[52,0,19,52,0,0,0],"split_type":[0,0,0,0,0,0,0],"sum_hessian":[4.32E2,3.02E2,1.3E2,7.1E1,5.9E1,3.2E1,3.9E1],"tree_param":{"num_deleted":"0","num_feature":"60","num_nodes":"7","size_leaf_vector":"1"}},{"base_weights":[-1.0801008E-3],"categories":[],"categories_nodes":[],"categories_segments":[],"categories_sizes":[],"default_left":[0],"id":47,"left_children":[-1],"loss_changes":[0E0],"parents":[2147483647],"right_children":[-1],"split_conditions":[-5.400504E-5],"split_indices":[0],"split_type":[0],"sum_hessian":[4.36E2],"tree_param":{"num_deleted":"0","num_feature":"60","num_nodes":"1","size_leaf_vector":"1"}},{"base_weights":[1.4507733E-3,-1.3600473E-2,1.0845556E-2,2.2290162E-4,-1.7777582E-3,-0E0,3.788469E-2,-5.8974046E-4,3.3816656E-3],"categories":[],"categories_nodes":[],"categories_segments":[],"categories_sizes":[],"default_left":[0,0,0,0,0,0,0,0,0],"id":48,"left_children":[1,3,5,-1,-1,-1,7,-1,-1],"loss_changes":[5.689286E-2,7.057829E-2,6.967319E-2,0E0,0E0,0E0,1.3444535E-1,0E0,0E0],"parents":[2147483647,0,0,1,1,2,2,6,6],"right_children":[2,4,6,-1,-1,-1,8,-1,-1],"split_conditions":[-1.8664886E-1,-6.2539E-2,7.5903E-2,2.2290162E-4,-1.7777582E-3,-0E0,-6.71756E-1,-5.8974046E-4,3.3816656E-3],"split_indices":[35,45,45,0,0,0,20,0,0],"split_type":[0,0,0,0,0,0,0,0,0],"sum_hessian":[4.08E2,1.36E2,2.72E2,6.3E1,7.3E1,2.03E2,6.9E1,2E1,4.9E1],"tree_param":{"num_deleted":"0","num_feature":"60","num_nodes":"9","size_leaf_vector":"1"}},{"base_weights":[-0E0,8.806764E-3,-1.3765557E-2,-0E0,3.337464E-2,-2.6039783E-2,6.765392E-4,1.573271E-3,-7.4772374E-4,4.4091307E-3,-0E0,-0E0,-2.1743851E-3],"categories":[],"categories_nodes":[],"categories_segments":[],"categories_sizes":[],"default_left":[0,0,0,0,0,0,0,0,0,0,0,0,0],"id":49,"left_children":[1,3,5,7,9,11,-1,-1,-1,-1,-1,-1,-1],"loss_changes":[5.1923096E-2,6.285977E-2,6.023077E-2,9.732479E-2,1.564075E-1,7.1674146E-2,0E0,0E0,0E0,0E0,0E0,0E0,0E0],"parents":[2147483647,0,0,1,1,2,2,3,3,4,4,5,5],"right_children":[2,4,6,8,10,12,-1,-1,-1,-1,-1,-1,-1],"split_conditions":[2.85171E-1,2.58839E-1,1.6551E-2,1.78623E-1,3.0935E-1,-4.3772E-1,6.765392E-4,1.573271E-3,-7.4772374E-4,4.4091307E-3,-0E0,-0E0,-2.1743851E-3],"split_indices":[19,52,45,52,52,6,0,0,0,0,0,0,0],"split_type":[0,0,0,0,0,0,0,0,0,0,0,0,0],"sum_hessian":[4.36E2,2.79E2,1.57E2,2.05E2,7.4E1,1.21E2,3.6E1,6.4E1,1.41E2,2.9E1,4.5E1,4.1E1,8E1],"tree_param":{"num_deleted":"0","num_feature":"60","num_nodes":"13","size_leaf_vector":"1"}}]},"name":"gbtree"},"learner_model_param":{"base_score":"[1.1898638E-2]","boost_from_average":"1","num_class":"0","num_feature":"60","num_target":"1"},"objective":{"name":"reg:squarederror","reg_loss_param":{"scale_pos_weight":"1"}}},"version":[3,2,0]}