{"learner":{"attributes":{"scikit_learn":"{\"_estimator_type\": \"regressor\"}"},"feature_names":["macd_trend","macd_hist_direction","macd_momentum_decay","momentum_20","vol_ratio","price_momentum_5d","price_momentum_20d","macd_bottom_divergence","macd_top_divergence","rsi_bottom_divergence","rsi_top_divergence","volume_breakout","volume_pullback","volume_dry_up","volume_climax","rsi_extreme","boll_position","ma_bias","volatility_20","pe_rank","pb_rank","roe_level","revenue_growth","debt_level","main_inflow_5d","elg_ratio","margin_delta_5d","northbound_net_5d","turnover_extreme","holder_count_trend","insider_net_30d","trig_ma60_bias","trig_pos_in_20d","trig_dist_from_high","trig_dist_from_low","trig_vol_change","trig_break_above","trig_break_below","trig_price_trend_10d","trend_dir_ord","trend_phase_ord","trend_short_dir_ord","trend_ma_slope","trend_ret_5d","trend_ma_alignment","comp_lag1","comp_lag3","comp_lag5","comp_delta_3d","comp_delta_5d","comp_std_5d","comp_sign_changes_10d","comp_roll_max_10d","tech_rsi14","tech_macd_hist","tech_ma60_bias","tech_volatility_20","tech_momentum_20","tech_turnover_rate","tech_vol_ratio"],"feature_types":["float","float","float","float","float","float","float","float","float","float","float","float","float","float","float","float","float","float","float","float","float","float","float","float","float","float","float","float","float","float","float","float","float","float","float","float","float","float","float","float","float","float","float","float","float","float","float","float","float","float","float","float","float","float","float","float","float","float","float","float"],"gradient_booster":{"model":{"cats":{"enc":[],"feature_segments":[],"sorted_idx":[]},"gbtree_model_param":{"num_parallel_tree":"1","num_trees":"50"},"iteration_indptr":[0,1,2,3,4,5,6,7,8,9,10,11,12,13,14,15,16,17,18,19,20,21,22,23,24,25,26,27,28,29,30,31,32,33,34,35,36,37,38,39,40,41,42,43,44,45,46,47,48,49,50],"tree_info":[0,0,0,0,0,0,0,0,0,0,0,0,0,0,0,0,0,0,0,0,0,0,0,0,0,0,0,0,0,0,0,0,0,0,0,0,0,0,0,0,0,0,0,0,0,0,0,0,0,0],"trees":[{"base_weights":[2.7175673E-4,6.724176E-3,-2.6698308E-3,1.3998854E-2,-4.9453606E-3,1.1004513E-4,2.9857706E-3,1.3783505E-3,-7.338453E-4],"categories":[],"categories_nodes":[],"categories_segments":[],"categories_sizes":[],"default_left":[0,0,0,0,0,0,0,0,0],"id":0,"left_children":[1,3,-1,5,7,-1,-1,-1,-1],"loss_changes":[2.2290209E-1,5.9250847E-2,0E0,1.9692901E-1,6.460396E-2,0E0,0E0,0E0,0E0],"parents":[2147483647,0,0,1,1,3,3,4,4],"right_children":[2,4,-1,6,8,-1,-1,-1,-1],"split_conditions":[3.11124E-1,2.97167E-1,-2.6698308E-3,3E-1,-1.00529E-1,1.1004513E-4,2.9857706E-3,1.3783505E-3,-7.338453E-4],"split_indices":[45,52,0,27,55,0,0,0,0],"split_type":[0,0,0,0,0,0,0,0,0],"sum_hessian":[7.07E2,6.41E2,6.6E1,4.21E2,2.2E2,3.45E2,7.6E1,3.8E1,1.82E2],"tree_param":{"num_deleted":"0","num_feature":"60","num_nodes":"9","size_leaf_vector":"1"}},{"base_weights":[-2.0808856E-4,2.9346154E-3,-4.480447E-3,-5.7964344E-3,3.254582E-2,-4.4594271E-4,1.7308875E-3,3.5001584E-3,-0E0],"categories":[],"categories_nodes":[],"categories_segments":[],"categories_sizes":[],"default_left":[0,0,0,0,0,0,0,0,0],"id":1,"left_children":[1,3,-1,5,7,-1,-1,-1,-1],"loss_changes":[2.3856865E-1,1.8593755E-1,0E0,5.124165E-2,1.8295938E-1,0E0,0E0,0E0,0E0],"parents":[2147483647,0,0,1,1,3,3,4,4],"right_children":[2,4,-1,6,8,-1,-1,-1,-1],"split_conditions":[1.7021276E-1,3E-1,-4.480447E-3,7.55102E-1,2.62345E-1,-4.4594271E-4,1.7308875E-3,3.5001584E-3,-0E0],"split_indices":[38,27,0,20,52,0,0,0,0],"split_type":[0,0,0,0,0,0,0,0,0],"sum_hessian":[6.91E2,6.64E2,2.7E1,5.01E2,1.63E2,4.78E2,2.3E1,7.1E1,9.2E1],"tree_param":{"num_deleted":"0","num_feature":"60","num_nodes":"9","size_leaf_vector":"1"}},{"base_weights":[-0E0,2.18588E-3,-4.2466447E-3,-4.5819767E-3,2.9267805E-2,-4.1397088E-4,2.2991959E-3,3.4549106E-3,-0E0],"categories":[],"categories_nodes":[],"categories_segments":[],"categories_sizes":[],"default_left":[0,0,0,0,0,0,0,0,0],"id":2,"left_children":[1,3,-1,5,7,-1,-1,-1,-1],"loss_changes":[1.6913792E-1,1.3632959E-1,0E0,8.0439426E-2,1.6753219E-1,0E0,0E0,0E0,0E0],"parents":[2147483647,0,0,1,1,3,3,4,4],"right_children":[2,4,-1,6,8,-1,-1,-1,-1],"split_conditions":[6.6912E-1,3E-1,-4.2466447E-3,7.55102E-1,2.62345E-1,-4.1397088E-4,2.2991959E-3,3.4549106E-3,-0E0],"split_indices":[0,27,0,20,52,0,0,0,0],"split_type":[0,0,0,0,0,0,0,0,0],"sum_hessian":[6.94E2,6.73E2,2.1E1,5.25E2,1.48E2,5E2,2.5E1,6E1,8.8E1],"tree_param":{"num_deleted":"0","num_feature":"60","num_nodes":"9","size_leaf_vector":"1"}},{"base_weights":[-0E0,4.8398795E-3,-6.1237343E-2,-1.14534625E-4,3.300872E-2,-4.631016E-3,-0E0,-4.2980615E-4,2.271628E-3],"categories":[],"categories_nodes":[],"categories_segments":[],"categories_sizes":[],"default_left":[0,0,0,0,0,0,0,0,0],"id":3,"left_children":[1,3,5,-1,7,-1,-1,-1,-1],"loss_changes":[2.3277345E-1,1.464709E-1,1.08483195E-1,0E0,9.466553E-2,0E0,0E0,0E0,0E0],"parents":[2147483647,0,0,1,1,2,2,4,4],"right_children":[2,4,6,-1,8,-1,-1,-1,-1],"split_conditions":[3.32369E-1,3E-1,1.2989557E0,-1.14534625E-4,-5.02E-2,-4.631016E-3,-0E0,-4.2980615E-4,2.271628E-3],"split_indices":[45,27,35,0,54,0,0,0,0],"split_type":[0,0,0,0,0,0,0,0,0],"sum_hessian":[7.06E2,6.5E2,5.6E1,5.06E2,1.44E2,3.6E1,2E1,2.4E1,1.2E2],"tree_param":{"num_deleted":"0","num_feature":"60","num_nodes":"9","size_leaf_vector":"1"}},{"base_weights":[-1.2224106E-3,4.403895E-3,-2.4805448E-3,-1.414312E-2,1.09325815E-2,6.081545E-4,-1.3063336E-3,1.1150662E-3,-0E0],"categories":[],"categories_nodes":[],"categories_segments":[],"categories_sizes":[],"default_left":[0,0,0,0,0,0,0,0,0],"id":4,"left_children":[1,3,-1,5,7,-1,-1,-1,-1],"loss_changes":[2.1797034E-1,7.547354E-2,0E0,5.364266E-2,6.1295655E-2,0E0,0E0,0E0,0E0],"parents":[2147483647,0,0,1,1,3,3,4,4],"right_children":[2,4,-1,6,8,-1,-1,-1,-1],"split_conditions":[2.90703E-1,-1.5454E-2,-2.4805448E-3,-1.5E-1,0E0,6.081545E-4,-1.3063336E-3,1.1150662E-3,-0E0],"split_indices":[46,47,0,18,18,0,0,0,0],"split_type":[0,0,0,0,0,0,0,0,0],"sum_hessian":[7.14E2,6.32E2,8.2E1,1.44E2,4.88E2,3.2E1,1.12E2,2.39E2,2.49E2],"tree_param":{"num_deleted":"0","num_feature":"60","num_nodes":"9","size_leaf_vector":"1"}},{"base_weights":[-0E0,4.260041E-3,-4.3281645E-2,-5.5675064E-3,3.8283907E-2,-0E0,-3.9245463E-3,1.0177759E-4,-1.0748133E-3,2.4984889E-3,-0E0],"categories":[],"categories_nodes":[],"categories_segments":[],"categories_sizes":[],"default_left":[0,0,0,0,0,0,0,0,0,0,0],"id":5,"left_children":[1,3,5,7,9,-1,-1,-1,-1,-1,-1],"loss_changes":[1.4110836E-1,2.3512883E-1,9.2531994E-2,7.000819E-2,9.303334E-2,0E0,0E0,0E0,0E0,0E0,0E0],"parents":[2147483647,0,0,1,1,2,2,3,3,4,4],"right_children":[2,4,6,8,10,-1,-1,-1,-1,-1,-1],"split_conditions":[5.78462E-1,3E-1,8.192771E-1,7.327E-3,5.59953E-1,-0E0,-3.9245463E-3,1.0177759E-4,-1.0748133E-3,2.4984889E-3,-0E0],"split_indices":[6,27,32,3,56,0,0,0,0,0,0],"split_type":[0,0,0,0,0,0,0,0,0,0,0],"sum_hessian":[7.18E2,6.51E2,6.7E1,4.95E2,1.56E2,3.3E1,3.4E1,3.15E2,1.8E2,1.28E2,2.8E1],"tree_param":{"num_deleted":"0","num_feature":"60","num_nodes":"11","size_leaf_vector":"1"}},{"base_weights":[-0E0,4.0030214E-3,-4.138935E-3,1.2193964E-2,-1.054813E-2,-2.0262276E-4,1.5638139E-3,5.500639E-4,-1.4021514E-3],"categories":[],"categories_nodes":[],"categories_segments":[],"categories_sizes":[],"default_left":[0,0,0,0,0,0,0,0,0],"id":6,"left_children":[1,3,-1,5,7,-1,-1,-1,-1],"loss_changes":[2.0961347E-1,8.2127765E-2,0E0,1.5585423E-1,9.358694E-2,0E0,0E0,0E0,0E0],"parents":[2147483647,0,0,1,1,3,3,4,4],"right_children":[2,4,-1,6,8,-1,-1,-1,-1],"split_conditions":[1.7021276E-1,3.11195E-1,-4.138935E-3,7.5865E-2,-9.5E-3,-2.0262276E-4,1.5638139E-3,5.500639E-4,-1.4021514E-3],"split_indices":[38,52,0,46,54,0,0,0,0],"split_type":[0,0,0,0,0,0,0,0,0],"sum_hessian":[7.05E2,6.78E2,2.7E1,4.56E2,2.22E2,2.33E2,2.23E2,8.7E1,1.35E2],"tree_param":{"num_deleted":"0","num_feature":"60","num_nodes":"9","size_leaf_vector":"1"}},{"base_weights":[-1.8812994E-3,5.6693857E-3,-2.5566386E-2,1.7907E-2,-1.5189011E-4,-0E0,-5.652657E-2,1.3297497E-3,-0E0,-7.131035E-4,-4.331729E-3],"categories":[],"categories_nodes":[],"categories_segments":[],"categories_sizes":[],"default_left":[0,0,0,0,0,0,0,0,0,0,0],"id":7,"left_children":[1,3,5,7,-1,-1,9,-1,-1,-1,-1],"loss_changes":[1.3721381E-1,6.337833E-2,1.3593116E-1,5.0420277E-2,0E0,0E0,5.0152987E-2,0E0,0E0,0E0,0E0],"parents":[2147483647,0,0,1,1,2,2,3,3,6,6],"right_children":[2,4,6,8,-1,-1,10,-1,-1,-1,-1],"split_conditions":[7.9105705E-2,0E0,4.784689E-3,2.39499E-1,-1.5189011E-4,-0E0,-7.9057336E-2,1.3297497E-3,-0E0,-7.131035E-4,-4.331729E-3],"split_indices":[50,18,42,46,0,0,48,0,0,0,0],"split_type":[0,0,0,0,0,0,0,0,0,0,0],"sum_hessian":[7.08E2,5.22E2,1.86E2,2.4E2,2.82E2,1.07E2,7.9E1,1.79E2,6.1E1,4.1E1,3.8E1],"tree_param":{"num_deleted":"0","num_feature":"60","num_nodes":"11","size_leaf_vector":"1"}},{"base_weights":[-0E0,4.303876E-3,-3.5065145E-3,-4.5632524E-4,1.1923933E-2,9.0612564E-4,-9.0187433E-4],"categories":[],"categories_nodes":[],"categories_segments":[],"categories_sizes":[],"default_left":[0,0,0,0,0,0,0],"id":8,"left_children":[1,3,-1,-1,5,-1,-1],"loss_changes":[1.8952347E-1,7.049136E-2,0E0,0E0,8.501238E-2,0E0,0E0],"parents":[2147483647,0,0,1,1,4,4],"right_children":[2,4,-1,-1,6,-1,-1],"split_conditions":[6.7322E1,4.097E-2,-3.5065145E-3,-4.5632524E-4,2.97035E-1,9.0612564E-4,-9.0187433E-4],"split_indices":[53,46,0,0,46,0,0],"split_type":[0,0,0,0,0,0,0],"sum_hessian":[7.05E2,6.71E2,3.4E1,2.19E2,4.52E2,3.89E2,6.3E1],"tree_param":{"num_deleted":"0","num_feature":"60","num_nodes":"7","size_leaf_vector":"1"}},{"base_weights":[-2.9600037E-3,3.426269E-4,-3.7969693E-3,1.4243199E-2,-1.0377103E-2,-0E0,1.3451317E-3,-1.8589204E-3,1.4309354E-4],"categories":[],"categories_nodes":[],"categories_segments":[],"categories_sizes":[],"default_left":[0,0,0,0,0,0,0,0,0],"id":9,"left_children":[1,3,-1,5,7,-1,-1,-1,-1],"loss_changes":[2.0729026E-1,1.0176759E-1,0E0,5.322898E-2,1.4439726E-1,0E0,0E0,0E0,0E0],"parents":[2147483647,0,0,1,1,3,3,4,4],"right_children":[2,4,-1,6,8,-1,-1,-1,-1],"split_conditions":[3.54871E-1,2.33516E-1,-3.7969693E-3,4.3948E-2,3.67264E-1,-0E0,1.3451317E-3,-1.8589204E-3,1.4309354E-4],"split_indices":[46,52,0,47,56,0,0,0,0],"split_type":[0,0,0,0,0,0,0,0,0],"sum_hessian":[7.01E2,6.66E2,3.5E1,3.1E2,3.56E2,1.51E2,1.59E2,1.29E2,2.27E2],"tree_param":{"num_deleted":"0","num_feature":"60","num_nodes":"9","size_leaf_vector":"1"}},{"base_weights":[-3.1127306E-3,-0E0,-2.0456675E-3,-5.7504405E-3,2.4521085E-2,-4.7382535E-4,1.9536875E-3,2.8019839E-3,-0E0],"categories":[],"categories_nodes":[],"categories_segments":[],"categories_sizes":[],"default_left":[0,0,0,0,0,0,0,0,0],"id":10,"left_children":[1,3,-1,5,7,-1,-1,-1,-1],"loss_changes":[1.0182749E-1,1.0077355E-1,0E0,7.279126E-2,1.1112919E-1,0E0,0E0,0E0,0E0],"parents":[2147483647,0,0,1,1,3,3,4,4],"right_children":[2,4,-1,6,8,-1,-1,-1,-1],"split_conditions":[3.11124E-1,3E-1,-2.0456675E-3,1.28746E-1,2.67589E-1,-4.7382535E-4,1.9536875E-3,2.8019839E-3,-0E0],"split_indices":[45,27,0,55,52,0,0,0,0],"split_type":[0,0,0,0,0,0,0,0,0],"sum_hessian":[7.18E2,6.55E2,6.3E1,5.18E2,1.37E2,4.9E2,2.8E1,6E1,7.7E1],"tree_param":{"num_deleted":"0","num_feature":"60","num_nodes":"9","size_leaf_vector":"1"}},{"base_weights":[2.6077032E-3,9.722674E-3,-1.4716624E-2,1.3490479E-2,-1.4486755E-3,-0E0,-1.551316E-3,-0E0,1.2912045E-3],"categories":[],"categories_nodes":[],"categories_segments":[],"categories_sizes":[],"default_left":[0,0,0,0,0,0,0,0,0],"id":11,"left_children":[1,3,5,7,-1,-1,-1,-1,-1],"loss_changes":[8.444245E-2,6.885606E-2,5.3308234E-2,9.142792E-2,0E0,0E0,0E0,0E0,0E0],"parents":[2147483647,0,0,1,1,2,2,3,3],"right_children":[2,4,6,8,-1,-1,-1,-1,-1],"split_conditions":[7.797589E-2,3.29213E-1,1.3841E-2,7.2941E-2,-1.4486755E-3,-0E0,-1.551316E-3,-0E0,1.2912045E-3],"split_indices":[50,46,6,46,0,0,0,0,0],"split_type":[0,0,0,0,0,0,0,0,0],"sum_hessian":[7.01E2,5.18E2,1.83E2,4.85E2,3.3E1,8.8E1,9.5E1,2.17E2,2.68E2],"tree_param":{"num_deleted":"0","num_feature":"60","num_nodes":"9","size_leaf_vector":"1"}},{"base_weights":[-2.3083156E-3,1.8303444E-3,-2.1920882E-3,-8.393329E-3,2.2301946E-2,2.7012388E-4,-1.2256139E-3,2.3246028E-3,-0E0],"categories":[],"categories_nodes":[],"categories_segments":[],"categories_sizes":[],"default_left":[0,0,0,0,0,0,0,0,0],"id":12,"left_children":[1,3,-1,5,7,-1,-1,-1,-1],"loss_changes":[1.4441334E-1,1.4190534E-1,0E0,1.0188254E-1,1.07741624E-1,0E0,0E0,0E0,0E0],"parents":[2147483647,0,0,1,1,3,3,4,4],"right_children":[2,4,-1,6,8,-1,-1,-1,-1],"split_conditions":[3.11124E-1,4.17181E-1,-2.1920882E-3,2.08399E-1,5.25378E-1,2.7012388E-4,-1.2256139E-3,2.3246028E-3,-0E0],"split_indices":[45,56,0,52,56,0,0,0,0],"split_type":[0,0,0,0,0,0,0,0,0],"sum_hessian":[7.15E2,6.41E2,7.4E1,4.12E2,2.29E2,2.06E2,2.06E2,1.01E2,1.28E2],"tree_param":{"num_deleted":"0","num_feature":"60","num_nodes":"9","size_leaf_vector":"1"}},{"base_weights":[-0E0,1.8564893E-4,-5.379804E-2,-0E0,-4.554123E-3],"categories":[],"categories_nodes":[],"categories_segments":[],"categories_sizes":[],"default_left":[0,0,0,0,0],"id":13,"left_children":[1,-1,3,-1,-1],"loss_changes":[1.3057381E-1,0E0,6.0954705E-2,0E0,0E0],"parents":[2147483647,0,0,2,2],"right_children":[2,-1,4,-1,-1],"split_conditions":[3.5159E-1,1.8564893E-4,2.298072E-1,-0E0,-4.554123E-3],"split_indices":[45,0,31,0,0],"split_type":[0,0,0,0,0],"sum_hessian":[6.92E2,6.52E2,4E1,2E1,2E1],"tree_param":{"num_deleted":"0","num_feature":"60","num_nodes":"5","size_leaf_vector":"1"}},{"base_weights":[3.8550037E-4,3.966938E-3,-2.6399663E-2,-0E0,3.497436E-2,-0E0,-2.3516116E-3,4.9325224E-4,-4.4948678E-4,3.4899756E-3,-0E0],"categories":[],"categories_nodes":[],"categories_segments":[],"categories_sizes":[],"default_left":[0,0,0,0,0,0,0,0,0,0,0],"id":14,"left_children":[1,3,5,7,9,-1,-1,-1,-1,-1,-1],"loss_changes":[5.5855867E-2,7.0770316E-2,5.1331174E-2,5.0816126E-2,5.0811656E-2,0E0,0E0,0E0,0E0,0E0,0E0],"parents":[2147483647,0,0,1,1,2,2,3,3,4,4],"right_children":[2,4,6,8,10,-1,-1,-1,-1,-1,-1],"split_conditions":[4.6729E-1,6.629E-2,3.64E-2,2.33516E-1,3.22908E-1,-0E0,-2.3516116E-3,4.9325224E-4,-4.4948678E-4,3.4899756E-3,-0E0],"split_indices":[3,55,54,52,52,0,0,0,0,0,0],"split_type":[0,0,0,0,0,0,0,0,0,0,0],"sum_hessian":[6.95E2,6.31E2,6.4E1,5.67E2,6.4E1,2.2E1,4.2E1,2.81E2,2.86E2,2.5E1,3.9E1],"tree_param":{"num_deleted":"0","num_feature":"60","num_nodes":"11","size_leaf_vector":"1"}},{"base_weights":[-0E0,1.0672025E-2,-1.5017356E-2,3.1209385E-3,3.9665797E-3,1.5508265E-3,-1.3178921E-3,-0E0,1.6374061E-3,-1.6365534E-3,1.122305E-3],"categories":[],"categories_nodes":[],"categories_segments":[],"categories_sizes":[],"default_left":[0,0,0,0,0,0,0,0,0,0,0],"id":15,"left_children":[1,3,5,-1,7,9,-1,-1,-1,-1,-1],"loss_changes":[1.11304134E-1,1.0753504E-1,6.6597946E-2,0E0,5.4219387E-2,6.867618E-2,0E0,0E0,0E0,0E0,0E0],"parents":[2147483647,0,0,1,1,2,2,4,4,5,5],"right_children":[2,4,6,-1,8,10,-1,-1,-1,-1,-1],"split_conditions":[2.81265E-1,-1.21097E-1,-2.0576E-1,3.1209385E-3,2.53959E-1,3.89603E-1,-1.3178921E-3,-0E0,1.6374061E-3,-1.6365534E-3,1.122305E-3],"split_indices":[52,17,0,0,52,56,0,0,0,0,0],"split_type":[0,0,0,0,0,0,0,0,0,0,0],"sum_hessian":[6.91E2,4.05E2,2.86E2,3.6E1,3.69E2,9.9E1,1.87E2,3.15E2,5.4E1,2.8E1,7.1E1],"tree_param":{"num_deleted":"0","num_feature":"60","num_nodes":"11","size_leaf_vector":"1"}},{"base_weights":[-3.826021E-4,2.106517E-3,-3.5726249E-3,-2.5399076E-3,1.9393021E-2,-6.054122E-4,9.7611046E-4,1.5557884E-3,-8.011739E-4],"categories":[],"categories_nodes":[],"categories_segments":[],"categories_sizes":[],"default_left":[0,0,0,0,0,0,0,0,0],"id":16,"left_children":[1,3,-1,5,7,-1,-1,-1,-1],"loss_changes":[1.559746E-1,6.1215274E-2,0E0,1.01470254E-1,7.580227E-2,0E0,0E0,0E0,0E0],"parents":[2147483647,0,0,1,1,3,3,4,4],"right_children":[2,4,-1,6,8,-1,-1,-1,-1],"split_conditions":[1.8987341E-1,3E-1,-3.5726249E-3,4.17181E-1,5.64917E-1,-6.054122E-4,9.7611046E-4,1.5557884E-3,-8.011739E-4],"split_indices":[38,27,0,56,56,0,0,0,0],"split_type":[0,0,0,0,0,0,0,0,0],"sum_hessian":[6.82E2,6.54E2,2.8E1,4.94E2,1.6E2,3.61E2,1.33E2,1.31E2,2.9E1],"tree_param":{"num_deleted":"0","num_feature":"60","num_nodes":"9","size_leaf_vector":"1"}},{"base_weights":[1.1174572E-3,5.502696E-3,-1.9078326E-3,-0E0,2.5776666E-2,-0E0,2.2756886E-3],"categories":[],"categories_nodes":[],"categories_segments":[],"categories_sizes":[],"default_left":[0,0,0,0,0,0,0],"id":17,"left_children":[1,3,-1,-1,5,-1,-1],"loss_changes":[1.0103464E-1,7.346216E-2,0E0,0E0,8.786412E-2,0E0,0E0],"parents":[2147483647,0,0,1,1,4,4],"right_children":[2,4,-1,-1,6,-1,-1],"split_conditions":[3.24311E-1,3E-1,-1.9078326E-3,-0E0,-2.5464478E-1,-0E0,2.2756886E-3],"split_indices":[46,27,0,0,35,0,0],"split_type":[0,0,0,0,0,0,0],"sum_hessian":[6.77E2,6.22E2,5.5E1,4.85E2,1.37E2,5.2E1,8.5E1],"tree_param":{"num_deleted":"0","num_feature":"60","num_nodes":"7","size_leaf_vector":"1"}},{"base_weights":[8.136419E-4,3.425948E-3,-2.4320725E-3,-2.8673494E-3,1.5609792E-2,-1.5256196E-3,1.08797736E-4,-0E0,1.4098757E-3],"categories":[],"categories_nodes":[],"categories_segments":[],"categories_sizes":[],"default_left":[0,0,0,0,0,0,0,0,0],"id":18,"left_children":[1,3,-1,5,7,-1,-1,-1,-1],"loss_changes":[6.906416E-2,5.8830827E-2,0E0,7.355551E-2,5.829721E-2,0E0,0E0,0E0,0E0],"parents":[2147483647,0,0,1,1,3,3,4,4],"right_children":[2,4,-1,6,8,-1,-1,-1,-1],"split_conditions":[6.6912E-1,4.17181E-1,-2.4320725E-3,-6.2176E-1,-2.2578648E-1,-1.5256196E-3,1.08797736E-4,-0E0,1.4098757E-3],"split_indices":[0,56,0,0,35,0,0,0,0],"split_type":[0,0,0,0,0,0,0,0,0],"sum_hessian":[7.05E2,6.81E2,2.4E1,4.23E2,2.58E2,7.9E1,3.44E2,1.07E2,1.51E2],"tree_param":{"num_deleted":"0","num_feature":"60","num_nodes":"9","size_leaf_vector":"1"}},{"base_weights":[-2.9717402E-3,4.1353334E-5,-3.3663001E-3,-5.008562E-3,1.7864441E-2,3.7140594E-4,-6.5376627E-4,2.6437626E-3,-1.6310014E-4],"categories":[],"categories_nodes":[],"categories_segments":[],"categories_sizes":[],"default_left":[0,0,0,0,0,0,0,0,0],"id":19,"left_children":[1,3,-1,5,7,-1,-1,-1,-1],"loss_changes":[1.7054512E-1,6.682029E-2,0E0,5.328006E-2,1.5089273E-1,0E0,0E0,0E0,0E0],"parents":[2147483647,0,0,1,1,3,3,4,4],"right_children":[2,4,-1,6,8,-1,-1,-1,-1],"split_conditions":[3.54871E-1,3E-1,-3.3663001E-3,1.79223E-1,2.67589E-1,3.7140594E-4,-6.5376627E-4,2.6437626E-3,-1.6310014E-4],"split_indices":[46,27,0,52,52,0,0,0,0],"split_type":[0,0,0,0,0,0,0,0,0],"sum_hessian":[7.04E2,6.67E2,3.7E1,4.99E2,1.68E2,1.72E2,3.27E2,7.1E1,9.7E1],"tree_param":{"num_deleted":"0","num_feature":"60","num_nodes":"9","size_leaf_vector":"1"}},{"base_weights":[-3.930599E-4,5.0412263E-3,-6.399358E-4,-2.3140118E-4,8.526036E-4],"categories":[],"categories_nodes":[],"categories_segments":[],"categories_sizes":[],"default_left":[0,0,0,0,0],"id":20,"left_children":[1,3,-1,-1,-1],"loss_changes":[5.2344974E-2,6.118598E-2,0E0,0E0,0E0],"parents":[2147483647,0,0,1,1],"right_children":[2,4,-1,-1,-1],"split_conditions":[2.3E-2,6.816E-2,-6.399358E-4,-2.3140118E-4,8.526036E-4],"split_indices":[54,47,0,0,0],"split_type":[0,0,0,0,0],"sum_hessian":[7.15E2,4.7E2,2.45E2,2.38E2,2.32E2],"tree_param":{"num_deleted":"0","num_feature":"60","num_nodes":"5","size_leaf_vector":"1"}},{"base_weights":[1.3160161E-4],"categories":[],"categories_nodes":[],"categories_segments":[],"categories_sizes":[],"default_left":[0],"id":21,"left_children":[-1],"loss_changes":[0E0],"parents":[2147483647],"right_children":[-1],"split_conditions":[6.580081E-6],"split_indices":[0],"split_type":[0],"sum_hessian":[7.07E2],"tree_param":{"num_deleted":"0","num_feature":"60","num_nodes":"1","size_leaf_vector":"1"}},{"base_weights":[3.3813952E-3,-2.7828116E-3,1.4531728E-2,-2.3883514E-3,1.2303531E-3,3.8558062E-2,-3.3068648E-3,5.115569E-4,-1.108189E-3,2.9137807E-3,-0E0,-2.5270707E-3,9.281921E-5],"categories":[],"categories_nodes":[],"categories_segments":[],"categories_sizes":[],"default_left":[0,0,0,0,0,0,0,0,0,0,0,0,0],"id":22,"left_children":[1,3,5,-1,7,9,11,-1,-1,-1,-1,-1,-1],"loss_changes":[5.283121E-2,9.7763844E-2,1.3445872E-1,0E0,7.2396465E-2,1.2213564E-1,6.013719E-2,0E0,0E0,0E0,0E0,0E0,0E0],"parents":[2147483647,0,0,1,1,2,2,4,4,5,5,6,6],"right_children":[2,4,6,-1,8,10,12,-1,-1,-1,-1,-1,-1],"split_conditions":[4.17181E-1,-3.56453E-1,5.25378E-1,-2.3883514E-3,2.92326E-1,2.108064E-2,1.5384616E-1,5.115569E-4,-1.108189E-3,2.9137807E-3,-0E0,-2.5270707E-3,9.281921E-5],"split_indices":[56,3,56,0,52,42,33,0,0,0,0,0,0],"split_type":[0,0,0,0,0,0,0,0,0,0,0,0,0],"sum_hessian":[6.8E2,4.1E2,2.7E2,4.2E1,3.68E2,1.26E2,1.44E2,2.82E2,8.6E1,9E1,3.6E1,2.2E1,1.22E2],"tree_param":{"num_deleted":"0","num_feature":"60","num_nodes":"13","size_leaf_vector":"1"}},{"base_weights":[-0E0,3.4768062E-3,-1.3833906E-3,-1.0078333E-4,1.6170822E-2,-3.8880942E-4,1.4491151E-3],"categories":[],"categories_nodes":[],"categories_segments":[],"categories_sizes":[],"default_left":[0,0,0,0,0,0,0],"id":23,"left_children":[1,3,-1,-1,5,-1,-1],"loss_changes":[7.357012E-2,5.176455E-2,0E0,0E0,7.885586E-2,0E0,0E0],"parents":[2147483647,0,0,1,1,4,4],"right_children":[2,4,-1,-1,6,-1,-1],"split_conditions":[2.97035E-1,4.17181E-1,-1.3833906E-3,-1.0078333E-4,3.75E-1,-3.8880942E-4,1.4491151E-3],"split_indices":[46,56,0,0,33,0,0],"split_type":[0,0,0,0,0,0,0],"sum_hessian":[7.22E2,6.38E2,8.4E1,4.19E2,2.19E2,6.3E1,1.56E2],"tree_param":{"num_deleted":"0","num_feature":"60","num_nodes":"7","size_leaf_vector":"1"}},{"base_weights":[-2.3352085E-3,9.4250473E-4,-2.6266463E-2,-2.2051914E-4,2.3559716E-2,-2.090114E-3,9.678175E-5,-0E0,2.0030844E-3],"categories":[],"categories_nodes":[],"categories_segments":[],"categories_sizes":[],"default_left":[0,0,0,0,0,0,0,0,0],"id":24,"left_children":[1,3,5,-1,7,-1,-1,-1,-1],"loss_changes":[6.581523E-2,7.98805E-2,6.390939E-2,0E0,6.4817004E-2,0E0,0E0,0E0,0E0],"parents":[2147483647,0,0,1,1,2,2,4,4],"right_children":[2,4,6,-1,8,-1,-1,-1,-1],"split_conditions":[2.71561E-1,3E-1,1.6433934E0,-2.2051914E-4,-2.8213507E-1,-2.090114E-3,9.678175E-5,-0E0,2.0030844E-3],"split_indices":[45,27,35,0,35,0,0,0,0],"split_type":[0,0,0,0,0,0,0,0,0],"sum_hessian":[6.75E2,5.77E2,9.8E1,4.5E2,1.27E2,7.4E1,2.4E1,4.4E1,8.3E1],"tree_param":{"num_deleted":"0","num_feature":"60","num_nodes":"9","size_leaf_vector":"1"}},{"base_weights":[-0E0,-1.650479E-2,5.4246746E-3,-0E0,-4.0650662E-2,2.0000497E-2,-5.0444587E-4,-4.038464E-3,-0E0,4.6471853E-4,3.9450997E-3],"categories":[],"categories_nodes":[],"categories_segments":[],"categories_sizes":[],"default_left":[0,0,0,0,0,0,0,0,0,0,0],"id":25,"left_children":[1,3,5,-1,7,9,-1,-1,-1,-1,-1],"loss_changes":[6.808284E-2,7.6318376E-2,1.24526374E-1,0E0,1.6467226E-1,1.3668054E-1,0E0,0E0,0E0,0E0,0E0],"parents":[2147483647,0,0,1,1,2,2,4,4,5,5],"right_children":[2,4,6,-1,8,10,-1,-1,-1,-1,-1],"split_conditions":[1.6428E-2,2.27765E-1,2.97167E-1,-0E0,4.28104E-1,2.73622E-1,-5.0444587E-4,-4.038464E-3,-0E0,4.6471853E-4,3.9450997E-3],"split_indices":[47,52,52,0,56,52,0,0,0,0,0],"split_type":[0,0,0,0,0,0,0,0,0,0,0],"sum_hessian":[7.16E2,1.91E2,5.25E2,1.15E2,7.6E1,2.87E2,2.38E2,4.3E1,3.3E1,2.52E2,3.5E1],"tree_param":{"num_deleted":"0","num_feature":"60","num_nodes":"11","size_leaf_vector":"1"}},{"base_weights":[-6.7329133E-4,1.8036348E-3,-1.2327909E-3,-9.635804E-5,1.3705374E-3],"categories":[],"categories_nodes":[],"categories_segments":[],"categories_sizes":[],"default_left":[0,0,0,0,0],"id":26,"left_children":[1,3,-1,-1,-1],"loss_changes":[5.2740674E-2,7.1314804E-2,0E0,0E0,0E0],"parents":[2147483647,0,0,1,1],"right_children":[2,4,-1,-1,-1],"split_conditions":[2.90703E-1,5.1008E-2,-1.2327909E-3,-9.635804E-5,1.3705374E-3],"split_indices":[46,55,0,0,0],"split_type":[0,0,0,0,0],"sum_hessian":[6.92E2,6.1E2,8.2E1,5.17E2,9.3E1],"tree_param":{"num_deleted":"0","num_feature":"60","num_nodes":"5","size_leaf_vector":"1"}},{"base_weights":[-2.4837274E-3],"categories":[],"categories_nodes":[],"categories_segments":[],"categories_sizes":[],"default_left":[0],"id":27,"left_children":[-1],"loss_changes":[0E0],"parents":[2147483647],"right_children":[-1],"split_conditions":[-1.2418638E-4],"split_indices":[0],"split_type":[0],"sum_hessian":[7.08E2],"tree_param":{"num_deleted":"0","num_feature":"60","num_nodes":"1","size_leaf_vector":"1"}},{"base_weights":[-0E0],"categories":[],"categories_nodes":[],"categories_segments":[],"categories_sizes":[],"default_left":[0],"id":28,"left_children":[-1],"loss_changes":[0E0],"parents":[2147483647],"right_children":[-1],"split_conditions":[-0E0],"split_indices":[0],"split_type":[0],"sum_hessian":[7E2],"tree_param":{"num_deleted":"0","num_feature":"60","num_nodes":"1","size_leaf_vector":"1"}},{"base_weights":[5.8138097E-4,1.9666266E-4,-2.683797E-3],"categories":[],"categories_nodes":[],"categories_segments":[],"categories_sizes":[],"default_left":[0,0,0],"id":29,"left_children":[1,-1,-1],"loss_changes":[1.05401516E-1,0E0,0E0],"parents":[2147483647,0,0],"right_children":[2,-1,-1],"split_conditions":[3.73464E-1,1.9666266E-4,-2.683797E-3],"split_indices":[45,0,0],"split_type":[0,0,0],"sum_hessian":[7.12E2,6.81E2,3.1E1],"tree_param":{"num_deleted":"0","num_feature":"60","num_nodes":"3","size_leaf_vector":"1"}},{"base_weights":[-0E0,3.6163055E-3,-1.7000262E-3,-4.5790126E-5,2.3866307E-2,-0E0,2.129207E-3],"categories":[],"categories_nodes":[],"categories_segments":[],"categories_sizes":[],"default_left":[0,0,0,0,0,0,0],"id":30,"left_children":[1,3,-1,-1,5,-1,-1],"loss_changes":[9.714905E-2,6.8603136E-2,0E0,0E0,7.418644E-2,0E0,0E0],"parents":[2147483647,0,0,1,1,4,4],"right_children":[2,4,-1,-1,6,-1,-1],"split_conditions":[4.74747E-1,3E-1,-1.7000262E-3,-4.5790126E-5,-2.2308722E-1,-0E0,2.129207E-3],"split_indices":[6,27,0,0,35,0,0],"split_type":[0,0,0,0,0,0,0],"sum_hessian":[6.95E2,6.2E2,7.5E1,4.88E2,1.32E2,5.1E1,8.1E1],"tree_param":{"num_deleted":"0","num_feature":"60","num_nodes":"7","size_leaf_vector":"1"}},{"base_weights":[-3.3060696E-5,1.4245588E-2,-7.7787903E-3,-1.5104994E-4,1.2233468E-3,-0E0,-2.4317604E-2,-0E0,-1.8988574E-3],"categories":[],"categories_nodes":[],"categories_segments":[],"categories_sizes":[],"default_left":[0,0,0,0,0,0,0,0,0],"id":31,"left_children":[1,3,5,-1,-1,-1,7,-1,-1],"loss_changes":[7.5292006E-2,5.093352E-2,7.307671E-2,0E0,0E0,0E0,7.509561E-2,0E0,0E0],"parents":[2147483647,0,0,1,1,2,2,6,6],"right_children":[2,4,6,-1,-1,-1,8,-1,-1],"split_conditions":[2.08399E-1,1.16697E-1,7.869719E-2,-1.5104994E-4,1.2233468E-3,-0E0,-1.5988234E-1,-0E0,-1.8988574E-3],"split_indices":[52,52,50,0,0,0,48,0,0],"split_type":[0,0,0,0,0,0,0,0,0],"sum_hessian":[7.06E2,2.25E2,4.81E2,6.6E1,1.59E2,3.1E2,1.71E2,5E1,1.21E2],"tree_param":{"num_deleted":"0","num_feature":"60","num_nodes":"9","size_leaf_vector":"1"}},{"base_weights":[-0E0],"categories":[],"categories_nodes":[],"categories_segments":[],"categories_sizes":[],"default_left":[0],"id":32,"left_children":[-1],"loss_changes":[0E0],"parents":[2147483647],"right_children":[-1],"split_conditions":[-0E0],"split_indices":[0],"split_type":[0],"sum_hessian":[6.99E2],"tree_param":{"num_deleted":"0","num_feature":"60","num_nodes":"1","size_leaf_vector":"1"}},{"base_weights":[-0E0,1.4102057E-3,-2.9177489E-3,-5.9193396E-3,1.6332453E-2,-2.6973742E-3,-0E0,1.6260858E-3,-0E0],"categories":[],"categories_nodes":[],"categories_segments":[],"categories_sizes":[],"default_left":[0,0,0,0,0,0,0,0,0],"id":33,"left_children":[1,3,-1,5,7,-1,-1,-1,-1],"loss_changes":[7.966831E-2,7.944563E-2,0E0,1.0706218E-1,5.7068527E-2,0E0,0E0,0E0,0E0],"parents":[2147483647,0,0,1,1,3,3,4,4],"right_children":[2,4,-1,6,8,-1,-1,-1,-1],"split_conditions":[6.7728E-1,4.17181E-1,-2.9177489E-3,-7.012987E-2,-2.1E-1,-2.6973742E-3,-0E0,1.6260858E-3,-0E0],"split_indices":[0,56,0,38,0,0,0,0,0],"split_type":[0,0,0,0,0,0,0,0,0],"sum_hessian":[6.96E2,6.75E2,2.1E1,4.31E2,2.44E2,4E1,3.91E2,1.14E2,1.3E2],"tree_param":{"num_deleted":"0","num_feature":"60","num_nodes":"9","size_leaf_vector":"1"}},{"base_weights":[-0E0],"categories":[],"categories_nodes":[],"categories_segments":[],"categories_sizes":[],"default_left":[0],"id":34,"left_children":[-1],"loss_changes":[0E0],"parents":[2147483647],"right_children":[-1],"split_conditions":[-0E0],"split_indices":[0],"split_type":[0],"sum_hessian":[6.81E2],"tree_param":{"num_deleted":"0","num_feature":"60","num_nodes":"1","size_leaf_vector":"1"}},{"base_weights":[-0E0],"categories":[],"categories_nodes":[],"categories_segments":[],"categories_sizes":[],"default_left":[0],"id":35,"left_children":[-1],"loss_changes":[0E0],"parents":[2147483647],"right_children":[-1],"split_conditions":[-0E0],"split_indices":[0],"split_type":[0],"sum_hessian":[7.2E2],"tree_param":{"num_deleted":"0","num_feature":"60","num_nodes":"1","size_leaf_vector":"1"}},{"base_weights":[9.843105E-4],"categories":[],"categories_nodes":[],"categories_segments":[],"categories_sizes":[],"default_left":[0],"id":36,"left_children":[-1],"loss_changes":[0E0],"parents":[2147483647],"right_children":[-1],"split_conditions":[4.9215527E-5],"split_indices":[0],"split_type":[0],"sum_hessian":[6.86E2],"tree_param":{"num_deleted":"0","num_feature":"60","num_nodes":"1","size_leaf_vector":"1"}},{"base_weights":[-2.761578E-4,-2.2469803E-3,6.0471222E-5],"categories":[],"categories_nodes":[],"categories_segments":[],"categories_sizes":[],"default_left":[0,0,0],"id":37,"left_children":[1,-1,-1],"loss_changes":[6.961397E-2,0E0,0E0],"parents":[2147483647,0,0],"right_children":[2,-1,-1],"split_conditions":[-6.9288E-2,-2.2469803E-3,6.0471222E-5],"split_indices":[15,0,0],"split_type":[0,0,0],"sum_hessian":[7.16E2,3.2E1,6.84E2],"tree_param":{"num_deleted":"0","num_feature":"60","num_nodes":"3","size_leaf_vector":"1"}},{"base_weights":[-0E0],"categories":[],"categories_nodes":[],"categories_segments":[],"categories_sizes":[],"default_left":[0],"id":38,"left_children":[-1],"loss_changes":[0E0],"parents":[2147483647],"right_children":[-1],"split_conditions":[-0E0],"split_indices":[0],"split_type":[0],"sum_hessian":[7.17E2],"tree_param":{"num_deleted":"0","num_feature":"60","num_nodes":"1","size_leaf_vector":"1"}},{"base_weights":[1.779976E-3],"categories":[],"categories_nodes":[],"categories_segments":[],"categories_sizes":[],"default_left":[0],"id":39,"left_children":[-1],"loss_changes":[0E0],"parents":[2147483647],"right_children":[-1],"split_conditions":[8.89988E-5],"split_indices":[0],"split_type":[0],"sum_hessian":[6.54E2],"tree_param":{"num_deleted":"0","num_feature":"60","num_nodes":"1","size_leaf_vector":"1"}},{"base_weights":[9.5497846E-4],"categories":[],"categories_nodes":[],"categories_segments":[],"categories_sizes":[],"default_left":[0],"id":40,"left_children":[-1],"loss_changes":[0E0],"parents":[2147483647],"right_children":[-1],"split_conditions":[4.7748923E-5],"split_indices":[0],"split_type":[0],"sum_hessian":[7.03E2],"tree_param":{"num_deleted":"0","num_feature":"60","num_nodes":"1","size_leaf_vector":"1"}},{"base_weights":[-0E0],"categories":[],"categories_nodes":[],"categories_segments":[],"categories_sizes":[],"default_left":[0],"id":41,"left_children":[-1],"loss_changes":[0E0],"parents":[2147483647],"right_children":[-1],"split_conditions":[-0E0],"split_indices":[0],"split_type":[0],"sum_hessian":[6.88E2],"tree_param":{"num_deleted":"0","num_feature":"60","num_nodes":"1","size_leaf_vector":"1"}},{"base_weights":[1.305664E-3,2.0024703E-4,-1.7332319E-3],"categories":[],"categories_nodes":[],"categories_segments":[],"categories_sizes":[],"default_left":[0,0,0],"id":42,"left_children":[1,-1,-1],"loss_changes":[5.2719276E-2,0E0,0E0],"parents":[2147483647,0,0],"right_children":[2,-1,-1],"split_conditions":[3.54871E-1,2.0024703E-4,-1.7332319E-3],"split_indices":[47,0,0],"split_type":[0,0,0],"sum_hessian":[6.96E2,6.62E2,3.4E1],"tree_param":{"num_deleted":"0","num_feature":"60","num_nodes":"3","size_leaf_vector":"1"}},{"base_weights":[-2.696015E-3,4.321313E-3,-8.483929E-4,-1.3469972E-4,1.2056448E-3],"categories":[],"categories_nodes":[],"categories_segments":[],"categories_sizes":[],"default_left":[0,0,0,0,0],"id":43,"left_children":[1,3,-1,-1,-1],"loss_changes":[7.54734E-2,7.1930744E-2,0E0,0E0,0E0],"parents":[2147483647,0,0,1,1],"right_children":[2,4,-1,-1,-1],"split_conditions":[6.4987815E-3,3.97221E-1,-8.483929E-4,-1.3469972E-4,1.2056448E-3],"split_indices":[42,56,0,0,0],"split_type":[0,0,0,0,0],"sum_hessian":[6.87E2,4.38E2,2.49E2,3.06E2,1.32E2],"tree_param":{"num_deleted":"0","num_feature":"60","num_nodes":"5","size_leaf_vector":"1"}},{"base_weights":[2.8542983E-3],"categories":[],"categories_nodes":[],"categories_segments":[],"categories_sizes":[],"default_left":[0],"id":44,"left_children":[-1],"loss_changes":[0E0],"parents":[2147483647],"right_children":[-1],"split_conditions":[1.4271493E-4],"split_indices":[0],"split_type":[0],"sum_hessian":[6.66E2],"tree_param":{"num_deleted":"0","num_feature":"60","num_nodes":"1","size_leaf_vector":"1"}},{"base_weights":[-7.120722E-4,3.321248E-5,-2.3248538E-3],"categories":[],"categories_nodes":[],"categories_segments":[],"categories_sizes":[],"default_left":[0,0,0],"id":45,"left_children":[1,-1,-1],"loss_changes":[6.696259E-2,0E0,0E0],"parents":[2147483647,0,0],"right_children":[2,-1,-1],"split_conditions":[6.6912E-1,3.321248E-5,-2.3248538E-3],"split_indices":[0,0,0],"split_type":[0,0,0],"sum_hessian":[6.96E2,6.67E2,2.9E1],"tree_param":{"num_deleted":"0","num_feature":"60","num_nodes":"3","size_leaf_vector":"1"}},{"base_weights":[1.4654272E-4],"categories":[],"categories_nodes":[],"categories_segments":[],"categories_sizes":[],"default_left":[0],"id":46,"left_children":[-1],"loss_changes":[0E0],"parents":[2147483647],"right_children":[-1],"split_conditions":[7.3271362E-6],"split_indices":[0],"split_type":[0],"sum_hessian":[7.15E2],"tree_param":{"num_deleted":"0","num_feature":"60","num_nodes":"1","size_leaf_vector":"1"}},{"base_weights":[-1.7290545E-3],"categories":[],"categories_nodes":[],"categories_segments":[],"categories_sizes":[],"default_left":[0],"id":47,"left_children":[-1],"loss_changes":[0E0],"parents":[2147483647],"right_children":[-1],"split_conditions":[-8.6452725E-5],"split_indices":[0],"split_type":[0],"sum_hessian":[7.14E2],"tree_param":{"num_deleted":"0","num_feature":"60","num_nodes":"1","size_leaf_vector":"1"}},{"base_weights":[9.842253E-4,1.195616E-2,-7.262676E-3,-1.9017215E-3,1.8418625E-2,-0E0,-1.9980753E-3,1.4323458E-3,-3.280086E-4],"categories":[],"categories_nodes":[],"categories_segments":[],"categories_sizes":[],"default_left":[0,0,0,0,0,0,0,0,0],"id":48,"left_children":[1,3,5,-1,7,-1,-1,-1,-1],"loss_changes":[6.540711E-2,9.658848E-2,7.938746E-2,0E0,8.755537E-2,0E0,0E0,0E0,0E0],"parents":[2147483647,0,0,1,1,2,2,4,4],"right_children":[2,4,6,-1,8,-1,-1,-1,-1],"split_conditions":[1E0,3.9373E-2,1.78793E-1,-1.9017215E-3,2.73999E-1,-0E0,-1.9980753E-3,1.4323458E-3,-3.280086E-4],"split_indices":[51,46,46,0,46,0,0,0,0],"split_type":[0,0,0,0,0,0,0,0,0],"sum_hessian":[6.93E2,3.23E2,3.7E2,2.7E1,2.96E2,3.1E2,6E1,2.24E2,7.2E1],"tree_param":{"num_deleted":"0","num_feature":"60","num_nodes":"9","size_leaf_vector":"1"}},{"base_weights":[-2.0426982E-3,1.2354767E-2,-8.484316E-3,-4.7235193E-5,1.4441722E-3,-1.9318072E-2,1.4284055E-4,-5.8579488E-5,-2.3300194E-3,4.167629E-4,-1.4047673E-3],"categories":[],"categories_nodes":[],"categories_segments":[],"categories_sizes":[],"default_left":[0,0,0,0,0,0,0,0,0,0,0],"id":49,"left_children":[1,3,5,-1,-1,7,9,-1,-1,-1,-1],"loss_changes":[6.523484E-2,5.7988465E-2,5.8568537E-2,0E0,0E0,1.0373497E-1,5.2587166E-2,0E0,0E0,0E0,0E0],"parents":[2147483647,0,0,1,1,2,2,5,5,6,6],"right_children":[2,4,6,-1,-1,8,10,-1,-1,-1,-1],"split_conditions":[1.82819E-1,1.37364E-1,4.17181E-1,-4.7235193E-5,1.4441722E-3,1.3467E-1,1.40026E-1,-5.8579488E-5,-2.3300194E-3,4.167629E-4,-1.4047673E-3],"split_indices":[52,52,56,0,0,17,48,0,0,0,0],"split_type":[0,0,0,0,0,0,0,0,0,0,0],"sum_hessian":[7.2E2,1.98E2,5.22E2,9.4E1,1.04E2,2.56E2,2.66E2,1.66E2,9E1,2.21E2,4.5E1],"tree_param":{"num_deleted":"0","num_feature":"60","num_nodes":"11","size_leaf_vector":"1"}}]},"name":"gbtree"},"learner_model_param":{"base_score":"[-3.6018742E-3]","boost_from_average":"1","num_class":"0","num_feature":"60","num_target":"1"},"objective":{"name":"reg:squarederror","reg_loss_param":{"scale_pos_weight":"1"}}},"version":[3,2,0]}