{"learner":{"attributes":{"scikit_learn":"{\"_estimator_type\": \"regressor\"}"},"feature_names":["macd_trend","macd_hist_direction","macd_momentum_decay","momentum_20","vol_ratio","price_momentum_5d","price_momentum_20d","macd_bottom_divergence","macd_top_divergence","rsi_bottom_divergence","rsi_top_divergence","volume_breakout","volume_pullback","volume_dry_up","volume_climax","rsi_extreme","boll_position","ma_bias","volatility_20","pe_rank","pb_rank","roe_level","revenue_growth","debt_level","main_inflow_5d","elg_ratio","margin_delta_5d","northbound_net_5d","turnover_extreme","holder_count_trend","insider_net_30d","trig_ma60_bias","trig_pos_in_20d","trig_dist_from_high","trig_dist_from_low","trig_vol_change","trig_break_above","trig_break_below","trig_price_trend_10d","trend_dir_ord","trend_phase_ord","trend_short_dir_ord","trend_ma_slope","trend_ret_5d","trend_ma_alignment","comp_lag1","comp_lag3","comp_lag5","comp_delta_3d","comp_delta_5d","comp_std_5d","comp_sign_changes_10d","comp_roll_max_10d","tech_rsi14","tech_macd_hist","tech_ma60_bias","tech_volatility_20","tech_momentum_20","tech_turnover_rate","tech_vol_ratio"],"feature_types":["float","float","float","float","float","float","float","float","float","float","float","float","float","float","float","float","float","float","float","float","float","float","float","float","float","float","float","float","float","float","float","float","float","float","float","float","float","float","float","float","float","float","float","float","float","float","float","float","float","float","float","float","float","float","float","float","float","float","float","float"],"gradient_booster":{"model":{"cats":{"enc":[],"feature_segments":[],"sorted_idx":[]},"gbtree_model_param":{"num_parallel_tree":"1","num_trees":"50"},"iteration_indptr":[0,1,2,3,4,5,6,7,8,9,10,11,12,13,14,15,16,17,18,19,20,21,22,23,24,25,26,27,28,29,30,31,32,33,34,35,36,37,38,39,40,41,42,43,44,45,46,47,48,49,50],"tree_info":[0,0,0,0,0,0,0,0,0,0,0,0,0,0,0,0,0,0,0,0,0,0,0,0,0,0,0,0,0,0,0,0,0,0,0,0,0,0,0,0,0,0,0,0,0,0,0,0,0,0],"trees":[{"base_weights":[-9.3028636E-4,-1.4276253E-2,3.28664E-3,-4.1050997E-2,1.44852875E-2,-2.5533938E-3,-0E0,2.1394673E-3,-4.598589E-3],"categories":[],"categories_nodes":[],"categories_segments":[],"categories_sizes":[],"default_left":[0,0,0,0,0,0,0,0,0],"id":0,"left_children":[1,3,-1,5,7,-1,-1,-1,-1],"loss_changes":[3.5426396E-1,2.9324213E-1,0E0,9.050304E-2,4.8647854E-1,0E0,0E0,0E0,0E0],"parents":[2147483647,0,0,1,1,3,3,4,4],"right_children":[2,4,-1,6,8,-1,-1,-1,-1],"split_conditions":[3.25107E-1,3.39014E-1,3.28664E-3,2.343E-1,6.366459E-2,-2.5533938E-3,-0E0,2.1394673E-3,-4.598589E-3],"split_indices":[17,52,0,54,42,0,0,0,0],"split_type":[0,0,0,0,0,0,0,0,0],"sum_hessian":[4.23E2,3.6E2,6.3E1,1.95E2,1.65E2,1.6E2,3.5E1,1.35E2,3E1],"tree_param":{"num_deleted":"0","num_feature":"60","num_nodes":"9","size_leaf_vector":"1"}},{"base_weights":[-1.3058967E-3,-1.4095323E-2,4.3169245E-2,2.1679897E-3,-2.3549296E-2,-0E0,3.9237626E-3,-2.2165868E-3,-0E0],"categories":[],"categories_nodes":[],"categories_segments":[],"categories_sizes":[],"default_left":[0,0,0,0,0,0,0,0,0],"id":1,"left_children":[1,3,5,-1,7,-1,-1,-1,-1],"loss_changes":[2.2159918E-1,1.7192923E-1,1.3906048E-1,0E0,1.6178614E-1,0E0,0E0,0E0,0E0],"parents":[2147483647,0,0,1,1,2,2,4,4],"right_children":[2,4,6,-1,8,-1,-1,-1,-1],"split_conditions":[8.04878E-1,-9.697844E-2,-1.939E-1,2.1679897E-3,3.5419E-2,-0E0,3.9237626E-3,-2.2165868E-3,-0E0],"split_indices":[20,31,54,0,49,0,0,0,0],"split_type":[0,0,0,0,0,0,0,0,0],"sum_hessian":[4.11E2,3.29E2,8.2E1,3.8E1,2.91E2,3.6E1,4.6E1,1.63E2,1.28E2],"tree_param":{"num_deleted":"0","num_feature":"60","num_nodes":"9","size_leaf_vector":"1"}},{"base_weights":[-0E0,3.7267492E-3,-7.825785E-3,-0E0,-4.1424506E-3,-1.100838E-3,2.206202E-3],"categories":[],"categories_nodes":[],"categories_segments":[],"categories_sizes":[],"default_left":[0,0,0,0,0,0,0],"id":2,"left_children":[1,-1,3,5,-1,-1,-1],"loss_changes":[2.6765144E-1,0E0,2.0329957E-1,3.3488598E-1,0E0,0E0,0E0],"parents":[2147483647,0,0,2,2,3,3],"right_children":[2,-1,4,6,-1,-1,-1],"split_conditions":[-1.2348789E-1,3.7267492E-3,6.588622E-2,3.8958E-1,-4.1424506E-3,-1.100838E-3,2.206202E-3],"split_indices":[31,0,42,52,0,0,0],"split_type":[0,0,0,0,0,0,0],"sum_hessian":[4.19E2,4.2E1,3.77E2,3.46E2,3.1E1,2.35E2,1.11E2],"tree_param":{"num_deleted":"0","num_feature":"60","num_nodes":"7","size_leaf_vector":"1"}},{"base_weights":[-1.7669534E-3,-1.14188725E-2,2.634196E-3,-1.7731357E-3,1.2510761E-2,1.7389121E-3,-3.9597466E-3],"categories":[],"categories_nodes":[],"categories_segments":[],"categories_sizes":[],"default_left":[0,0,0,0,0,0,0],"id":3,"left_children":[1,3,-1,-1,5,-1,-1],"loss_changes":[2.0550838E-1,2.2697273E-1,0E0,0E0,3.467859E-1,0E0,0E0],"parents":[2147483647,0,0,1,1,4,4],"right_children":[2,4,-1,-1,6,-1,-1],"split_conditions":[3.25107E-1,2.01845E-1,2.634196E-3,-1.7731357E-3,6.588622E-2,1.7389121E-3,-3.9597466E-3],"split_indices":[17,46,0,0,42,0,0],"split_type":[0,0,0,0,0,0,0],"sum_hessian":[4.26E2,3.71E2,5.5E1,1.95E2,1.76E2,1.47E2,2.9E1],"tree_param":{"num_deleted":"0","num_feature":"60","num_nodes":"7","size_leaf_vector":"1"}},{"base_weights":[1.3883046E-3,1.0104633E-2,-4.0879785E-3,-1.863254E-2,3.379089E-2,-1.9335442E-3,3.1053727E-3,1.6004141E-4,2.9213072E-3],"categories":[],"categories_nodes":[],"categories_segments":[],"categories_sizes":[],"default_left":[0,0,0,0,0,0,0,0,0],"id":4,"left_children":[1,3,-1,5,7,-1,-1,-1,-1],"loss_changes":[2.8833598E-1,2.879156E-1,0E0,2.7945274E-1,1.4590704E-1,0E0,0E0,0E0,0E0],"parents":[2147483647,0,0,1,1,3,3,4,4],"right_children":[2,4,-1,6,8,-1,-1,-1,-1],"split_conditions":[6.588622E-2,-1.357E-1,-4.0879785E-3,4.56347E-1,-1.40227E-1,-1.9335442E-3,3.1053727E-3,1.6004141E-4,2.9213072E-3],"split_indices":[42,54,0,17,17,0,0,0,0],"split_type":[0,0,0,0,0,0,0,0,0],"sum_hessian":[4.43E2,4.08E2,3.5E1,1.75E2,2.33E2,1.46E2,2.9E1,1.14E2,1.19E2],"tree_param":{"num_deleted":"0","num_feature":"60","num_nodes":"9","size_leaf_vector":"1"}},{"base_weights":[1.4895571E-3,-5.588708E-3,5.2086296E-3,-1.3507553E-2,3.293175E-2,-1.5620756E-3,2.153082E-5,-0E0,3.4570654E-3],"categories":[],"categories_nodes":[],"categories_segments":[],"categories_sizes":[],"default_left":[0,0,0,0,0,0,0,0,0],"id":5,"left_children":[1,3,-1,5,7,-1,-1,-1,-1],"loss_changes":[3.5862705E-1,1.1136235E-1,0E0,9.9226E-2,6.2477008E-2,0E0,0E0,0E0,0E0],"parents":[2147483647,0,0,1,1,3,3,4,4],"right_children":[2,4,-1,6,8,-1,-1,-1,-1],"split_conditions":[7.96875E-1,3.05493E-1,5.2086296E-3,5.51E-2,3.2838E-2,-1.5620756E-3,2.153082E-5,-0E0,3.4570654E-3],"split_indices":[19,17,0,54,46,0,0,0,0],"split_type":[0,0,0,0,0,0,0,0,0],"sum_hessian":[4.22E2,3.92E2,3E1,3.37E2,5.5E1,1.63E2,1.74E2,3.1E1,2.4E1],"tree_param":{"num_deleted":"0","num_feature":"60","num_nodes":"9","size_leaf_vector":"1"}},{"base_weights":[-1.5836555E-4,-8.459755E-3,2.1645643E-3,-2.7484972E-2,1.817666E-2,-2.032577E-3,-0E0,-1.7596361E-3,2.409847E-3],"categories":[],"categories_nodes":[],"categories_segments":[],"categories_sizes":[],"default_left":[0,0,0,0,0,0,0,0,0],"id":6,"left_children":[1,3,-1,5,7,-1,-1,-1,-1],"loss_changes":[1.369717E-1,1.9264908E-1,0E0,9.95367E-2,2.4060602E-1,0E0,0E0,0E0,0E0],"parents":[2147483647,0,0,1,1,3,3,4,4],"right_children":[2,4,-1,6,8,-1,-1,-1,-1],"split_conditions":[3.25107E-1,3.96516E-1,2.1645643E-3,1.72189E-1,-5.0866E-1,-2.032577E-3,-0E0,-1.7596361E-3,2.409847E-3],"split_indices":[17,52,0,46,17,0,0,0,0],"split_type":[0,0,0,0,0,0,0,0,0],"sum_hessian":[4.24E2,3.67E2,5.7E1,2.25E2,1.42E2,1.62E2,6.3E1,4.5E1,9.7E1],"tree_param":{"num_deleted":"0","num_feature":"60","num_nodes":"9","size_leaf_vector":"1"}},{"base_weights":[1.9512471E-3,-2.6980024E-3,5.0539034E-3,1.6199631E-3,-3.940459E-3,-1.1254926E-3,1.4654753E-3],"categories":[],"categories_nodes":[],"categories_segments":[],"categories_sizes":[],"default_left":[0,0,0,0,0,0,0],"id":7,"left_children":[1,3,-1,5,-1,-1,-1],"loss_changes":[2.4652493E-1,1.7195135E-1,0E0,2.5794575E-1,0E0,0E0,0E0],"parents":[2147483647,0,0,1,1,3,3],"right_children":[2,4,-1,6,-1,-1,-1],"split_conditions":[7.9845E-1,7.431373E-2,5.0539034E-3,-1.77E-2,-3.940459E-3,-1.1254926E-3,1.4654753E-3],"split_indices":[19,42,0,54,0,0,0],"split_type":[0,0,0,0,0,0,0],"sum_hessian":[4.25E2,4.03E2,2.2E1,3.77E2,2.6E1,1.92E2,1.85E2],"tree_param":{"num_deleted":"0","num_feature":"60","num_nodes":"7","size_leaf_vector":"1"}},{"base_weights":[-0E0,-1.0263432E-2,5.255999E-2,-1.624948E-3,9.337629E-3,-0E0,3.7918643E-3,1.387201E-3,-2.8855212E-3],"categories":[],"categories_nodes":[],"categories_segments":[],"categories_sizes":[],"default_left":[0,0,0,0,0,0,0,0,0],"id":8,"left_children":[1,3,5,-1,7,-1,-1,-1,-1],"loss_changes":[2.1493572E-1,1.6996166E-1,6.4751E-2,0E0,2.1282753E-1,0E0,0E0,0E0,0E0],"parents":[2147483647,0,0,1,1,2,2,4,4],"right_children":[2,4,6,-1,8,-1,-1,-1,-1],"split_conditions":[3.1395E-1,1.75452E-1,-1.21354E-1,-1.624948E-3,9.55773E-1,-0E0,3.7918643E-3,1.387201E-3,-2.8855212E-3],"split_indices":[17,46,45,0,3,0,0,0,0],"split_type":[0,0,0,0,0,0,0,0,0],"sum_hessian":[4.22E2,3.6E2,6.2E1,1.8E2,1.8E2,2.2E1,4E1,1.48E2,3.2E1],"tree_param":{"num_deleted":"0","num_feature":"60","num_nodes":"9","size_leaf_vector":"1"}},{"base_weights":[-1.474469E-3,-1.1891871E-2,2.4162412E-3,-3.960076E-3,-4.086682E-3,-1.4298264E-3,1.2421162E-3],"categories":[],"categories_nodes":[],"categories_segments":[],"categories_sizes":[],"default_left":[0,0,0,0,0,0,0],"id":9,"left_children":[1,3,-1,5,-1,-1,-1],"loss_changes":[2.075643E-1,1.6036695E-1,0E0,2.4384855E-1,0E0,0E0,0E0],"parents":[2147483647,0,0,1,1,3,3],"right_children":[2,4,-1,6,-1,-1,-1],"split_conditions":[3.1395E-1,7.431373E-2,2.4162412E-3,3.39014E-1,-4.086682E-3,-1.4298264E-3,1.2421162E-3],"split_indices":[17,42,0,52,0,0,0],"split_type":[0,0,0,0,0,0,0],"sum_hessian":[4.31E2,3.66E2,6.5E1,3.37E2,2.9E1,1.91E2,1.46E2],"tree_param":{"num_deleted":"0","num_feature":"60","num_nodes":"7","size_leaf_vector":"1"}},{"base_weights":[-1.8454377E-3,2.8104563E-3,-1.2387572E-2,-3.5165854E-2,9.912483E-3,-2.1299345E-3,-0E0,1.58781E-3,-2.8906355E-3],"categories":[],"categories_nodes":[],"categories_segments":[],"categories_sizes":[],"default_left":[0,0,0,0,0,0,0,0,0],"id":10,"left_children":[1,-1,3,5,7,-1,-1,-1,-1],"loss_changes":[2.499942E-1,0E0,2.0787138E-1,5.4482162E-2,2.6284766E-1,0E0,0E0,0E0,0E0],"parents":[2147483647,0,0,2,2,3,3,4,4],"right_children":[2,-1,4,6,8,-1,-1,-1,-1],"split_conditions":[-9.697844E-2,2.8104563E-3,3.39014E-1,2.343E-1,1.85801E-1,-2.1299345E-3,-0E0,1.58781E-3,-2.8906355E-3],"split_indices":[31,0,52,54,55,0,0,0,0],"split_type":[0,0,0,0,0,0,0,0,0],"sum_hessian":[4.4E2,5.9E1,3.81E2,1.99E2,1.82E2,1.65E2,3.4E1,1.44E2,3.8E1],"tree_param":{"num_deleted":"0","num_feature":"60","num_nodes":"9","size_leaf_vector":"1"}},{"base_weights":[4.081006E-3,-5.902858E-4,3.8679217E-3,-9.678156E-3,2.329144E-3,-1.1989045E-3,9.345625E-4],"categories":[],"categories_nodes":[],"categories_segments":[],"categories_sizes":[],"default_left":[0,0,0,0,0,0,0],"id":11,"left_children":[1,3,-1,5,-1,-1,-1],"loss_changes":[1.7881851E-1,1.4578538E-1,0E0,1.3741435E-1,0E0,0E0,0E0],"parents":[2147483647,0,0,1,1,3,3],"right_children":[2,4,-1,6,-1,-1,-1],"split_conditions":[7.96875E-1,3.20923E-1,3.8679217E-3,2.86776E-1,2.329144E-3,-1.1989045E-3,9.345625E-4],"split_indices":[19,17,0,45,0,0,0],"split_type":[0,0,0,0,0,0,0],"sum_hessian":[4.08E2,3.79E2,2.9E1,3.28E2,5.1E1,2.3E2,9.8E1],"tree_param":{"num_deleted":"0","num_feature":"60","num_nodes":"7","size_leaf_vector":"1"}},{"base_weights":[3.1662195E-3,1.2636968E-2,-2.010593E-3,-0E0,5.6931847E-3,-7.4916554E-4,1.5123265E-3],"categories":[],"categories_nodes":[],"categories_segments":[],"categories_sizes":[],"default_left":[0,0,0,0,0,0,0],"id":12,"left_children":[1,3,-1,5,-1,-1,-1],"loss_changes":[1.6141775E-1,4.094081E-1,0E0,1.5487301E-1,0E0,0E0,0E0],"parents":[2147483647,0,0,1,1,3,3],"right_children":[2,4,-1,6,-1,-1,-1],"split_conditions":[1.4631616E-1,5.32654E-1,-2.010593E-3,1.4937E-1,5.6931847E-3,-7.4916554E-4,1.5123265E-3],"split_indices":[31,52,0,17,0,0,0],"split_type":[0,0,0,0,0,0,0],"sum_hessian":[4.22E2,3.57E2,6.5E1,3.23E2,3.4E1,2.07E2,1.16E2],"tree_param":{"num_deleted":"0","num_feature":"60","num_nodes":"7","size_leaf_vector":"1"}},{"base_weights":[-3.3136935E-3,-9.477622E-3,3.4066327E-3,-3.1858382E-3,-3.0509087E-3,1.9627623E-3,-4.5361184E-4],"categories":[],"categories_nodes":[],"categories_segments":[],"categories_sizes":[],"default_left":[0,0,0,0,0,0,0],"id":13,"left_children":[1,3,-1,5,-1,-1,-1],"loss_changes":[1.5604706E-1,9.495204E-2,0E0,7.580764E-2,0E0,0E0,0E0],"parents":[2147483647,0,0,1,1,3,3],"right_children":[2,4,-1,6,-1,-1,-1],"split_conditions":[7.96875E-1,6.83333E-1,3.4066327E-3,-3.7058547E-2,-3.0509087E-3,1.9627623E-3,-4.5361184E-4],"split_indices":[19,19,0,42,0,0,0],"split_type":[0,0,0,0,0,0,0],"sum_hessian":[4.16E2,3.91E2,2.5E1,3.59E2,3.2E1,3.2E1,3.27E2],"tree_param":{"num_deleted":"0","num_feature":"60","num_nodes":"7","size_leaf_vector":"1"}},{"base_weights":[1.1313313E-3,-2.566166E-3,3.5468366E-3,-2.1940568E-2,1.0101377E-2,-1.7210061E-3,8.0152816E-4,-3.851486E-4,2.295554E-3],"categories":[],"categories_nodes":[],"categories_segments":[],"categories_sizes":[],"default_left":[0,0,0,0,0,0,0,0,0],"id":14,"left_children":[1,3,-1,5,7,-1,-1,-1,-1],"loss_changes":[1.4295359E-1,1.0306073E-1,0E0,9.180271E-2,1.6262667E-1,0E0,0E0,0E0,0E0],"parents":[2147483647,0,0,1,1,3,3,4,4],"right_children":[2,4,-1,6,8,-1,-1,-1,-1],"split_conditions":[7.96875E-1,-1.13227E-1,3.5468366E-3,1.2624E0,2.07E-2,-1.7210061E-3,8.0152816E-4,-3.851486E-4,2.295554E-3],"split_indices":[19,17,0,59,54,0,0,0,0],"split_type":[0,0,0,0,0,0,0,0,0],"sum_hessian":[4.18E2,3.92E2,2.6E1,1.7E2,2.22E2,1.38E2,3.2E1,1.4E2,8.2E1],"tree_param":{"num_deleted":"0","num_feature":"60","num_nodes":"9","size_leaf_vector":"1"}},{"base_weights":[-0E0,6.343896E-3,-2.968923E-3,-8.824854E-3,4.273978E-2,-0E0,-1.8975772E-3,5.949372E-4,4.4873776E-3],"categories":[],"categories_nodes":[],"categories_segments":[],"categories_sizes":[],"default_left":[0,0,0,0,0,0,0,0,0],"id":15,"left_children":[1,3,-1,5,7,-1,-1,-1,-1],"loss_changes":[1.3533133E-1,2.2971053E-1,0E0,8.6101726E-2,1.2536258E-1,0E0,0E0,0E0,0E0],"parents":[2147483647,0,0,1,1,3,3,4,4],"right_children":[2,4,-1,6,8,-1,-1,-1,-1],"split_conditions":[6.1717674E-2,2.20993E-1,-2.968923E-3,-2.5619E-2,2.2704081E-1,-0E0,-1.8975772E-3,5.949372E-4,4.4873776E-3],"split_indices":[42,45,0,5,33,0,0,0,0],"split_type":[0,0,0,0,0,0,0,0,0],"sum_hessian":[4.14E2,3.82E2,3.2E1,2.61E2,1.21E2,1.89E2,7.2E1,8.1E1,4E1],"tree_param":{"num_deleted":"0","num_feature":"60","num_nodes":"9","size_leaf_vector":"1"}},{"base_weights":[-0E0,-5.9133666E-3,3.6878453E-3,-2.1648402E-3,3.244E-5,-1.0072398E-3,1.1281458E-3],"categories":[],"categories_nodes":[],"categories_segments":[],"categories_sizes":[],"default_left":[0,0,0,0,0,0,0],"id":16,"left_children":[1,3,-1,-1,5,-1,-1],"loss_changes":[1.8175547E-1,1.04987994E-1,0E0,0E0,1.4486337E-1,0E0,0E0],"parents":[2147483647,0,0,1,1,4,4],"right_children":[2,4,-1,-1,6,-1,-1],"split_conditions":[7.96875E-1,-4.69827E-1,3.6878453E-3,-2.1648402E-3,-8.8E-3,-1.0072398E-3,1.1281458E-3],"split_indices":[19,17,0,0,54,0,0],"split_type":[0,0,0,0,0,0,0],"sum_hessian":[4.02E2,3.73E2,2.9E1,6.1E1,3.12E2,1.53E2,1.59E2],"tree_param":{"num_deleted":"0","num_feature":"60","num_nodes":"7","size_leaf_vector":"1"}},{"base_weights":[-2.7865515E-4,3.1015452E-3,-3.1572494E-3,-8.7118075E-5,3.8355205E-3,-2.9555857E-4,1.8229727E-3],"categories":[],"categories_nodes":[],"categories_segments":[],"categories_sizes":[],"default_left":[0,0,0,0,0,0,0],"id":17,"left_children":[1,3,-1,5,-1,-1,-1],"loss_changes":[1.15201235E-1,1.258733E-1,0E0,6.0292654E-2,0E0,0E0,0E0],"parents":[2147483647,0,0,1,1,3,3],"right_children":[2,4,-1,6,-1,-1,-1],"split_conditions":[3.31246E-1,4.8533E-1,-3.1572494E-3,5.6322E-2,3.8355205E-3,-2.9555857E-4,1.8229727E-3],"split_indices":[57,46,0,15,0,0,0],"split_type":[0,0,0,0,0,0,0],"sum_hessian":[3.97E2,3.71E2,2.6E1,3.51E2,2E1,3.16E2,3.5E1],"tree_param":{"num_deleted":"0","num_feature":"60","num_nodes":"7","size_leaf_vector":"1"}},{"base_weights":[-2.6046233E-3,1.2240703E-3,-3.2543992E-3,-9.120425E-3,1.8163072E-2,-1.2466785E-3,1.413873E-3,-4.2779744E-4,1.3728887E-3],"categories":[],"categories_nodes":[],"categories_segments":[],"categories_sizes":[],"default_left":[0,0,0,0,0,0,0,0,0],"id":18,"left_children":[1,3,-1,5,7,-1,-1,-1,-1],"loss_changes":[1.3328542E-1,7.371623E-2,0E0,1.33981E-1,5.164279E-2,0E0,0E0,0E0,0E0],"parents":[2147483647,0,0,1,1,3,3,4,4],"right_children":[2,4,-1,6,8,-1,-1,-1,-1],"split_conditions":[6.588622E-2,1.77002E-1,-3.2543992E-3,3.20923E-1,-2.8093013E-1,-1.2466785E-3,1.413873E-3,-4.2779744E-4,1.3728887E-3],"split_indices":[42,46,0,17,35,0,0,0,0],"split_type":[0,0,0,0,0,0,0,0,0],"sum_hessian":[4.21E2,3.91E2,3E1,2.25E2,1.66E2,1.68E2,5.7E1,2.9E1,1.37E2],"tree_param":{"num_deleted":"0","num_feature":"60","num_nodes":"9","size_leaf_vector":"1"}},{"base_weights":[-0E0,-1.4428576E-2,2.3193216E-2,5.6082415E-3,-3.0544195E-2,4.6474274E-2,-6.651212E-4,-2.8878578E-4,1.9159478E-3,-0E0,-2.1390675E-3,-0E0,4.0925797E-3],"categories":[],"categories_nodes":[],"categories_segments":[],"categories_sizes":[],"default_left":[0,0,0,0,0,0,0,0,0,0,0,0,0],"id":19,"left_children":[1,3,5,7,9,11,-1,-1,-1,-1,-1,-1,-1],"loss_changes":[1.3826908E-1,1.01286754E-1,1.4612058E-1,5.767576E-2,5.1948205E-2,1.5703657E-1,0E0,0E0,0E0,0E0,0E0,0E0,0E0],"parents":[2147483647,0,0,1,1,2,2,3,3,4,4,5,5],"right_children":[2,4,6,8,10,12,-1,-1,-1,-1,-1,-1,-1],"split_conditions":[3.73891E-1,-4.217305E-2,9.6384E-1,2.1656E-1,-4.311E-1,5.9929777E-2,-6.651212E-4,-2.8878578E-4,1.9159478E-3,-0E0,-2.1390675E-3,-0E0,4.0925797E-3],"split_indices":[52,31,0,0,54,50,0,0,0,0,0,0,0],"split_type":[0,0,0,0,0,0,0,0,0,0,0,0,0],"sum_hessian":[4.21E2,2.72E2,1.49E2,1.08E2,1.64E2,9.9E1,5E1,7E1,3.8E1,5.3E1,1.11E2,4.5E1,5.4E1],"tree_param":{"num_deleted":"0","num_feature":"60","num_nodes":"13","size_leaf_vector":"1"}},{"base_weights":[7.0561026E-4,-3.0893818E-3,3.0964634E-3,-1.0519458E-3,1.10555645E-2,-5.70788E-4,2.374049E-3],"categories":[],"categories_nodes":[],"categories_segments":[],"categories_sizes":[],"default_left":[0,0,0,0,0,0,0],"id":20,"left_children":[1,3,-1,-1,5,-1,-1],"loss_changes":[1.301749E-1,1.0726884E-1,0E0,0E0,1.9100742E-1,0E0,0E0],"parents":[2147483647,0,0,1,1,4,4],"right_children":[2,4,-1,-1,6,-1,-1],"split_conditions":[7.96875E-1,-1.13227E-1,3.0964634E-3,-1.0519458E-3,-1.77E-2,-5.70788E-4,2.374049E-3],"split_indices":[19,17,0,0,54,0,0],"split_type":[0,0,0,0,0,0,0],"sum_hessian":[4.3E2,3.99E2,3.1E1,1.91E2,2.08E2,1.21E2,8.7E1],"tree_param":{"num_deleted":"0","num_feature":"60","num_nodes":"7","size_leaf_vector":"1"}},{"base_weights":[-0E0,3.474234E-2,-6.2885233E-3,-0E0,3.3361632E-3,-1.1411363E-3,8.332599E-3,1.2674684E-3,-2.1955948E-3],"categories":[],"categories_nodes":[],"categories_segments":[],"categories_sizes":[],"default_left":[0,0,0,0,0,0,0,0,0],"id":21,"left_children":[1,3,5,-1,-1,-1,7,-1,-1],"loss_changes":[9.27329E-2,5.9554853E-2,9.489665E-2,0E0,0E0,0E0,1.5030378E-1,0E0,0E0],"parents":[2147483647,0,0,1,1,2,2,6,6],"right_children":[2,4,6,-1,-1,-1,8,-1,-1],"split_conditions":[-9.697844E-2,1.9172667E-2,1.77002E-1,-0E0,3.3361632E-3,-1.1411363E-3,1.8861246E-1,1.2674684E-3,-2.1955948E-3],"split_indices":[31,48,46,0,0,0,31,0,0],"split_type":[0,0,0,0,0,0,0,0,0],"sum_hessian":[4.22E2,6.3E1,3.59E2,3.4E1,2.9E1,1.84E2,1.75E2,1.4E2,3.5E1],"tree_param":{"num_deleted":"0","num_feature":"60","num_nodes":"9","size_leaf_vector":"1"}},{"base_weights":[5.276569E-4,-1.9823778E-3,8.11472E-3,2.29481E-3,-0E0,-1.1474182E-3,7.5965753E-4],"categories":[],"categories_nodes":[],"categories_segments":[],"categories_sizes":[],"default_left":[0,0,0,0,0,0,0],"id":22,"left_children":[1,-1,3,-1,5,-1,-1],"loss_changes":[1.098499E-1,0E0,1.2605077E-1,0E0,1.0391566E-1,0E0,0E0],"parents":[2147483647,0,0,2,2,4,4],"right_children":[2,-1,4,-1,6,-1,-1],"split_conditions":[1.90114E-1,-1.9823778E-3,-6.1927304E-2,2.29481E-3,3.39014E-1,-1.1474182E-3,7.5965753E-4],"split_indices":[52,0,31,0,52,0,0],"split_type":[0,0,0,0,0,0,0],"sum_hessian":[4.08E2,5.3E1,3.55E2,6.9E1,2.86E2,1.23E2,1.63E2],"tree_param":{"num_deleted":"0","num_feature":"60","num_nodes":"7","size_leaf_vector":"1"}},{"base_weights":[3.4380716E-3,-0E0,3.2817689E-3,-1.7185583E-3,4.0184315E-3,4.5182623E-4,-1.9918191E-3],"categories":[],"categories_nodes":[],"categories_segments":[],"categories_sizes":[],"default_left":[0,0,0,0,0,0,0],"id":23,"left_children":[1,3,-1,-1,5,-1,-1],"loss_changes":[1.0265279E-1,6.1321773E-2,0E0,0E0,6.4324275E-2,0E0,0E0],"parents":[2147483647,0,0,1,1,4,4],"right_children":[2,4,-1,-1,6,-1,-1],"split_conditions":[1.4541604E-1,1.76874E-1,3.2817689E-3,-1.7185583E-3,7.036632E-2,4.5182623E-4,-1.9918191E-3],"split_indices":[50,52,0,0,42,0,0],"split_type":[0,0,0,0,0,0,0],"sum_hessian":[4.25E2,4.02E2,2.3E1,4.5E1,3.57E2,3.32E2,2.5E1],"tree_param":{"num_deleted":"0","num_feature":"60","num_nodes":"7","size_leaf_vector":"1"}},{"base_weights":[-0E0,4.3106093E-3,-2.6471445E-3,-1.18975E-2,2.7200285E-2,-0E0,-1.6415793E-3,4.9825395E-3,6.579517E-4],"categories":[],"categories_nodes":[],"categories_segments":[],"categories_sizes":[],"default_left":[0,0,0,0,0,0,0,0,0],"id":24,"left_children":[1,3,-1,5,7,-1,-1,-1,-1],"loss_changes":[9.404525E-2,1.5113299E-1,0E0,6.240873E-2,1.1696464E-1,0E0,0E0,0E0,0E0],"parents":[2147483647,0,0,1,1,3,3,4,4],"right_children":[2,4,-1,6,8,-1,-1,-1,-1],"split_conditions":[6.366459E-2,2.87E-2,-2.6471445E-3,-2.0642202E-2,-6.594442E-3,-0E0,-1.6415793E-3,4.9825395E-3,6.579517E-4],"split_indices":[42,54,0,43,38,0,0,0,0],"split_type":[0,0,0,0,0,0,0,0,0],"sum_hessian":[4.12E2,3.83E2,2.9E1,2.12E2,1.71E2,1.28E2,8.4E1,2E1,1.51E2],"tree_param":{"num_deleted":"0","num_feature":"60","num_nodes":"9","size_leaf_vector":"1"}},{"base_weights":[7.3636783E-4,6.4542363E-3,-2.510185E-3,-6.480797E-3,3.185731E-2,-1.0437892E-3,1.4829434E-3,-1.2525528E-4,2.3484828E-3],"categories":[],"categories_nodes":[],"categories_segments":[],"categories_sizes":[],"default_left":[0,0,0,0,0,0,0,0,0],"id":25,"left_children":[1,3,-1,5,7,-1,-1,-1,-1],"loss_changes":[1.0460135E-1,1.4420843E-1,0E0,1.2846497E-1,9.9323496E-2,0E0,0E0,0E0,0E0],"parents":[2147483647,0,0,1,1,3,3,4,4],"right_children":[2,4,-1,6,8,-1,-1,-1,-1],"split_conditions":[6.588622E-2,3.39014E-1,-2.510185E-3,3.05493E-1,-2.783042E-1,-1.0437892E-3,1.4829434E-3,-1.2525528E-4,2.3484828E-3],"split_indices":[42,52,0,17,35,0,0,0,0],"split_type":[0,0,0,0,0,0,0,0,0],"sum_hessian":[4.3E2,3.97E2,3.3E1,2.51E2,1.46E2,1.9E2,6.1E1,3.5E1,1.11E2],"tree_param":{"num_deleted":"0","num_feature":"60","num_nodes":"9","size_leaf_vector":"1"}},{"base_weights":[3.867679E-3,8.837886E-3,-2.3341968E-3,-0E0,6.323828E-2,-6.814093E-4,1.3385713E-3,5.5359323E-3,-0E0],"categories":[],"categories_nodes":[],"categories_segments":[],"categories_sizes":[],"default_left":[0,0,0,0,0,0,0,0,0],"id":26,"left_children":[1,3,-1,5,7,-1,-1,-1,-1],"loss_changes":[8.7679245E-2,1.9717292E-1,0E0,1.22803025E-1,2.0110407E-1,0E0,0E0,0E0,0E0],"parents":[2147483647,0,0,1,1,3,3,4,4],"right_children":[2,4,-1,6,8,-1,-1,-1,-1],"split_conditions":[7.431373E-2,5.32654E-1,-2.3341968E-3,1.4937E-1,5.70097E-1,-6.814093E-4,1.3385713E-3,5.5359323E-3,-0E0],"split_indices":[42,52,0,17,52,0,0,0,0],"split_type":[0,0,0,0,0,0,0,0,0],"sum_hessian":[4.19E2,3.92E2,2.7E1,3.37E2,5.5E1,2.27E2,1.1E2,3.3E1,2.2E1],"tree_param":{"num_deleted":"0","num_feature":"60","num_nodes":"9","size_leaf_vector":"1"}},{"base_weights":[-0E0,2.1854332E-3,-4.9943062E-3,-9.612942E-4,1.8061751E-2,2.1008074E-3,-1.5113667E-3],"categories":[],"categories_nodes":[],"categories_segments":[],"categories_sizes":[],"default_left":[0,0,0,0,0,0,0],"id":27,"left_children":[1,-1,3,-1,5,-1,-1],"loss_changes":[9.1976814E-2,0E0,1.3055746E-1,0E0,1.6806406E-1,0E0,0E0],"parents":[2147483647,0,0,2,2,4,4],"right_children":[2,-1,4,-1,6,-1,-1],"split_conditions":[-1.2348789E-1,2.1854332E-3,3.96516E-1,-9.612942E-4,9.64913E-1,2.1008074E-3,-1.5113667E-3],"split_indices":[31,0,52,0,3,0,0],"split_type":[0,0,0,0,0,0,0],"sum_hessian":[4.33E2,4.1E1,3.92E2,2.56E2,1.36E2,9.8E1,3.8E1],"tree_param":{"num_deleted":"0","num_feature":"60","num_nodes":"7","size_leaf_vector":"1"}},{"base_weights":[-0E0,-4.9609574E-3,3.1681692E-3,-1.183076E-2,2.8454525E-2,-1.2021417E-3,-0E0,-0E0,3.3348245E-3],"categories":[],"categories_nodes":[],"categories_segments":[],"categories_sizes":[],"default_left":[0,0,0,0,0,0,0,0,0],"id":28,"left_children":[1,3,-1,5,7,-1,-1,-1,-1],"loss_changes":[1.2994742E-1,8.09707E-2,0E0,5.7879534E-2,5.4143626E-2,0E0,0E0,0E0,0E0],"parents":[2147483647,0,0,1,1,3,3,4,4],"right_children":[2,4,-1,6,8,-1,-1,-1,-1],"split_conditions":[7.96875E-1,0E0,3.1681692E-3,-9.776E-2,4.5455E-2,-1.2021417E-3,-0E0,-0E0,3.3348245E-3],"split_indices":[19,18,0,17,19,0,0,0,0],"split_type":[0,0,0,0,0,0,0,0,0],"sum_hessian":[4.12E2,3.84E2,2.8E1,3.32E2,5.2E1,1.79E2,1.53E2,3.2E1,2E1],"tree_param":{"num_deleted":"0","num_feature":"60","num_nodes":"9","size_leaf_vector":"1"}},{"base_weights":[1.4712705E-3,-1.7055193E-2,1.5110481E-2,1.5272868E-4,-2.065828E-3,2.5799299E-2,-1.4947146E-3,-1.5645885E-4,1.9313879E-3],"categories":[],"categories_nodes":[],"categories_segments":[],"categories_sizes":[],"default_left":[0,0,0,0,0,0,0,0,0],"id":29,"left_children":[1,3,5,-1,-1,7,-1,-1,-1],"loss_changes":[1.0895624E-1,1.0183688E-1,1.2745373E-1,0E0,0E0,1.01490304E-1,0E0,0E0,0E0],"parents":[2147483647,0,0,1,1,2,2,5,5],"right_children":[2,4,6,-1,-1,8,-1,-1,-1],"split_conditions":[-1.513E-1,-4.591E-1,1.6185421E-1,1.5272868E-4,-2.065828E-3,8.4581E-2,-1.4947146E-3,-1.5645885E-4,1.9313879E-3],"split_indices":[54,54,31,0,0,46,0,0,0],"split_type":[0,0,0,0,0,0,0,0,0],"sum_hessian":[4.31E2,1.67E2,2.64E2,8.1E1,8.6E1,2.23E2,4.1E1,5.7E1,1.66E2],"tree_param":{"num_deleted":"0","num_feature":"60","num_nodes":"9","size_leaf_vector":"1"}},{"base_weights":[-5.714134E-4,-1.0092211E-2,7.499855E-4,1.4262137E-2,-9.2143164E-4,-9.121666E-4,2.2744173E-3],"categories":[],"categories_nodes":[],"categories_segments":[],"categories_sizes":[],"default_left":[0,0,0,0,0,0,0],"id":30,"left_children":[1,3,-1,5,-1,-1,-1],"loss_changes":[6.0410306E-2,6.006586E-2,0E0,7.4153535E-2,0E0,0E0,0E0],"parents":[2147483647,0,0,1,1,3,3],"right_children":[2,4,-1,6,-1,-1,-1],"split_conditions":[7.68092E-2,-3.3333334E-1,7.499855E-4,-2.38095E-1,-9.2143164E-4,-9.121666E-4,2.2744173E-3],"split_indices":[49,44,0,19,0,0,0],"split_type":[0,0,0,0,0,0,0],"sum_hessian":[4.2E2,2.81E2,1.39E2,5.6E1,2.25E2,2E1,3.6E1],"tree_param":{"num_deleted":"0","num_feature":"60","num_nodes":"7","size_leaf_vector":"1"}},{"base_weights":[1.8693528E-3,-1.739378E-3,2.5935434E-3,1.3811445E-3,-2.4554215E-3,-5.232952E-4,1.3179173E-3],"categories":[],"categories_nodes":[],"categories_segments":[],"categories_sizes":[],"default_left":[0,0,0,0,0,0,0],"id":31,"left_children":[1,3,-1,5,-1,-1,-1],"loss_changes":[1.0193404E-1,8.149979E-2,0E0,1.1413641E-1,0E0,0E0,0E0],"parents":[2147483647,0,0,1,1,3,3],"right_children":[2,4,-1,6,-1,-1,-1],"split_conditions":[1.2739857E-1,7.431373E-2,2.5935434E-3,2.20993E-1,-2.4554215E-3,-5.232952E-4,1.3179173E-3],"split_indices":[50,42,0,45,0,0,0],"split_type":[0,0,0,0,0,0,0],"sum_hessian":[4.23E2,3.87E2,3.6E1,3.55E2,3.2E1,2.28E2,1.27E2],"tree_param":{"num_deleted":"0","num_feature":"60","num_nodes":"7","size_leaf_vector":"1"}},{"base_weights":[-2.9137197E-3,1.6001491E-3,-4.2707892E-4],"categories":[],"categories_nodes":[],"categories_segments":[],"categories_sizes":[],"default_left":[0,0,0],"id":32,"left_children":[1,-1,-1],"loss_changes":[6.9383584E-2,0E0,0E0],"parents":[2147483647,0,0],"right_children":[2,-1,-1],"split_conditions":[-1.2348789E-1,1.6001491E-3,-4.2707892E-4],"split_indices":[31,0,0],"split_type":[0,0,0],"sum_hessian":[4.08E2,4.3E1,3.65E2],"tree_param":{"num_deleted":"0","num_feature":"60","num_nodes":"3","size_leaf_vector":"1"}},{"base_weights":[4.3627233E-4,-8.069618E-3,1.4382243E-2,-1.7383582E-3,3.089324E-3,-0E0,3.5869427E-2,-1.3667769E-4,2.5246697E-3,2.7803185E-3,-0E0],"categories":[],"categories_nodes":[],"categories_segments":[],"categories_sizes":[],"default_left":[0,0,0,0,0,0,0,0,0,0,0],"id":33,"left_children":[1,3,5,-1,7,-1,9,-1,-1,-1,-1],"loss_changes":[5.380316E-2,8.844741E-2,5.4576147E-2,0E0,6.832047E-2,0E0,6.196706E-2,0E0,0E0,0E0,0E0],"parents":[2147483647,0,0,1,1,2,2,4,4,6,6],"right_children":[2,4,6,-1,8,-1,10,-1,-1,-1,-1],"split_conditions":[2.03125E-1,-1.57367E-1,6.0572736E-2,-1.7383582E-3,6.995074E-1,-0E0,3.7165E-1,-1.3667769E-4,2.5246697E-3,2.7803185E-3,-0E0],"split_indices":[19,17,50,0,34,0,35,0,0,0,0],"split_type":[0,0,0,0,0,0,0,0,0,0,0],"sum_hessian":[4.23E2,2.41E2,1.82E2,8.3E1,1.58E2,1.12E2,7E1,1.33E2,2.5E1,4.8E1,2.2E1],"tree_param":{"num_deleted":"0","num_feature":"60","num_nodes":"11","size_leaf_vector":"1"}},{"base_weights":[3.2997137E-4,4.982708E-3,-1.9997738E-3,-1.3107909E-3,5.7239763E-2,6.6649204E-4,-9.238138E-4,6.3503967E-3,-0E0],"categories":[],"categories_nodes":[],"categories_segments":[],"categories_sizes":[],"default_left":[0,0,0,0,0,0,0,0,0],"id":34,"left_children":[1,3,-1,5,7,-1,-1,-1,-1],"loss_changes":[5.8879778E-2,1.517733E-1,0E0,8.574794E-2,2.4273221E-1,0E0,0E0,0E0,0E0],"parents":[2147483647,0,0,1,1,3,3,4,4],"right_children":[2,4,-1,6,8,-1,-1,-1,-1],"split_conditions":[6.588622E-2,5.32654E-1,-1.9997738E-3,5.455476E-4,3.483E-1,6.6649204E-4,-9.238138E-4,6.3503967E-3,-0E0],"split_indices":[42,52,0,31,54,0,0,0,0],"split_type":[0,0,0,0,0,0,0,0,0],"sum_hessian":[4.03E2,3.74E2,2.9E1,3.27E2,4.7E1,1.61E2,1.66E2,2.3E1,2.4E1],"tree_param":{"num_deleted":"0","num_feature":"60","num_nodes":"9","size_leaf_vector":"1"}},{"base_weights":[1.7021624E-4,-9.85981E-4,9.003691E-3,1.507536E-4,2.2163242E-3,-1.5892215E-4,2.3940527E-3],"categories":[],"categories_nodes":[],"categories_segments":[],"categories_sizes":[],"default_left":[0,0,0,0,0,0,0],"id":35,"left_children":[1,-1,3,5,-1,-1,-1],"loss_changes":[6.914101E-2,0E0,7.500099E-2,6.428841E-2,0E0,0E0,0E0],"parents":[2147483647,0,0,2,2,3,3],"right_children":[2,-1,4,6,-1,-1,-1],"split_conditions":[-2.69841E-1,-9.85981E-4,3.20923E-1,1.2739857E-1,2.2163242E-3,-1.5892215E-4,2.3940527E-3],"split_indices":[19,0,17,50,0,0,0],"split_type":[0,0,0,0,0,0,0],"sum_hessian":[4.2E2,1.11E2,3.09E2,2.6E2,4.9E1,2.35E2,2.5E1],"tree_param":{"num_deleted":"0","num_feature":"60","num_nodes":"7","size_leaf_vector":"1"}},{"base_weights":[-1.8637948E-3,6.055471E-3,-1.1603461E-3,-1.4040981E-4,2.526367E-2,1.9299578E-3,-0E0],"categories":[],"categories_nodes":[],"categories_segments":[],"categories_sizes":[],"default_left":[0,0,0,0,0,0,0],"id":36,"left_children":[1,3,-1,-1,5,-1,-1],"loss_changes":[7.8493804E-2,5.9892327E-2,0E0,0E0,5.472993E-2,0E0,0E0],"parents":[2147483647,0,0,1,1,4,4],"right_children":[2,4,-1,-1,6,-1,-1],"split_conditions":[2E0,2.4655297E-2,-1.1603461E-3,-1.4040981E-4,1.8539E-1,1.9299578E-3,-0E0],"split_indices":[39,35,0,0,49,0,0],"split_type":[0,0,0,0,0,0,0],"sum_hessian":[4.1E2,2.83E2,1.27E2,1.77E2,1.06E2,8.1E1,2.5E1],"tree_param":{"num_deleted":"0","num_feature":"60","num_nodes":"7","size_leaf_vector":"1"}},{"base_weights":[-0E0,-5.9686583E-3,1.6662047E-3,-1.1630442E-3,7.271596E-3,1.0710233E-3,-1.4002514E-3],"categories":[],"categories_nodes":[],"categories_segments":[],"categories_sizes":[],"default_left":[0,0,0,0,0,0,0],"id":37,"left_children":[1,3,-1,-1,5,-1,-1],"loss_changes":[7.859354E-2,9.235886E-2,0E0,0E0,9.4238475E-2,0E0,0E0],"parents":[2147483647,0,0,1,1,4,4],"right_children":[2,4,-1,-1,6,-1,-1],"split_conditions":[3.05493E-1,3.30306E-1,1.6662047E-3,-1.1630442E-3,6.84133E-1,1.0710233E-3,-1.4002514E-3],"split_indices":[17,52,0,0,56,0,0],"split_type":[0,0,0,0,0,0,0],"sum_hessian":[4.22E2,3.65E2,5.7E1,1.74E2,1.91E2,1.47E2,4.4E1],"tree_param":{"num_deleted":"0","num_feature":"60","num_nodes":"7","size_leaf_vector":"1"}},{"base_weights":[-1.2573143E-3,-2.5995687E-4,2.0306297E-3],"categories":[],"categories_nodes":[],"categories_segments":[],"categories_sizes":[],"default_left":[0,0,0],"id":38,"left_children":[1,-1,-1],"loss_changes":[5.5004746E-2,0E0,0E0],"parents":[2147483647,0,0],"right_children":[2,-1,-1],"split_conditions":[7.96875E-1,-2.5995687E-4,2.0306297E-3],"split_indices":[19,0,0],"split_type":[0,0,0],"sum_hessian":[4.36E2,4.11E2,2.5E1],"tree_param":{"num_deleted":"0","num_feature":"60","num_nodes":"3","size_leaf_vector":"1"}},{"base_weights":[-0E0,-3.66358E-3,2.2479203E-3,8.172487E-4,-1.2910095E-2,7.7294285E-4,-1.1143323E-3],"categories":[],"categories_nodes":[],"categories_segments":[],"categories_sizes":[],"default_left":[0,0,0,0,0,0,0],"id":39,"left_children":[1,3,-1,-1,5,-1,-1],"loss_changes":[5.7572477E-2,6.78981E-2,0E0,0E0,7.698774E-2,0E0,0E0],"parents":[2147483647,0,0,1,1,4,4],"right_children":[2,4,-1,-1,6,-1,-1],"split_conditions":[7.96875E-1,4.12194E-1,2.2479203E-3,8.172487E-4,-4.9396053E-2,7.7294285E-4,-1.1143323E-3],"split_indices":[19,56,0,0,31,0,0],"split_type":[0,0,0,0,0,0,0],"sum_hessian":[3.96E2,3.72E2,2.4E1,1E2,2.72E2,5.4E1,2.18E2],"tree_param":{"num_deleted":"0","num_feature":"60","num_nodes":"7","size_leaf_vector":"1"}},{"base_weights":[6.3082704E-4],"categories":[],"categories_nodes":[],"categories_segments":[],"categories_sizes":[],"default_left":[0],"id":40,"left_children":[-1],"loss_changes":[0E0],"parents":[2147483647],"right_children":[-1],"split_conditions":[3.1541353E-5],"split_indices":[0],"split_type":[0],"sum_hessian":[4.18E2],"tree_param":{"num_deleted":"0","num_feature":"60","num_nodes":"1","size_leaf_vector":"1"}},{"base_weights":[-0E0],"categories":[],"categories_nodes":[],"categories_segments":[],"categories_sizes":[],"default_left":[0],"id":41,"left_children":[-1],"loss_changes":[0E0],"parents":[2147483647],"right_children":[-1],"split_conditions":[-0E0],"split_indices":[0],"split_type":[0],"sum_hessian":[4.1E2],"tree_param":{"num_deleted":"0","num_feature":"60","num_nodes":"1","size_leaf_vector":"1"}},{"base_weights":[-5.6247547E-4,1.5375109E-3,-1.904795E-3,-5.2742806E-5,3.374412E-3],"categories":[],"categories_nodes":[],"categories_segments":[],"categories_sizes":[],"default_left":[0,0,0,0,0],"id":42,"left_children":[1,3,-1,-1,-1],"loss_changes":[5.1579423E-2,9.9694856E-2,0E0,0E0,0E0],"parents":[2147483647,0,0,1,1],"right_children":[2,4,-1,-1,-1],"split_conditions":[6.588622E-2,4.91592E-1,-1.904795E-3,-5.2742806E-5,3.374412E-3],"split_indices":[42,46,0,0,0],"split_type":[0,0,0,0,0],"sum_hessian":[4.19E2,3.86E2,3.3E1,3.66E2,2E1],"tree_param":{"num_deleted":"0","num_feature":"60","num_nodes":"5","size_leaf_vector":"1"}},{"base_weights":[-0E0,-6.2456523E-4,9.869506E-3,2.1210516E-2,-1.3398299E-3,2.1212471E-4,2.757807E-3],"categories":[],"categories_nodes":[],"categories_segments":[],"categories_sizes":[],"default_left":[0,0,0,0,0,0,0],"id":43,"left_children":[1,-1,3,5,-1,-1,-1],"loss_changes":[5.0448027E-2,0E0,1.03133015E-1,8.7334655E-2,0E0,0E0,0E0],"parents":[2147483647,0,0,2,2,3,3],"right_children":[2,-1,4,6,-1,-1,-1],"split_conditions":[-1.357E-1,-6.2456523E-4,1.4370409E-1,8.670346E-2,-1.3398299E-3,2.1212471E-4,2.757807E-3],"split_indices":[54,0,31,50,0,0,0],"split_type":[0,0,0,0,0,0,0],"sum_hessian":[4.14E2,1.64E2,2.5E2,2.02E2,4.8E1,1.46E2,5.6E1],"tree_param":{"num_deleted":"0","num_feature":"60","num_nodes":"7","size_leaf_vector":"1"}},{"base_weights":[-0E0],"categories":[],"categories_nodes":[],"categories_segments":[],"categories_sizes":[],"default_left":[0],"id":44,"left_children":[-1],"loss_changes":[0E0],"parents":[2147483647],"right_children":[-1],"split_conditions":[-0E0],"split_indices":[0],"split_type":[0],"sum_hessian":[3.87E2],"tree_param":{"num_deleted":"0","num_feature":"60","num_nodes":"1","size_leaf_vector":"1"}},{"base_weights":[3.7432878E-4],"categories":[],"categories_nodes":[],"categories_segments":[],"categories_sizes":[],"default_left":[0],"id":45,"left_children":[-1],"loss_changes":[0E0],"parents":[2147483647],"right_children":[-1],"split_conditions":[1.8716439E-5],"split_indices":[0],"split_type":[0],"sum_hessian":[4.16E2],"tree_param":{"num_deleted":"0","num_feature":"60","num_nodes":"1","size_leaf_vector":"1"}},{"base_weights":[-4.1526034E-3],"categories":[],"categories_nodes":[],"categories_segments":[],"categories_sizes":[],"default_left":[0],"id":46,"left_children":[-1],"loss_changes":[0E0],"parents":[2147483647],"right_children":[-1],"split_conditions":[-2.0763018E-4],"split_indices":[0],"split_type":[0],"sum_hessian":[4.32E2],"tree_param":{"num_deleted":"0","num_feature":"60","num_nodes":"1","size_leaf_vector":"1"}},{"base_weights":[4.0431923E-4,-7.597313E-3,1.4735517E-2,-1.591864E-3,3.931417E-3,4.824098E-2,-0E0,-1.1748773E-4,2.6232477E-3,-0E0,4.3475954E-3],"categories":[],"categories_nodes":[],"categories_segments":[],"categories_sizes":[],"default_left":[0,0,0,0,0,0,0,0,0,0,0],"id":47,"left_children":[1,3,5,-1,7,9,-1,-1,-1,-1,-1],"loss_changes":[5.4019764E-2,8.686185E-2,1.0752871E-1,0E0,7.529914E-2,8.776657E-2,0E0,0E0,0E0,0E0,0E0],"parents":[2147483647,0,0,1,1,2,2,4,4,5,5],"right_children":[2,4,6,-1,8,10,-1,-1,-1,-1,-1],"split_conditions":[2.03008E-1,-1.45373E-1,4.39394E-1,-1.591864E-3,6.84375E-1,1.92631E-1,-0E0,-1.1748773E-4,2.6232477E-3,-0E0,4.3475954E-3],"split_indices":[19,17,19,0,34,45,0,0,0,0,0],"split_type":[0,0,0,0,0,0,0,0,0,0,0],"sum_hessian":[4.36E2,2.58E2,1.78E2,9.6E1,1.62E2,6.1E1,1.17E2,1.36E2,2.6E1,3.2E1,2.9E1],"tree_param":{"num_deleted":"0","num_feature":"60","num_nodes":"11","size_leaf_vector":"1"}},{"base_weights":[2.9948303E-3,-0E0,2.3185979E-3],"categories":[],"categories_nodes":[],"categories_segments":[],"categories_sizes":[],"default_left":[0,0,0],"id":48,"left_children":[1,-1,-1],"loss_changes":[5.6532733E-2,0E0,0E0],"parents":[2147483647,0,0],"right_children":[2,-1,-1],"split_conditions":[7.96875E-1,-0E0,2.3185979E-3],"split_indices":[19,0,0],"split_type":[0,0,0],"sum_hessian":[4.08E2,3.82E2,2.6E1],"tree_param":{"num_deleted":"0","num_feature":"60","num_nodes":"3","size_leaf_vector":"1"}},{"base_weights":[-0E0],"categories":[],"categories_nodes":[],"categories_segments":[],"categories_sizes":[],"default_left":[0],"id":49,"left_children":[-1],"loss_changes":[0E0],"parents":[2147483647],"right_children":[-1],"split_conditions":[-0E0],"split_indices":[0],"split_type":[0],"sum_hessian":[4.36E2],"tree_param":{"num_deleted":"0","num_feature":"60","num_nodes":"1","size_leaf_vector":"1"}}]},"name":"gbtree"},"learner_model_param":{"base_score":"[1.1489986E-2]","boost_from_average":"1","num_class":"0","num_feature":"60","num_target":"1"},"objective":{"name":"reg:squarederror","reg_loss_param":{"scale_pos_weight":"1"}}},"version":[3,2,0]}