{"learner":{"attributes":{"scikit_learn":"{\"_estimator_type\": \"regressor\"}"},"feature_names":["trig_ma60_bias","trig_pos_in_20d","trig_dist_from_high","trig_dist_from_low","trig_vol_change","trig_break_above","trig_break_below","trig_price_trend_10d","trend_dir_ord","trend_phase_ord","trend_short_dir_ord","trend_ma_slope","trend_ret_5d","trend_ma_alignment","tech_rsi14","tech_macd_hist","tech_ma60_bias","tech_volatility_20","tech_momentum_20","tech_vol_ratio"],"feature_types":["float","float","float","float","float","float","float","float","float","float","float","float","float","float","float","float","float","float","float","float"],"gradient_booster":{"model":{"cats":{"enc":[],"feature_segments":[],"sorted_idx":[]},"gbtree_model_param":{"num_parallel_tree":"1","num_trees":"97"},"iteration_indptr":[0,1,2,3,4,5,6,7,8,9,10,11,12,13,14,15,16,17,18,19,20,21,22,23,24,25,26,27,28,29,30,31,32,33,34,35,36,37,38,39,40,41,42,43,44,45,46,47,48,49,50,51,52,53,54,55,56,57,58,59,60,61,62,63,64,65,66,67,68,69,70,71,72,73,74,75,76,77,78,79,80,81,82,83,84,85,86,87,88,89,90,91,92,93,94,95,96,97],"tree_info":[0,0,0,0,0,0,0,0,0,0,0,0,0,0,0,0,0,0,0,0,0,0,0,0,0,0,0,0,0,0,0,0,0,0,0,0,0,0,0,0,0,0,0,0,0,0,0,0,0,0,0,0,0,0,0,0,0,0,0,0,0,0,0,0,0,0,0,0,0,0,0,0,0,0,0,0,0,0,0,0,0,0,0,0,0,0,0,0,0,0,0,0,0,0,0,0,0],"trees":[{"base_weights":[8.2340506E-5,1.1478008E-3,-4.491496E-4,-3.5871335E-3,5.5261925E-3,-0E0,-6.774881E-3,1.6601123E-2,-4.086953E-4,-8.573287E-5,1.2293226E-3,-3.000038E-4,-0E0,-0E0,6.024952E-4,1.278697E-4,-1.2465849E-4],"categories":[],"categories_nodes":[],"categories_segments":[],"categories_sizes":[],"default_left":[0,0,0,0,0,0,0,0,0,0,0,0,0,0,0,0,0],"id":0,"left_children":[1,-1,3,5,7,9,11,13,15,-1,-1,-1,-1,-1,-1,-1,-1],"loss_changes":[1.6182773E-2,0E0,7.39473E-3,3.2853945E-3,1.1198415E-2,1.6198527E-2,4.8318547E-3,2.8644362E-3,1.1863289E-3,0E0,0E0,0E0,0E0,0E0,0E0,0E0,0E0],"parents":[2147483647,0,0,2,2,3,3,4,4,5,5,6,6,7,7,8,8],"right_children":[2,-1,4,6,8,10,12,14,16,-1,-1,-1,-1,-1,-1,-1,-1],"split_conditions":[-9.437964E-2,1.1478008E-3,3.2019354E-3,-6.666667E-1,2E0,4.333301E1,5.0177905E-3,4.715482E1,5.294118E-1,-8.573287E-5,1.2293226E-3,-3.000038E-4,-0E0,-0E0,6.024952E-4,1.278697E-4,-1.2465849E-4],"split_indices":[18,0,11,13,8,14,0,14,1,0,0,0,0,0,0,0,0],"split_type":[0,0,0,0,0,0,0,0,0,0,0,0,0,0,0,0,0],"sum_hessian":[4.23E2,1E1,4.13E2,2.93E2,1.2E2,1.4E2,1.53E2,5.3E1,6.7E1,1.32E2,8E0,1.18E2,3.5E1,1E1,4.3E1,6E0,6.1E1],"tree_param":{"num_deleted":"0","num_feature":"20","num_nodes":"17","size_leaf_vector":"1"}},{"base_weights":[-1.0127064E-3,1.7898519E-2,-2.959094E-3,2.8203472E-2,-0E0,-6.968235E-3,-0E0,1.1795377E-3,-0E0,-8.36662E-3,-0E0,1.4454975E-3,-6.1232434E-4,-8.178219E-5,-5.896756E-4,-2.1201714E-4,2.0696233E-4],"categories":[],"categories_nodes":[],"categories_segments":[],"categories_sizes":[],"default_left":[0,0,0,0,0,0,0,0,0,0,0,0,0,0,0,0,0],"id":1,"left_children":[1,3,5,7,-1,9,11,-1,-1,13,-1,15,-1,-1,-1,-1,-1],"loss_changes":[1.2230212E-2,1.8457491E-3,4.649394E-3,1.231092E-3,0E0,3.1182654E-3,6.2649352E-3,0E0,0E0,5.5947443E-3,0E0,9.62442E-3,0E0,0E0,0E0,0E0,0E0],"parents":[2147483647,0,0,1,1,2,2,3,3,5,5,6,6,9,9,11,11],"right_children":[2,4,6,8,-1,10,12,-1,-1,14,-1,16,-1,-1,-1,-1,-1],"split_conditions":[2.7330496E1,-1.8072288E-2,-6.035283E-3,-3.7099496E-2,-0E0,2.701463E-1,1.2051095E-1,1.1795377E-3,-0E0,2.1039894E-1,-0E0,1.6162072E-1,-6.1232434E-4,-8.178219E-5,-5.896756E-4,-2.1201714E-4,2.0696233E-4],"split_indices":[14,11,11,12,0,17,16,0,0,17,0,17,0,0,0,0,0],"split_type":[0,0,0,0,0,0,0,0,0,0,0,0,0,0,0,0,0],"sum_hessian":[4.11E2,2.8E1,3.83E2,1.3E1,1.5E1,1.64E2,2.19E2,7E0,6E0,1.58E2,6E0,2.06E2,1.3E1,1.18E2,4E1,6.6E1,1.4E2],"tree_param":{"num_deleted":"0","num_feature":"20","num_nodes":"17","size_leaf_vector":"1"}},{"base_weights":[-0E0,3.916737E-2,-1.1905408E-3,1.5351203E-3,-0E0,-0E0,-2.0384308E-2,-1.8996459E-3,1.4670539E-2,-0E0,-8.339057E-4,1.4219985E-5,-1.5483737E-4,-0E0,6.8670016E-4],"categories":[],"categories_nodes":[],"categories_segments":[],"categories_sizes":[],"default_left":[0,0,0,0,0,0,0,0,0,0,0,0,0,0,0],"id":2,"left_children":[1,3,5,-1,-1,7,9,11,13,-1,-1,-1,-1,-1,-1],"loss_changes":[2.0521373E-2,1.0044258E-3,7.732106E-3,0E0,0E0,9.872017E-3,9.6158404E-4,3.6495544E-3,5.537723E-3,0E0,0E0,0E0,0E0,0E0,0E0],"parents":[2147483647,0,0,1,1,2,2,5,5,6,6,7,7,8,8],"right_children":[2,4,6,-1,-1,8,10,12,14,-1,-1,-1,-1,-1,-1],"split_conditions":[-2.3004694E-2,-3.5928145E-2,6.442577E1,1.5351203E-3,-0E0,4.8850574E-2,9.7417735E-2,-1.9877676E-2,2.2944579E-1,-0E0,-8.339057E-4,1.4219985E-5,-1.5483737E-4,-0E0,6.8670016E-4],"split_indices":[11,7,14,0,0,18,0,7,17,0,0,0,0,0,0],"split_type":[0,0,0,0,0,0,0,0,0,0,0,0,0,0,0],"sum_hessian":[4.19E2,1.2E1,4.07E2,7E0,5E0,3.88E2,1.9E1,3.49E2,3.9E1,8E0,1.1E1,1.67E2,1.82E2,1.3E1,2.6E1],"tree_param":{"num_deleted":"0","num_feature":"20","num_nodes":"15","size_leaf_vector":"1"}},{"base_weights":[-0E0,2.1888277E-2,-1.8797172E-3,3.4604173E-2,-0E0,-5.4470384E-3,2.745016E-3,1.3255841E-3,-0E0,-2.3882969E-3,-1.4612146E-2,6.38328E-3,-1.5624397E-2,-1.3078447E-4,5.640571E-4,-0E0,-5.189054E-4,3.1358202E-4,-0E0,-0E0,-6.9568603E-4],"categories":[],"categories_nodes":[],"categories_segments":[],"categories_sizes":[],"default_left":[0,0,0,0,0,0,0,0,0,0,0,0,0,0,0,0,0,0,0,0,0],"id":3,"left_children":[1,3,5,7,-1,9,11,-1,-1,13,15,17,19,-1,-1,-1,-1,-1,-1,-1,-1],"loss_changes":[1.5303604E-2,4.0679285E-3,7.1380218E-3,1.5624166E-3,0E0,3.5734368E-3,8.276426E-3,0E0,0E0,5.7562934E-3,6.496506E-4,2.4752086E-3,2.0093517E-3,0E0,0E0,0E0,0E0,0E0,0E0,0E0,0E0],"parents":[2147483647,0,0,1,1,2,2,3,3,5,5,6,6,9,9,10,10,11,11,12,12],"right_children":[2,4,6,8,-1,10,12,-1,-1,14,16,18,20,-1,-1,-1,-1,-1,-1,-1,-1],"split_conditions":[2.7330496E1,-1.8072288E-2,6.249219E-4,-3.7099496E-2,-0E0,-3.084671E-3,1.2051095E-1,1.3255841E-3,-0E0,-6.256517E-3,-4.083778E-2,2E0,2.4373861E-4,-1.3078447E-4,5.640571E-4,-0E0,-5.189054E-4,3.1358202E-4,-0E0,-0E0,-6.9568603E-4],"split_indices":[14,11,11,12,0,11,0,0,0,18,0,8,15,0,0,0,0,0,0,0,0],"split_type":[0,0,0,0,0,0,0,0,0,0,0,0,0,0,0,0,0,0,0,0,0],"sum_hessian":[4.26E2,2.8E1,3.98E2,1.4E1,1.4E1,2.49E2,1.49E2,9E0,5E0,2.04E2,4.5E1,1.34E2,1.5E1,1.96E2,8E0,1.1E1,3.4E1,7.2E1,6.2E1,5E0,1E1],"tree_param":{"num_deleted":"0","num_feature":"20","num_nodes":"21","size_leaf_vector":"1"}},{"base_weights":[-0E0,3.1550627E-2,-1.0664548E-3,1.3053656E-3,-0E0,-4.094762E-3,4.084086E-3,3.969955E-3,-5.8754645E-3,8.299201E-3,-1.0070133E-3,2.3276026E-4,-0E0,-2.0386031E-4,-0E0,-0E0,4.8563594E-4,-0E0,-1.1653181E-4],"categories":[],"categories_nodes":[],"categories_segments":[],"categories_sizes":[],"default_left":[0,0,0,0,0,0,0,0,0,0,0,0,0,0,0,0,0,0,0],"id":4,"left_children":[1,3,5,-1,-1,7,9,11,13,15,17,-1,-1,-1,-1,-1,-1,-1,-1],"loss_changes":[1.34320725E-2,2.205736E-3,6.7569437E-3,0E0,0E0,4.669604E-3,4.3852963E-3,9.6906774E-4,2.3382548E-3,6.2281354E-3,3.9598986E-4,0E0,0E0,0E0,0E0,0E0,0E0,0E0,0E0],"parents":[2147483647,0,0,1,1,2,2,5,5,6,6,7,7,8,8,9,9,10,10],"right_children":[2,4,6,-1,-1,8,10,12,14,16,18,-1,-1,-1,-1,-1,-1,-1,-1],"split_conditions":[-2.2830244E-2,-3.5928145E-2,2.8214122E-3,1.3053656E-3,-0E0,2.9063463E1,6.1554485E1,-1.5855486E-2,5.4026367E1,2.1642949E-1,1.0461279E-2,2.3276026E-4,-0E0,-2.0386031E-4,-0E0,-0E0,4.8563594E-4,-0E0,-1.1653181E-4],"split_indices":[11,7,11,0,0,14,14,11,14,17,11,0,0,0,0,0,0,0,0],"split_type":[0,0,0,0,0,0,0,0,0,0,0,0,0,0,0,0,0,0,0],"sum_hessian":[4.43E2,1.2E1,4.31E2,7E0,5E0,2.96E2,1.35E2,3.3E1,2.63E2,9.5E1,4E1,2.4E1,9E0,2.47E2,1.6E1,4.7E1,4.8E1,1.2E1,2.8E1],"tree_param":{"num_deleted":"0","num_feature":"20","num_nodes":"19","size_leaf_vector":"1"}},{"base_weights":[-1.7529601E-3,1.7655047E-2,-3.3605192E-3,1.0932288E-3,-0E0,-5.772677E-3,2.6675905E-4,-7.283698E-3,4.3638535E-3,5.0899866E-3,-2.131396E-2,-0E0,-2.631063E-4,3.0933437E-4,-0E0,2.24475E-4,-0E0,-0E0,-7.996759E-4],"categories":[],"categories_nodes":[],"categories_segments":[],"categories_sizes":[],"default_left":[0,0,0,0,0,0,0,0,0,0,0,0,0,0,0,0,0,0,0],"id":5,"left_children":[1,3,5,-1,-1,7,9,11,13,15,17,-1,-1,-1,-1,-1,-1,-1,-1],"loss_changes":[1.0397821E-2,4.7823763E-3,4.6112994E-3,0E0,0E0,4.812477E-3,1.0187049E-2,3.340276E-3,1.1266553E-3,1.8873517E-3,5.473285E-4,0E0,0E0,0E0,0E0,0E0,0E0,0E0,0E0],"parents":[2147483647,0,0,1,1,2,2,5,5,6,6,7,7,8,8,9,9,10,10],"right_children":[2,4,6,-1,-1,8,10,12,14,16,18,-1,-1,-1,-1,-1,-1,-1,-1],"split_conditions":[2.7330496E1,-1.8072288E-2,3.2019354E-3,1.0932288E-3,-0E0,2.677799E-1,1.0912982E-1,-8.143735E-3,5.0955415E-2,6.2654026E1,6.2279438E1,-0E0,-2.631063E-4,3.0933437E-4,-0E0,2.24475E-4,-0E0,-0E0,-7.996759E-4],"split_indices":[14,11,11,0,0,17,0,15,7,14,14,0,0,0,0,0,0,0,0],"split_type":[0,0,0,0,0,0,0,0,0,0,0,0,0,0,0,0,0,0,0],"sum_hessian":[4.22E2,2.2E1,4E2,8E0,1.4E1,2.73E2,1.27E2,2.55E2,1.8E1,1.12E2,1.5E1,3.6E1,2.19E2,1.3E1,5E0,8.5E1,2.7E1,5E0,1E1],"tree_param":{"num_deleted":"0","num_feature":"20","num_nodes":"19","size_leaf_vector":"1"}},{"base_weights":[-0E0,2.428707E-2,-8.9955644E-4,3.2021362E-2,-0E0,-3.1870399E-3,1.12088965E-2,-0E0,1.3236824E-3,-6.57658E-4,-8.375588E-3,1.5700417E-2,-0E0,-1.6939438E-4,9.517812E-5,-4.5474852E-4,-0E0,5.261525E-4,-0E0],"categories":[],"categories_nodes":[],"categories_segments":[],"categories_sizes":[],"default_left":[0,0,0,0,0,0,0,0,0,0,0,0,0,0,0,0,0,0,0],"id":6,"left_children":[1,3,5,7,-1,9,11,-1,-1,13,15,17,-1,-1,-1,-1,-1,-1,-1],"loss_changes":[1.1536718E-2,3.1477744E-3,9.704391E-3,1.219389E-3,0E0,2.873046E-3,3.6990182E-3,0E0,0E0,5.6146565E-3,4.8752115E-3,9.6683204E-4,0E0,0E0,0E0,0E0,0E0,0E0,0E0],"parents":[2147483647,0,0,1,1,2,2,3,3,5,5,6,6,9,9,10,10,11,11],"right_children":[2,4,6,8,-1,10,12,-1,-1,14,16,18,-1,-1,-1,-1,-1,-1,-1],"split_conditions":[-1.0417316E-1,-2.4952372E-3,2.607642E-1,2.2944579E-1,-0E0,2.1393213E-1,1.4121632E-2,-0E0,1.3236824E-3,1.6214958E-1,6.249219E-4,1.8250951E-1,-0E0,-1.6939438E-4,9.517812E-5,-4.5474852E-4,-0E0,5.261525E-4,-0E0],"split_indices":[0,15,17,17,0,17,15,0,0,17,11,18,0,0,0,0,0,0,0],"split_type":[0,0,0,0,0,0,0,0,0,0,0,0,0,0,0,0,0,0,0],"sum_hessian":[4.24E2,1.8E1,4.06E2,1.3E1,5E0,3.56E2,5E1,6E0,7E0,2.66E2,9E1,4E1,1E1,1.38E2,1.28E2,4.8E1,4.2E1,3.5E1,5E0],"tree_param":{"num_deleted":"0","num_feature":"20","num_nodes":"19","size_leaf_vector":"1"}},{"base_weights":[2.9822334E-4,-1.7907044E-3,8.808072E-3,9.987022E-4,-5.35053E-3,1.2215083E-2,-1.773385E-4,-0E0,2.183016E-2,-9.061715E-3,-0E0,1.3842096E-3,2.5028462E-2,1.09561464E-4,-1.259922E-4,1.2109275E-3,-0E0,-0E0,-3.5770392E-4,9.009816E-5,-1.5093316E-4,1.0198448E-3,-0E0,8.739727E-4,-0E0],"categories":[],"categories_nodes":[],"categories_segments":[],"categories_sizes":[],"default_left":[0,0,0,0,0,0,0,0,0,0,0,0,0,0,0,0,0,0,0,0,0,0,0,0,0],"id":7,"left_children":[1,3,5,7,9,11,-1,13,15,17,19,21,23,-1,-1,-1,-1,-1,-1,-1,-1,-1,-1,-1,-1],"loss_changes":[8.992016E-3,4.092965E-3,6.4983163E-3,7.474286E-3,3.1480505E-3,7.866928E-3,0E0,2.209964E-3,5.4092873E-3,2.391154E-3,1.232161E-3,7.972659E-3,3.5361107E-3,0E0,0E0,0E0,0E0,0E0,0E0,0E0,0E0,0E0,0E0,0E0,0E0],"parents":[2147483647,0,0,1,1,2,2,3,3,4,4,5,5,7,7,8,8,9,9,10,10,11,11,12,12],"right_children":[2,4,6,8,10,12,-1,14,16,18,20,22,24,-1,-1,-1,-1,-1,-1,-1,-1,-1,-1,-1,-1],"split_conditions":[2.2899012E-1,-1.8489985E-2,1.2965292E-1,-3.6520787E-4,3.1605107E-3,4.3117743E-2,-1.773385E-4,-1.5855486E-2,1.640379E-1,-1.544276E-3,4.8850507E-2,-2.2830244E-2,1.0912982E-1,1.09561464E-4,-1.259922E-4,1.2109275E-3,-0E0,-0E0,-3.5770392E-4,9.009816E-5,-1.5093316E-4,1.0198448E-3,-0E0,8.739727E-4,-0E0],"split_indices":[17,7,0,15,15,18,0,11,17,15,4,11,0,0,0,0,0,0,0,0,0,0,0,0,0],"split_type":[0,0,0,0,0,0,0,0,0,0,0,0,0,0,0,0,0,0,0,0,0,0,0,0,0],"sum_hessian":[4.25E2,3.23E2,1.02E2,1.5E2,1.73E2,9.4E1,8E0,1.35E2,1.5E1,9.8E1,7.5E1,6E1,3.4E1,4.7E1,8.8E1,7E0,8E0,2.5E1,7.3E1,4.3E1,3.2E1,6E0,5.4E1,2.9E1,5E0],"tree_param":{"num_deleted":"0","num_feature":"20","num_nodes":"25","size_leaf_vector":"1"}},{"base_weights":[4.4364657E-4,1.6672377E-2,-2.4262384E-4,1.9937068E-2,-0E0,-2.039035E-3,1.5015014E-2,7.0291746E-4,-0E0,-3.9122906E-3,7.2132507E-3,-0E0,1.2886279E-3,-3.8819909E-4,-6.892559E-5,3.3760315E-4,-0E0,2.1920128E-5,-0E0],"categories":[],"categories_nodes":[],"categories_segments":[],"categories_sizes":[],"default_left":[0,0,0,0,0,0,0,0,0,0,0,0,0,0,0,0,0,0,0],"id":8,"left_children":[1,3,5,7,-1,9,11,-1,-1,13,15,17,-1,-1,-1,-1,-1,-1,-1],"loss_changes":[8.001072E-3,1.478605E-3,8.261972E-3,8.911714E-4,0E0,5.711502E-3,6.151962E-3,0E0,0E0,1.6313479E-3,2.396313E-3,9.075962E-6,0E0,0E0,0E0,0E0,0E0,0E0,0E0],"parents":[2147483647,0,0,1,1,2,2,3,3,5,5,6,6,9,9,10,10,11,11],"right_children":[2,4,6,8,-1,10,12,-1,-1,14,16,18,-1,-1,-1,-1,-1,-1,-1],"split_conditions":[2.7330496E1,-7.197943E-2,1E0,-2.3060797E-2,-0E0,2.677799E-1,4.7058824E-2,7.0291746E-4,-0E0,7.9722387E-1,6.442577E1,1.1677282E-2,1.2886279E-3,-3.8819909E-4,-6.892559E-5,3.3760315E-4,-0E0,2.1920128E-5,-0E0],"split_indices":[14,18,5,12,0,17,18,0,0,19,14,18,0,0,0,0,0,0,0],"split_type":[0,0,0,0,0,0,0,0,0,0,0,0,0,0,0,0,0,0,0],"sum_hessian":[4.22E2,2.8E1,3.94E2,2.3E1,5E0,3.65E2,2.9E1,1.8E1,5E0,3.22E2,4.3E1,2.3E1,6E0,2.9E1,2.93E2,3.6E1,7E0,1.6E1,7E0],"tree_param":{"num_deleted":"0","num_feature":"20","num_nodes":"19","size_leaf_vector":"1"}},{"base_weights":[-0E0,1.4401796E-2,-1.3252879E-3,6.5100135E-4,-0E0,-5.703088E-3,4.627865E-3,-2.6654226E-3,-1.3462983E-2,8.203012E-3,-8.030316E-3,-1.7195924E-4,2.5518826E-4,-4.858297E-4,-0E0,-0E0,4.2950956E-4,-0E0,-3.7358733E-4],"categories":[],"categories_nodes":[],"categories_segments":[],"categories_sizes":[],"default_left":[0,0,0,0,0,0,0,0,0,0,0,0,0,0,0,0,0,0,0],"id":9,"left_children":[1,3,5,-1,-1,7,9,11,13,15,17,-1,-1,-1,-1,-1,-1,-1,-1],"loss_changes":[8.369763E-3,2.6853886E-3,1.0561877E-2,0E0,0E0,2.5842814E-3,6.8433853E-3,6.2770993E-3,7.218821E-4,4.0281834E-3,9.719193E-4,0E0,0E0,0E0,0E0,0E0,0E0,0E0,0E0],"parents":[2147483647,0,0,1,1,2,2,5,5,6,6,7,7,8,8,9,9,10,10],"right_children":[2,4,6,-1,-1,8,10,12,14,16,18,-1,-1,-1,-1,-1,-1,-1,-1],"split_conditions":[2.9063463E1,-1.6103059E-2,6.249219E-4,6.5100135E-4,-0E0,-3.084671E-3,6.459038E1,-6.035283E-3,2.286072E-1,2.151177E-1,6.0123514E-2,-1.7195924E-4,2.5518826E-4,-4.858297E-4,-0E0,-0E0,4.2950956E-4,-0E0,-3.7358733E-4],"split_indices":[14,11,11,0,0,11,14,11,17,17,0,0,0,0,0,0,0,0,0],"split_type":[0,0,0,0,0,0,0,0,0,0,0,0,0,0,0,0,0,0,0],"sum_hessian":[4.31E2,3.6E1,3.95E2,2.1E1,1.5E1,2.47E2,1.48E2,1.97E2,5E1,1.28E2,2E1,1.69E2,2.8E1,3.7E1,1.3E1,6.7E1,6.1E1,6E0,1.4E1],"tree_param":{"num_deleted":"0","num_feature":"20","num_nodes":"19","size_leaf_vector":"1"}},{"base_weights":[-0E0,3.0731564E-2,-8.576082E-4,1.2788785E-3,-0E0,-0E0,-5.696898E-4,-2.6457992E-3,5.6436863E-3,-0E0,-2.888655E-4,-0E0,4.0409958E-4],"categories":[],"categories_nodes":[],"categories_segments":[],"categories_sizes":[],"default_left":[0,0,0,0,0,0,0,0,0,0,0,0,0],"id":10,"left_children":[1,3,5,-1,-1,7,-1,9,11,-1,-1,-1,-1],"loss_changes":[1.164941E-2,1.3876436E-3,4.7322386E-3,0E0,0E0,5.9330696E-3,0E0,5.523535E-3,4.3108296E-3,0E0,0E0,0E0,0E0],"parents":[2147483647,0,0,1,1,2,2,5,5,7,7,8,8],"right_children":[2,4,6,-1,-1,8,-1,10,12,-1,-1,-1,-1],"split_conditions":[-2.3307566E-2,-4.2109387E-3,1.2051095E-1,1.2788785E-3,-0E0,2.8214122E-3,-5.696898E-4,2.151177E-1,2.2823198E-1,-0E0,-2.888655E-4,-0E0,4.0409958E-4],"split_indices":[11,15,16,0,0,11,0,17,17,0,0,0,0],"split_type":[0,0,0,0,0,0,0,0,0,0,0,0,0],"sum_hessian":[4.4E2,1.1E1,4.29E2,6E0,5E0,4.16E2,1.3E1,2.96E2,1.2E2,2.15E2,8.1E1,7.6E1,4.4E1],"tree_param":{"num_deleted":"0","num_feature":"20","num_nodes":"13","size_leaf_vector":"1"}},{"base_weights":[1.4363717E-3,1.075423E-3,7.250418E-5,-3.4798095E-3,3.971591E-3,3.8939721E-3,-6.1272928E-3,8.128151E-3,-5.823155E-4,2.0823888E-4,-0E0,-2.7869304E-4,-0E0,-0E0,4.7308052E-4,-8.1671926E-5,-0E0],"categories":[],"categories_nodes":[],"categories_segments":[],"categories_sizes":[],"default_left":[0,0,0,0,0,0,0,0,0,0,0,0,0,0,0,0,0],"id":11,"left_children":[1,-1,3,5,7,9,11,13,15,-1,-1,-1,-1,-1,-1,-1,-1],"loss_changes":[1.2008653E-2,0E0,5.652488E-3,4.0430427E-3,5.640332E-3,6.202676E-4,2.0340062E-3,6.863881E-3,5.0581887E-4,0E0,0E0,0E0,0E0,0E0,0E0,0E0,0E0],"parents":[2147483647,0,0,2,2,3,3,4,4,5,5,6,6,7,7,8,8],"right_children":[2,-1,4,6,8,10,12,14,16,-1,-1,-1,-1,-1,-1,-1,-1],"split_conditions":[-1.111355E-1,1.075423E-3,-6.035283E-3,2.9063463E1,2E0,-2.2617124E-2,-4.6260197E-2,-1.4285714E-3,1.2592593E-1,2.0823888E-4,-0E0,-2.7869304E-4,-0E0,-0E0,4.7308052E-4,-8.1671926E-5,-0E0],"split_indices":[0,0,11,14,8,12,0,12,18,0,0,0,0,0,0,0,0],"split_type":[0,0,0,0,0,0,0,0,0,0,0,0,0,0,0,0,0],"sum_hessian":[4.08E2,9E0,3.99E2,1.82E2,2.17E2,2.8E1,1.54E2,1.36E2,8.1E1,2.1E1,7E0,9E1,6.4E1,7.3E1,6.3E1,7.1E1,1E1],"tree_param":{"num_deleted":"0","num_feature":"20","num_nodes":"17","size_leaf_vector":"1"}},{"base_weights":[-0E0,2.1675723E-2,-1.090206E-3,3.0803427E-2,-0E0,-3.272857E-3,1.1287694E-2,1.1348762E-3,-0E0,-5.4203984E-3,-0E0,1.783374E-2,-0E0,-4.0866267E-5,-4.19733E-4,2.0199452E-4,-1.6209552E-4,5.981718E-4,-0E0],"categories":[],"categories_nodes":[],"categories_segments":[],"categories_sizes":[],"default_left":[0,0,0,0,0,0,0,0,0,0,0,0,0,0,0,0,0,0,0],"id":12,"left_children":[1,3,5,7,-1,9,11,-1,-1,13,15,17,-1,-1,-1,-1,-1,-1,-1],"loss_changes":[1.31574515E-2,4.393722E-3,9.159581E-3,1.5243161E-3,0E0,2.8989422E-3,6.224653E-3,0E0,0E0,4.8056873E-3,4.724567E-3,1.0340754E-3,0E0,0E0,0E0,0E0,0E0,0E0,0E0],"parents":[2147483647,0,0,1,1,2,2,3,3,5,5,6,6,9,9,10,10,11,11],"right_children":[2,4,6,8,-1,10,12,-1,-1,14,16,18,-1,-1,-1,-1,-1,-1,-1],"split_conditions":[2.7330496E1,-3.7099496E-2,2.7211863E-1,-9.3234636E-2,-0E0,6.249219E-4,1.5049683E-2,1.1348762E-3,-0E0,2.1393213E-1,2E0,3.989672E-2,-0E0,-4.0866267E-5,-4.19733E-4,2.0199452E-4,-1.6209552E-4,5.981718E-4,-0E0],"split_indices":[14,12,17,0,0,11,15,0,0,17,8,11,0,0,0,0,0,0,0],"split_type":[0,0,0,0,0,0,0,0,0,0,0,0,0,0,0,0,0,0,0],"sum_hessian":[4.22E2,2.6E1,3.96E2,1.7E1,9E0,3.51E2,4.5E1,1.2E1,5E0,2.26E2,1.25E2,3.7E1,8E0,1.7E2,5.6E1,6.2E1,6.3E1,3.2E1,5E0],"tree_param":{"num_deleted":"0","num_feature":"20","num_nodes":"19","size_leaf_vector":"1"}},{"base_weights":[-0E0,2.6130304E-2,-1.2949944E-3,1.1332021E-3,-0E0,-3.3199524E-3,8.366426E-3,-5.0011105E-3,1.0771605E-3,1.5425054E-2,-3.4952984E-4,-0E0,-2.606334E-4,2.5390703E-4,-0E0,7.2881165E-5,8.3857053E-4],"categories":[],"categories_nodes":[],"categories_segments":[],"categories_sizes":[],"default_left":[0,0,0,0,0,0,0,0,0,0,0,0,0,0,0,0,0],"id":13,"left_children":[1,3,5,-1,-1,7,9,11,13,15,-1,-1,-1,-1,-1,-1,-1],"loss_changes":[1.0917727E-2,4.0264092E-3,6.902762E-3,0E0,0E0,3.3848542E-3,8.423192E-3,3.7660548E-3,1.5721179E-3,1.5073856E-3,0E0,0E0,0E0,0E0,0E0,0E0,0E0],"parents":[2147483647,0,0,1,1,2,2,5,5,6,6,7,7,8,8,9,9],"right_children":[2,4,6,-1,-1,8,10,12,14,16,-1,-1,-1,-1,-1,-1,-1],"split_conditions":[-9.437964E-2,-3.0909091E-2,2.712576E-1,1.1332021E-3,-0E0,7.816092E-1,1.6571428E-1,-2.189781E-2,1.9493256E-2,4E-1,-3.4952984E-4,-0E0,-2.606334E-4,2.5390703E-4,-0E0,7.2881165E-5,8.3857053E-4],"split_indices":[18,12,17,0,0,1,7,7,16,2,0,0,0,0,0,0,0],"split_type":[0,0,0,0,0,0,0,0,0,0,0,0,0,0,0,0,0],"sum_hessian":[4.16E2,1.4E1,4.02E2,9E0,5E0,3.5E2,5.2E1,2.86E2,6.4E1,4.6E1,6E0,1.42E2,1.44E2,2.2E1,4.2E1,3.1E1,1.5E1],"tree_param":{"num_deleted":"0","num_feature":"20","num_nodes":"17","size_leaf_vector":"1"}},{"base_weights":[1.3380642E-4,2.9985053E-2,-4.7829855E-4,1.3940735E-3,-0E0,-3.9845165E-3,1.8164447E-3,3.4635004E-3,-6.9505046E-3,-3.4404965E-3,4.973959E-3,1.9461087E-4,-0E0,-0E0,-2.8684497E-4,-3.985924E-4,-0E0,1.4499997E-3,5.6808807E-5],"categories":[],"categories_nodes":[],"categories_segments":[],"categories_sizes":[],"default_left":[0,0,0,0,0,0,0,0,0,0,0,0,0,0,0,0,0,0,0],"id":14,"left_children":[1,3,5,-1,-1,7,9,11,13,15,17,-1,-1,-1,-1,-1,-1,-1,-1],"loss_changes":[1.3571702E-2,8.107237E-3,3.6994293E-3,0E0,0E0,5.0291657E-3,3.826167E-3,8.1860065E-4,2.55808E-3,2.8677033E-3,1.0698639E-2,0E0,0E0,0E0,0E0,0E0,0E0,0E0,0E0],"parents":[2147483647,0,0,1,1,2,2,5,5,6,6,7,7,8,8,9,9,10,10],"right_children":[2,4,6,-1,-1,8,10,12,14,16,18,-1,-1,-1,-1,-1,-1,-1,-1],"split_conditions":[-2.3004694E-2,-2.843484E-3,-6.035283E-3,1.3940735E-3,-0E0,2.9715935E1,1.6162072E-1,-1.3767113E-2,1.5258306E-1,2.6904864E-4,1.666225E-1,1.9461087E-4,-0E0,-0E0,-2.8684497E-4,-3.985924E-4,-0E0,1.4499997E-3,5.6808807E-5],"split_indices":[11,15,11,0,0,14,17,11,17,11,17,0,0,0,0,0,0,0,0],"split_type":[0,0,0,0,0,0,0,0,0,0,0,0,0,0,0,0,0,0,0],"sum_hessian":[4.18E2,1.4E1,4.04E2,9E0,5E0,1.94E2,2.1E2,3.6E1,1.58E2,5.5E1,1.55E2,2.9E1,7E0,4.7E1,1.11E2,1.9E1,3.6E1,5E0,1.5E2],"tree_param":{"num_deleted":"0","num_feature":"20","num_nodes":"19","size_leaf_vector":"1"}},{"base_weights":[-1.0698796E-3,8.831146E-3,-2.5613522E-3,-0E0,1.1083889E-2,8.857728E-4,-6.5031787E-3,1.4057791E-2,-0E0,8.1285293E-4,-0E0,-0E0,-1.1358947E-2,-0E0,5.2481715E-4,3.2224558E-5,-3.7797983E-4,-0E0,-5.7683046E-5,-1.1704655E-4,-7.0557726E-4],"categories":[],"categories_nodes":[],"categories_segments":[],"categories_sizes":[],"default_left":[0,0,0,0,0,0,0,0,0,0,0,0,0,0,0,0,0,0,0,0,0],"id":15,"left_children":[1,3,5,-1,7,9,11,13,-1,-1,15,17,19,-1,-1,-1,-1,-1,-1,-1,-1],"loss_changes":[4.8970105E-3,1.0456841E-3,6.2790816E-3,0E0,8.116327E-4,4.2667775E-3,4.40416E-3,7.657455E-4,0E0,0E0,2.4047035E-3,2.4030748E-4,3.583178E-3,0E0,0E0,0E0,0E0,0E0,0E0,0E0,0E0],"parents":[2147483647,0,0,1,1,2,2,4,4,5,5,6,6,7,7,10,10,11,11,12,12],"right_children":[2,4,6,-1,8,10,12,14,-1,-1,16,18,20,-1,-1,-1,-1,-1,-1,-1,-1],"split_conditions":[-9.3234636E-2,8.6419976E-1,6.060606E-1,-0E0,-4.101839E-2,0E0,-3.3058831E-3,1.8438853E-1,-0E0,8.1285293E-4,1.2051095E-1,-6.0790274E-2,1.9087823E-1,-0E0,5.2481715E-4,3.2224558E-5,-3.7797983E-4,-0E0,-5.7683046E-5,-1.1704655E-4,-7.0557726E-4],"split_indices":[0,19,2,0,7,9,15,17,0,0,16,18,17,0,0,0,0,0,0,0,0],"split_type":[0,0,0,0,0,0,0,0,0,0,0,0,0,0,0,0,0,0,0,0,0],"sum_hessian":[4.14E2,3.6E1,3.78E2,5E0,3.1E1,1.75E2,2.03E2,2.3E1,8E0,5E0,1.7E2,1.03E2,1E2,6E0,1.7E1,1.57E2,1.3E1,3.9E1,6.4E1,7.3E1,2.7E1],"tree_param":{"num_deleted":"0","num_feature":"20","num_nodes":"21","size_leaf_vector":"1"}},{"base_weights":[-1.3749365E-3,1.6879871E-2,-2.9462215E-3,7.839304E-4,-0E0,-4.8010973E-3,6.3589816E-3,-1.7788212E-3,-1.04674185E-2,7.073027E-4,-0E0,-1.798194E-4,2.3715402E-5,-5.996362E-4,-2.3626699E-6,-0E0,-9.187146E-5],"categories":[],"categories_nodes":[],"categories_segments":[],"categories_sizes":[],"default_left":[0,0,0,0,0,0,0,0,0,0,0,0,0,0,0,0,0],"id":16,"left_children":[1,3,5,-1,-1,7,9,11,13,-1,15,-1,-1,-1,-1,-1,-1],"loss_changes":[8.822454E-3,1.9254982E-3,6.3122716E-3,0E0,0E0,3.3033201E-3,6.4778673E-3,3.6879885E-3,5.2821515E-3,0E0,6.564728E-5,0E0,0E0,0E0,0E0,0E0,0E0],"parents":[2147483647,0,0,1,1,2,2,5,5,6,6,7,7,8,8,10,10],"right_children":[2,4,6,-1,-1,8,10,12,14,-1,16,-1,-1,-1,-1,-1,-1],"split_conditions":[2.7330496E1,-8.16944E-2,2.712576E-1,7.839304E-4,-0E0,2.1393213E-1,5.645161E-1,1.6214958E-1,-8.379657E-3,7.073027E-4,3.3820998E-2,-1.798194E-4,2.3715402E-5,-5.996362E-4,-2.3626699E-6,-0E0,-9.187146E-5],"split_indices":[14,18,17,0,0,17,1,17,11,0,11,0,0,0,0,0,0],"split_type":[0,0,0,0,0,0,0,0,0,0,0,0,0,0,0,0,0],"sum_hessian":[4.02E2,2.1E1,3.81E2,1.1E1,1E1,3.36E2,4.5E1,2.43E2,9.3E1,1.4E1,3.1E1,1.21E2,1.22E2,3.8E1,5.5E1,2.5E1,6E0],"tree_param":{"num_deleted":"0","num_feature":"20","num_nodes":"17","size_leaf_vector":"1"}},{"base_weights":[-0E0,5.282983E-4,-8.7912224E-4,-3.3968145E-3,1.5553774E-3,-0E0,-5.721175E-3,6.2222797E-3,-1.5649606E-2,-2.72815E-4,-0E0,2.9269497E-5,6.128689E-4,-0E0,-6.5971084E-4],"categories":[],"categories_nodes":[],"categories_segments":[],"categories_sizes":[],"default_left":[0,0,0,0,0,0,0,0,0,0,0,0,0,0,0],"id":17,"left_children":[1,-1,3,5,7,-1,9,11,13,-1,-1,-1,-1,-1,-1],"loss_changes":[5.876441E-3,0E0,2.708842E-3,2.1153742E-3,1.0577183E-2,0E0,2.862081E-3,5.4635215E-3,1.8593734E-3,0E0,0E0,0E0,0E0,0E0,0E0],"parents":[2147483647,0,0,2,2,3,3,4,4,6,6,7,7,8,8],"right_children":[2,-1,4,6,8,-1,10,12,14,-1,-1,-1,-1,-1,-1],"split_conditions":[-1.0417316E-1,5.282983E-4,1.908397E-3,3.5567364E1,1.042737E-1,-0E0,-2.1048699E-2,4.7428572E-1,3.9173014E-2,-2.72815E-4,-0E0,2.9269497E-5,6.128689E-4,-0E0,-6.5971084E-4],"split_indices":[0,0,18,14,0,0,0,2,7,0,0,0,0,0,0],"split_type":[0,0,0,0,0,0,0,0,0,0,0,0,0,0,0],"sum_hessian":[3.97E2,1.7E1,3.8E2,2.27E2,1.53E2,8.3E1,1.44E2,1.3E2,2.3E1,9.1E1,5.3E1,1.06E2,2.4E1,8E0,1.5E1],"tree_param":{"num_deleted":"0","num_feature":"20","num_nodes":"15","size_leaf_vector":"1"}},{"base_weights":[-0E0,1.463536E-2,-1.4624842E-3,2.060614E-2,-0E0,-6.1165225E-3,7.134917E-4,2.7594736E-2,-0E0,-7.4934084E-3,-0E0,1.2626588E-2,-4.2872212E-4,1.1041267E-3,-0E0,-0E0,-2.78769E-4,-0E0,6.7224726E-4,-0E0,-3.8401075E-4],"categories":[],"categories_nodes":[],"categories_segments":[],"categories_sizes":[],"default_left":[0,0,0,0,0,0,0,0,0,0,0,0,0,0,0,0,0,0,0,0,0],"id":18,"left_children":[1,3,5,7,-1,9,11,13,-1,15,-1,17,19,-1,-1,-1,-1,-1,-1,-1,-1],"loss_changes":[8.326659E-3,2.2693174E-3,5.014275E-3,1.6559418E-3,0E0,1.5194886E-3,5.6563104E-3,7.6891854E-4,0E0,2.0819567E-3,0E0,4.3030805E-3,3.0761904E-3,0E0,0E0,0E0,0E0,0E0,0E0,0E0,0E0],"parents":[2147483647,0,0,1,1,2,2,3,3,5,5,6,6,7,7,9,9,11,11,12,12],"right_children":[2,4,6,8,-1,10,12,14,-1,16,-1,18,20,-1,-1,-1,-1,-1,-1,-1,-1],"split_conditions":[2.7330496E1,-7.390649E-2,2.3333333E-1,-3.7099496E-2,-0E0,-3.1347962E-3,-1.7361112E-2,-1.8072288E-2,-0E0,-5.4545455E-2,-0E0,-6.4E-3,1.042737E-1,1.1041267E-3,-0E0,-0E0,-2.78769E-4,-0E0,6.7224726E-4,-0E0,-3.8401075E-4],"split_indices":[14,18,1,12,0,12,7,11,0,7,0,18,0,0,0,0,0,0,0,0,0],"split_type":[0,0,0,0,0,0,0,0,0,0,0,0,0,0,0,0,0,0,0,0,0],"sum_hessian":[4.21E2,3.4E1,3.87E2,2.2E1,1.2E1,1.52E2,2.35E2,1.4E1,8E0,1.28E2,2.4E1,3.5E1,2E2,8E0,6E0,2.1E1,1.07E2,1.6E1,1.9E1,1.82E2,1.8E1],"tree_param":{"num_deleted":"0","num_feature":"20","num_nodes":"21","size_leaf_vector":"1"}},{"base_weights":[-1.3941475E-3,7.7669662E-3,-2.6518495E-3,1.11979665E-2,-0E0,-5.927788E-3,1.516183E-3,3.7478897E-4,-0E0,-0E0,-6.9050128E-3,4.364276E-3,-1.1363282E-2,-0E0,-2.329756E-4,-0E0,2.6091555E-4,-0E0,-5.995795E-4],"categories":[],"categories_nodes":[],"categories_segments":[],"categories_sizes":[],"default_left":[0,0,0,0,0,0,0,0,0,0,0,0,0,0,0,0,0,0,0],"id":19,"left_children":[1,3,5,7,-1,9,11,-1,-1,-1,13,15,17,-1,-1,-1,-1,-1,-1],"loss_changes":[3.8598368E-3,1.3298313E-3,6.2301075E-3,1.7302576E-5,0E0,2.1313857E-3,4.00535E-3,0E0,0E0,0E0,1.8289741E-3,2.7616336E-3,1.3877777E-3,0E0,0E0,0E0,0E0,0E0,0E0],"parents":[2147483647,0,0,1,1,2,2,3,3,5,5,6,6,10,10,11,11,12,12],"right_children":[2,4,6,8,-1,10,12,-1,-1,-1,14,16,18,-1,-1,-1,-1,-1,-1],"split_conditions":[2.9063463E1,-1.2423639E-2,1.2217968E-3,-2.3060797E-2,-0E0,-9.368118E-2,1.2965292E-1,3.7478897E-4,-0E0,-0E0,-1.8494561E-1,1.244168E-2,2.4319126E-3,-0E0,-2.329756E-4,-0E0,2.6091555E-4,-0E0,-5.995795E-4],"split_indices":[14,11,11,12,0,0,0,0,0,0,4,7,15,0,0,0,0,0,0],"split_type":[0,0,0,0,0,0,0,0,0,0,0,0,0,0,0,0,0,0,0],"sum_hessian":[4.21E2,3.1E1,3.9E2,2.5E1,6E0,2.45E2,1.45E2,2E1,5E0,2E1,2.25E2,1.32E2,1.3E1,1.7E1,2.08E2,6.3E1,6.9E1,6E0,7E0],"tree_param":{"num_deleted":"0","num_feature":"20","num_nodes":"19","size_leaf_vector":"1"}},{"base_weights":[-0E0,2.0777792E-2,-1.1221764E-3,9.990727E-4,-0E0,-2.847823E-3,7.6355403E-3,-4.965343E-3,-0E0,4.6975337E-4,-0E0,-0E0,-2.9455085E-4,7.232689E-4,-5.600432E-6],"categories":[],"categories_nodes":[],"categories_segments":[],"categories_sizes":[],"default_left":[0,0,0,0,0,0,0,0,0,0,0,0,0,0,0],"id":20,"left_children":[1,3,5,-1,-1,7,9,11,13,-1,-1,-1,-1,-1,-1],"loss_changes":[6.5704114E-3,3.937431E-3,5.3813206E-3,0E0,0E0,2.9491405E-3,4.930908E-3,5.240661E-3,4.072981E-3,0E0,0E0,0E0,0E0,0E0,0E0],"parents":[2147483647,0,0,1,1,2,2,5,5,6,6,7,7,8,8],"right_children":[2,4,6,-1,-1,8,10,12,14,-1,-1,-1,-1,-1,-1],"split_conditions":[-9.437964E-2,-2.431611E-2,2.7211863E-1,9.990727E-4,-0E0,1.3815471E-3,1.2258363E-2,-3.2705576E-3,-1.668653E-2,4.6975337E-4,-0E0,-0E0,-2.9455085E-4,7.232689E-4,-5.600432E-6],"split_indices":[18,12,17,0,0,15,15,15,7,0,0,0,0,0,0],"split_type":[0,0,0,0,0,0,0,0,0,0,0,0,0,0,0],"sum_hessian":[4.3E2,1.3E1,4.17E2,8E0,5E0,3.68E2,4.9E1,2.4E2,1.28E2,3.1E1,1.8E1,1.25E2,1.15E2,6E0,1.22E2],"tree_param":{"num_deleted":"0","num_feature":"20","num_nodes":"15","size_leaf_vector":"1"}},{"base_weights":[8.339655E-4,1.1482746E-2,-4.0683235E-4,2.4753347E-2,-0E0,-3.7549883E-3,2.695237E-3,-0E0,9.0631144E-4,-0E0,2.7255842E-3,-5.9137284E-3,-0E0,-0E0,1.8693853E-2,1.3389616E-4,-0E0,-0E0,-2.3701348E-4,-0E0,8.6081876E-5,4.3060034E-5,-4.919191E-4,1.2918313E-3,-0E0],"categories":[],"categories_nodes":[],"categories_segments":[],"categories_sizes":[],"default_left":[0,0,0,0,0,0,0,0,0,0,0,0,0,0,0,0,0,0,0,0,0,0,0,0,0],"id":21,"left_children":[1,3,5,7,9,11,13,-1,-1,-1,15,17,19,21,23,-1,-1,-1,-1,-1,-1,-1,-1,-1,-1],"loss_changes":[7.8089475E-3,4.8242295E-3,3.992266E-3,1.7353818E-3,2.1543549E-4,2.4111846E-3,9.685505E-3,0E0,0E0,0E0,1.6304836E-4,2.7360334E-3,3.4580418E-4,5.335181E-3,1.8834794E-2,0E0,0E0,0E0,0E0,0E0,0E0,0E0,0E0,0E0,0E0],"parents":[2147483647,0,0,1,1,2,2,3,3,4,4,5,5,6,6,10,10,11,11,12,12,13,13,14,14],"right_children":[2,4,6,8,10,12,14,-1,-1,-1,16,18,20,22,24,-1,-1,-1,-1,-1,-1,-1,-1,-1,-1],"split_conditions":[-4.4630405E-2,-1.765379E-2,-3.7950664E-3,9.313212E-1,9.142857E-1,-2.2862121E-2,4.864865E-1,-0E0,9.0631144E-4,-0E0,-6.692007E-3,-3.4968918E-3,1.6327222E-1,1.042737E-1,6.8235296E-1,1.3389616E-4,-0E0,-0E0,-2.3701348E-4,-0E0,8.6081876E-5,4.3060034E-5,-4.919191E-4,1.2918313E-3,-0E0],"split_indices":[7,11,18,19,2,0,2,0,0,0,11,15,17,0,2,0,0,0,0,0,0,0,0,0,0],"split_type":[0,0,0,0,0,0,0,0,0,0,0,0,0,0,0,0,0,0,0,0,0,0,0,0,0],"sum_hessian":[4.22E2,6E1,3.62E2,2E1,4E1,2.05E2,1.57E2,5E0,1.5E1,1.2E1,2.8E1,1.51E2,5.4E1,1.27E2,3E1,1.8E1,1E1,2.3E1,1.28E2,1.3E1,4.1E1,1.09E2,1.8E1,1.5E1,1.5E1],"tree_param":{"num_deleted":"0","num_feature":"20","num_nodes":"25","size_leaf_vector":"1"}},{"base_weights":[-0E0,-1.9320308E-3,1.7390609E-2,5.2885935E-3,-2.9984633E-3,-0E0,2.968444E-2,2.3127695E-4,-0E0,-5.3755967E-3,-0E0,1.293461E-3,-0E0,-0E0,-2.1310295E-4,8.648063E-5,-1.060368E-5],"categories":[],"categories_nodes":[],"categories_segments":[],"categories_sizes":[],"default_left":[0,0,0,0,0,0,0,0,0,0,0,0,0,0,0,0,0],"id":22,"left_children":[1,3,5,7,9,-1,11,-1,-1,13,15,-1,-1,-1,-1,-1,-1],"loss_changes":[1.079014E-2,2.4762487E-3,5.604391E-3,4.894146E-4,3.4545907E-3,0E0,3.609526E-3,0E0,0E0,2.5371732E-3,5.642583E-4,0E0,0E0,0E0,0E0,0E0,0E0],"parents":[2147483647,0,0,1,1,2,2,3,3,4,4,6,6,9,9,10,10],"right_children":[2,4,6,8,10,-1,12,-1,-1,14,16,-1,-1,-1,-1,-1,-1],"split_conditions":[1.2167431E0,2.7125393E1,-1.7273172E-3,-1.1215184E-2,2.1581624E-3,-0E0,-2.0636013E-3,2.3127695E-4,-0E0,-6.7118793E-3,6.666667E-1,1.293461E-3,-0E0,-0E0,-2.1310295E-4,8.648063E-5,-1.060368E-5],"split_indices":[19,14,4,11,11,0,0,0,0,15,13,0,0,0,0,0,0],"split_type":[0,0,0,0,0,0,0,0,0,0,0,0,0,0,0,0,0],"sum_hessian":[4.08E2,3.78E2,3E1,2.4E1,3.54E2,1.4E1,1.6E1,1.9E1,5E0,2.29E2,1.25E2,9E0,7E0,4.8E1,1.81E2,6.6E1,5.9E1],"tree_param":{"num_deleted":"0","num_feature":"20","num_nodes":"17","size_leaf_vector":"1"}},{"base_weights":[5.151049E-4,1.6917404E-2,-1.7881909E-4,-0E0,1.9054458E-2,-0E0,-1.0764169E-2,7.116448E-4,-0E0,-1.6190561E-3,1.2261638E-2,-0E0,-6.05204E-4,-0E0,-1.1950444E-4,5.6149345E-4,-0E0],"categories":[],"categories_nodes":[],"categories_segments":[],"categories_sizes":[],"default_left":[0,0,0,0,0,0,0,0,0,0,0,0,0,0,0,0,0],"id":23,"left_children":[1,3,5,-1,7,9,11,-1,-1,13,15,-1,-1,-1,-1,-1,-1],"loss_changes":[8.1994515E-3,4.139794E-4,2.8839563E-3,0E0,8.5232314E-4,9.551137E-3,1.5799734E-3,0E0,0E0,1.803143E-3,4.941743E-3,0E0,0E0,0E0,0E0,0E0,0E0],"parents":[2147483647,0,0,1,1,2,2,4,4,5,5,6,6,9,9,10,10],"right_children":[2,4,6,-1,8,10,12,-1,-1,14,16,-1,-1,-1,-1,-1,-1],"split_conditions":[2.7330496E1,8.9651513E-1,6.442577E1,-0E0,-7.585335E-2,4.012841E-2,9.514563E-2,7.116448E-4,-0E0,-1.9877676E-2,6.1554485E1,-0E0,-6.05204E-4,-0E0,-1.1950444E-4,5.6149345E-4,-0E0],"split_indices":[14,19,14,0,18,18,0,0,0,7,14,0,0,0,0,0,0],"split_type":[0,0,0,0,0,0,0,0,0,0,0,0,0,0,0,0,0],"sum_hessian":[4.25E2,2.8E1,3.97E2,5E0,2.3E1,3.73E2,2.4E1,1.6E1,7E0,3.16E2,5.7E1,1.4E1,1E1,1.51E2,1.65E2,3.8E1,1.9E1],"tree_param":{"num_deleted":"0","num_feature":"20","num_nodes":"17","size_leaf_vector":"1"}},{"base_weights":[7.185244E-5,1.3970231E-2,-2.7079607E-4,2.1301163E-2,-0E0,1.5932409E-4,-5.022453E-3,-0E0,8.0594304E-4,3.6173176E-3,-9.564273E-4,-0E0,-9.381958E-3,-3.2257349E-6,2.453331E-4,-1.861838E-4,3.014577E-5,-0E0,-3.5243554E-4],"categories":[],"categories_nodes":[],"categories_segments":[],"categories_sizes":[],"default_left":[0,0,0,0,0,0,0,0,0,0,0,0,0,0,0,0,0,0,0],"id":24,"left_children":[1,3,5,7,-1,9,11,-1,-1,13,15,-1,17,-1,-1,-1,-1,-1,-1],"loss_changes":[4.710483E-3,3.029556E-3,1.7705016E-3,2.253009E-4,0E0,1.7702813E-3,2.4340376E-3,0E0,0E0,3.687338E-3,3.0954264E-3,0E0,1.1574533E-3,0E0,0E0,0E0,0E0,0E0,0E0],"parents":[2147483647,0,0,1,1,2,2,3,3,5,5,6,6,9,9,10,10,12,12],"right_children":[2,4,6,8,-1,10,12,-1,-1,14,16,-1,18,-1,-1,-1,-1,-1,-1],"split_conditions":[-8.7030716E-2,-1.7964073E-2,1E0,9.6864825E-1,-0E0,-1.3468013E-2,-6.838395E-2,-0E0,8.0594304E-4,-1.9746121E-2,1.244168E-2,-0E0,-1.0939113E-2,-3.2257349E-6,2.453331E-4,-1.861838E-4,3.014577E-5,-0E0,-3.5243554E-4],"split_indices":[18,12,2,19,0,7,0,0,0,12,7,0,15,0,0,0,0,0,0],"split_type":[0,0,0,0,0,0,0,0,0,0,0,0,0,0,0,0,0,0,0],"sum_hessian":[4.12E2,2.3E1,3.89E2,1.6E1,7E0,3.19E2,7E1,6E0,1E1,1.21E2,1.98E2,2.3E1,4.7E1,4.3E1,7.8E1,8.1E1,1.17E2,9E0,3.8E1],"tree_param":{"num_deleted":"0","num_feature":"20","num_nodes":"19","size_leaf_vector":"1"}},{"base_weights":[1.1682222E-3,1.3234366E-2,-0E0,5.936187E-4,-0E0,-2.3460267E-3,3.7917537E-3,-3.624529E-3,1.07828586E-4,1.7023556E-2,-0E0,2.6430246E-6,-1.5498385E-4,-0E0,9.711339E-4,5.87411E-5,-3.2679958E-4],"categories":[],"categories_nodes":[],"categories_segments":[],"categories_sizes":[],"default_left":[0,0,0,0,0,0,0,0,0,0,0,0,0,0,0,0,0],"id":25,"left_children":[1,3,5,-1,-1,7,9,11,-1,13,15,-1,-1,-1,-1,-1,-1],"loss_changes":[4.1408036E-3,1.144046E-3,3.822926E-3,0E0,0E0,1.7430742E-3,9.598107E-3,2.2465892E-3,0E0,1.2977697E-2,3.2888455E-3,0E0,0E0,0E0,0E0,0E0,0E0],"parents":[2147483647,0,0,1,1,2,2,5,5,6,6,7,7,9,9,10,10],"right_children":[2,4,6,-1,-1,8,10,12,-1,14,16,-1,-1,-1,-1,-1,-1],"split_conditions":[2.7330496E1,-3.7099496E-2,-3.7950664E-3,5.936187E-4,-0E0,2.701463E-1,5.294118E-1,-8.143735E-3,1.07828586E-4,3.1578946E-1,1.042737E-1,2.6430246E-6,-1.5498385E-4,-0E0,9.711339E-4,5.87411E-5,-3.2679958E-4],"split_indices":[14,12,18,0,0,17,1,15,0,1,0,0,0,0,0,0,0],"split_type":[0,0,0,0,0,0,0,0,0,0,0,0,0,0,0,0,0],"sum_hessian":[4.3E2,2.6E1,4.04E2,1.4E1,1.2E1,2.26E2,1.78E2,2.14E2,1.2E1,4.1E1,1.37E2,2.5E1,1.89E2,1.8E1,2.3E1,1.14E2,2.3E1],"tree_param":{"num_deleted":"0","num_feature":"20","num_nodes":"17","size_leaf_vector":"1"}},{"base_weights":[-0E0,1.4952E-2,-5.8691704E-4,1.9955022E-2,-0E0,-3.9218753E-3,3.8107475E-3,7.911347E-4,-0E0,-0E0,-6.056137E-3,1.7976785E-2,-0E0,-1.02806895E-4,2.544626E-4,2.9473893E-5,-2.5283513E-4,8.2549016E-4,-0E0,-5.972701E-5,3.8224758E-4],"categories":[],"categories_nodes":[],"categories_segments":[],"categories_sizes":[],"default_left":[0,0,0,0,0,0,0,0,0,0,0,0,0,0,0,0,0,0,0,0,0],"id":26,"left_children":[1,3,5,7,-1,9,11,-1,-1,13,15,17,19,-1,-1,-1,-1,-1,-1,-1,-1],"loss_changes":[5.9486865E-3,9.568292E-4,5.830251E-3,8.803685E-4,0E0,2.594459E-3,8.235613E-3,0E0,0E0,2.6501217E-3,4.4354033E-3,5.558854E-3,2.6732045E-3,0E0,0E0,0E0,0E0,0E0,0E0,0E0,0E0],"parents":[2147483647,0,0,1,1,2,2,3,3,5,5,6,6,9,9,10,10,11,11,12,12],"right_children":[2,4,6,8,-1,10,12,-1,-1,14,16,18,20,-1,-1,-1,-1,-1,-1,-1,-1],"split_conditions":[2.7330496E1,-7.368421E-2,1.908397E-3,-3.7099496E-2,-0E0,-1.5881019E-2,5.4901963E-1,7.911347E-4,-0E0,-6.653215E-2,-6.814116E-2,6.8235296E-1,1E0,-1.02806895E-4,2.544626E-4,2.9473893E-5,-2.5283513E-4,8.2549016E-4,-0E0,-5.972701E-5,3.8224758E-4],"split_indices":[14,18,18,12,0,11,1,0,0,0,0,2,5,0,0,0,0,0,0,0,0],"split_type":[0,0,0,0,0,0,0,0,0,0,0,0,0,0,0,0,0,0,0,0,0],"sum_hessian":[4.19E2,2.5E1,3.94E2,1.6E1,9E0,2.5E2,1.44E2,1E1,6E0,7.5E1,1.75E2,3.1E1,1.13E2,4.7E1,2.8E1,2.3E1,1.52E2,2E1,1.1E1,1E2,1.3E1],"tree_param":{"num_deleted":"0","num_feature":"20","num_nodes":"21","size_leaf_vector":"1"}},{"base_weights":[7.3192164E-4,1.1336849E-3,-0E0,-1.093793E-3,1.002116E-2,2.4161504E-3,-4.8432183E-3,1.2674827E-2,-0E0,-0E0,5.921444E-4,-2.8434553E-4,-6.038779E-6,-0E0,5.1557046E-4],"categories":[],"categories_nodes":[],"categories_segments":[],"categories_sizes":[],"default_left":[0,0,0,0,0,0,0,0,0,0,0,0,0,0,0],"id":27,"left_children":[1,-1,3,5,7,9,11,13,-1,-1,-1,-1,-1,-1,-1],"loss_changes":[1.2619915E-2,0E0,4.4799466E-3,5.59014E-3,1.6058469E-3,7.5611416E-3,2.687958E-3,2.056247E-3,0E0,0E0,0E0,0E0,0E0,0E0,0E0],"parents":[2147483647,0,0,2,2,3,3,4,4,5,5,6,6,7,7],"right_children":[2,-1,4,6,8,10,12,14,-1,-1,-1,-1,-1,-1,-1],"split_conditions":[-2.3307566E-2,1.1336849E-3,2.7211863E-1,-1.9877676E-2,1.8250951E-1,-2.723108E-4,-2.7520787E-2,-3.3505153E-2,-0E0,-0E0,5.921444E-4,-2.8434553E-4,-6.038779E-6,-0E0,5.1557046E-4],"split_indices":[11,0,17,7,18,15,16,16,0,0,0,0,0,0,0],"split_type":[0,0,0,0,0,0,0,0,0,0,0,0,0,0,0],"sum_hessian":[4.33E2,8E0,4.25E2,3.86E2,3.9E1,1.72E2,2.14E2,3.4E1,5E0,1.51E2,2.1E1,8.5E1,1.29E2,9E0,2.5E1],"tree_param":{"num_deleted":"0","num_feature":"20","num_nodes":"15","size_leaf_vector":"1"}},{"base_weights":[1.48173E-4,-1.4745736E-3,5.28255E-3,1.1005893E-3,-4.212036E-3,1.4243356E-3,1.3125242E-3,-0E0,9.853568E-3,-0E0,-5.813018E-3,-4.865205E-3,5.6560715E-3,6.4186774E-5,-1.6999705E-4,-0E0,6.7177915E-4,3.4112865E-5,-0E0,-2.1944745E-4,-0E0,-2.299149E-4,-0E0,3.1137402E-4,-0E0],"categories":[],"categories_nodes":[],"categories_segments":[],"categories_sizes":[],"default_left":[0,0,0,0,0,0,0,0,0,0,0,0,0,0,0,0,0,0,0,0,0,0,0,0,0],"id":28,"left_children":[1,3,5,7,9,11,-1,13,15,17,19,21,23,-1,-1,-1,-1,-1,-1,-1,-1,-1,-1,-1,-1],"loss_changes":[4.2104153E-3,2.6360073E-3,1.0048678E-2,1.4202421E-3,1.7434706E-3,3.4594191E-3,0E0,1.2929613E-3,3.962249E-3,3.3617645E-5,2.0366004E-3,7.3458056E-4,3.8115897E-3,0E0,0E0,0E0,0E0,0E0,0E0,0E0,0E0,0E0,0E0,0E0,0E0],"parents":[2147483647,0,0,1,1,2,2,3,3,4,4,5,5,7,7,8,8,9,9,10,10,11,11,12,12],"right_children":[2,4,6,8,10,12,-1,14,16,18,20,22,24,-1,-1,-1,-1,-1,-1,-1,-1,-1,-1,-1,-1],"split_conditions":[6.955392E-2,-2.100494E-3,6.456693E-2,6.7687347E-3,1.5258306E-1,1.4722526E-1,1.3125242E-3,-1.7821947E-2,-6.357183E-3,1.4367988E-2,1E0,2.4403583E-1,2.234175E-3,6.4186774E-5,-1.6999705E-4,-0E0,6.7177915E-4,3.4112865E-5,-0E0,-2.1944745E-4,-0E0,-2.299149E-4,-0E0,3.1137402E-4,-0E0],"split_indices":[4,15,12,11,17,17,0,0,15,4,5,4,15,0,0,0,0,0,0,0,0,0,0,0,0],"split_type":[0,0,0,0,0,0,0,0,0,0,0,0,0,0,0,0,0,0,0,0,0,0,0,0,0],"sum_hessian":[4.12E2,2.84E2,1.28E2,1.09E2,1.75E2,1.22E2,6E0,9.4E1,1.5E1,3.2E1,1.43E2,3E1,9.2E1,6.4E1,3E1,5E0,1E1,2.5E1,7E0,1.28E2,1.5E1,2.4E1,6E0,6.2E1,3E1],"tree_param":{"num_deleted":"0","num_feature":"20","num_nodes":"25","size_leaf_vector":"1"}},{"base_weights":[5.797801E-4,1.2863412E-2,-0E0,5.6449854E-4,-0E0,-1.9359982E-3,3.6082135E-3,-0E0,-7.9494E-3,1.208573E-2,-3.751697E-5,-4.3676486E-5,3.8045298E-4,-3.10242E-4,-0E0,4.8477406E-4,-0E0,-1.2246663E-4,6.568087E-5],"categories":[],"categories_nodes":[],"categories_segments":[],"categories_sizes":[],"default_left":[0,0,0,0,0,0,0,0,0,0,0,0,0,0,0,0,0,0,0],"id":29,"left_children":[1,3,5,-1,-1,7,9,11,13,15,17,-1,-1,-1,-1,-1,-1,-1,-1],"loss_changes":[3.495067E-3,2.02476E-3,2.8236266E-3,0E0,0E0,2.701408E-3,6.675226E-3,3.316689E-3,1.7257875E-3,5.106358E-3,1.1170817E-3,0E0,0E0,0E0,0E0,0E0,0E0,0E0,0E0],"parents":[2147483647,0,0,1,1,2,2,5,5,6,6,7,7,8,8,9,9,10,10],"right_children":[2,4,6,-1,-1,8,10,12,14,16,18,-1,-1,-1,-1,-1,-1,-1,-1],"split_conditions":[-8.5896075E-2,-3.558162E-3,2.8214122E-3,5.6449854E-4,-0E0,-2.7671217E-3,2E0,-1.0590015E-2,5.6643696E1,9.7402595E-2,2.49036E-2,-4.3676486E-5,3.8045298E-4,-3.10242E-4,-0E0,4.8477406E-4,-0E0,-1.2246663E-4,6.568087E-5],"split_indices":[18,15,11,0,0,11,8,18,14,18,11,0,0,0,0,0,0,0,0],"split_type":[0,0,0,0,0,0,0,0,0,0,0,0,0,0,0,0,0,0,0],"sum_hessian":[4.31E2,2.1E1,4.1E2,1.5E1,6E0,2.73E2,1.37E2,2.15E2,5.8E1,5.7E1,8E1,1.98E2,1.7E1,5E1,8E0,5.1E1,6E0,6E1,2E1],"tree_param":{"num_deleted":"0","num_feature":"20","num_nodes":"19","size_leaf_vector":"1"}},{"base_weights":[5.6376396E-4,1.556537E-2,-1.5576207E-4,1.93678E-2,-0E0,-2.3222193E-3,1.0124714E-2,8.532016E-4,-0E0,-6.3385926E-3,1.4968017E-4,4.8256153E-4,-0E0,-0E0,-2.2693868E-4,1.4532311E-4,-1.5460321E-4],"categories":[],"categories_nodes":[],"categories_segments":[],"categories_sizes":[],"default_left":[0,0,0,0,0,0,0,0,0,0,0,0,0,0,0,0,0],"id":30,"left_children":[1,3,5,7,-1,9,11,-1,-1,13,15,-1,-1,-1,-1,-1,-1],"loss_changes":[7.6286397E-3,2.375031E-3,7.1491753E-3,1.195699E-3,0E0,4.604347E-3,4.7603333E-3,0E0,0E0,1.8689693E-3,4.444214E-3,0E0,0E0,0E0,0E0,0E0,0E0],"parents":[2147483647,0,0,1,1,2,2,3,3,5,5,6,6,9,9,10,10],"right_children":[2,4,6,8,-1,10,12,-1,-1,14,16,-1,-1,-1,-1,-1,-1],"split_conditions":[2.7330496E1,-1.0164126E-2,2.7211863E-1,-4.432133E-2,-0E0,4.293532E1,1.3599142E-2,8.532016E-4,-0E0,2.9715935E1,2E0,4.8256153E-4,-0E0,-0E0,-2.2693868E-4,1.4532311E-4,-1.5460321E-4],"split_indices":[14,11,17,12,0,14,15,0,0,14,8,0,0,0,0,0,0],"split_type":[0,0,0,0,0,0,0,0,0,0,0,0,0,0,0,0,0],"sum_hessian":[4.2E2,3.1E1,3.89E2,2.6E1,5E0,3.38E2,5.1E1,1.3E1,1.3E1,1.59E2,1.79E2,3.8E1,1.3E1,1.5E1,1.44E2,1.15E2,6.4E1],"tree_param":{"num_deleted":"0","num_feature":"20","num_nodes":"17","size_leaf_vector":"1"}},{"base_weights":[3.077901E-5,2.1713097E-2,-2.2124827E-4,-0E0,9.971448E-4,-4.1026957E-3,9.859501E-4,-0E0,-9.312402E-3,-0E0,1.6080169E-2,6.598689E-5,-0E0,-0E0,-3.5823334E-4,4.9391325E-4,-2.6312464E-5,-0E0,1.3282018E-3],"categories":[],"categories_nodes":[],"categories_segments":[],"categories_sizes":[],"default_left":[0,0,0,0,0,0,0,0,0,0,0,0,0,0,0,0,0,0,0],"id":31,"left_children":[1,3,5,-1,-1,7,9,11,13,15,17,-1,-1,-1,-1,-1,-1,-1,-1],"loss_changes":[6.6201366E-3,3.342559E-3,2.5532076E-3,0E0,0E0,4.5449473E-3,3.8698227E-3,2.2738962E-4,2.5600037E-3,3.9847926E-3,7.6236525E-3,0E0,0E0,0E0,0E0,0E0,0E0,0E0,0E0],"parents":[2147483647,0,0,1,1,2,2,5,5,6,6,7,7,8,8,9,9,10,10],"right_children":[2,4,6,-1,-1,8,10,12,14,16,18,-1,-1,-1,-1,-1,-1,-1,-1],"split_conditions":[-2.3004694E-2,2.0477754E-1,1.6327222E-1,-0E0,9.971448E-4,-2.3490723E-2,1E0,1.5457825E-1,-6.4080946E-2,1.6737357E-1,5.6613274E1,6.598689E-5,-0E0,-0E0,-3.5823334E-4,4.9391325E-4,-2.6312464E-5,-0E0,1.3282018E-3],"split_indices":[11,17,17,0,0,4,5,17,18,17,14,0,0,0,0,0,0,0,0],"split_type":[0,0,0,0,0,0,0,0,0,0,0,0,0,0,0,0,0,0,0],"sum_hessian":[4.23E2,1.3E1,4.1E2,5E0,8E0,1.36E2,2.74E2,5.8E1,7.8E1,2.59E2,1.5E1,4.6E1,1.2E1,1.3E1,6.5E1,1.3E1,2.46E2,1E1,5E0],"tree_param":{"num_deleted":"0","num_feature":"20","num_nodes":"19","size_leaf_vector":"1"}},{"base_weights":[-0E0,5.187149E-4,-5.391578E-4,-0E0,9.0245315E-4,-1.1670125E-3,9.8163625E-3,3.133777E-4,-9.230746E-5,5.318125E-4,-0E0],"categories":[],"categories_nodes":[],"categories_segments":[],"categories_sizes":[],"default_left":[0,0,0,0,0,0,0,0,0,0,0],"id":32,"left_children":[1,3,-1,5,-1,7,9,-1,-1,-1,-1],"loss_changes":[3.6602484E-3,8.941773E-3,0E0,3.667479E-3,0E0,6.4986306E-3,2.1623287E-3,0E0,0E0,0E0,0E0],"parents":[2147483647,0,0,1,1,3,3,5,5,6,6],"right_children":[2,4,-1,6,-1,8,10,-1,-1,-1,-1],"split_conditions":[1.2051095E-1,6.456693E-2,-5.391578E-4,2.7211863E-1,9.0245315E-4,2.9063463E1,4.93708E-3,3.133777E-4,-9.230746E-5,5.318125E-4,-0E0],"split_indices":[0,12,0,17,0,14,15,0,0,0,0],"split_type":[0,0,0,0,0,0,0,0,0,0,0],"sum_hessian":[4.08E2,3.98E2,1E1,3.89E2,9E0,3.57E2,3.2E1,3.5E1,3.22E2,1.6E1,1.6E1],"tree_param":{"num_deleted":"0","num_feature":"20","num_nodes":"11","size_leaf_vector":"1"}},{"base_weights":[-0E0,-1.5231969E-3,8.7859E-3,-0E0,-5.271502E-3,4.0059048E-4,-0E0,2.644075E-3,-1.9252202E-3,-0E0,-9.84765E-3,-0E0,1.1418557E-3,9.868784E-6,-1.1008056E-4,4.507545E-5,-0E0,-4.2576416E-4,-0E0],"categories":[],"categories_nodes":[],"categories_segments":[],"categories_sizes":[],"default_left":[0,0,0,0,0,0,0,0,0,0,0,0,0,0,0,0,0,0,0],"id":33,"left_children":[1,3,5,7,9,-1,-1,11,13,15,17,-1,-1,-1,-1,-1,-1,-1,-1],"loss_changes":[4.72965E-3,2.01998E-3,3.629126E-3,1.3731797E-3,3.3164502E-3,0E0,0E0,7.923205E-3,1.3101343E-3,5.643878E-5,2.6558614E-3,0E0,0E0,0E0,0E0,0E0,0E0,0E0,0E0],"parents":[2147483647,0,0,1,1,2,2,3,3,4,4,7,7,8,8,9,9,10,10],"right_children":[2,4,6,8,10,-1,-1,12,14,16,18,-1,-1,-1,-1,-1,-1,-1,-1],"split_conditions":[2.677799E-1,2.1280572E-1,1.5049683E-2,-4.856467E-2,-3.370852E-3,4.0059048E-4,-0E0,-9.394572E-3,-5.8383234E-2,-6.9364333E-3,7.816092E-1,-0E0,1.1418557E-3,9.868784E-6,-1.1008056E-4,4.507545E-5,-0E0,-4.2576416E-4,-0E0],"split_indices":[17,17,15,0,15,0,0,18,18,4,1,0,0,0,0,0,0,0,0],"split_type":[0,0,0,0,0,0,0,0,0,0,0,0,0,0,0,0,0,0,0],"sum_hessian":[4.23E2,3.74E2,4.9E1,2.71E2,1.03E2,4.1E1,8E0,1.09E2,1.62E2,4E1,6.3E1,1.04E2,5E0,2.1E1,1.41E2,2.4E1,1.6E1,4.3E1,2E1],"tree_param":{"num_deleted":"0","num_feature":"20","num_nodes":"19","size_leaf_vector":"1"}},{"base_weights":[-0E0,8.603545E-4,-2.7952416E-4,-1.3986162E-3,7.150223E-3,-0E0,-3.7740294E-3,-0E0,1.5190586E-2,-3.225966E-5,2.9656297E-4,-0E0,-1.9814793E-4,-0E0,6.614935E-4],"categories":[],"categories_nodes":[],"categories_segments":[],"categories_sizes":[],"default_left":[0,0,0,0,0,0,0,0,0,0,0,0,0,0,0],"id":34,"left_children":[1,-1,3,5,7,9,11,-1,13,-1,-1,-1,-1,-1,-1],"loss_changes":[4.9659084E-3,0E0,2.1771928E-3,1.1686357E-3,2.4401713E-3,2.4019561E-3,1.857401E-3,0E0,1.9115E-3,0E0,0E0,0E0,0E0,0E0,0E0],"parents":[2147483647,0,0,2,2,3,3,4,4,5,5,6,6,8,8],"right_children":[2,-1,4,6,8,10,12,-1,14,-1,-1,-1,-1,-1,-1],"split_conditions":[-2.5184913E-2,8.603545E-4,1E0,1.5015015E-3,9.9713135E-1,-2.1551724E-3,1.7916198E-1,-0E0,1.6074407E-1,-3.225966E-5,2.9656297E-4,-0E0,-1.9814793E-4,-0E0,6.614935E-4],"split_indices":[11,0,5,12,19,12,17,0,17,0,0,0,0,0,0],"split_type":[0,0,0,0,0,0,0,0,0,0,0,0,0,0,0],"sum_hessian":[4.03E2,5E0,3.98E2,3.7E2,2.8E1,2.38E2,1.32E2,1.2E1,1.6E1,2.17E2,2.1E1,4.7E1,8.5E1,5E0,1.1E1],"tree_param":{"num_deleted":"0","num_feature":"20","num_nodes":"15","size_leaf_vector":"1"}},{"base_weights":[1.05357E-3,-0E0,1.2410381E-2,6.3191436E-4,-3.3503227E-4,-0E0,2.5721448E-2,-2.625942E-5,1.2258024E-2,1.0814258E-3,-0E0,-5.2736596E-5,6.9324604E-5,4.0826315E-4,-0E0],"categories":[],"categories_nodes":[],"categories_segments":[],"categories_sizes":[],"default_left":[0,0,0,0,0,0,0,0,0,0,0,0,0,0,0],"id":35,"left_children":[1,3,5,7,-1,-1,9,11,13,-1,-1,-1,-1,-1,-1],"loss_changes":[4.9233004E-3,2.6413174E-3,5.1948717E-3,5.262611E-3,0E0,0E0,2.4087569E-3,1.24111E-3,3.3182977E-4,0E0,0E0,0E0,0E0,0E0,0E0],"parents":[2147483647,0,0,1,1,2,2,3,3,6,6,7,7,8,8],"right_children":[2,4,6,8,-1,-1,10,12,14,-1,-1,-1,-1,-1,-1],"split_conditions":[1.2167431E0,1.042737E-1,2.721058E-2,2.607642E-1,-3.3503227E-4,-0E0,2E0,1.908397E-3,6.118367E1,1.0814258E-3,-0E0,-5.2736596E-5,6.9324604E-5,4.0826315E-4,-0E0],"split_indices":[19,0,4,17,0,0,8,18,14,0,0,0,0,0,0],"split_type":[0,0,0,0,0,0,0,0,0,0,0,0,0,0,0],"sum_hessian":[4.2E2,3.86E2,3.4E1,3.67E2,1.9E1,1.9E1,1.5E1,3.32E2,3.5E1,9E0,6E0,2.4E2,9.2E1,3E1,5E0],"tree_param":{"num_deleted":"0","num_feature":"20","num_nodes":"15","size_leaf_vector":"1"}},{"base_weights":[3.9757215E-4,4.325949E-3,-1.980224E-3,1.0275758E-3,2.0826064E-2,-5.577686E-3,5.723805E-4,-1.3132299E-3,5.124029E-3,-0E0,7.8400486E-4,-7.856822E-3,-0E0,6.200693E-3,-3.7731435E-3,-0E0,-1.9136189E-4,2.3018476E-4,-0E0,-0E0,-2.804343E-4,1.2629735E-4,-0E0,-0E0,3.168983E-4,-0E0,-2.7099886E-4],"categories":[],"categories_nodes":[],"categories_segments":[],"categories_sizes":[],"default_left":[0,0,0,0,0,0,0,0,0,0,0,0,0,0,0,0,0,0,0,0,0,0,0,0,0,0,0],"id":36,"left_children":[1,3,5,7,9,11,13,15,17,-1,-1,19,21,23,25,-1,-1,-1,-1,-1,-1,-1,-1,-1,-1,-1,-1],"loss_changes":[4.316813E-3,5.785074E-3,3.0704057E-3,2.3702518E-3,1.8191291E-3,3.117247E-3,2.9547028E-3,8.861374E-4,1.4111747E-3,0E0,0E0,1.7883568E-3,1.2406352E-4,2.895266E-3,1.6764568E-3,0E0,0E0,0E0,0E0,0E0,0E0,0E0,0E0,0E0,0E0,0E0,0E0],"parents":[2147483647,0,0,1,1,2,2,3,3,4,4,5,5,6,6,7,7,8,8,11,11,12,12,13,13,14,14],"right_children":[2,4,6,8,10,12,14,16,18,-1,-1,20,22,24,26,-1,-1,-1,-1,-1,-1,-1,-1,-1,-1,-1,-1],"split_conditions":[-1.8489985E-2,3.2608697E-1,7.3913044E-1,9.577693E-1,-4.8337537E-3,2.677799E-1,4.9520183E-2,-2.299579E-3,-7.912957E-3,-0E0,7.8400486E-4,-4.3027843E-3,5.294118E-1,-2.2366015E-2,4.6307884E-2,-0E0,-1.9136189E-4,2.3018476E-4,-0E0,-0E0,-2.804343E-4,1.2629735E-4,-0E0,-0E0,3.168983E-4,-0E0,-2.7099886E-4],"split_indices":[7,1,1,19,15,17,0,15,11,0,0,15,1,0,18,0,0,0,0,0,0,0,0,0,0,0,0],"split_type":[0,0,0,0,0,0,0,0,0,0,0,0,0,0,0,0,0,0,0,0,0,0,0,0,0,0,0],"sum_hessian":[4.1E2,1.86E2,2.24E2,1.66E2,2E1,1.25E2,9.9E1,7.5E1,9.1E1,5E0,1.5E1,1.13E2,1.2E1,6.3E1,3.6E1,5.1E1,2.4E1,6.4E1,2.7E1,1.3E1,1E2,6E0,6E0,1.6E1,4.7E1,1E1,2.6E1],"tree_param":{"num_deleted":"0","num_feature":"20","num_nodes":"27","size_leaf_vector":"1"}},{"base_weights":[1.8670269E-4,5.306092E-4,-0E0,-1.0355334E-3,9.762031E-3,1.1044089E-3,-3.871233E-3,-0E0,2.2680314E-2,-4.5587625E-5,4.2453257E-4,-1.8731128E-4,9.337951E-6,-0E0,9.492807E-4],"categories":[],"categories_nodes":[],"categories_segments":[],"categories_sizes":[],"default_left":[0,0,0,0,0,0,0,0,0,0,0,0,0,0,0],"id":37,"left_children":[1,-1,3,5,7,9,11,-1,13,-1,-1,-1,-1,-1,-1],"loss_changes":[3.4263744E-3,0E0,3.1764668E-3,2.89391E-3,5.4667275E-3,8.7100025E-3,3.232545E-3,0E0,1.7822515E-3,0E0,0E0,0E0,0E0,0E0,0E0],"parents":[2147483647,0,0,2,2,3,3,4,4,5,5,6,6,8,8],"right_children":[2,-1,4,6,8,10,12,-1,14,-1,-1,-1,-1,-1,-1],"split_conditions":[-2.2830244E-2,5.306092E-4,1E0,1.804645E-1,9.9713135E-1,1.6327222E-1,2.7211863E-1,-0E0,1.690152E-1,-4.5587625E-5,4.2453257E-4,-1.8731128E-4,9.337951E-6,-0E0,9.492807E-4],"split_indices":[11,0,5,17,19,17,17,0,17,0,0,0,0,0,0],"split_type":[0,0,0,0,0,0,0,0,0,0,0,0,0,0,0],"sum_hessian":[4.22E2,1E1,4.12E2,3.84E2,2.8E1,1.79E2,2.05E2,1.3E1,1.5E1,1.37E2,4.2E1,1.61E2,4.4E1,6E0,9E0],"tree_param":{"num_deleted":"0","num_feature":"20","num_nodes":"15","size_leaf_vector":"1"}},{"base_weights":[-0E0,5.791395E-4,-4.7446918E-4,9.323599E-3,-1.3868253E-3,-0E0,5.887592E-4,7.765248E-4,-3.7176183E-3,-0E0,3.724314E-4,-2.2154763E-4,-0E0],"categories":[],"categories_nodes":[],"categories_segments":[],"categories_sizes":[],"default_left":[0,0,0,0,0,0,0,0,0,0,0,0,0],"id":38,"left_children":[1,-1,3,5,7,-1,-1,9,11,-1,-1,-1,-1],"loss_changes":[3.4506025E-3,0E0,2.2605471E-3,2.671949E-3,2.668542E-3,0E0,0E0,3.1339452E-3,3.1314832E-3,0E0,0E0,0E0,0E0],"parents":[2147483647,0,0,2,2,3,3,4,4,7,7,8,8],"right_children":[2,-1,4,6,8,-1,-1,10,12,-1,-1,-1,-1],"split_conditions":[-2.3307566E-2,5.791395E-4,0E0,-1.0729614E-3,-1.9877676E-2,-0E0,5.887592E-4,3.2608697E-1,1.244168E-2,-0E0,3.724314E-4,-2.2154763E-4,-0E0],"split_indices":[11,0,9,18,7,0,0,1,7,0,0,0,0],"split_type":[0,0,0,0,0,0,0,0,0,0,0,0,0],"sum_hessian":[4.36E2,8E0,4.28E2,1.7E1,4.11E2,7E0,1E1,1.69E2,2.42E2,1.49E2,2E1,1.18E2,1.24E2],"tree_param":{"num_deleted":"0","num_feature":"20","num_nodes":"13","size_leaf_vector":"1"}},{"base_weights":[6.2563014E-4,-6.9752415E-3,1.9569504E-3,-0E0,-1.0882241E-2,5.0402023E-3,-0E0,-3.7124308E-4,-0E0,-0E0,6.5932106E-3,-2.364222E-3,6.5129884E-3,2.6356778E-4,-0E0,3.797008E-5,-1.5276791E-4,-0E0,4.0541182E-4],"categories":[],"categories_nodes":[],"categories_segments":[],"categories_sizes":[],"default_left":[0,0,0,0,0,0,0,0,0,0,0,0,0,0,0,0,0,0,0],"id":39,"left_children":[1,3,5,-1,7,9,11,-1,-1,-1,13,15,17,-1,-1,-1,-1,-1,-1],"loss_changes":[3.0273122E-3,1.7524973E-3,1.6405273E-3,0E0,1.2254342E-4,1.5413619E-3,4.1997186E-3,0E0,0E0,0E0,1.9192835E-3,2.4254809E-3,5.316913E-3,0E0,0E0,0E0,0E0,0E0,0E0],"parents":[2147483647,0,0,1,1,2,2,4,4,5,5,6,6,10,10,11,11,12,12],"right_children":[2,4,6,-1,8,10,12,-1,-1,-1,14,16,18,-1,-1,-1,-1,-1,-1],"split_conditions":[7.9722387E-1,-7.825549E-2,-3.2705576E-3,-0E0,1E0,-1.2553749E-2,3.48283E-2,-3.7124308E-4,-0E0,-0E0,1.4213784E-1,1.5298225E-1,1.6327222E-1,2.6356778E-4,-0E0,3.797008E-5,-1.5276791E-4,-0E0,4.0541182E-4],"split_indices":[19,0,15,0,6,15,4,0,0,0,4,17,17,0,0,0,0,0,0],"split_type":[0,0,0,0,0,0,0,0,0,0,0,0,0,0,0,0,0,0,0],"sum_hessian":[3.96E2,3.6E1,3.6E2,7E0,2.9E1,1.18E2,2.42E2,2.3E1,6E0,1.4E1,1.04E2,1.66E2,7.6E1,8.3E1,2.1E1,4E1,1.26E2,3E1,4.6E1],"tree_param":{"num_deleted":"0","num_feature":"20","num_nodes":"19","size_leaf_vector":"1"}},{"base_weights":[-0E0,-1.1920548E-3,5.6718416E-3,1.7070664E-3,-3.9101527E-3,-0E0,2.178914E-2,-0E0,1.2757346E-2,-6.368621E-3,-0E0,-0E0,1.2801047E-3,9.081509E-5,-6.893324E-5,-0E0,7.6502445E-4,-2.678921E-4,-0E0,5.687184E-5,-1.8487089E-4],"categories":[],"categories_nodes":[],"categories_segments":[],"categories_sizes":[],"default_left":[0,0,0,0,0,0,0,0,0,0,0,0,0,0,0,0,0,0,0,0,0],"id":40,"left_children":[1,3,5,7,9,-1,11,13,15,17,19,-1,-1,-1,-1,-1,-1,-1,-1,-1,-1],"loss_changes":[2.8414794E-3,3.1816852E-3,7.146938E-3,2.541926E-3,2.0666327E-3,0E0,1.0532835E-2,8.1193226E-4,4.2237095E-3,1.7430447E-3,9.930904E-4,0E0,0E0,0E0,0E0,0E0,0E0,0E0,0E0,0E0,0E0],"parents":[2147483647,0,0,1,1,2,2,3,3,4,4,6,6,7,7,8,8,9,9,10,10],"right_children":[2,4,6,8,10,-1,12,14,16,18,20,-1,-1,-1,-1,-1,-1,-1,-1,-1,-1],"split_conditions":[1.3295437E-1,-2.189781E-2,2.2823198E-1,-4.61361E-3,2.2617124E-2,-0E0,9.577693E-1,-7.129577E-2,-5.583322E-3,6E-1,6.459038E1,-0E0,1.2801047E-3,9.081509E-5,-6.893324E-5,-0E0,7.6502445E-4,-2.678921E-4,-0E0,5.687184E-5,-1.8487089E-4],"split_indices":[4,7,17,18,18,0,19,4,15,1,14,0,0,0,0,0,0,0,0,0,0],"split_type":[0,0,0,0,0,0,0,0,0,0,0,0,0,0,0,0,0,0,0,0,0],"sum_hessian":[4.18E2,3.46E2,7.2E1,1.32E2,2.14E2,5.3E1,1.9E1,1.15E2,1.7E1,1.31E2,8.3E1,9E0,1E1,4.9E1,6.6E1,7E0,1E1,8.8E1,4.3E1,6.4E1,1.9E1],"tree_param":{"num_deleted":"0","num_feature":"20","num_nodes":"21","size_leaf_vector":"1"}},{"base_weights":[-2.477117E-4,4.0517302E-4,-1.0505246E-3,6.7780963E-3,-1.976363E-3,4.4479617E-4,-0E0,6.952606E-4,-4.0043513E-3,9.463971E-5,-0E0,-1.3624423E-4,-0E0],"categories":[],"categories_nodes":[],"categories_segments":[],"categories_sizes":[],"default_left":[0,0,0,0,0,0,0,0,0,0,0,0,0],"id":41,"left_children":[1,-1,3,5,7,-1,-1,9,11,-1,-1,-1,-1],"loss_changes":[2.0611843E-3,0E0,1.974008E-3,1.7190633E-3,2.7451222E-3,0E0,0E0,7.760163E-4,9.0928236E-4,0E0,0E0,0E0,0E0],"parents":[2147483647,0,0,2,2,3,3,4,4,7,7,8,8],"right_children":[2,-1,4,6,8,-1,-1,10,12,-1,-1,-1,-1],"split_conditions":[-2.3307566E-2,4.0517302E-4,0E0,-3.396557E-4,-3.2705576E-3,4.4479617E-4,-0E0,-2.5245441E-2,1E0,9.463971E-5,-0E0,-1.3624423E-4,-0E0],"split_indices":[11,0,9,0,15,0,0,18,6,0,0,0,0],"split_type":[0,0,0,0,0,0,0,0,0,0,0,0,0],"sum_hessian":[4.1E2,8E0,4.02E2,1.9E1,3.83E2,1.1E1,8E0,1.23E2,2.6E2,8.3E1,4E1,2.46E2,1.4E1],"tree_param":{"num_deleted":"0","num_feature":"20","num_nodes":"13","size_leaf_vector":"1"}},{"base_weights":[-0E0,9.870493E-4,-1.4407247E-2,-6.1816076E-4,5.47909E-3,-0E0,-5.717236E-4,-0E0,-8.799621E-3,-0E0,9.376744E-3,1.2213214E-4,-3.431364E-5,-0E0,-3.4199108E-4,-0E0,4.5436136E-5,4.3420432E-4,-0E0],"categories":[],"categories_nodes":[],"categories_segments":[],"categories_sizes":[],"default_left":[0,0,0,0,0,0,0,0,0,0,0,0,0,0,0,0,0,0,0],"id":42,"left_children":[1,3,5,7,9,-1,-1,11,13,15,17,-1,-1,-1,-1,-1,-1,-1,-1],"loss_changes":[4.1288673E-3,3.8814722E-3,9.851875E-4,2.6863373E-3,2.2455635E-3,0E0,0E0,1.523436E-3,9.810438E-4,7.569623E-5,2.3798225E-3,0E0,0E0,0E0,0E0,0E0,0E0,0E0,0E0],"parents":[2147483647,0,0,1,1,2,2,3,3,4,4,7,7,8,8,9,9,10,10],"right_children":[2,4,6,8,10,-1,-1,12,14,16,18,-1,-1,-1,-1,-1,-1,-1,-1],"split_conditions":[1.2051095E-1,6.249219E-4,4.4015673E-4,-2.7671217E-3,9.4655085E-1,-0E0,-5.717236E-4,-2.2288261E-2,-4.3819908E-2,9.791922E-3,2E0,1.2213214E-4,-3.431364E-5,-0E0,-3.4199108E-4,-0E0,4.5436136E-5,4.3420432E-4,-0E0],"split_indices":[0,11,15,11,19,0,0,12,0,12,8,0,0,0,0,0,0,0,0],"split_type":[0,0,0,0,0,0,0,0,0,0,0,0,0,0,0,0,0,0,0],"sum_hessian":[4.19E2,4.02E2,1.7E1,2.64E2,1.38E2,5E0,1.2E1,2.29E2,3.5E1,6.6E1,7.2E1,7.9E1,1.5E2,7E0,2.8E1,3.4E1,3.2E1,4.1E1,3.1E1],"tree_param":{"num_deleted":"0","num_feature":"20","num_nodes":"19","size_leaf_vector":"1"}},{"base_weights":[-0E0,1.0452918E-2,-4.8578798E-4,1.3884771E-2,-0E0,-3.8182596E-3,3.5205642E-3,-0E0,4.9860735E-4,-0E0,-4.9025696E-3,-0E0,1.2728551E-2,8.299921E-6,-0E0,-0E0,-2.1233267E-4,1.0975548E-4,-3.6113965E-4,-0E0,5.5044837E-4],"categories":[],"categories_nodes":[],"categories_segments":[],"categories_sizes":[],"default_left":[0,0,0,0,0,0,0,0,0,0,0,0,0,0,0,0,0,0,0,0,0],"id":43,"left_children":[1,3,5,7,-1,9,11,-1,-1,13,15,17,19,-1,-1,-1,-1,-1,-1,-1,-1],"loss_changes":[3.2599692E-3,1.4582435E-3,5.2398397E-3,3.4530088E-4,0E0,1.5389479E-3,3.8237995E-3,0E0,0E0,1.913575E-6,1.6392316E-3,4.4462555E-3,3.7559005E-3,0E0,0E0,0E0,0E0,0E0,0E0,0E0,0E0],"parents":[2147483647,0,0,1,1,2,2,3,3,5,5,6,6,9,9,10,10,11,11,12,12],"right_children":[2,4,6,8,-1,10,12,-1,-1,14,16,18,20,-1,-1,-1,-1,-1,-1,-1,-1],"split_conditions":[2.7330496E1,-1.0164126E-2,1.908397E-3,8.9651513E-1,-0E0,4.0625E-1,4.7428572E-1,-0E0,4.9860735E-4,3.7914693E-2,-3.8235296E-2,1.042737E-1,-3.497615E-2,8.299921E-6,-0E0,-0E0,-2.1233267E-4,1.0975548E-4,-3.6113965E-4,-0E0,5.5044837E-4],"split_indices":[14,11,18,19,0,2,2,0,0,7,7,0,7,0,0,0,0,0,0,0,0],"split_type":[0,0,0,0,0,0,0,0,0,0,0,0,0,0,0,0,0,0,0,0,0],"sum_hessian":[4.14E2,2.8E1,3.86E2,2.3E1,5E0,2.38E2,1.48E2,6E0,1.7E1,3E1,2.08E2,1.14E2,3.4E1,2.4E1,6E0,7.6E1,1.32E2,9.3E1,2.1E1,7E0,2.7E1],"tree_param":{"num_deleted":"0","num_feature":"20","num_nodes":"21","size_leaf_vector":"1"}},{"base_weights":[7.3519116E-4,6.887161E-4,-0E0,-1.6757145E-3,3.0348545E-3,5.266594E-4,-5.0928663E-3,6.761238E-3,-3.982387E-3,-0E0,1.06806205E-4,-1.8755617E-4,-0E0,-0E0,3.864328E-4,-2.4234426E-4,-0E0],"categories":[],"categories_nodes":[],"categories_segments":[],"categories_sizes":[],"default_left":[0,0,0,0,0,0,0,0,0,0,0,0,0,0,0,0,0],"id":44,"left_children":[1,-1,3,5,7,9,11,13,15,-1,-1,-1,-1,-1,-1,-1,-1],"loss_changes":[5.0606164E-3,0E0,2.0081887E-3,2.6694457E-3,4.4265892E-3,6.4210023E-4,1.2399305E-3,4.3663606E-3,9.775364E-4,0E0,0E0,0E0,0E0,0E0,0E0,0E0,0E0],"parents":[2147483647,0,0,2,2,3,3,4,4,5,5,6,6,7,7,8,8],"right_children":[2,-1,4,6,8,10,12,14,16,-1,-1,-1,-1,-1,-1,-1,-1],"split_conditions":[-2.3331491E-2,6.887161E-4,6.249219E-4,-2.7303753E-2,6.2654026E1,2.0833334E-2,5.341963E1,2.1642949E-1,3.2865897E-2,-0E0,1.06806205E-4,-1.8755617E-4,-0E0,-0E0,3.864328E-4,-2.4234426E-4,-0E0],"split_indices":[11,0,11,7,14,1,14,17,4,0,0,0,0,0,0,0,0],"split_type":[0,0,0,0,0,0,0,0,0,0,0,0,0,0,0,0,0],"sum_hessian":[3.87E2,9E0,3.78E2,2.32E2,1.46E2,1.06E2,1.26E2,1.14E2,3.2E1,5.4E1,5.2E1,1.15E2,1.1E1,5.7E1,5.7E1,2.2E1,1E1],"tree_param":{"num_deleted":"0","num_feature":"20","num_nodes":"17","size_leaf_vector":"1"}},{"base_weights":[2.0917305E-3,-1.6830843E-3,4.8938817E-3,-0E0,-9.196589E-3,2.6171308E-2,2.2870023E-3,-5.263848E-4,4.621938E-3,-3.6505758E-4,-0E0,-0E0,1.1480228E-3,6.903335E-4,4.0007193E-4,3.5701203E-5,-2.2901966E-4,2.088019E-4,-0E0,-0E0,4.652338E-4],"categories":[],"categories_nodes":[],"categories_segments":[],"categories_sizes":[],"default_left":[0,0,0,0,0,0,0,0,0,0,0,0,0,0,0,0,0,0,0,0,0],"id":45,"left_children":[1,3,5,7,9,11,13,15,17,-1,-1,-1,-1,-1,19,-1,-1,-1,-1,-1,-1],"loss_changes":[5.061256E-3,3.0484167E-3,9.224759E-3,7.892701E-4,6.7841914E-4,3.1890683E-3,5.0847954E-3,2.1884502E-3,6.3578883E-4,0E0,0E0,0E0,0E0,0E0,4.531088E-3,0E0,0E0,0E0,0E0,0E0,0E0],"parents":[2147483647,0,0,1,1,2,2,3,3,4,4,5,5,6,6,7,7,8,8,14,14],"right_children":[2,4,6,8,10,12,14,16,18,-1,-1,-1,-1,-1,20,-1,-1,-1,-1,-1,-1],"split_conditions":[1.6214958E-1,1.5298225E-1,1.6737357E-1,-3.6520787E-4,4.285714E-3,-5.509642E-3,-2.2830244E-2,-5.8383234E-2,9.111111E-1,-3.6505758E-4,-0E0,-0E0,1.1480228E-3,6.903335E-4,1E0,3.5701203E-5,-2.2901966E-4,2.088019E-4,-0E0,-0E0,4.652338E-4],"split_indices":[17,17,17,15,18,12,11,18,1,0,0,0,0,0,5,0,0,0,0,0,0],"split_type":[0,0,0,0,0,0,0,0,0,0,0,0,0,0,0,0,0,0,0,0,0],"sum_hessian":[4.16E2,1.47E2,2.69E2,1.07E2,4E1,2E1,2.49E2,7.2E1,3.5E1,2.7E1,1.3E1,9E0,1.1E1,1.1E1,2.38E2,3.6E1,3.6E1,2.8E1,7E0,2.2E2,1.8E1],"tree_param":{"num_deleted":"0","num_feature":"20","num_nodes":"21","size_leaf_vector":"1"}},{"base_weights":[9.516641E-4,1.1888778E-2,-0E0,1.3503131E-2,-0E0,-2.7627535E-3,2.2967102E-3,-0E0,5.0549296E-4,2.0352819E-3,-4.8734974E-3,9.106372E-3,-0E0,1.7781812E-4,-0E0,-7.875044E-6,-4.0967914E-4,-0E0,5.906038E-4,-5.6079534E-5,1.6487698E-4],"categories":[],"categories_nodes":[],"categories_segments":[],"categories_sizes":[],"default_left":[0,0,0,0,0,0,0,0,0,0,0,0,0,0,0,0,0,0,0,0,0],"id":46,"left_children":[1,3,5,7,-1,9,11,-1,-1,13,15,17,19,-1,-1,-1,-1,-1,-1,-1,-1],"loss_changes":[3.7067954E-3,2.770815E-4,2.5448063E-3,1.0183472E-3,0E0,2.3093515E-3,3.5701117E-3,0E0,0E0,4.627037E-4,3.2061217E-3,7.980097E-3,1.8808849E-3,0E0,0E0,0E0,0E0,0E0,0E0,0E0,0E0],"parents":[2147483647,0,0,1,1,2,2,3,3,5,5,6,6,9,9,10,10,11,11,12,12],"right_children":[2,4,6,8,-1,10,12,-1,-1,14,16,18,20,-1,-1,-1,-1,-1,-1,-1,-1],"split_conditions":[-9.675759E-2,-4.101839E-2,4.293532E1,9.218999E-1,-0E0,-9.008419E-3,-1.3468013E-2,-0E0,5.0549296E-4,-3.2283526E-2,1.9066377E-1,-6.357183E-3,2.3675078E-1,1.7781812E-4,-0E0,-7.875044E-6,-4.0967914E-4,-0E0,5.906038E-4,-5.6079534E-5,1.6487698E-4],"split_indices":[0,7,14,19,0,15,7,0,0,0,17,15,17,0,0,0,0,0,0,0,0],"split_type":[0,0,0,0,0,0,0,0,0,0,0,0,0,0,0,0,0,0,0,0,0],"sum_hessian":[4.32E2,2.8E1,4.04E2,2.3E1,5E0,1.7E2,2.34E2,5E0,1.8E1,2.3E1,1.47E2,5.7E1,1.77E2,1.5E1,8E0,1.12E2,3.5E1,2.5E1,3.2E1,1.31E2,4.6E1],"tree_param":{"num_deleted":"0","num_feature":"20","num_nodes":"21","size_leaf_vector":"1"}},{"base_weights":[1.5046505E-3,-3.6076566E-3,2.5637E-3,-6.923994E-3,-0E0,3.863128E-3,-0E0,-0E0,-9.831965E-3,8.214907E-3,2.0200075E-4,-2.4230292E-3,3.925688E-3,-3.2667827E-4,-0E0,3.8508032E-4,-0E0,3.7900617E-4,-0E0,-0E0,-1.262396E-4,-0E0,1.5889763E-4],"categories":[],"categories_nodes":[],"categories_segments":[],"categories_sizes":[],"default_left":[0,0,0,0,0,0,0,0,0,0,0,0,0,0,0,0,0,0,0,0,0,0,0],"id":47,"left_children":[1,3,5,7,-1,9,11,-1,13,15,17,19,21,-1,-1,-1,-1,-1,-1,-1,-1,-1,-1],"loss_changes":[2.166457E-3,1.2621314E-3,1.9108148E-3,1.3682445E-3,0E0,3.126549E-3,6.7223114E-4,0E0,1.3010856E-4,4.5667053E-3,2.226736E-3,7.699091E-4,1.1444587E-5,0E0,0E0,0E0,0E0,0E0,0E0,0E0,0E0,0E0,0E0],"parents":[2147483647,0,0,1,1,2,2,3,3,5,5,6,6,8,8,9,9,10,10,11,11,12,12],"right_children":[2,4,6,8,-1,10,12,-1,14,16,18,20,22,-1,-1,-1,-1,-1,-1,-1,-1,-1,-1],"split_conditions":[7.9722387E-1,3.0254495E-1,3.4398235E-2,2.666382E1,-0E0,6.7391306E-1,5.516451E-1,-0E0,1E0,5.5730552E-3,-9.437964E-2,0E0,1.0231749E0,-3.2667827E-4,-0E0,3.8508032E-4,-0E0,3.7900617E-4,-0E0,-0E0,-1.262396E-4,-0E0,1.5889763E-4],"split_indices":[19,17,0,14,0,2,17,0,6,15,18,13,19,0,0,0,0,0,0,0,0,0,0],"split_type":[0,0,0,0,0,0,0,0,0,0,0,0,0,0,0,0,0,0,0,0,0,0,0],"sum_hessian":[4.36E2,4.2E1,3.94E2,3.7E1,5E0,3.01E2,9.3E1,5E0,3.2E1,1.12E2,1.89E2,8.2E1,1.1E1,2.7E1,5E0,7.3E1,3.9E1,1.3E1,1.76E2,1.2E1,7E1,5E0,6E0],"tree_param":{"num_deleted":"0","num_feature":"20","num_nodes":"23","size_leaf_vector":"1"}},{"base_weights":[-0E0,7.938006E-4,-1.0576386E-2,-0E0,9.631711E-3,-0E0,-5.5906916E-4,3.462195E-4,-1.7826888E-3,-0E0,1.7588094E-2,7.493943E-5,-5.756724E-5,-2.1312814E-4,-0E0,7.386496E-4,-0E0],"categories":[],"categories_nodes":[],"categories_segments":[],"categories_sizes":[],"default_left":[0,0,0,0,0,0,0,0,0,0,0,0,0,0,0,0,0],"id":48,"left_children":[1,3,5,7,9,-1,-1,11,13,-1,15,-1,-1,-1,-1,-1,-1],"loss_changes":[1.9267962E-3,4.2968253E-3,1.4476847E-3,4.4232665E-4,4.73451E-3,0E0,0E0,1.178269E-3,2.5614547E-3,0E0,3.45051E-3,0E0,0E0,0E0,0E0,0E0,0E0],"parents":[2147483647,0,0,1,1,2,2,3,3,4,4,7,7,8,8,10,10],"right_children":[2,4,6,8,10,-1,-1,12,14,-1,16,-1,-1,-1,-1,-1,-1],"split_conditions":[1.2051095E-1,4.8850574E-2,2.4319126E-3,-4.4591376E-3,2.2944579E-1,-0E0,-5.5906916E-4,2.1086551E-1,7.204611E-3,-0E0,6.666667E-1,7.493943E-5,-5.756724E-5,-2.1312814E-4,-0E0,7.386496E-4,-0E0],"split_indices":[0,18,15,11,17,0,0,17,18,0,13,0,0,0,0,0,0],"split_type":[0,0,0,0,0,0,0,0,0,0,0,0,0,0,0,0,0],"sum_hessian":[4.08E2,3.94E2,1.4E1,3.46E2,4.8E1,6E0,8E0,2.16E2,1.3E2,1.9E1,2.9E1,1.56E2,6E1,5.8E1,7.2E1,2E1,9E0],"tree_param":{"num_deleted":"0","num_feature":"20","num_nodes":"17","size_leaf_vector":"1"}},{"base_weights":[-0E0,1.2287047E-2,-3.6075304E-5,7.027276E-4,-0E0,-3.0815406E-3,1.6427598E-3,-0E0,-6.1667166E-3,1.3854565E-2,-0E0,3.614655E-5,-3.8877573E-5,-3.0912657E-4,-0E0,-0E0,7.7195134E-4,-5.113484E-5,2.47984E-4],"categories":[],"categories_nodes":[],"categories_segments":[],"categories_sizes":[],"default_left":[0,0,0,0,0,0,0,0,0,0,0,0,0,0,0,0,0,0,0],"id":49,"left_children":[1,3,5,-1,-1,7,9,11,13,15,17,-1,-1,-1,-1,-1,-1,-1,-1],"loss_changes":[2.2651234E-3,2.1249924E-3,2.4555475E-3,0E0,0E0,1.9701319E-3,3.7914359E-3,1.4633943E-4,3.4171918E-3,2.8685052E-3,3.3579073E-3,0E0,0E0,0E0,0E0,0E0,0E0,0E0,0E0],"parents":[2147483647,0,0,1,1,2,2,5,5,6,6,7,7,8,8,9,9,10,10],"right_children":[2,4,6,-1,-1,8,10,12,14,16,18,-1,-1,-1,-1,-1,-1,-1,-1],"split_conditions":[-2.2830244E-2,-3.5928145E-2,-6.035283E-3,7.027276E-4,-0E0,-2.3490723E-2,-4.5700684E-2,-1.2474199E-3,-4.2765783E-4,2.5714287E-1,1.2543797E-1,3.614655E-5,-3.8877573E-5,-3.0912657E-4,-0E0,-0E0,7.7195134E-4,-5.113484E-5,2.47984E-4],"split_indices":[11,7,11,0,0,4,0,15,15,1,4,0,0,0,0,0,0,0,0],"split_type":[0,0,0,0,0,0,0,0,0,0,0,0,0,0,0,0,0,0,0],"sum_hessian":[4.36E2,1.4E1,4.22E2,7E0,7E0,1.92E2,2.3E2,9.3E1,9.9E1,2.2E1,2.08E2,5.7E1,3.6E1,6.7E1,3.2E1,1.2E1,1E1,1.67E2,4.1E1],"tree_param":{"num_deleted":"0","num_feature":"20","num_nodes":"19","size_leaf_vector":"1"}},{"base_weights":[-0E0,-6.137815E-4,7.713269E-3,1.167458E-3,-3.2082137E-3,9.565313E-3,-0E0,-0E0,1.7460894E-2,-5.402152E-3,2.5181142E-3,1.159978E-2,-0E0,1.7745215E-4,-7.441145E-5,1.485708E-3,-0E0,-2.794036E-4,-0E0,-0E0,3.5247623E-4,-0E0,3.9751883E-4],"categories":[],"categories_nodes":[],"categories_segments":[],"categories_sizes":[],"default_left":[0,0,0,0,0,0,0,0,0,0,0,0,0,0,0,0,0,0,0,0,0,0,0],"id":50,"left_children":[1,3,5,7,9,11,-1,13,15,17,19,21,-1,-1,-1,-1,-1,-1,-1,-1,-1,-1,-1],"loss_changes":[3.2334807E-3,2.126401E-3,1.1150655E-3,4.3347245E-3,3.0653628E-3,9.043054E-4,0E0,2.1789386E-3,1.014228E-2,2.5568912E-3,2.294563E-3,6.8102544E-4,0E0,0E0,0E0,0E0,0E0,0E0,0E0,0E0,0E0,0E0,0E0],"parents":[2147483647,0,0,1,1,2,2,3,3,4,4,5,5,7,7,8,8,9,9,10,10,11,11],"right_children":[2,4,6,8,10,12,-1,14,16,18,20,22,-1,-1,-1,-1,-1,-1,-1,-1,-1,-1,-1],"split_conditions":[2.607642E-1,-1.9877676E-2,3.8515285E-2,-2.723108E-4,1.6840035E-1,1.3599142E-2,-0E0,-1.8072288E-2,1.6524848E-1,6.2068963E-1,8.956847E-1,-6.7118793E-3,-0E0,1.7745215E-4,-7.441145E-5,1.485708E-3,-0E0,-2.794036E-4,-0E0,-0E0,3.5247623E-4,-0E0,3.9751883E-4],"split_indices":[17,7,11,15,4,15,0,11,17,1,19,15,0,0,0,0,0,0,0,0,0,0,0],"split_type":[0,0,0,0,0,0,0,0,0,0,0,0,0,0,0,0,0,0,0,0,0,0,0],"sum_hessian":[4.21E2,3.7E2,5.1E1,1.74E2,1.96E2,4.5E1,6E0,1.6E2,1.4E1,1.67E2,2.9E1,3.7E1,8E0,4E1,1.2E2,5E0,9E0,8.5E1,8.2E1,1.2E1,1.7E1,5E0,3.2E1],"tree_param":{"num_deleted":"0","num_feature":"20","num_nodes":"23","size_leaf_vector":"1"}},{"base_weights":[-1.5180235E-4,6.0272944E-4,-1.2212748E-3,-3.1536266E-3,6.397523E-4,-0E0,-5.841349E-3,7.7668307E-3,-0E0,-0E0,4.1911317E-5,-2.3449623E-4,-0E0,-0E0,9.078678E-4,-0E0,-1.021309E-4],"categories":[],"categories_nodes":[],"categories_segments":[],"categories_sizes":[],"default_left":[0,0,0,0,0,0,0,0,0,0,0,0,0,0,0,0,0],"id":51,"left_children":[1,-1,3,5,7,9,11,13,15,-1,-1,-1,-1,-1,-1,-1,-1],"loss_changes":[5.451463E-3,0E0,1.9936021E-3,3.1863754E-3,1.8049574E-3,1.5223508E-4,1.5994105E-3,5.4564015E-3,3.7087005E-4,0E0,0E0,0E0,0E0,0E0,0E0,0E0,0E0],"parents":[2147483647,0,0,2,2,3,3,4,4,5,5,6,6,7,7,8,8],"right_children":[2,-1,4,6,8,10,12,14,16,-1,-1,-1,-1,-1,-1,-1,-1],"split_conditions":[-2.3004694E-2,6.0272944E-4,1.908397E-3,3.4292362E1,5.294118E-1,-2.0642614E-2,2.7179017E-3,-3.6520787E-4,7.221904E-2,-0E0,4.1911317E-5,-2.3449623E-4,-0E0,-0E0,9.078678E-4,-0E0,-1.021309E-4],"split_indices":[11,0,18,14,1,11,15,15,0,0,0,0,0,0,0,0,0],"split_type":[0,0,0,0,0,0,0,0,0,0,0,0,0,0,0,0,0],"sum_hessian":[4.24E2,1.1E1,4.13E2,2.55E2,1.58E2,8.8E1,1.67E2,3E1,1.28E2,1.1E1,7.7E1,1.19E2,4.8E1,2.3E1,7E0,9.7E1,3.1E1],"tree_param":{"num_deleted":"0","num_feature":"20","num_nodes":"17","size_leaf_vector":"1"}},{"base_weights":[-0E0,1.1015917E-3,-1.0003723E-2,-0E0,1.5028754E-2,-0E0,-1.1781374E-2,9.67919E-3,-1.1255322E-3,6.9133204E-4,-0E0,-0E0,-5.428888E-4,3.4063958E-4,-0E0,-1.2558773E-4,2.40313E-6],"categories":[],"categories_nodes":[],"categories_segments":[],"categories_sizes":[],"default_left":[0,0,0,0,0,0,0,0,0,0,0,0,0,0,0,0,0],"id":52,"left_children":[1,3,5,7,9,-1,11,13,15,-1,-1,-1,-1,-1,-1,-1,-1],"loss_changes":[3.082484E-3,7.1988096E-3,3.1288015E-4,3.3261403E-3,5.596754E-3,0E0,1.997321E-3,4.4784322E-4,2.050377E-3,0E0,0E0,0E0,0E0,0E0,0E0,0E0,0E0],"parents":[2147483647,0,0,1,1,2,2,3,3,4,4,6,6,7,7,8,8],"right_children":[2,4,6,8,10,-1,12,14,16,-1,-1,-1,-1,-1,-1,-1,-1],"split_conditions":[6.442577E1,4.8850574E-2,2.4319126E-3,-9.814423E-2,6.1554485E1,-0E0,5.7735175E-2,-1.3085997E-3,-9.934051E-3,6.9133204E-4,-0E0,-0E0,-5.428888E-4,3.4063958E-4,-0E0,-1.2558773E-4,2.40313E-6],"split_indices":[14,18,15,0,14,0,0,15,11,0,0,0,0,0,0,0,0],"split_type":[0,0,0,0,0,0,0,0,0,0,0,0,0,0,0,0,0],"sum_hessian":[4.2E2,3.95E2,2.5E1,3.62E2,3.3E1,5E0,2E1,3E1,3.32E2,2.4E1,9E0,6E0,1.4E1,2.5E1,5E0,1.4E2,1.92E2],"tree_param":{"num_deleted":"0","num_feature":"20","num_nodes":"17","size_leaf_vector":"1"}},{"base_weights":[1.364955E-3,-0E0,7.489539E-3,9.364712E-3,-1.229401E-3,1.4635502E-2,-0E0,4.4484937E-4,-0E0,-0E0,-2.3977621E-3,-0E0,6.4022356E-4,5.4375847E-5,-3.6665795E-3,-0E0,1.1192608E-4,-0E0,-1.1207774E-4,-0E0,-1.6865351E-4],"categories":[],"categories_nodes":[],"categories_segments":[],"categories_sizes":[],"default_left":[0,0,0,0,0,0,0,0,0,0,0,0,0,0,0,0,0,0,0,0,0],"id":53,"left_children":[1,3,5,7,9,11,13,-1,-1,15,17,-1,-1,-1,19,-1,-1,-1,-1,-1,-1],"loss_changes":[3.8639172E-3,3.6226413E-3,5.625766E-3,1.4603345E-3,8.453126E-4,2.9259427E-3,3.9583535E-4,0E0,0E0,6.263724E-4,1.45268E-3,0E0,0E0,0E0,3.0071076E-4,0E0,0E0,0E0,0E0,0E0,0E0],"parents":[2147483647,0,0,1,1,2,2,3,3,4,4,5,5,6,6,9,9,10,10,14,14],"right_children":[2,4,6,8,10,12,14,-1,-1,16,18,-1,-1,-1,20,-1,-1,-1,-1,-1,-1],"split_conditions":[3.5313003E-2,2.9063463E1,6.1554485E1,-1.6103059E-2,-9.109581E-2,4.8850574E-2,1.0461279E-2,4.4484937E-4,-0E0,-1.5056462E-2,-8.143735E-3,-0E0,6.4022356E-4,5.4375847E-5,8.2079303E-1,-0E0,1.1192608E-4,-0E0,-1.1207774E-4,-0E0,-1.6865351E-4],"split_indices":[18,14,14,11,4,18,11,0,0,12,15,0,0,0,19,0,0,0,0,0,0],"split_type":[0,0,0,0,0,0,0,0,0,0,0,0,0,0,0,0,0,0,0,0,0],"sum_hessian":[4.24E2,3.42E2,8.2E1,3.5E1,3.07E2,4.7E1,3.5E1,2E1,1.5E1,8E1,2.27E2,1.9E1,2.8E1,9E0,2.6E1,3.6E1,4.4E1,3E1,1.97E2,6E0,2E1],"tree_param":{"num_deleted":"0","num_feature":"20","num_nodes":"21","size_leaf_vector":"1"}},{"base_weights":[4.190184E-4,8.807164E-3,-0E0,3.405247E-4,-0E0,-9.612197E-4,5.094393E-3,-0E0,-2.7662877E-4,3.1634874E-4,-0E0,-1.357509E-4,6.4833424E-5,-0E0,-4.5072306E-5],"categories":[],"categories_nodes":[],"categories_segments":[],"categories_sizes":[],"default_left":[0,0,0,0,0,0,0,0,0,0,0,0,0,0,0],"id":54,"left_children":[1,3,5,-1,-1,7,9,11,-1,-1,13,-1,-1,-1,-1],"loss_changes":[2.018612E-3,7.40221E-4,1.7517104E-3,0E0,0E0,1.8013477E-3,3.5764202E-3,3.4601649E-3,0E0,0E0,1.3543419E-5,0E0,0E0,0E0,0E0],"parents":[2147483647,0,0,1,1,2,2,5,5,6,6,7,7,10,10],"right_children":[2,4,6,-1,-1,8,10,12,-1,-1,14,-1,-1,-1,-1],"split_conditions":[2.7125393E1,-1.1215184E-2,2.712576E-1,3.405247E-4,-0E0,7.221904E-2,1.5049683E-2,-9.934051E-3,-2.7662877E-4,3.1634874E-4,8.86745E-1,-1.357509E-4,6.4833424E-5,-0E0,-4.5072306E-5],"split_indices":[14,11,17,0,0,0,15,11,0,0,19,0,0,0,0],"split_type":[0,0,0,0,0,0,0,0,0,0,0,0,0,0,0],"sum_hessian":[4.3E2,2.6E1,4.04E2,2.1E1,5E0,3.5E2,5.4E1,3.26E2,2.4E1,4.4E1,1E1,1.21E2,2.05E2,5E0,5E0],"tree_param":{"num_deleted":"0","num_feature":"20","num_nodes":"15","size_leaf_vector":"1"}},{"base_weights":[-0E0,7.0759055E-4,-1.8066849E-4,-2.74643E-3,2.7843725E-3,-0E0,-5.063785E-3,6.2941564E-3,-1.1221378E-2,3.2692238E-5,-3.8230903E-7,-1.8232371E-4,-0E0,1.0276659E-4,1.036289E-3,-0E0,-5.940886E-4],"categories":[],"categories_nodes":[],"categories_segments":[],"categories_sizes":[],"default_left":[0,0,0,0,0,0,0,0,0,0,0,0,0,0,0,0,0],"id":55,"left_children":[1,-1,3,5,7,9,11,13,15,-1,-1,-1,-1,-1,-1,-1,-1],"loss_changes":[5.576575E-3,0E0,3.1267772E-3,1.9077677E-3,6.7045446E-3,5.9386384E-5,1.2138742E-3,3.308677E-3,2.5796539E-3,0E0,0E0,0E0,0E0,0E0,0E0,0E0,0E0],"parents":[2147483647,0,0,2,2,3,3,4,4,5,5,6,6,7,7,8,8],"right_children":[2,-1,4,6,8,10,12,14,16,-1,-1,-1,-1,-1,-1,-1,-1],"split_conditions":[-2.3307566E-2,7.0759055E-4,6.249219E-4,3.5567364E1,1.0912982E-1,-3.3058831E-3,3.5626534E-2,5.5679288E-2,4.4015673E-4,3.2692238E-5,-3.8230903E-7,-1.8232371E-4,-0E0,1.0276659E-4,1.036289E-3,-0E0,-5.940886E-4],"split_indices":[11,0,11,14,0,15,12,12,15,0,0,0,0,0,0,0,0],"split_type":[0,0,0,0,0,0,0,0,0,0,0,0,0,0,0,0,0],"sum_hessian":[4.19E2,9E0,4.1E2,2.56E2,1.54E2,1.07E2,1.49E2,1.35E2,1.9E1,4.9E1,5.8E1,1.36E2,1.3E1,1.3E2,5E0,7E0,1.2E1],"tree_param":{"num_deleted":"0","num_feature":"20","num_nodes":"17","size_leaf_vector":"1"}},{"base_weights":[-0E0,7.076555E-4,-1.0641568E-2,-0E0,9.053383E-3,-0E0,-3.9702476E-4,7.444414E-3,-6.4748403E-4,1.5618273E-2,-0E0,2.8324407E-4,-0E0,-8.2535196E-5,1.7746364E-5,6.6331023E-4,-0E0],"categories":[],"categories_nodes":[],"categories_segments":[],"categories_sizes":[],"default_left":[0,0,0,0,0,0,0,0,0,0,0,0,0,0,0,0,0],"id":56,"left_children":[1,3,5,7,9,-1,-1,11,13,15,-1,-1,-1,-1,-1,-1,-1],"loss_changes":[2.9211463E-3,3.1571987E-3,6.098852E-4,1.1988607E-3,3.4695386E-3,0E0,0E0,1.9501185E-4,1.3406265E-3,3.4361584E-3,0E0,0E0,0E0,0E0,0E0,0E0,0E0],"parents":[2147483647,0,0,1,1,2,2,3,3,4,4,7,7,8,8,9,9],"right_children":[2,4,6,8,10,-1,-1,12,14,16,-1,-1,-1,-1,-1,-1,-1],"split_conditions":[6.442577E1,4.8850574E-2,5.584552E-2,-9.983956E-2,1.042737E-1,-0E0,-3.9702476E-4,-4.715447E-2,-3.4398361E-4,6.1554485E1,-0E0,2.8324407E-4,-0E0,-8.2535196E-5,1.7746364E-5,6.6331023E-4,-0E0],"split_indices":[14,18,0,0,0,0,0,7,15,14,0,0,0,0,0,0,0],"split_type":[0,0,0,0,0,0,0,0,0,0,0,0,0,0,0,0,0],"sum_hessian":[4.28E2,4.05E2,2.3E1,3.65E2,4E1,5E0,1.8E1,1.8E1,3.47E2,2.7E1,1.3E1,1.3E1,5E0,1.88E2,1.59E2,2E1,7E0],"tree_param":{"num_deleted":"0","num_feature":"20","num_nodes":"17","size_leaf_vector":"1"}},{"base_weights":[6.81567E-4,-0E0,2.1838596E-2,3.4922715E-3,-2.273766E-3,-0E0,1.2293173E-3,-0E0,6.399128E-3,5.0313503E-4,-3.7850935E-3,1.9590431E-4,-1.0956855E-4,2.6405154E-4,-0E0,-0E0,1.1027151E-4,-2.1380832E-4,-0E0],"categories":[],"categories_nodes":[],"categories_segments":[],"categories_sizes":[],"default_left":[0,0,0,0,0,0,0,0,0,0,0,0,0,0,0,0,0,0,0],"id":57,"left_children":[1,3,5,7,9,-1,-1,11,13,15,17,-1,-1,-1,-1,-1,-1,-1,-1],"loss_changes":[5.5233426E-3,3.3728424E-3,4.351714E-3,2.0503239E-3,1.7033011E-3,0E0,0E0,1.5757969E-3,2.2941977E-3,3.2714035E-4,1.6929843E-3,0E0,0E0,0E0,0E0,0E0,0E0,0E0,0E0],"parents":[2147483647,0,0,1,1,2,2,3,3,4,4,7,7,8,8,9,9,10,10],"right_children":[2,4,6,8,10,-1,-1,12,14,16,18,-1,-1,-1,-1,-1,-1,-1,-1],"split_conditions":[6.456693E-2,-2.189781E-2,-1.5421516E-2,1.6084494E-1,-1.5710565E-1,-0E0,1.2293173E-3,-1.6007079E-2,1.2406948E-3,1.7488897E-1,-2.1048699E-2,1.9590431E-4,-1.0956855E-4,2.6405154E-4,-0E0,-0E0,1.1027151E-4,-2.1380832E-4,-0E0],"split_indices":[12,7,4,17,4,0,0,11,12,17,0,0,0,0,0,0,0,0,0],"split_type":[0,0,0,0,0,0,0,0,0,0,0,0,0,0,0,0,0,0,0],"sum_hessian":[4.29E2,4.18E2,1.1E1,1.7E2,2.48E2,6E0,5E0,7E1,1E2,4.1E1,2.07E2,2E1,5E1,8.2E1,1.8E1,1.7E1,2.4E1,9.1E1,1.16E2],"tree_param":{"num_deleted":"0","num_feature":"20","num_nodes":"19","size_leaf_vector":"1"}},{"base_weights":[4.157953E-4,1.9276851E-3,-5.1540663E-3,5.1094644E-4,8.673694E-4,-0E0,-7.7331336E-3,3.3716152E-3,-1.1824467E-3,-0E0,-9.671066E-3,3.9953165E-6,4.1670457E-4,-1.2519429E-4,6.766143E-8,-0E0,-3.945404E-4],"categories":[],"categories_nodes":[],"categories_segments":[],"categories_sizes":[],"default_left":[0,0,0,0,0,0,0,0,0,0,0,0,0,0,0,0,0],"id":58,"left_children":[1,3,5,7,-1,-1,9,11,13,-1,15,-1,-1,-1,-1,-1,-1],"loss_changes":[2.7162242E-3,7.1752924E-3,1.4160958E-3,2.0549514E-3,0E0,0E0,1.1850323E-3,2.9161742E-3,1.4223388E-3,0E0,1.0734387E-3,0E0,0E0,0E0,0E0,0E0,0E0],"parents":[2147483647,0,0,1,1,2,2,3,3,6,6,7,7,8,8,10,10],"right_children":[2,4,6,8,-1,-1,10,12,14,-1,16,-1,-1,-1,-1,-1,-1],"split_conditions":[5.1743057E-2,6.200318E-2,7.7369374E-1,-1.9877676E-2,8.673694E-4,-0E0,-1.9134459E-1,-6.5446773E-4,-6.0465503E-3,-0E0,1.8359987E-1,3.9953165E-6,4.1670457E-4,-1.2519429E-4,6.766143E-8,-0E0,-3.945404E-4],"split_indices":[0,12,19,7,0,0,4,15,0,0,17,0,0,0,0,0,0],"split_type":[0,0,0,0,0,0,0,0,0,0,0,0,0,0,0,0,0],"sum_hessian":[3.97E2,3.41E2,5.6E1,3.32E2,9E0,8E0,4.8E1,1.67E2,1.65E2,5E0,4.3E1,1.43E2,2.4E1,9.4E1,7.1E1,1.4E1,2.9E1],"tree_param":{"num_deleted":"0","num_feature":"20","num_nodes":"17","size_leaf_vector":"1"}},{"base_weights":[-5.1474955E-4,3.4191695E-3,-2.8634565E-3,-0E0,9.084649E-3,-0E0,-4.0903017E-3,-0E0,-2.3818393E-3,-0E0,1.621607E-2,-8.218596E-4,5.7718134E-3,-4.99418E-3,-0E0,-0E0,1.2002902E-4,-0E0,-1.5202438E-4,-0E0,6.511007E-4,-0E0,-1.10093E-4,2.7247344E-4,-0E0,-0E0,-1.7440601E-4],"categories":[],"categories_nodes":[],"categories_segments":[],"categories_sizes":[],"default_left":[0,0,0,0,0,0,0,0,0,0,0,0,0,0,0,0,0,0,0,0,0,0,0,0,0,0,0],"id":59,"left_children":[1,3,5,7,9,11,13,15,17,-1,19,21,23,25,-1,-1,-1,-1,-1,-1,-1,-1,-1,-1,-1,-1,-1],"loss_changes":[3.8624464E-3,3.3612177E-3,1.614244E-3,1.8721423E-4,5.649115E-3,9.537264E-4,1.4049453E-3,3.361625E-4,4.290901E-4,0E0,1.7284928E-3,2.8880627E-4,9.6450216E-4,1.3736235E-3,0E0,0E0,0E0,0E0,0E0,0E0,0E0,0E0,0E0,0E0,0E0,0E0,0E0],"parents":[2147483647,0,0,1,1,2,2,3,3,4,4,5,5,6,6,7,7,8,8,10,10,11,11,12,12,13,13],"right_children":[2,4,6,8,10,12,14,16,18,-1,20,22,24,26,-1,-1,-1,-1,-1,-1,-1,-1,-1,-1,-1,-1,-1],"split_conditions":[-3.3058831E-3,-6.1839614E-3,-2.7303753E-2,-1.6008148E-2,1.4722526E-1,1.2820513E-2,1E0,3.176435E1,-3.6474165E-2,-0E0,-5.39629E-2,-1.00621656E-1,1.2406948E-3,-1.8999569E-1,-0E0,-0E0,1.2002902E-4,-0E0,-1.5202438E-4,-0E0,6.511007E-4,-0E0,-1.10093E-4,2.7247344E-4,-0E0,-0E0,-1.7440601E-4],"split_indices":[15,15,7,0,17,1,5,14,18,0,7,16,12,4,0,0,0,0,0,0,0,0,0,0,0,0,0],"split_type":[0,0,0,0,0,0,0,0,0,0,0,0,0,0,0,0,0,0,0,0,0,0,0,0,0,0,0],"sum_hessian":[4.28E2,1.28E2,3E2,7E1,5.8E1,5.7E1,2.43E2,3.8E1,3.2E1,1.9E1,3.9E1,3E1,2.7E1,2.19E2,2.4E1,1.8E1,2E1,9E0,2.3E1,1.4E1,2.5E1,8E0,2.2E1,2.2E1,5E0,1.7E1,2.02E2],"tree_param":{"num_deleted":"0","num_feature":"20","num_nodes":"27","size_leaf_vector":"1"}},{"base_weights":[2.6014392E-4,-2.0120859E-4,1.0934613E-2,7.2602024E-3,-9.661497E-4,-0E0,2.3448301E-2,2.919853E-4,-0E0,-3.1906818E-3,-0E0,-0E0,1.1144335E-3,-0E0,-2.1530972E-4,5.0006754E-5,-1.4617125E-4],"categories":[],"categories_nodes":[],"categories_segments":[],"categories_sizes":[],"default_left":[0,0,0,0,0,0,0,0,0,0,0,0,0,0,0,0,0],"id":60,"left_children":[1,3,5,7,9,-1,11,-1,-1,13,15,-1,-1,-1,-1,-1,-1],"loss_changes":[4.291122E-3,1.0312197E-3,4.4927984E-3,7.258897E-5,1.4295825E-3,0E0,3.6224565E-3,0E0,0E0,1.5563383E-3,1.1396043E-3,0E0,0E0,0E0,0E0,0E0,0E0],"parents":[2147483647,0,0,1,1,2,2,3,3,4,4,6,6,9,9,10,10],"right_children":[2,4,6,8,10,-1,12,-1,-1,14,16,-1,-1,-1,-1,-1,-1],"split_conditions":[1.2167431E0,-9.437964E-2,2.2788057E-1,-3.558162E-3,2.3684211E-1,-0E0,-3.502242E-2,2.919853E-4,-0E0,1.8365537E-1,6.335436E1,-0E0,1.1144335E-3,-0E0,-2.1530972E-4,5.0006754E-5,-1.4617125E-4],"split_indices":[19,18,17,15,1,0,4,0,0,17,14,0,0,0,0,0,0],"split_type":[0,0,0,0,0,0,0,0,0,0,0,0,0,0,0,0,0],"sum_hessian":[4.34E2,3.99E2,3.5E1,1.2E1,3.87E2,2E1,1.5E1,7E0,5E0,1.75E2,2.12E2,7E0,8E0,1.11E2,6.4E1,1.87E2,2.5E1],"tree_param":{"num_deleted":"0","num_feature":"20","num_nodes":"17","size_leaf_vector":"1"}},{"base_weights":[4.7930336E-4,1.1344896E-2,-0E0,5.034394E-4,-0E0,-9.886908E-4,8.667105E-3,-0E0,-6.6310125E-3,-0E0,1.0180459E-3,-1.0412285E-5,1.8721976E-4,-0E0,-2.7087974E-4],"categories":[],"categories_nodes":[],"categories_segments":[],"categories_sizes":[],"default_left":[0,0,0,0,0,0,0,0,0,0,0,0,0,0,0],"id":61,"left_children":[1,3,5,-1,-1,7,9,11,13,-1,-1,-1,-1,-1,-1],"loss_changes":[3.2496557E-3,8.7781437E-4,2.6864482E-3,0E0,0E0,2.9400063E-3,4.5807706E-3,1.4330085E-3,2.327707E-3,0E0,0E0,0E0,0E0,0E0,0E0],"parents":[2147483647,0,0,1,1,2,2,5,5,6,6,7,7,8,8],"right_children":[2,4,6,-1,-1,8,10,12,14,-1,-1,-1,-1,-1,-1],"split_conditions":[2.7330496E1,-7.390649E-2,1E0,5.034394E-4,-0E0,1.0956922E-1,2.7823241E-2,6.955392E-2,-6.1962135E-2,-0E0,1.0180459E-3,-1.0412285E-5,1.8721976E-4,-0E0,-2.7087974E-4],"split_indices":[14,18,5,0,0,4,7,4,7,0,0,0,0,0,0],"split_type":[0,0,0,0,0,0,0,0,0,0,0,0,0,0,0],"sum_hessian":[4.2E2,2.5E1,3.95E2,1.4E1,1.1E1,3.65E2,3E1,2.91E2,7.4E1,2.5E1,5E0,2.56E2,3.5E1,6E0,6.8E1],"tree_param":{"num_deleted":"0","num_feature":"20","num_nodes":"15","size_leaf_vector":"1"}},{"base_weights":[1.0525798E-3,6.3738837E-3,-5.546851E-4,7.047448E-4,2.1238336E-3,-3.8533495E-3,3.925598E-3,-0E0,7.87934E-3,-5.023563E-3,-0E0,1.1796861E-2,-1.2811319E-3,-0E0,-4.710785E-6,-0E0,4.8698974E-4,-0E0,-1.8040792E-4,5.7315425E-5,-0E0,-0E0,4.083301E-4,-0E0,-2.8508168E-4],"categories":[],"categories_nodes":[],"categories_segments":[],"categories_sizes":[],"default_left":[0,0,0,0,0,0,0,0,0,0,0,0,0,0,0,0,0,0,0,0,0,0,0,0,0],"id":62,"left_children":[1,3,5,-1,7,9,11,13,15,17,19,21,23,-1,-1,-1,-1,-1,-1,-1,-1,-1,-1,-1,-1],"loss_changes":[4.8193973E-3,4.139131E-3,4.434362E-3,0E0,1.7253184E-3,1.6886455E-3,6.29858E-3,1.1588894E-6,3.2986866E-3,1.612803E-3,4.015071E-5,1.4696778E-3,1.1870833E-3,0E0,0E0,0E0,0E0,0E0,0E0,0E0,0E0,0E0,0E0,0E0,0E0],"parents":[2147483647,0,0,1,1,2,2,4,4,5,5,6,6,7,7,8,8,9,9,10,10,11,11,12,12],"right_children":[2,4,6,-1,8,10,12,14,16,18,20,22,24,-1,-1,-1,-1,-1,-1,-1,-1,-1,-1,-1,-1],"split_conditions":[-3.2705576E-3,-8.5896075E-2,2.2617124E-2,7.047448E-4,-4.986205E-3,2.701463E-1,6.1554485E1,-8.143735E-3,-3.961965E-2,2.9715935E1,4.9689442E-2,-2.3708208E-2,9.7417735E-2,-0E0,-4.710785E-6,-0E0,4.8698974E-4,-0E0,-1.8040792E-4,5.7315425E-5,-0E0,-0E0,4.083301E-4,-0E0,-2.8508168E-4],"split_indices":[15,18,18,0,15,17,14,15,7,14,7,16,16,0,0,0,0,0,0,0,0,0,0,0,0],"split_type":[0,0,0,0,0,0,0,0,0,0,0,0,0,0,0,0,0,0,0,0,0,0,0,0,0],"sum_hessian":[4.26E2,1.27E2,2.99E2,1.5E1,1.12E2,1.98E2,1.01E2,7.7E1,3.5E1,1.83E2,1.5E1,5.5E1,4.6E1,3.1E1,4.6E1,1.5E1,2E1,1.1E1,1.72E2,1E1,5E0,6E0,4.9E1,3.3E1,1.3E1],"tree_param":{"num_deleted":"0","num_feature":"20","num_nodes":"25","size_leaf_vector":"1"}},{"base_weights":[-0E0,9.028334E-3,-7.563802E-4,5.0942966E-4,-0E0,-2.7679754E-3,2.807777E-3,-0E0,-4.8586265E-3,1.376057E-2,-0E0,-2.682495E-5,1.4010938E-4,-1.6902141E-4,-0E0,5.3941685E-4,-0E0,-0E0,-3.1623486E-4],"categories":[],"categories_nodes":[],"categories_segments":[],"categories_sizes":[],"default_left":[0,0,0,0,0,0,0,0,0,0,0,0,0,0,0,0,0,0,0],"id":63,"left_children":[1,3,5,-1,-1,7,9,11,13,15,17,-1,-1,-1,-1,-1,-1,-1,-1],"loss_changes":[2.4985608E-3,1.1779449E-3,2.7099361E-3,0E0,0E0,1.4582009E-3,5.4524145E-3,4.175243E-4,9.5102517E-4,2.8037578E-3,1.3333932E-3,0E0,0E0,0E0,0E0,0E0,0E0,0E0,0E0],"parents":[2147483647,0,0,1,1,2,2,5,5,6,6,7,7,8,8,9,9,10,10],"right_children":[2,4,6,-1,-1,8,10,12,14,16,18,-1,-1,-1,-1,-1,-1,-1,-1],"split_conditions":[2.7330496E1,-1.9806687E-2,2.2617124E-2,5.0942966E-4,-0E0,-2.366864E-2,9.204152E-3,-4.717733E-4,4.2936172E-2,2.2452007E-1,1.2051095E-1,-2.682495E-5,1.4010938E-4,-1.6902141E-4,-0E0,5.3941685E-4,-0E0,-0E0,-3.1623486E-4],"split_indices":[14,11,18,0,0,7,11,15,0,4,0,0,0,0,0,0,0,0,0],"split_type":[0,0,0,0,0,0,0,0,0,0,0,0,0,0,0,0,0,0,0],"sum_hessian":[4.04E2,2.7E1,3.77E2,1.1E1,1.6E1,2.77E2,1E2,1.26E2,1.51E2,3.2E1,6.8E1,1.12E2,1.4E1,1.42E2,9E0,2.7E1,5E0,5.7E1,1.1E1],"tree_param":{"num_deleted":"0","num_feature":"20","num_nodes":"19","size_leaf_vector":"1"}},{"base_weights":[-0E0,5.996335E-4,-1.0991447E-2,-0E0,5.1900838E-3,-0E0,-5.398551E-4,2.0682197E-3,-3.4655654E-3,-0E0,7.2230385E-3,-0E0,7.34709E-4,-1.30262E-4,-0E0,-0E0,2.3219391E-4],"categories":[],"categories_nodes":[],"categories_segments":[],"categories_sizes":[],"default_left":[0,0,0,0,0,0,0,0,0,0,0,0,0,0,0,0,0],"id":64,"left_children":[1,3,5,7,9,-1,-1,11,13,-1,15,-1,-1,-1,-1,-1,-1],"loss_changes":[3.044029E-3,1.983477E-3,1.3102554E-3,2.5655548E-3,8.457997E-4,0E0,0E0,7.057061E-3,8.70515E-4,0E0,1.4121179E-4,0E0,0E0,0E0,0E0,0E0,0E0],"parents":[2147483647,0,0,1,1,2,2,3,3,4,4,7,7,8,8,10,10],"right_children":[2,4,6,8,10,-1,-1,12,14,-1,16,-1,-1,-1,-1,-1,-1],"split_conditions":[1.042737E-1,3.0794166E-2,4.4015673E-4,-1.9877676E-2,8.956847E-1,-0E0,-5.398551E-4,3.3333334E-1,4.8742138E-2,-0E0,4.903021E1,-0E0,7.34709E-4,-1.30262E-4,-0E0,-0E0,2.3219391E-4],"split_indices":[0,18,15,7,19,0,0,1,12,0,14,0,0,0,0,0,0],"split_type":[0,0,0,0,0,0,0,0,0,0,0,0,0,0,0,0,0],"sum_hessian":[4.24E2,4.01E2,2.3E1,3.23E2,7.8E1,1.1E1,1.2E1,1.72E2,1.51E2,2.2E1,5.6E1,1.6E2,1.2E1,1.42E2,9E0,5E0,5.1E1],"tree_param":{"num_deleted":"0","num_feature":"20","num_nodes":"17","size_leaf_vector":"1"}},{"base_weights":[4.637464E-4,1.4330395E-2,-0E0,-0E0,5.689762E-4,-2.3366867E-3,1.7104041E-3,-0E0,-4.8461007E-3,-2.7699198E-3,4.3449816E-3,1.330492E-4,-3.2417636E-5,-1.7994417E-4,-0E0,-1.8066561E-4,-0E0,2.7393957E-4,-5.354521E-5],"categories":[],"categories_nodes":[],"categories_segments":[],"categories_sizes":[],"default_left":[0,0,0,0,0,0,0,0,0,0,0,0,0,0,0,0,0,0,0],"id":65,"left_children":[1,3,5,-1,-1,7,9,11,13,15,17,-1,-1,-1,-1,-1,-1,-1,-1],"loss_changes":[2.9872817E-3,5.1664095E-4,1.6874692E-3,0E0,0E0,1.6889761E-3,3.1481462E-3,7.651178E-4,1.2443115E-3,8.3758263E-4,6.7373454E-3,0E0,0E0,0E0,0E0,0E0,0E0,0E0,0E0],"parents":[2147483647,0,0,1,1,2,2,5,5,6,6,7,7,8,8,9,9,10,10],"right_children":[2,4,6,-1,-1,8,10,12,14,16,18,-1,-1,-1,-1,-1,-1,-1,-1],"split_conditions":[-1.0417316E-1,2.151177E-1,-6.22084E-3,-0E0,5.689762E-4,1.5552449E-1,1.6214958E-1,-5.8383234E-2,2.701463E-1,1.9035533E-2,5.2786626E-2,1.330492E-4,-3.2417636E-5,-1.7994417E-4,-0E0,-1.8066561E-4,-0E0,2.7393957E-4,-5.354521E-5],"split_indices":[0,17,11,0,0,17,17,18,17,18,0,0,0,0,0,0,0,0,0],"split_type":[0,0,0,0,0,0,0,0,0,0,0,0,0,0,0,0,0,0,0],"sum_hessian":[4.32E2,1.4E1,4.18E2,5E0,9E0,1.8E2,2.38E2,6.7E1,1.13E2,6E1,1.78E2,3.6E1,3.1E1,1.08E2,5E0,3.5E1,2.5E1,1.18E2,6E1],"tree_param":{"num_deleted":"0","num_feature":"20","num_nodes":"19","size_leaf_vector":"1"}},{"base_weights":[4.4882665E-5,-2.7635117E-4,9.401595E-3,-1.2576904E-3,3.180667E-3,2.2398539E-2,-0E0,1.4713389E-4,-5.5346526E-3,6.7754285E-3,-0E0,-0E0,1.0879887E-3,6.709469E-5,-0E0,-2.0537112E-4,-0E0,2.806923E-4,-0E0],"categories":[],"categories_nodes":[],"categories_segments":[],"categories_sizes":[],"default_left":[0,0,0,0,0,0,0,0,0,0,0,0,0,0,0,0,0,0,0],"id":66,"left_children":[1,3,5,7,9,11,-1,13,15,17,-1,-1,-1,-1,-1,-1,-1,-1,-1],"loss_changes":[3.1231006E-3,9.662305E-4,5.4351576E-3,3.2112931E-3,1.2176159E-3,4.623634E-3,0E0,4.851408E-4,1.3872203E-3,9.82167E-5,0E0,0E0,0E0,0E0,0E0,0E0,0E0,0E0,0E0],"parents":[2147483647,0,0,1,1,2,2,3,3,4,4,5,5,7,7,8,8,9,9],"right_children":[2,4,6,8,10,12,-1,14,16,18,-1,-1,-1,-1,-1,-1,-1,-1,-1],"split_conditions":[1.2167431E0,2.552333E-1,-2.0636013E-3,5.9900768E-2,6.118367E1,-8.532914E-3,-0E0,1.6737357E-1,4.012841E-2,7.1428573E-1,-0E0,-0E0,1.0879887E-3,6.709469E-5,-0E0,-2.0537112E-4,-0E0,2.806923E-4,-0E0],"split_indices":[19,17,0,4,14,4,0,17,18,1,0,0,0,0,0,0,0,0,0],"split_type":[0,0,0,0,0,0,0,0,0,0,0,0,0,0,0,0,0,0,0],"sum_hessian":[4.3E2,3.96E2,3.4E1,3.54E2,4.2E1,1.6E1,1.8E1,2.32E2,1.22E2,3.5E1,7E0,7E0,9E0,9.7E1,1.35E2,1.09E2,1.3E1,1.9E1,1.6E1],"tree_param":{"num_deleted":"0","num_feature":"20","num_nodes":"19","size_leaf_vector":"1"}},{"base_weights":[-0E0,7.675413E-4,-2.4377895E-4,7.6938875E-4,-3.7910584E-3,2.3345521E-3,-1.6490333E-3,-5.5325325E-3,-0E0,1.2129615E-4,-0E0,-2.6054957E-4,-0E0,-0E0,-2.1266886E-4,1.809235E-5,-0E0],"categories":[],"categories_nodes":[],"categories_segments":[],"categories_sizes":[],"default_left":[0,0,0,0,0,0,0,0,0,0,0,0,0,0,0,0,0],"id":67,"left_children":[1,-1,3,5,7,9,11,13,15,-1,-1,-1,-1,-1,-1,-1,-1],"loss_changes":[7.2249556E-3,0E0,2.0951622E-3,1.1970315E-3,1.2287186E-3,1.4656147E-3,8.174182E-4,1.0379574E-3,9.09259E-6,0E0,0E0,0E0,0E0,0E0,0E0,0E0,0E0],"parents":[2147483647,0,0,2,2,3,3,4,4,5,5,6,6,7,7,8,8],"right_children":[2,-1,4,6,8,10,12,14,16,-1,-1,-1,-1,-1,-1,-1,-1],"split_conditions":[-2.3307566E-2,7.675413E-4,7.078336E-2,1.6393442E-2,5.77979E1,5.294118E-1,5.714286E-1,-3.1982943E-2,8.430323E-3,1.2129615E-4,-0E0,-2.6054957E-4,-0E0,-0E0,-2.1266886E-4,1.809235E-5,-0E0],"split_indices":[11,0,4,12,14,1,1,12,15,0,0,0,0,0,0,0,0],"split_type":[0,0,0,0,0,0,0,0,0,0,0,0,0,0,0,0,0],"sum_hessian":[4.23E2,1E1,4.13E2,2.78E2,1.35E2,2.19E2,5.9E1,1.03E2,3.2E1,1.62E2,5.7E1,1.2E1,4.7E1,2E1,8.3E1,2.4E1,8E0],"tree_param":{"num_deleted":"0","num_feature":"20","num_nodes":"17","size_leaf_vector":"1"}},{"base_weights":[4.3777056E-4,1.1189865E-2,-0E0,1.344629E-2,-0E0,-2.9534295E-3,1.1155591E-3,1.590147E-2,-0E0,-0E0,-6.586017E-3,-6.7568733E-4,5.611103E-3,6.5316143E-4,-0E0,9.6628886E-5,-0E0,-2.8702713E-4,-0E0,2.3341365E-5,-1.0578186E-4,6.195529E-4,-0E0],"categories":[],"categories_nodes":[],"categories_segments":[],"categories_sizes":[],"default_left":[0,0,0,0,0,0,0,0,0,0,0,0,0,0,0,0,0,0,0,0,0,0,0],"id":68,"left_children":[1,3,5,7,-1,9,11,13,-1,15,17,19,21,-1,-1,-1,-1,-1,-1,-1,-1,-1,-1],"loss_changes":[3.4241346E-3,2.9089092E-4,1.5534698E-3,2.488515E-4,0E0,2.4570208E-3,3.0845576E-3,6.945119E-4,0E0,3.4236183E-4,2.720762E-3,1.1946177E-3,8.178021E-3,0E0,0E0,0E0,0E0,0E0,0E0,0E0,0E0,0E0,0E0],"parents":[2147483647,0,0,1,1,2,2,3,3,5,5,6,6,7,7,9,9,10,10,11,11,12,12],"right_children":[2,4,6,8,-1,10,12,14,-1,16,18,20,22,-1,-1,-1,-1,-1,-1,-1,-1,-1,-1],"split_conditions":[2.7125393E1,-7.368421E-2,1.6214958E-1,-3.5921205E-2,-0E0,-2.3490723E-2,1.8543545E-2,-8.5896075E-2,-0E0,-2.2862121E-2,2.124183E-2,-8.3322654E-4,1.804645E-1,6.5316143E-4,-0E0,9.6628886E-5,-0E0,-2.8702713E-4,-0E0,2.3341365E-5,-1.0578186E-4,6.195529E-4,-0E0],"split_indices":[14,18,17,12,0,4,4,18,0,0,18,15,17,0,0,0,0,0,0,0,0,0,0],"split_type":[0,0,0,0,0,0,0,0,0,0,0,0,0,0,0,0,0,0,0,0,0,0,0],"sum_hessian":[4.26E2,2.7E1,3.99E2,2E1,7E0,1.4E2,2.59E2,1.5E1,5E0,5.6E1,8.4E1,1.54E2,1.05E2,9E0,6E0,3.2E1,2.4E1,6.9E1,1.5E1,5.6E1,9.8E1,2.6E1,7.9E1],"tree_param":{"num_deleted":"0","num_feature":"20","num_nodes":"23","size_leaf_vector":"1"}},{"base_weights":[-0E0,1.0406743E-2,-1.1185396E-3,3.571411E-4,-0E0,1.2009882E-3,-3.5048998E-3,-0E0,1.8111385E-2,-5.277854E-3,3.1894215E-3,1.4166192E-5,-9.212094E-5,-0E0,7.026014E-4,-0E0,-1.7683972E-4,-0E0,6.479627E-4],"categories":[],"categories_nodes":[],"categories_segments":[],"categories_sizes":[],"default_left":[0,0,0,0,0,0,0,0,0,0,0,0,0,0,0,0,0,0,0],"id":69,"left_children":[1,3,5,-1,-1,7,9,11,13,15,17,-1,-1,-1,-1,-1,-1,-1,-1],"loss_changes":[3.6261475E-3,2.6061828E-4,2.6126602E-3,0E0,0E0,5.6808335E-3,3.2118014E-3,5.6495424E-4,6.775819E-4,8.1482483E-4,3.4675677E-3,0E0,0E0,0E0,0E0,0E0,0E0,0E0,0E0],"parents":[2147483647,0,0,1,1,2,2,5,5,6,6,7,7,8,8,9,9,10,10],"right_children":[2,4,6,-1,-1,8,10,12,14,16,18,-1,-1,-1,-1,-1,-1,-1,-1],"split_conditions":[-9.983956E-2,-4.101839E-2,-1.9877676E-2,3.571411E-4,-0E0,3.3333334E-1,1E0,7.575758E-2,-2.7777778E-2,3.63533E1,5.6613274E1,1.4166192E-5,-9.212094E-5,-0E0,7.026014E-4,-0E0,-1.7683972E-4,-0E0,6.479627E-4],"split_indices":[0,7,7,0,0,1,5,1,7,14,14,0,0,0,0,0,0,0,0],"split_type":[0,0,0,0,0,0,0,0,0,0,0,0,0,0,0,0,0,0,0],"sum_hessian":[4.15E2,2.8E1,3.87E2,2.3E1,5E0,1.54E2,2.33E2,1.37E2,1.7E1,2.08E2,2.5E1,8E1,5.7E1,6E0,1.1E1,1.8E1,1.9E2,1.8E1,7E0],"tree_param":{"num_deleted":"0","num_feature":"20","num_nodes":"19","size_leaf_vector":"1"}},{"base_weights":[1.2150804E-3,2.459762E-3,-3.347892E-3,-1.7260355E-3,3.4505997E-3,-0E0,-6.1901854E-3,-0E0,-1.47159E-4,-0E0,6.374303E-3,-0E0,-1.0610883E-2,1.3071518E-4,-9.010985E-5,-0E0,2.320274E-4,-0E0,-4.6735944E-4],"categories":[],"categories_nodes":[],"categories_segments":[],"categories_sizes":[],"default_left":[0,0,0,0,0,0,0,0,0,0,0,0,0,0,0,0,0,0,0],"id":70,"left_children":[1,3,5,7,9,-1,11,-1,-1,13,15,-1,17,-1,-1,-1,-1,-1,-1],"loss_changes":[2.2954894E-3,1.9103086E-3,1.0630335E-3,5.0025637E-4,2.3764693E-3,0E0,1.7659878E-3,0E0,0E0,2.6644233E-3,2.3927032E-3,0E0,6.3548656E-4,0E0,0E0,0E0,0E0,0E0,0E0],"parents":[2147483647,0,0,1,1,2,2,3,3,4,4,6,6,9,9,10,10,12,12],"right_children":[2,4,6,8,10,-1,12,-1,-1,14,16,-1,18,-1,-1,-1,-1,-1,-1],"split_conditions":[5.2786626E-2,7.9369384E-1,5.294118E-1,-7.825549E-2,0E0,-0E0,1.0696445E-2,-0E0,-1.47159E-4,-2.843484E-3,-7.390649E-2,-0E0,1.042737E-1,1.3071518E-4,-9.010985E-5,-0E0,2.320274E-4,-0E0,-4.6735944E-4],"split_indices":[0,19,1,0,10,0,11,0,0,15,18,0,0,0,0,0,0,0,0],"split_type":[0,0,0,0,0,0,0,0,0,0,0,0,0,0,0,0,0,0,0],"sum_hessian":[4.33E2,3.75E2,5.8E1,3.3E1,3.42E2,1.4E1,4.4E1,9E0,2.4E1,1.84E2,1.58E2,1.4E1,3E1,9.8E1,8.6E1,1.1E1,1.47E2,1.4E1,1.6E1],"tree_param":{"num_deleted":"0","num_feature":"20","num_nodes":"19","size_leaf_vector":"1"}},{"base_weights":[-0E0,-1.1461042E-3,5.9784474E-3,6.323204E-3,-2.7658613E-3,1.2864061E-2,-0E0,9.899548E-3,-0E0,3.4590491E-6,-3.5864532E-3,-0E0,1.4925496E-2,-0E0,4.669299E-4,-1.7626942E-4,-0E0,-0E0,5.32945E-4],"categories":[],"categories_nodes":[],"categories_segments":[],"categories_sizes":[],"default_left":[0,0,0,0,0,0,0,0,0,0,0,0,0,0,0,0,0,0,0],"id":71,"left_children":[1,3,5,7,9,11,-1,13,-1,-1,15,-1,17,-1,-1,-1,-1,-1,-1],"loss_changes":[3.2993876E-3,3.359006E-3,3.2635632E-3,9.306761E-4,1.3991927E-3,1.0057436E-3,0E0,9.414505E-4,0E0,0E0,1.7069082E-3,0E0,1.3922569E-3,0E0,0E0,0E0,0E0,0E0,0E0],"parents":[2147483647,0,0,1,1,2,2,3,3,4,4,5,5,7,7,10,10,12,12],"right_children":[2,4,6,8,10,12,-1,14,-1,-1,16,-1,18,-1,-1,-1,-1,-1,-1],"split_conditions":[5.6613274E1,2.9715935E1,6.666667E-1,-1.6007079E-2,-5.8626465E-2,7.899338E-1,-0E0,1.8543545E-2,-0E0,3.4590491E-6,-2.723108E-4,-0E0,1.5405062E-1,-0E0,4.669299E-4,-1.7626942E-4,-0E0,-0E0,5.32945E-4],"split_indices":[14,14,13,11,7,19,0,4,0,0,15,0,17,0,0,0,0,0,0],"split_type":[0,0,0,0,0,0,0,0,0,0,0,0,0,0,0,0,0,0,0],"sum_hessian":[4.13E2,3.34E2,7.9E1,3.7E1,2.97E2,3.6E1,4.3E1,2.4E1,1.3E1,1.2E1,2.85E2,5E0,3.1E1,1.1E1,1.3E1,1.55E2,1.3E2,5E0,2.6E1],"tree_param":{"num_deleted":"0","num_feature":"20","num_nodes":"19","size_leaf_vector":"1"}},{"base_weights":[1.9167051E-4,5.762E-4,-0E0,5.8682763E-4,-3.1034034E-3,-1.5956102E-4,3.9898623E-3,-5.830259E-3,-0E0,-0E0,-4.0401213E-5,2.634996E-4,-0E0,-0E0,-2.6212764E-4,4.0339023E-6,-2.8270573E-4],"categories":[],"categories_nodes":[],"categories_segments":[],"categories_sizes":[],"default_left":[0,0,0,0,0,0,0,0,0,0,0,0,0,0,0,0,0],"id":72,"left_children":[1,-1,3,5,7,9,11,13,15,-1,-1,-1,-1,-1,-1,-1,-1],"loss_changes":[3.673788E-3,0E0,1.0217093E-3,1.5540927E-3,5.1270495E-4,3.0123163E-4,2.8960793E-3,7.8635744E-4,5.337028E-4,0E0,0E0,0E0,0E0,0E0,0E0,0E0,0E0],"parents":[2147483647,0,0,2,2,3,3,4,4,5,5,6,6,7,7,8,8],"right_children":[2,-1,4,6,8,10,12,14,16,-1,-1,-1,-1,-1,-1,-1,-1],"split_conditions":[-9.811321E-2,5.762E-4,4.1204467E-3,-2.1551724E-3,-2.0200929E-2,-3.5921205E-2,1.9066377E-1,1E0,9.514563E-2,-0E0,-4.0401213E-5,2.634996E-4,-0E0,-0E0,-2.6212764E-4,4.0339023E-6,-2.8270573E-4],"split_indices":[18,0,15,12,0,12,17,10,0,0,0,0,0,0,0,0,0],"split_type":[0,0,0,0,0,0,0,0,0,0,0,0,0,0,0,0,0],"sum_hessian":[4.12E2,9E0,4.03E2,3.09E2,9.4E1,2.06E2,1.03E2,4.1E1,5.3E1,3.8E1,1.68E2,5.8E1,4.5E1,1.3E1,2.8E1,4.8E1,5E0],"tree_param":{"num_deleted":"0","num_feature":"20","num_nodes":"17","size_leaf_vector":"1"}},{"base_weights":[1.1303176E-3,-7.7470497E-4,4.051281E-3,-0E0,-2.1783928E-3,1.5109018E-3,1.6253976E-2,3.1209022E-3,-2.4499695E-4,-3.8311295E-3,-0E0,7.512439E-3,-5.910552E-4,-0E0,2.5278162E-2,2.8289735E-4,-0E0,-0E0,-1.2945202E-4,-1.8504489E-4,-0E0,9.841587E-6,-0E0,-0E0,3.312564E-4,-0E0,-1.2121806E-4,1.0303274E-3,-0E0],"categories":[],"categories_nodes":[],"categories_segments":[],"categories_sizes":[],"default_left":[0,0,0,0,0,0,0,0,0,0,0,0,0,0,0,0,0,0,0,0,0,0,0,0,0,0,0,0,0],"id":73,"left_children":[1,3,5,7,9,11,13,15,17,19,21,23,25,-1,27,-1,-1,-1,-1,-1,-1,-1,-1,-1,-1,-1,-1,-1,-1],"loss_changes":[2.98998E-3,4.7008408E-4,2.839358E-3,3.828624E-4,7.377375E-4,3.7351018E-3,3.1335787E-3,1.3986035E-3,6.486921E-4,1.0232093E-3,2.7980864E-6,2.0981971E-3,1.0050684E-3,0E0,4.9042236E-4,0E0,0E0,0E0,0E0,0E0,0E0,0E0,0E0,0E0,0E0,0E0,0E0,0E0,0E0],"parents":[2147483647,0,0,1,1,2,2,3,3,4,4,5,5,6,6,7,7,8,8,9,9,10,10,11,11,12,12,14,14],"right_children":[2,4,6,8,10,12,14,16,18,20,22,24,26,-1,28,-1,-1,-1,-1,-1,-1,-1,-1,-1,-1,-1,-1,-1,-1],"split_conditions":[9.9713135E-1,8.6481875E-1,1E0,-3.3505153E-2,5.6613274E1,-2.4759285E-2,-1.2106538E-2,8.6764705E-1,-1.1576832E-1,9.2E-1,6.2654026E1,1.4508668E-1,1.0881379E0,-0E0,0E0,2.8289735E-4,-0E0,-0E0,-1.2945202E-4,-1.8504489E-4,-0E0,9.841587E-6,-0E0,-0E0,3.312564E-4,-0E0,-1.2121806E-4,1.0303274E-3,-0E0],"split_indices":[19,19,5,0,14,7,18,2,4,2,14,17,19,0,13,0,0,0,0,0,0,0,0,0,0,0,0,0,0],"split_type":[0,0,0,0,0,0,0,0,0,0,0,0,0,0,0,0,0,0,0,0,0,0,0,0,0,0,0,0,0],"sum_hessian":[4.18E2,2.12E2,2.06E2,8.7E1,1.25E2,1.85E2,2.1E1,3.8E1,4.9E1,9E1,3.5E1,7.2E1,1.13E2,8E0,1.3E1,1.9E1,1.9E1,1.5E1,3.4E1,6.1E1,2.9E1,2.5E1,1E1,2.2E1,5E1,5E1,6.3E1,7E0,6E0],"tree_param":{"num_deleted":"0","num_feature":"20","num_nodes":"29","size_leaf_vector":"1"}},{"base_weights":[2.957431E-4,-8.010709E-5,1.0232579E-2,4.545425E-3,-1.6344686E-3,6.8701204E-4,-0E0,-0E0,8.442037E-3,-4.541531E-3,1.09131906E-4,2.8776916E-4,-0E0,-1.7340224E-4,-0E0,2.052082E-4,-0E0],"categories":[],"categories_nodes":[],"categories_segments":[],"categories_sizes":[],"default_left":[0,0,0,0,0,0,0,0,0,0,0,0,0,0,0,0,0],"id":74,"left_children":[1,3,5,7,9,-1,-1,-1,11,13,15,-1,-1,-1,-1,-1,-1],"loss_changes":[3.6297922E-3,2.257999E-3,4.201727E-3,9.6756406E-4,2.5495274E-3,0E0,0E0,0E0,2.2450183E-4,1.5207368E-3,9.338454E-4,0E0,0E0,0E0,0E0,0E0,0E0],"parents":[2147483647,0,0,1,1,2,2,3,3,4,4,8,8,9,9,10,10],"right_children":[2,4,6,8,10,-1,-1,-1,12,14,16,-1,-1,-1,-1,-1,-1],"split_conditions":[1.2167431E0,-4.4094488E-2,2.5661131E-3,2.0251818E-1,4.7540984E-1,6.8701204E-4,-0E0,-0E0,1.5561168E-1,1.4044944E-3,5.3333336E-1,2.8776916E-4,-0E0,-1.7340224E-4,-0E0,2.052082E-4,-0E0],"split_indices":[19,7,11,17,1,0,0,0,4,7,1,0,0,0,0,0,0],"split_type":[0,0,0,0,0,0,0,0,0,0,0,0,0,0,0,0,0],"sum_hessian":[4.27E2,3.93E2,3.4E1,6.6E1,3.27E2,1.4E1,2E1,3.4E1,3.2E1,1.65E2,1.62E2,2.7E1,5E0,1.47E2,1.8E1,1.9E1,1.43E2],"tree_param":{"num_deleted":"0","num_feature":"20","num_nodes":"17","size_leaf_vector":"1"}},{"base_weights":[-0E0,3.0086802E-3,-1.352882E-3,-0E0,4.451967E-3,1.0013721E-2,-2.5615967E-3,-0E0,8.241215E-3,-0E0,5.159024E-4,-3.7149084E-3,5.480105E-6,-0E0,-1.05126084E-4,-0E0,3.7245944E-4,-0E0,-2.1675187E-4,1.5295405E-4,-0E0],"categories":[],"categories_nodes":[],"categories_segments":[],"categories_sizes":[],"default_left":[0,0,0,0,0,0,0,0,0,0,0,0,0,0,0,0,0,0,0,0,0],"id":75,"left_children":[1,3,5,-1,7,9,11,13,15,-1,-1,17,19,-1,-1,-1,-1,-1,-1,-1,-1],"loss_changes":[1.8238092E-3,1.1994313E-3,2.780571E-3,0E0,2.8398938E-3,9.6198067E-4,1.6182554E-3,2.3330931E-4,2.2552875E-3,0E0,0E0,3.4344636E-3,8.3181885E-4,0E0,0E0,0E0,0E0,0E0,0E0,0E0,0E0],"parents":[2147483647,0,0,1,1,2,2,4,4,5,5,6,6,7,7,8,8,11,11,12,12],"right_children":[2,4,6,-1,8,10,12,14,16,-1,-1,18,20,-1,-1,-1,-1,-1,-1,-1,-1],"split_conditions":[-3.3058831E-3,-1.2553749E-2,0E0,-0E0,1.6162072E-1,-1.16171E-3,2.8307173E-1,-2.5458528E-2,-8.0173425E-2,-0E0,5.159024E-4,1.6737357E-1,1.4901553E-2,-0E0,-1.05126084E-4,-0E0,3.7245944E-4,-0E0,-2.1675187E-4,1.5295405E-4,-0E0],"split_indices":[15,15,9,0,17,11,17,0,0,0,0,17,15,0,0,0,0,0,0,0,0],"split_type":[0,0,0,0,0,0,0,0,0,0,0,0,0,0,0,0,0,0,0,0,0],"sum_hessian":[4.46E2,1.38E2,3.08E2,1.5E1,1.23E2,1.3E1,2.95E2,4.6E1,7.7E1,6E0,7E0,2.57E2,3.8E1,2.8E1,1.8E1,2.9E1,4.8E1,1.24E2,1.33E2,3.1E1,7E0],"tree_param":{"num_deleted":"0","num_feature":"20","num_nodes":"21","size_leaf_vector":"1"}},{"base_weights":[-0E0,4.4033182E-4,-4.0615774E-3,-1.1414965E-4,6.1250348E-3,-0E0,-3.245266E-4,7.736971E-4,-1.8385347E-3,-0E0,9.035121E-3,-0E0,1.0879558E-4,-1.3291746E-4,-0E0,3.08319E-4,-0E0],"categories":[],"categories_nodes":[],"categories_segments":[],"categories_sizes":[],"default_left":[0,0,0,0,0,0,0,0,0,0,0,0,0,0,0,0,0],"id":76,"left_children":[1,3,5,7,9,-1,-1,11,13,-1,15,-1,-1,-1,-1,-1,-1],