{"learner":{"attributes":{"scikit_learn":"{\"_estimator_type\": \"regressor\"}"},"feature_names":["macd_trend","macd_hist_direction","macd_momentum_decay","momentum_20","vol_ratio","price_momentum_5d","price_momentum_20d","macd_bottom_divergence","macd_top_divergence","rsi_bottom_divergence","rsi_top_divergence","volume_breakout","volume_pullback","volume_dry_up","volume_climax","rsi_extreme","boll_position","ma_bias","volatility_20","pe_rank","pb_rank","roe_level","revenue_growth","debt_level","main_inflow_5d","elg_ratio","margin_delta_5d","northbound_net_5d","turnover_extreme","holder_count_trend","insider_net_30d","trig_ma60_bias","trig_pos_in_20d","trig_dist_from_high","trig_dist_from_low","trig_vol_change","trig_break_above","trig_break_below","trig_price_trend_10d","trend_dir_ord","trend_phase_ord","trend_short_dir_ord","trend_ma_slope","trend_ret_5d","trend_ma_alignment","comp_lag1","comp_lag3","comp_lag5","comp_delta_3d","comp_delta_5d","comp_std_5d","comp_sign_changes_10d","comp_roll_max_10d","tech_rsi14","tech_macd_hist","tech_ma60_bias","tech_volatility_20","tech_momentum_20","tech_turnover_rate","tech_vol_ratio"],"feature_types":["float","float","float","float","float","float","float","float","float","float","float","float","float","float","float","float","float","float","float","float","float","float","float","float","float","float","float","float","float","float","float","float","float","float","float","float","float","float","float","float","float","float","float","float","float","float","float","float","float","float","float","float","float","float","float","float","float","float","float","float"],"gradient_booster":{"model":{"cats":{"enc":[],"feature_segments":[],"sorted_idx":[]},"gbtree_model_param":{"num_parallel_tree":"1","num_trees":"50"},"iteration_indptr":[0,1,2,3,4,5,6,7,8,9,10,11,12,13,14,15,16,17,18,19,20,21,22,23,24,25,26,27,28,29,30,31,32,33,34,35,36,37,38,39,40,41,42,43,44,45,46,47,48,49,50],"tree_info":[0,0,0,0,0,0,0,0,0,0,0,0,0,0,0,0,0,0,0,0,0,0,0,0,0,0,0,0,0,0,0,0,0,0,0,0,0,0,0,0,0,0,0,0,0,0,0,0,0,0],"trees":[{"base_weights":[-2.1935024E-3,-7.707263E-2,7.0925425E-3,-0E0,-6.5407283E-3,-4.9499944E-3,9.3359984E-2,5.1236723E-4,-7.8138395E-4,-9.503863E-4,1.0243843E-2],"categories":[],"categories_nodes":[],"categories_segments":[],"categories_sizes":[],"default_left":[0,0,0,0,0,0,0,0,0,0,0],"id":0,"left_children":[1,3,5,-1,-1,7,9,-1,-1,-1,-1],"loss_changes":[3.31599E-1,2.1565583E-1,4.3366992E-1,0E0,0E0,5.5748973E-2,7.397989E-1,0E0,0E0,0E0,0E0],"parents":[2147483647,0,0,1,1,2,2,5,5,6,6],"right_children":[2,4,6,-1,-1,8,10,-1,-1,-1,-1],"split_conditions":[-1.222E-1,-2.918743E-2,2.5338575E-2,-0E0,-6.5407283E-3,-6.452437E-3,-1.86596E-2,5.1236723E-4,-7.8138395E-4,-9.503863E-4,1.0243843E-2],"split_indices":[54,42,42,0,0,42,49,0,0,0,0],"split_type":[0,0,0,0,0,0,0,0,0,0,0],"sum_hessian":[4.23E2,5.1E1,3.72E2,2.2E1,2.9E1,3.23E2,4.9E1,1.14E2,2.09E2,2.3E1,2.6E1],"tree_param":{"num_deleted":"0","num_feature":"60","num_nodes":"11","size_leaf_vector":"1"}},{"base_weights":[-0E0,9.935456E-3,-1.0366544E-2,-8.5748374E-2,-0E0,-0E0,-6.915626E-3,-2.1015014E-4,1.9331947E-3],"categories":[],"categories_nodes":[],"categories_segments":[],"categories_sizes":[],"default_left":[0,0,0,0,0,0,0,0,0],"id":1,"left_children":[1,-1,3,5,7,-1,-1,-1,-1],"loss_changes":[9.109107E-1,0E0,3.2540536E-1,2.0627141E-1,6.3741855E-2,0E0,0E0,0E0,0E0],"parents":[2147483647,0,0,2,2,3,3,4,4],"right_children":[2,-1,4,6,8,-1,-1,-1,-1],"split_conditions":[-4.85136E-1,9.935456E-3,-1.222E-1,-6.23468E-1,7.888819E-2,-0E0,-6.915626E-3,-2.1015014E-4,1.9331947E-3],"split_indices":[15,0,54,6,50,0,0,0,0],"split_type":[0,0,0,0,0,0,0,0,0],"sum_hessian":[4.11E2,2E1,3.91E2,4.8E1,3.43E2,2E1,2.8E1,3.06E2,3.7E1],"tree_param":{"num_deleted":"0","num_feature":"60","num_nodes":"9","size_leaf_vector":"1"}},{"base_weights":[9.414978E-4,-9.465144E-3,1.0179192E-2,-7.984801E-2,3.042734E-4,-0E0,-7.731044E-3,-2.8638456E-3,2.9493126E-4],"categories":[],"categories_nodes":[],"categories_segments":[],"categories_sizes":[],"default_left":[0,0,0,0,0,0,0,0,0],"id":2,"left_children":[1,3,-1,5,7,-1,-1,-1,-1],"loss_changes":[9.887291E-1,3.1486028E-1,0E0,2.9484186E-1,8.6765476E-2,0E0,0E0,0E0,0E0],"parents":[2147483647,0,0,1,1,3,3,4,4],"right_children":[2,4,-1,6,8,-1,-1,-1,-1],"split_conditions":[2.70756E-1,-1.222E-1,1.0179192E-2,-2.1967925E-2,-5.6396E-1,-0E0,-7.731044E-3,-2.8638456E-3,2.9493126E-4],"split_indices":[45,54,0,42,17,0,0,0,0],"split_type":[0,0,0,0,0,0,0,0,0],"sum_hessian":[4.19E2,3.98E2,2.1E1,5.3E1,3.45E2,2.8E1,2.5E1,2.1E1,3.24E2],"tree_param":{"num_deleted":"0","num_feature":"60","num_nodes":"9","size_leaf_vector":"1"}},{"base_weights":[2.0895994E-3,-5.7363617E-3,7.4351504E-3,-0E0,-4.6802345E-3,-3.8661234E-4,5.6554726E-3],"categories":[],"categories_nodes":[],"categories_segments":[],"categories_sizes":[],"default_left":[0,0,0,0,0,0,0],"id":3,"left_children":[1,3,-1,5,-1,-1,-1],"loss_changes":[5.6427264E-1,1.969572E-1,0E0,3.2863328E-1,0E0,0E0,0E0],"parents":[2147483647,0,0,1,1,3,3],"right_children":[2,4,-1,6,-1,-1,-1],"split_conditions":[2.49256E-1,1.6206346E-1,7.4351504E-3,2.4804961E-2,-4.6802345E-3,-3.8661234E-4,5.6554726E-3],"split_indices":[45,31,0,42,0,0,0],"split_type":[0,0,0,0,0,0,0],"sum_hessian":[4.26E2,4.03E2,2.3E1,3.81E2,2.2E1,3.59E2,2.2E1],"tree_param":{"num_deleted":"0","num_feature":"60","num_nodes":"7","size_leaf_vector":"1"}},{"base_weights":[1.0814336E-3,-4.111377E-3,6.201303E-3,-5.980457E-2,2.9695975E-3,-6.616381E-3,-0E0,3.9629485E-3,-1.3703319E-4],"categories":[],"categories_nodes":[],"categories_segments":[],"categories_sizes":[],"default_left":[0,0,0,0,0,0,0,0,0],"id":4,"left_children":[1,3,-1,5,7,-1,-1,-1,-1],"loss_changes":[3.4507772E-1,1.9637658E-1,0E0,2.724973E-1,2.0031315E-1,0E0,0E0,0E0,0E0],"parents":[2147483647,0,0,1,1,3,3,4,4],"right_children":[2,4,-1,6,8,-1,-1,-1,-1],"split_conditions":[9.8712444E-2,-1.66667E-1,6.201303E-3,1.42333E-1,-3.05437E-1,-6.616381E-3,-0E0,3.9629485E-3,-1.3703319E-4],"split_indices":[43,20,0,17,17,0,0,0,0],"split_type":[0,0,0,0,0,0,0,0,0],"sum_hessian":[4.43E2,4.23E2,2E1,5.4E1,3.69E2,2.5E1,2.9E1,3E1,3.39E2],"tree_param":{"num_deleted":"0","num_feature":"60","num_nodes":"9","size_leaf_vector":"1"}},{"base_weights":[-8.557933E-3,-0E0,-7.3009804E-3,-1.32694E-2,5.0286436E-3,-1.1144618E-3,9.868107E-4],"categories":[],"categories_nodes":[],"categories_segments":[],"categories_sizes":[],"default_left":[0,0,0,0,0,0,0],"id":5,"left_children":[1,3,-1,5,-1,-1,-1],"loss_changes":[4.8066843E-1,5.283211E-1,0E0,1.0873479E-1,0E0,0E0,0E0],"parents":[2147483647,0,0,1,1,3,3],"right_children":[2,4,-1,6,-1,-1,-1],"split_conditions":[7.92491E-1,3.68057E-1,-7.3009804E-3,3.4364E-1,5.0286436E-3,-1.1144618E-3,9.868107E-4],"split_indices":[56,3,0,17,0,0,0],"split_type":[0,0,0,0,0,0,0],"sum_hessian":[4.22E2,4E2,2.2E1,3.56E2,4.4E1,2.92E2,6.4E1],"tree_param":{"num_deleted":"0","num_feature":"60","num_nodes":"7","size_leaf_vector":"1"}},{"base_weights":[-0E0,-5.143378E-2,1.0665084E-2,-0E0,-4.1699274E-3,-1.4270021E-4,9.261705E-2,-0E0,9.900042E-3],"categories":[],"categories_nodes":[],"categories_segments":[],"categories_sizes":[],"default_left":[0,0,0,0,0,0,0,0,0],"id":6,"left_children":[1,3,5,-1,-1,-1,7,-1,-1],"loss_changes":[2.4362254E-1,1.6493338E-1,4.3428865E-1,0E0,0E0,0E0,6.2593573E-1,0E0,0E0],"parents":[2147483647,0,0,1,1,2,2,6,6],"right_children":[2,4,6,-1,-1,-1,8,-1,-1],"split_conditions":[-7.53E-2,-6.49518E-1,3.02252E-1,-0E0,-4.1699274E-3,-1.4270021E-4,1E0,-0E0,9.900042E-3],"split_indices":[54,6,52,0,0,0,51,0,0],"split_type":[0,0,0,0,0,0,0,0,0],"sum_hessian":[4.24E2,7.5E1,3.49E2,2.4E1,5.1E1,2.96E2,5.3E1,2.7E1,2.6E1],"tree_param":{"num_deleted":"0","num_feature":"60","num_nodes":"9","size_leaf_vector":"1"}},{"base_weights":[-1.5681143E-3,-7.537337E-2,8.180493E-3,-0E0,-7.907669E-3,-8.3448256E-5,6.393358E-3,-6.1180664E-4,5.8737723E-4],"categories":[],"categories_nodes":[],"categories_segments":[],"categories_sizes":[],"default_left":[0,0,0,0,0,0,0,0,0],"id":7,"left_children":[1,3,5,-1,-1,7,-1,-1,-1],"loss_changes":[3.4205544E-1,3.071681E-1,4.328414E-1,0E0,0E0,5.0422855E-2,0E0,0E0,0E0],"parents":[2147483647,0,0,1,1,2,2,5,5],"right_children":[2,4,6,-1,-1,8,-1,-1,-1],"split_conditions":[-1.222E-1,-2.1967925E-2,8.624745E-2,-0E0,-7.907669E-3,1.45063335E-2,6.393358E-3,-6.1180664E-4,5.8737723E-4],"split_indices":[54,42,50,0,0,48,0,0,0],"split_type":[0,0,0,0,0,0,0,0,0],"sum_hessian":[4.25E2,5.4E1,3.71E2,3.1E1,2.3E1,3.45E2,2.6E1,1.91E2,1.54E2],"tree_param":{"num_deleted":"0","num_feature":"60","num_nodes":"9","size_leaf_vector":"1"}},{"base_weights":[-0E0,-6.3217E-3,5.4009072E-3,-4.6127547E-2,-0E0,-5.7026586E-3,-0E0,-2.3875594E-4,3.2912854E-3],"categories":[],"categories_nodes":[],"categories_segments":[],"categories_sizes":[],"default_left":[0,0,0,0,0,0,0,0,0],"id":8,"left_children":[1,3,-1,5,7,-1,-1,-1,-1],"loss_changes":[2.844676E-1,1.0943183E-1,0E0,1.9966584E-1,1.2000078E-1,0E0,0E0,0E0,0E0],"parents":[2147483647,0,0,1,1,3,3,4,4],"right_children":[2,4,-1,6,8,-1,-1,-1,-1],"split_conditions":[8.23045E-1,-1.66667E-1,5.4009072E-3,-5.64092E-2,8.804152E-2,-5.7026586E-3,-0E0,-2.3875594E-4,3.2912854E-3],"split_indices":[5,20,0,49,31,0,0,0,0],"split_type":[0,0,0,0,0,0,0,0,0],"sum_hessian":[4.22E2,4.01E2,2.1E1,5.7E1,3.44E2,2.3E1,3.4E1,3.2E2,2.4E1],"tree_param":{"num_deleted":"0","num_feature":"60","num_nodes":"9","size_leaf_vector":"1"}},{"base_weights":[7.116611E-4,5.821999E-3,-5.1289033E-3,-6.2229097E-2,1.7585078E-3,-0E0,-4.9778456E-3,3.9800215E-3,-9.090392E-5],"categories":[],"categories_nodes":[],"categories_segments":[],"categories_sizes":[],"default_left":[0,0,0,0,0,0,0,0,0],"id":9,"left_children":[1,-1,3,5,7,-1,-1,-1,-1],"loss_changes":[3.4952274E-1,0E0,1.9169588E-1,1.1580256E-1,1.3940762E-1,0E0,0E0,0E0,0E0],"parents":[2147483647,0,0,2,2,3,3,4,4],"right_children":[2,-1,4,6,8,-1,-1,-1,-1],"split_conditions":[-7.8793E-2,5.821999E-3,-1.217E-1,-3.022733E-2,-1.23851E-1,-0E0,-4.9778456E-3,3.9800215E-3,-9.090392E-5],"split_indices":[15,0,54,42,48,0,0,0,0],"split_type":[0,0,0,0,0,0,0,0,0],"sum_hessian":[4.31E2,2.3E1,4.08E2,5E1,3.58E2,2E1,3E1,2E1,3.38E2],"tree_param":{"num_deleted":"0","num_feature":"60","num_nodes":"9","size_leaf_vector":"1"}},{"base_weights":[-1.265219E-3,-9.391996E-3,4.7150995E-3,-1.1748442E-3,-2.9582938E-3,-4.3557116E-4,4.5118434E-3],"categories":[],"categories_nodes":[],"categories_segments":[],"categories_sizes":[],"default_left":[0,0,0,0,0,0,0],"id":10,"left_children":[1,3,-1,5,-1,-1,-1],"loss_changes":[3.0259722E-1,1.3901642E-1,0E0,2.1295841E-1,0E0,0E0,0E0],"parents":[2147483647,0,0,1,1,3,3],"right_children":[2,4,-1,6,-1,-1,-1],"split_conditions":[3.95365E-1,3.04212E-1,4.7150995E-3,2.93048E-1,-2.9582938E-3,-4.3557116E-4,4.5118434E-3],"split_indices":[52,52,0,52,0,0,0],"split_type":[0,0,0,0,0,0,0],"sum_hessian":[4.4E2,4.12E2,2.8E1,3.64E2,4.8E1,3.43E2,2.1E1],"tree_param":{"num_deleted":"0","num_feature":"60","num_nodes":"7","size_leaf_vector":"1"}},{"base_weights":[-0E0,-1.0143064E-2,2.992514E-2,-4.084672E-2,-0E0,-1.9148167E-3,5.9880964E-3,1.0258899E-4,-3.6738974E-3,1.6614652E-3,-4.4159824E-4,-3.0670098E-3,7.492466E-4],"categories":[],"categories_nodes":[],"categories_segments":[],"categories_sizes":[],"default_left":[0,0,0,0,0,0,0,0,0,0,0,0,0],"id":11,"left_children":[1,3,5,7,9,11,-1,-1,-1,-1,-1,-1,-1],"loss_changes":[1.17687345E-1,8.584677E-2,3.3112013E-1,1.3540258E-1,6.567913E-2,9.3306616E-2,0E0,0E0,0E0,0E0,0E0,0E0,0E0],"parents":[2147483647,0,0,1,1,2,2,3,3,4,4,5,5],"right_children":[2,4,6,8,10,12,-1,-1,-1,-1,-1,-1,-1],"split_conditions":[5.72271E1,-7.53E-2,3.33333E-1,-3.6010932E-2,-7.003E-2,-7.21198E-2,5.9880964E-3,1.0258899E-4,-3.6738974E-3,1.6614652E-3,-4.4159824E-4,-3.0670098E-3,7.492466E-4],"split_indices":[53,54,19,42,49,49,0,0,0,0,0,0,0],"split_type":[0,0,0,0,0,0,0,0,0,0,0,0,0],"sum_hessian":[4.08E2,3.15E2,9.3E1,6.9E1,2.46E2,6.6E1,2.7E1,2.4E1,4.5E1,4.3E1,2.03E2,2E1,4.6E1],"tree_param":{"num_deleted":"0","num_feature":"60","num_nodes":"13","size_leaf_vector":"1"}},{"base_weights":[-0E0,-1.1181403E-2,1.0108696E-1,-3.3549569E-3,-5.8286996E-3,1.0537851E-2,-0E0,-7.244891E-4,1.3516279E-3],"categories":[],"categories_nodes":[],"categories_segments":[],"categories_sizes":[],"default_left":[0,0,0,0,0,0,0,0,0],"id":12,"left_children":[1,3,5,7,-1,-1,-1,-1,-1],"loss_changes":[4.872828E-1,2.5517064E-1,5.3780854E-1,1.1733655E-1,0E0,0E0,0E0,0E0,0E0],"parents":[2147483647,0,0,1,1,2,2,3,3],"right_children":[2,4,6,8,-1,-1,-1,-1,-1],"split_conditions":[8.624745E-2,7.87127E-1,-1.37247E-1,3.81798E-1,-5.8286996E-3,1.0537851E-2,-0E0,-7.244891E-4,1.3516279E-3],"split_indices":[50,56,17,56,0,0,0,0,0],"split_type":[0,0,0,0,0,0,0,0,0],"sum_hessian":[4.22E2,3.81E2,4.1E1,3.61E2,2E1,2E1,2.1E1,2.77E2,8.4E1],"tree_param":{"num_deleted":"0","num_feature":"60","num_nodes":"9","size_leaf_vector":"1"}},{"base_weights":[-0E0,-5.841975E-3,4.0113307E-3,-3.7848682E-3,9.2655694E-4,3.8027295E-4,-2.0664448E-3],"categories":[],"categories_nodes":[],"categories_segments":[],"categories_sizes":[],"default_left":[0,0,0,0,0,0,0],"id":13,"left_children":[1,3,-1,-1,5,-1,-1],"loss_changes":[2.0639944E-1,2.2192487E-1,0E0,0E0,8.282616E-2,0E0,0E0],"parents":[2147483647,0,0,1,1,4,4],"right_children":[2,4,-1,-1,6,-1,-1],"split_conditions":[3.95365E-1,-1.222E-1,4.0113307E-3,-3.7848682E-3,6.7368E-1,3.8027295E-4,-2.0664448E-3],"split_indices":[52,54,0,0,0,0,0],"split_type":[0,0,0,0,0,0,0],"sum_hessian":[4.16E2,3.88E2,2.8E1,3.9E1,3.49E2,3.13E2,3.6E1],"tree_param":{"num_deleted":"0","num_feature":"60","num_nodes":"7","size_leaf_vector":"1"}},{"base_weights":[3.3724403E-3,-4.2812987E-3,4.817196E-3,-3.4681137E-3,2.0102696E-3,-1.0195994E-4,2.6197464E-3],"categories":[],"categories_nodes":[],"categories_segments":[],"categories_sizes":[],"default_left":[0,0,0,0,0,0,0],"id":14,"left_children":[1,3,-1,-1,5,-1,-1],"loss_changes":[3.4571964E-1,1.9159752E-1,0E0,0E0,9.59863E-2,0E0,0E0],"parents":[2147483647,0,0,1,1,4,4],"right_children":[2,4,-1,-1,6,-1,-1],"split_conditions":[8.624745E-2,-1.222E-1,4.817196E-3,-3.4681137E-3,3.02252E-1,-1.0195994E-4,2.6197464E-3],"split_indices":[50,54,0,0,52,0,0],"split_type":[0,0,0,0,0,0,0],"sum_hessian":[4.18E2,3.83E2,3.5E1,3.9E1,3.44E2,3.11E2,3.3E1],"tree_param":{"num_deleted":"0","num_feature":"60","num_nodes":"7","size_leaf_vector":"1"}},{"base_weights":[-0E0,6.1392253E-3,-6.0208524E-3,5.543692E-3,-1.3077838E-4],"categories":[],"categories_nodes":[],"categories_segments":[],"categories_sizes":[],"default_left":[0,0,0,0,0],"id":15,"left_children":[1,3,-1,-1,-1],"loss_changes":[3.3393112E-1,4.1781336E-1,0E0,0E0,0E0],"parents":[2147483647,0,0,1,1],"right_children":[2,4,-1,-1,-1],"split_conditions":[7.92491E-1,-4.26237E-1,-6.0208524E-3,5.543692E-3,-1.3077838E-4],"split_indices":[56,17,0,0,0],"split_type":[0,0,0,0,0],"sum_hessian":[4.14E2,3.94E2,2E1,3.3E1,3.61E2],"tree_param":{"num_deleted":"0","num_feature":"60","num_nodes":"5","size_leaf_vector":"1"}},{"base_weights":[-0E0,-1.158598E-2,5.0198726E-2,-5.5139907E-2,-1.2033355E-4,-1.2902159E-3,1.3019232E-1,-0E0,-5.513215E-3,-0E0,1.2417404E-2],"categories":[],"categories_nodes":[],"categories_segments":[],"categories_sizes":[],"default_left":[0,0,0,0,0,0,0,0,0,0,0],"id":16,"left_children":[1,3,5,7,-1,-1,9,-1,-1,-1,-1],"loss_changes":[2.4773924E-1,1.00894675E-1,5.5137336E-1,1.7321438E-1,0E0,0E0,6.897138E-1,0E0,0E0,0E0,0E0],"parents":[2147483647,0,0,1,1,2,2,3,3,6,6],"right_children":[2,4,6,8,-1,-1,10,-1,-1,-1,-1],"split_conditions":[3.28671E-1,-1.222E-1,7.6923E-2,-3.350458E-2,-1.2033355E-4,-1.2902159E-3,3.94375E-1,-0E0,-5.513215E-3,-0E0,1.2417404E-2],"split_indices":[6,54,20,42,0,0,56,0,0,0,0],"split_type":[0,0,0,0,0,0,0,0,0,0,0],"sum_hessian":[4.02E2,3.23E2,7.9E1,4.5E1,2.78E2,3.8E1,4.1E1,2.1E1,2.4E1,2E1,2.1E1],"tree_param":{"num_deleted":"0","num_feature":"60","num_nodes":"11","size_leaf_vector":"1"}},{"base_weights":[-0E0,-5.3010643E-3,5.285952E-3,-4.449681E-2,-0E0,-0E0,-4.5368983E-3,1.0237655E-3,-6.8893365E-4],"categories":[],"categories_nodes":[],"categories_segments":[],"categories_sizes":[],"default_left":[0,0,0,0,0,0,0,0,0],"id":17,"left_children":[1,3,-1,5,7,-1,-1,-1,-1],"loss_changes":[2.676821E-1,8.837602E-2,0E0,9.860277E-2,9.5144905E-2,0E0,0E0,0E0,0E0],"parents":[2147483647,0,0,1,1,3,3,4,4],"right_children":[2,4,-1,6,8,-1,-1,-1,-1],"split_conditions":[2.70756E-1,-1.222E-1,5.285952E-3,-3.3688E-1,-1.2326782E-1,-0E0,-4.5368983E-3,1.0237655E-3,-6.8893365E-4],"split_indices":[45,54,0,3,35,0,0,0,0],"split_type":[0,0,0,0,0,0,0,0,0],"sum_hessian":[3.97E2,3.76E2,2.1E1,4.8E1,3.28E2,2.6E1,2.2E1,1.38E2,1.9E2],"tree_param":{"num_deleted":"0","num_feature":"60","num_nodes":"9","size_leaf_vector":"1"}},{"base_weights":[-8.1613107E-4,4.570958E-3,-5.8320626E-3,-1.6532288E-4,8.017841E-2,-0E0,8.773351E-3],"categories":[],"categories_nodes":[],"categories_segments":[],"categories_sizes":[],"default_left":[0,0,0,0,0,0,0],"id":18,"left_children":[1,3,-1,-1,5,-1,-1],"loss_changes":[3.2103664E-1,2.783939E-1,0E0,0E0,3.9449343E-1,0E0,0E0],"parents":[2147483647,0,0,1,1,4,4],"right_children":[2,4,-1,-1,6,-1,-1],"split_conditions":[7.92491E-1,1.0174331E-1,-5.8320626E-3,-1.6532288E-4,-7.6923E-2,-0E0,8.773351E-3],"split_indices":[56,31,0,0,20,0,0],"split_type":[0,0,0,0,0,0,0],"sum_hessian":[4.21E2,4E2,2.1E1,3.58E2,4.2E1,2.2E1,2E1],"tree_param":{"num_deleted":"0","num_feature":"60","num_nodes":"7","size_leaf_vector":"1"}},{"base_weights":[-6.545633E-4,-8.74335E-3,3.884955E-3,-5.8436885E-2,-4.152155E-5,-0E0,-5.290175E-3],"categories":[],"categories_nodes":[],"categories_segments":[],"categories_sizes":[],"default_left":[0,0,0,0,0,0,0],"id":19,"left_children":[1,3,-1,5,-1,-1,-1],"loss_changes":[2.3497233E-1,1.2401867E-1,0E0,1.2619038E-1,0E0,0E0,0E0],"parents":[2147483647,0,0,1,1,3,3],"right_children":[2,4,-1,6,-1,-1,-1],"split_conditions":[8.624745E-2,-1.222E-1,3.884955E-3,-7.758422E-2,-4.152155E-5,-0E0,-5.290175E-3],"split_indices":[50,54,0,31,0,0,0],"split_type":[0,0,0,0,0,0,0],"sum_hessian":[4.21E2,3.89E2,3.2E1,4.3E1,3.46E2,2E1,2.3E1],"tree_param":{"num_deleted":"0","num_feature":"60","num_nodes":"7","size_leaf_vector":"1"}},{"base_weights":[-1.165321E-3,-9.4743185E-3,6.2837526E-3,-3.955221E-3,-4.0372903E-3,-1.6582272E-3,4.3635417E-5],"categories":[],"categories_nodes":[],"categories_segments":[],"categories_sizes":[],"default_left":[0,0,0,0,0,0,0],"id":20,"left_children":[1,3,-1,-1,5,-1,-1],"loss_changes":[3.9957285E-1,1.1338712E-1,0E0,0E0,7.197957E-2,0E0,0E0],"parents":[2147483647,0,0,1,1,4,4],"right_children":[2,4,-1,-1,6,-1,-1],"split_conditions":[9.58415E-1,-6.37897E-1,6.2837526E-3,-3.955221E-3,-7.53E-2,-1.6582272E-3,4.3635417E-5],"split_indices":[5,17,0,0,54,0,0],"split_type":[0,0,0,0,0,0,0],"sum_hessian":[4.3E2,4.09E2,2.1E1,2.1E1,3.88E2,6.9E1,3.19E2],"tree_param":{"num_deleted":"0","num_feature":"60","num_nodes":"7","size_leaf_vector":"1"}},{"base_weights":[-8.377078E-4,-1.4864723E-2,1.3514468E-2,-0E0,-2.4239337E-3,-1.6853993E-4,8.017543E-3],"categories":[],"categories_nodes":[],"categories_segments":[],"categories_sizes":[],"default_left":[0,0,0,0,0,0,0],"id":21,"left_children":[1,3,5,-1,-1,-1,-1],"loss_changes":[8.643582E-2,1.2242979E-1,5.5808973E-1,0E0,0E0,0E0,0E0],"parents":[2147483647,0,0,1,1,2,2],"right_children":[2,4,6,-1,-1,-1,-1],"split_conditions":[3.33333E-1,4.380702E-2,4.871301E-2,-0E0,-2.4239337E-3,-1.6853993E-4,8.017543E-3],"split_indices":[19,31,31,0,0,0,0],"split_type":[0,0,0,0,0,0,0],"sum_hessian":[4.22E2,2.31E2,1.91E2,1.59E2,7.2E1,1.7E2,2.1E1],"tree_param":{"num_deleted":"0","num_feature":"60","num_nodes":"7","size_leaf_vector":"1"}},{"base_weights":[-4.78435E-4,-9.344926E-3,6.7008245E-3,-3.3434744E-3,-3.8349323E-3,-6.532117E-4,1.8020641E-3],"categories":[],"categories_nodes":[],"categories_segments":[],"categories_sizes":[],"default_left":[0,0,0,0,0,0,0],"id":22,"left_children":[1,3,-1,5,-1,-1,-1],"loss_changes":[4.2909315E-1,1.1711189E-1,0E0,1.2995905E-1,0E0,0E0,0E0],"parents":[2147483647,0,0,1,1,3,3],"right_children":[2,4,-1,6,-1,-1,-1],"split_conditions":[1.1776447E-1,6.95028E-1,6.7008245E-3,4.54954E-1,-3.8349323E-3,-6.532117E-4,1.8020641E-3],"split_indices":[43,56,0,56,0,0,0],"split_type":[0,0,0,0,0,0,0],"sum_hessian":[4.08E2,3.88E2,2E1,3.65E2,2.3E1,3.04E2,6.1E1],"tree_param":{"num_deleted":"0","num_feature":"60","num_nodes":"7","size_leaf_vector":"1"}},{"base_weights":[-2.7731378E-3,-7.611885E-3,3.0571641E-3,-3.2645885E-3,-2.9896537E-3,-4.4247677E-4,3.426248E-3],"categories":[],"categories_nodes":[],"categories_segments":[],"categories_sizes":[],"default_left":[0,0,0,0,0,0,0],"id":23,"left_children":[1,3,-1,-1,5,-1,-1],"loss_changes":[1.0622574E-1,7.371245E-2,0E0,0E0,1.3313504E-1,0E0,0E0],"parents":[2147483647,0,0,1,1,4,4],"right_children":[2,4,-1,-1,6,-1,-1],"split_conditions":[8.55072E-1,-6.37897E-1,3.0571641E-3,-3.2645885E-3,3.5257652E-2,-4.4247677E-4,3.426248E-3],"split_indices":[5,17,0,0,42,0,0],"split_type":[0,0,0,0,0,0,0],"sum_hessian":[4.25E2,4.04E2,2.1E1,2E1,3.84E2,3.63E2,2.1E1],"tree_param":{"num_deleted":"0","num_feature":"60","num_nodes":"7","size_leaf_vector":"1"}},{"base_weights":[-0E0,-4.479058E-3,3.5127066E-3,-0E0,-3.0425077E-3,-2.9147245E-4,1.5651518E-3],"categories":[],"categories_nodes":[],"categories_segments":[],"categories_sizes":[],"default_left":[0,0,0,0,0,0,0],"id":24,"left_children":[1,3,-1,5,-1,-1,-1],"loss_changes":[1.1648857E-1,8.4664114E-2,0E0,6.186214E-2,0E0,0E0,0E0],"parents":[2147483647,0,0,1,1,3,3],"right_children":[2,4,-1,6,-1,-1,-1],"split_conditions":[1.08589955E-1,6.84789E-1,3.5127066E-3,2.9932E-1,-3.0425077E-3,-2.9147245E-4,1.5651518E-3],"split_indices":[43,56,0,6,0,0,0],"split_type":[0,0,0,0,0,0,0],"sum_hessian":[4.12E2,3.92E2,2E1,3.69E2,2.3E1,3.19E2,5E1],"tree_param":{"num_deleted":"0","num_feature":"60","num_nodes":"7","size_leaf_vector":"1"}},{"base_weights":[9.4033446E-4,7.3147626E-3,-4.565528E-3,7.996673E-2,-1.8295132E-4,-5.036374E-4,1.0072281E-2],"categories":[],"categories_nodes":[],"categories_segments":[],"categories_sizes":[],"default_left":[0,0,0,0,0,0,0],"id":25,"left_children":[1,3,-1,5,-1,-1,-1],"loss_changes":[2.133741E-1,3.6641595E-1,0E0,7.560183E-1,0E0,0E0,0E0],"parents":[2147483647,0,0,1,1,3,3],"right_children":[2,4,-1,6,-1,-1,-1],"split_conditions":[7.87127E-1,-2.79723E-1,-4.565528E-3,3.02252E-1,-1.8295132E-4,-5.036374E-4,1.0072281E-2],"split_indices":[56,17,0,52,0,0,0],"split_type":[0,0,0,0,0,0,0],"sum_hessian":[4.3E2,4.09E2,2.1E1,5.8E1,3.51E2,3.2E1,2.6E1],"tree_param":{"num_deleted":"0","num_feature":"60","num_nodes":"7","size_leaf_vector":"1"}},{"base_weights":[3.3602153E-4,6.769004E-3,-4.711149E-3,9.0944834E-2,-2.2938653E-4,-9.4011595E-4,1.0826929E-2],"categories":[],"categories_nodes":[],"categories_segments":[],"categories_sizes":[],"default_left":[0,0,0,0,0,0,0],"id":26,"left_children":[1,3,-1,5,-1,-1,-1],"loss_changes":[2.136414E-1,4.27354E-1,0E0,8.3753943E-1,0E0,0E0,0E0],"parents":[2147483647,0,0,1,1,3,3],"right_children":[2,4,-1,6,-1,-1,-1],"split_conditions":[7.87127E-1,-2.72427E-1,-4.711149E-3,3.02252E-1,-2.2938653E-4,-9.4011595E-4,1.0826929E-2],"split_indices":[56,17,0,52,0,0,0],"split_type":[0,0,0,0,0,0,0],"sum_hessian":[4.19E2,3.99E2,2E1,5.1E1,3.48E2,2.6E1,2.5E1],"tree_param":{"num_deleted":"0","num_feature":"60","num_nodes":"7","size_leaf_vector":"1"}},{"base_weights":[-0E0,-6.4183087E-3,2.8261509E-2,8.907388E-5,-3.6739975E-2,-5.281488E-4,4.3708347E-3,-3.0390334E-3,-0E0],"categories":[],"categories_nodes":[],"categories_segments":[],"categories_sizes":[],"default_left":[0,0,0,0,0,0,0,0,0],"id":27,"left_children":[1,3,5,-1,7,-1,-1,-1,-1],"loss_changes":[8.239113E-2,1.0512833E-1,2.3549052E-1,0E0,6.2235504E-2,0E0,0E0,0E0,0E0],"parents":[2147483647,0,0,1,1,2,2,4,4],"right_children":[2,4,6,-1,8,-1,-1,-1,-1],"split_conditions":[6.749535E-2,2.016129E-2,7.569077E-3,8.907388E-5,8.494624E-1,-5.281488E-4,4.3708347E-3,-3.0390334E-3,-0E0],"split_indices":[50,31,42,0,32,0,0,0,0],"split_type":[0,0,0,0,0,0,0,0,0],"sum_hessian":[4.33E2,3.5E2,8.3E1,2.64E2,8.6E1,4.6E1,3.7E1,4.7E1,3.9E1],"tree_param":{"num_deleted":"0","num_feature":"60","num_nodes":"9","size_leaf_vector":"1"}},{"base_weights":[-0E0,-4.840649E-2,6.5473695E-3,-0E0,-4.352633E-3,-1.0742693E-4,6.6451296E-2,-2.2420709E-4,8.454758E-3],"categories":[],"categories_nodes":[],"categories_segments":[],"categories_sizes":[],"default_left":[0,0,0,0,0,0,0,0,0],"id":28,"left_children":[1,3,5,-1,-1,-1,7,-1,-1],"loss_changes":[1.2824848E-1,9.97156E-2,2.2413515E-1,0E0,0E0,0E0,4.7700068E-1,0E0,0E0],"parents":[2147483647,0,0,1,1,2,2,6,6],"right_children":[2,4,6,-1,-1,-1,8,-1,-1],"split_conditions":[-1.242E-1,-7.8798E-1,8.172789E-2,-0E0,-4.352633E-3,-1.0742693E-4,1.66667E-1,-2.2420709E-4,8.454758E-3],"split_indices":[54,6,31,0,0,0,19,0,0],"split_type":[0,0,0,0,0,0,0,0,0],"sum_hessian":[4.12E2,4.6E1,3.66E2,2E1,2.6E1,3.14E2,5.2E1,2.9E1,2.3E1],"tree_param":{"num_deleted":"0","num_feature":"60","num_nodes":"9","size_leaf_vector":"1"}},{"base_weights":[2.2057074E-3,7.9844985E-3,-3.637146E-3,7.785512E-5,4.7128946E-3],"categories":[],"categories_nodes":[],"categories_segments":[],"categories_sizes":[],"default_left":[0,0,0,0,0],"id":29,"left_children":[1,3,-1,-1,-1],"loss_changes":[1.5632011E-1,1.7914939E-1,0E0,0E0,0E0],"parents":[2147483647,0,0,1,1],"right_children":[2,4,-1,-1,-1],"split_conditions":[7.87127E-1,5.78843E-1,-3.637146E-3,7.785512E-5,4.7128946E-3],"split_indices":[56,3,0,0,0],"split_type":[0,0,0,0,0],"sum_hessian":[4.31E2,4.08E2,2.3E1,3.87E2,2.1E1],"tree_param":{"num_deleted":"0","num_feature":"60","num_nodes":"5","size_leaf_vector":"1"}},{"base_weights":[1.3665748E-3,-4.7602883E-4,3.1716675E-2,5.3522945E-3,-0E0],"categories":[],"categories_nodes":[],"categories_segments":[],"categories_sizes":[],"default_left":[0,0,0,0,0],"id":30,"left_children":[1,-1,3,-1,-1],"loss_changes":[1.5114179E-1,0E0,3.221566E-1,0E0,0E0],"parents":[2147483647,0,0,2,2],"right_children":[2,-1,4,-1,-1],"split_conditions":[5.38462E-1,-4.7602883E-4,0E0,5.3522945E-3,-0E0],"split_indices":[19,0,18,0,0],"split_type":[0,0,0,0,0],"sum_hessian":[4.2E2,2.98E2,1.22E2,3.7E1,8.5E1],"tree_param":{"num_deleted":"0","num_feature":"60","num_nodes":"5","size_leaf_vector":"1"}},{"base_weights":[-0E0,-5.3925687E-3,4.3694847E-3,-2.2601364E-2,4.771598E-3,-4.0118243E-6,-3.309922E-3,-0E0,2.8130047E-3],"categories":[],"categories_nodes":[],"categories_segments":[],"categories_sizes":[],"default_left":[0,0,0,0,0,0,0,0,0],"id":31,"left_children":[1,3,-1,5,7,-1,-1,-1,-1],"loss_changes":[1.7979039E-1,7.997037E-2,0E0,1.3278358E-1,8.320672E-2,0E0,0E0,0E0,0E0],"parents":[2147483647,0,0,1,1,3,3,4,4],"right_children":[2,4,-1,6,8,-1,-1,-1,-1],"split_conditions":[1.1562132E-1,9.0909E-2,4.3694847E-3,2.6104089E-2,2.4804961E-2,-4.0118243E-6,-3.309922E-3,-0E0,2.8130047E-3],"split_indices":[50,19,0,31,42,0,0,0,0],"split_type":[0,0,0,0,0,0,0,0,0],"sum_hessian":[4.23E2,4.03E2,2E1,1.67E2,2.36E2,1.19E2,4.8E1,2.1E2,2.6E1],"tree_param":{"num_deleted":"0","num_feature":"60","num_nodes":"9","size_leaf_vector":"1"}},{"base_weights":[-5.505468E-3,-3.7209813E-2,-0E0,-4.895022E-3,-0E0,2.5606869E-2,-3.8834987E-4,-4.928825E-4,3.040535E-3],"categories":[],"categories_nodes":[],"categories_segments":[],"categories_sizes":[],"default_left":[0,0,0,0,0,0,0,0,0],"id":32,"left_children":[1,3,5,-1,-1,7,-1,-1,-1],"loss_changes":[6.6493325E-2,1.606919E-1,6.8571925E-2,0E0,0E0,1.2530589E-1,0E0,0E0,0E0],"parents":[2147483647,0,0,1,1,2,2,5,5],"right_children":[2,4,6,-1,-1,8,-1,-1,-1],"split_conditions":[-1.66667E-1,-6.85208E-2,2.72727E-1,-4.895022E-3,-0E0,1.51715E-1,-3.8834987E-4,-4.928825E-4,3.040535E-3],"split_indices":[20,49,20,0,0,52,0,0,0],"split_type":[0,0,0,0,0,0,0,0,0],"sum_hessian":[4.08E2,5.5E1,3.53E2,2.3E1,3.2E1,7.7E1,2.76E2,3.2E1,4.5E1],"tree_param":{"num_deleted":"0","num_feature":"60","num_nodes":"9","size_leaf_vector":"1"}},{"base_weights":[-0E0,4.8916016E-2,-7.5755673E-3,-0E0,4.915193E-3,-2.56895E-2,1.7059462E-4,-2.1082254E-3,-0E0],"categories":[],"categories_nodes":[],"categories_segments":[],"categories_sizes":[],"default_left":[0,0,0,0,0,0,0,0,0],"id":33,"left_children":[1,3,5,-1,-1,7,-1,-1,-1],"loss_changes":[1.4594534E-1,8.817591E-2,8.5948884E-2,0E0,0E0,6.751892E-2,0E0,0E0,0E0],"parents":[2147483647,0,0,1,1,2,2,5,5],"right_children":[2,4,6,-1,-1,8,-1,-1,-1],"split_conditions":[6.818E-1,1.2946937E-2,9.0909E-2,-0E0,4.915193E-3,2.08986E-2,1.7059462E-4,-2.1082254E-3,-0E0],"split_indices":[59,31,19,0,0,49,0,0,0],"split_type":[0,0,0,0,0,0,0,0,0],"sum_hessian":[4.23E2,5E1,3.73E2,3E1,2E1,1.57E2,2.16E2,9.5E1,6.2E1],"tree_param":{"num_deleted":"0","num_feature":"60","num_nodes":"9","size_leaf_vector":"1"}},{"base_weights":[3.164433E-3,-2.0479197E-3,4.7403793E-3,1.8892448E-3,-2.6081067E-3,-5.7823323E-5,1.8361807E-3],"categories":[],"categories_nodes":[],"categories_segments":[],"categories_sizes":[],"default_left":[0,0,0,0,0,0,0],"id":34,"left_children":[1,3,-1,5,-1,-1,-1],"loss_changes":[2.4022709E-1,1.00310534E-1,0E0,5.4471437E-2,0E0,0E0,0E0],"parents":[2147483647,0,0,1,1,3,3],"right_children":[2,4,-1,6,-1,-1,-1],"split_conditions":[3.95365E-1,1.41E-1,4.7403793E-3,3.02252E-1,-2.6081067E-3,-5.7823323E-5,1.8361807E-3],"split_indices":[52,54,0,52,0,0,0],"split_type":[0,0,0,0,0,0,0],"sum_hessian":[4.03E2,3.78E2,2.5E1,3.43E2,3.5E1,3.04E2,3.9E1],"tree_param":{"num_deleted":"0","num_feature":"60","num_nodes":"7","size_leaf_vector":"1"}},{"base_weights":[-0E0,-3.6565673E-3,3.1255183E-3,1.3292085E-3,-2.8195994E-3,-9.898561E-5,3.4050462E-3],"categories":[],"categories_nodes":[],"categories_segments":[],"categories_sizes":[],"default_left":[0,0,0,0,0,0,0],"id":35,"left_children":[1,3,-1,5,-1,-1,-1],"loss_changes":[1.1081182E-1,1.3206331E-1,0E0,1.11985706E-1,0E0,0E0,0E0],"parents":[2147483647,0,0,1,1,3,3],"right_children":[2,4,-1,6,-1,-1,-1],"split_conditions":[4.37224E-1,3.04212E-1,3.1255183E-3,2.8561E-1,-2.8195994E-3,-9.898561E-5,3.4050462E-3],"split_indices":[52,52,0,52,0,0,0],"split_type":[0,0,0,0,0,0,0],"sum_hessian":[4.2E2,3.95E2,2.5E1,3.54E2,4.1E1,3.32E2,2.2E1],"tree_param":{"num_deleted":"0","num_feature":"60","num_nodes":"7","size_leaf_vector":"1"}},{"base_weights":[-2.3535339E-3,-4.149007E-2,3.1327517E-3,-3.8673838E-3,-0E0,-2.5473539E-5,2.5967048E-3],"categories":[],"categories_nodes":[],"categories_segments":[],"categories_sizes":[],"default_left":[0,0,0,0,0,0,0],"id":36,"left_children":[1,3,5,-1,-1,-1,-1],"loss_changes":[1.07900865E-1,9.069947E-2,8.8331595E-2,0E0,0E0,0E0,0E0],"parents":[2147483647,0,0,1,1,2,2],"right_children":[2,4,6,-1,-1,-1,-1],"split_conditions":[-1.66667E-1,-1.45777E-1,2.344616E-2,-3.8673838E-3,-0E0,-2.5473539E-5,2.5967048E-3],"split_indices":[20,17,42,0,0,0,0],"split_type":[0,0,0,0,0,0,0],"sum_hessian":[4.1E2,6E1,3.5E2,3.1E1,2.9E1,3.18E2,3.2E1],"tree_param":{"num_deleted":"0","num_feature":"60","num_nodes":"7","size_leaf_vector":"1"}},{"base_weights":[-5.990931E-4,-4.91426E-3,2.7985128E-3,-0E0,-3.2372288E-3],"categories":[],"categories_nodes":[],"categories_segments":[],"categories_sizes":[],"default_left":[0,0,0,0,0],"id":37,"left_children":[1,3,-1,-1,-1],"loss_changes":[7.852313E-2,9.0848066E-2,0E0,0E0,0E0],"parents":[2147483647,0,0,1,1],"right_children":[2,4,-1,-1,-1],"split_conditions":[2.78151E-1,6.97652E-1,2.7985128E-3,-0E0,-3.2372288E-3],"split_indices":[45,56,0,0,0],"split_type":[0,0,0,0,0],"sum_hessian":[4.22E2,4.02E2,2E1,3.8E2,2.2E1],"tree_param":{"num_deleted":"0","num_feature":"60","num_nodes":"5","size_leaf_vector":"1"}},{"base_weights":[-2.7617384E-3,-6.787569E-3,2.5626419E-3,9.349612E-5,-1.1261995E-3],"categories":[],"categories_nodes":[],"categories_segments":[],"categories_sizes":[],"default_left":[0,0,0,0,0],"id":38,"left_children":[1,3,-1,-1,-1],"loss_changes":[7.370778E-2,6.7358725E-2,0E0,0E0,0E0],"parents":[2147483647,0,0,1,1],"right_children":[2,4,-1,-1,-1],"split_conditions":[2.66183E-1,4.4321E-2,2.5626419E-3,9.349612E-5,-1.1261995E-3],"split_indices":[45,6,0,0,0],"split_type":[0,0,0,0,0],"sum_hessian":[4.36E2,4.16E2,2E1,2.49E2,1.67E2],"tree_param":{"num_deleted":"0","num_feature":"60","num_nodes":"5","size_leaf_vector":"1"}},{"base_weights":[-6.489831E-4,-2.6504828E-2,2.0803523E-4,-2.6793864E-3,-0E0],"categories":[],"categories_nodes":[],"categories_segments":[],"categories_sizes":[],"default_left":[0,0,0,0,0],"id":39,"left_children":[1,3,-1,-1,-1],"loss_changes":[6.0887314E-2,6.2239468E-2,0E0,0E0,0E0],"parents":[2147483647,0,0,1,1],"right_children":[2,4,-1,-1,-1],"split_conditions":[-7.53E-2,3.33333E-1,2.0803523E-4,-2.6793864E-3,-0E0],"split_indices":[54,19,0,0,0],"split_type":[0,0,0,0,0],"sum_hessian":[3.96E2,7.7E1,3.19E2,3.9E1,3.8E1],"tree_param":{"num_deleted":"0","num_feature":"60","num_nodes":"5","size_leaf_vector":"1"}},{"base_weights":[-0E0,3.3775512E-3,-4.352593E-3,-2.6508523E-4,-2.5916016E-3,-1.3795854E-3,2.551679E-4],"categories":[],"categories_nodes":[],"categories_segments":[],"categories_sizes":[],"default_left":[0,0,0,0,0,0,0],"id":40,"left_children":[1,-1,3,5,-1,-1,-1],"loss_changes":[1.07967116E-1,0E0,5.155299E-2,6.727233E-2,0E0,0E0,0E0],"parents":[2147483647,0,0,2,2,3,3],"right_children":[2,-1,4,6,-1,-1,-1],"split_conditions":[-4.85136E-1,3.3775512E-3,6.11303E-1,-6.83E-2,-2.5916016E-3,-1.3795854E-3,2.551679E-4],"split_indices":[15,0,3,54,0,0,0],"split_type":[0,0,0,0,0,0,0],"sum_hessian":[4.18E2,2E1,3.98E2,3.78E2,2E1,7.6E1,3.02E2],"tree_param":{"num_deleted":"0","num_feature":"60","num_nodes":"7","size_leaf_vector":"1"}},{"base_weights":[-2.2645385E-3,1.8292167E-3,-4.471634E-3,-1.3960729E-4,4.877601E-3],"categories":[],"categories_nodes":[],"categories_segments":[],"categories_sizes":[],"default_left":[0,0,0,0,0],"id":41,"left_children":[1,3,-1,-1,-1],"loss_changes":[1.9114909E-1,2.2044891E-1,0E0,0E0,0E0],"parents":[2147483647,0,0,1,1],"right_children":[2,4,-1,-1,-1],"split_conditions":[7.92491E-1,1.72748E-1,-4.471634E-3,-1.3960729E-4,4.877601E-3],"split_indices":[56,55,0,0,0],"split_type":[0,0,0,0,0],"sum_hessian":[4.1E2,3.88E2,2.2E1,3.67E2,2.1E1],"tree_param":{"num_deleted":"0","num_feature":"60","num_nodes":"5","size_leaf_vector":"1"}},{"base_weights":[1.1414812E-3,-7.503459E-5,3.4366094E-3],"categories":[],"categories_nodes":[],"categories_segments":[],"categories_sizes":[],"default_left":[0,0,0],"id":42,"left_children":[1,-1,-1],"loss_changes":[1.090069E-1,0E0,0E0],"parents":[2147483647,0,0],"right_children":[2,-1,-1],"split_conditions":[9.58415E-1,-7.503459E-5,3.4366094E-3],"split_indices":[5,0,0],"split_type":[0,0,0],"sum_hessian":[4.19E2,3.98E2,2.1E1],"tree_param":{"num_deleted":"0","num_feature":"60","num_nodes":"3","size_leaf_vector":"1"}},{"base_weights":[-4.3970537E-3,-0E0,-4.156926E-3,-1.0857969E-2,4.107117E-2,-3.0849185E-3,-2.2059663E-4,-0E0,3.7338566E-3],"categories":[],"categories_nodes":[],"categories_segments":[],"categories_sizes":[],"default_left":[0,0,0,0,0,0,0,0,0],"id":43,"left_children":[1,3,-1,5,7,-1,-1,-1,-1],"loss_changes":[1.5784538E-1,1.8161592E-1,0E0,6.799334E-2,8.915198E-2,0E0,0E0,0E0,0E0],"parents":[2147483647,0,0,1,1,3,3,4,4],"right_children":[2,4,-1,6,8,-1,-1,-1,-1],"split_conditions":[7.92491E-1,4.54954E-1,-4.156926E-3,-1.48291E-1,-6.366E-2,-3.0849185E-3,-2.2059663E-4,-0E0,3.7338566E-3],"split_indices":[56,56,0,45,57,0,0,0,0],"split_type":[0,0,0,0,0,0,0,0,0],"sum_hessian":[4.14E2,3.92E2,2.2E1,3.08E2,8.4E1,2.4E1,2.84E2,4.4E1,4E1],"tree_param":{"num_deleted":"0","num_feature":"60","num_nodes":"9","size_leaf_vector":"1"}},{"base_weights":[-4.9035577E-3,-0E0,-3.3403772E-3,-5.5452557E-3,2.1460857E-3,9.242546E-4,-6.285072E-4],"categories":[],"categories_nodes":[],"categories_segments":[],"categories_sizes":[],"default_left":[0,0,0,0,0,0,0],"id":44,"left_children":[1,3,-1,5,-1,-1,-1],"loss_changes":[1.156175E-1,8.549617E-2,0E0,5.2201837E-2,0E0,0E0,0E0],"parents":[2147483647,0,0,1,1,3,3],"right_children":[2,4,-1,6,-1,-1,-1],"split_conditions":[6.93E-1,2.344616E-2,-3.3403772E-3,-1.03432E-1,2.1460857E-3,9.242546E-4,-6.285072E-4],"split_indices":[3,42,0,55,0,0,0],"split_type":[0,0,0,0,0,0,0],"sum_hessian":[3.87E2,3.61E2,2.6E1,3.22E2,3.9E1,5.6E1,2.66E2],"tree_param":{"num_deleted":"0","num_feature":"60","num_nodes":"7","size_leaf_vector":"1"}},{"base_weights":[4.0917972E-4,-6.763519E-3,2.4313606E-2,-1.8664548E-3,4.770979E-5,-0E0,7.00362E-3],"categories":[],"categories_nodes":[],"categories_segments":[],"categories_sizes":[],"default_left":[0,0,0,0,0,0,0],"id":45,"left_children":[1,3,5,-1,-1,-1,-1],"loss_changes":[8.07739E-2,9.0678886E-2,3.6484593E-1,0E0,0E0,0E0,0E0],"parents":[2147483647,0,0,1,1,2,2],"right_children":[2,4,6,-1,-1,-1,-1],"split_conditions":[5.38462E-1,-1.44193E-1,6.373029E-2,-1.8664548E-3,4.770979E-5,-0E0,7.00362E-3],"split_indices":[19,17,50,0,0,0,0],"split_type":[0,0,0,0,0,0,0],"sum_hessian":[4.16E2,3.05E2,1.11E2,7.3E1,2.32E2,9.1E1,2E1],"tree_param":{"num_deleted":"0","num_feature":"60","num_nodes":"7","size_leaf_vector":"1"}},{"base_weights":[-7.531998E-3,2.2053548E-4,-8.0319773E-4],"categories":[],"categories_nodes":[],"categories_segments":[],"categories_sizes":[],"default_left":[0,0,0],"id":46,"left_children":[1,-1,-1],"loss_changes":[5.0190616E-2,0E0,0E0],"parents":[2147483647,0,0],"right_children":[2,-1,-1],"split_conditions":[-6.452437E-3,2.2053548E-4,-8.0319773E-4],"split_indices":[42,0,0],"split_type":[0,0,0],"sum_hessian":[4.32E2,1.56E2,2.76E2],"tree_param":{"num_deleted":"0","num_feature":"60","num_nodes":"3","size_leaf_vector":"1"}},{"base_weights":[-3.2069525E-4,-3.0951472E-2,4.0301536E-3,-3.9846646E-3,-0E0,-1.4589452E-6,4.3581054E-2,-0E0,4.3556355E-3],"categories":[],"categories_nodes":[],"categories_segments":[],"categories_sizes":[],"default_left":[0,0,0,0,0,0,0,0,0],"id":47,"left_children":[1,3,5,-1,-1,-1,7,-1,-1],"loss_changes":[7.208235E-2,1.24429025E-1,8.1342615E-2,0E0,0E0,0E0,1.0993604E-1,0E0,0E0],"parents":[2147483647,0,0,1,1,2,2,6,6],"right_children":[2,4,6,-1,-1,-1,8,-1,-1],"split_conditions":[-1.66667E-1,-6.85208E-2,8.804152E-2,-3.9846646E-3,-0E0,-1.4589452E-6,5.7639E-2,-0E0,4.3556355E-3],"split_indices":[20,49,31,0,0,0,47,0,0],"split_type":[0,0,0,0,0,0,0,0,0],"sum_hessian":[4.36E2,6.7E1,3.69E2,2.8E1,3.9E1,3.25E2,4.4E1,2E1,2.4E1],"tree_param":{"num_deleted":"0","num_feature":"60","num_nodes":"9","size_leaf_vector":"1"}},{"base_weights":[-0E0,-1.7093623E-2,1.6015772E-2,-2.5708762E-3,-0E0,-1.1114077E-4,9.905913E-3],"categories":[],"categories_nodes":[],"categories_segments":[],"categories_sizes":[],"default_left":[0,0,0,0,0,0,0],"id":48,"left_children":[1,3,5,-1,-1,-1,-1],"loss_changes":[1.12746075E-1,1.1927801E-1,8.0958503E-1,0E0,0E0,0E0,0E0],"parents":[2147483647,0,0,1,1,2,2],"right_children":[2,4,6,-1,-1,-1,-1],"split_conditions":[2.30769E-1,-1.44193E-1,7.49204E-2,-2.5708762E-3,-0E0,-1.1114077E-4,9.905913E-3],"split_indices":[19,17,31,0,0,0,0],"split_type":[0,0,0,0,0,0,0],"sum_hessian":[4.08E2,1.96E2,2.12E2,6.5E1,1.31E2,1.92E2,2E1],"tree_param":{"num_deleted":"0","num_feature":"60","num_nodes":"7","size_leaf_vector":"1"}},{"base_weights":[-2.756785E-4,-2.5662658E-4,3.385715E-2,5.331989E-3,-9.638068E-4],"categories":[],"categories_nodes":[],"categories_segments":[],"categories_sizes":[],"default_left":[0,0,0,0,0],"id":49,"left_children":[1,-1,3,-1,-1],"loss_changes":[5.859605E-2,0E0,2.1021461E-1,0E0,0E0],"parents":[2147483647,0,0,2,2],"right_children":[2,-1,4,-1,-1],"split_conditions":[8.624745E-2,-2.5662658E-4,-3.226E-3,5.331989E-3,-9.638068E-4],"split_indices":[50,0,15,0,0],"split_type":[0,0,0,0,0],"sum_hessian":[4.36E2,3.96E2,4E1,2E1,2E1],"tree_param":{"num_deleted":"0","num_feature":"60","num_nodes":"5","size_leaf_vector":"1"}}]},"name":"gbtree"},"learner_model_param":{"base_score":"[4.427883E-3]","boost_from_average":"1","num_class":"0","num_feature":"60","num_target":"1"},"objective":{"name":"reg:squarederror","reg_loss_param":{"scale_pos_weight":"1"}}},"version":[3,2,0]}